<?xml version="1.0"?>
<opencv_storage>
<opencv_ml_ann_mlp>
  <format>3</format>
  <layer_sizes>
    2500 10 10 10 10</layer_sizes>
  <activation_function>SIGMOID_SYM</activation_function>
  <f_param1>1.</f_param1>
  <f_param2>1.</f_param2>
  <min_val>-9.4999999999999996e-01</min_val>
  <max_val>9.4999999999999996e-01</max_val>
  <min_val1>-9.7999999999999998e-01</min_val1>
  <max_val1>9.7999999999999998e-01</max_val1>
  <training_params>
    <train_method>BACKPROP</train_method>
    <dw_scale>1.0000000000000000e-03</dw_scale>
    <moment_scale>1.0000000000000001e-01</moment_scale>
    <term_criteria>
      <epsilon>1.0000000000000000e-04</epsilon>
      <iterations>10000</iterations></term_criteria></training_params>
  <input_scale>
    4.6539975761034276e+00 -1.1865435550197699e+03 1. -255.
    2.6508591204643852e+00 -6.7573978199702788e+02
    1.0931994817201124e+01 -2.7875664252654665e+03
    1.0931994817201124e+01 -2.7875664252654665e+03
    1.0931994817201124e+01 -2.7875664252654665e+03
    1.5513325252455681e+00 -3.9536396705103351e+02
    8.2903121143453049e+00 -2.1139071583884315e+03
    1.5710789068772792e+00 -3.9999204937350885e+02
    2.9296679850524741e+00 -7.4688609489815622e+02
    7.8163353132799629e-01 -1.9848214844886698e+02
    1.9411888475825527e+00 -4.9439704653557158e+02
    2.1657386729611359e+00 -5.5161912288591770e+02
    1.6666188632720440e+00 -4.2449555983720228e+02
    8.3143437378318452e-01 -2.1141762370825623e+02
    1.9468622927996715e+00 -4.9587075474137458e+02
    1.9502375053252272e+00 -4.9682506169415996e+02
    1.1222369613137244e+00 -2.8562824736255067e+02
    1.1865881243786864e+00 -3.0174385265845854e+02
    1.4369377344493262e+00 -3.6591892244030782e+02
    1.6098533872466438e+00 -4.0941560395025562e+02
    8.8561627674702215e-01 -2.2528844943856367e+02
    1.6924578217341928e+00 -4.3121611534391712e+02
    1.2449695961278266e+00 -3.1689203954096712e+02
    4.5610671267813414e+00 -1.1628411772215570e+03
    1.6739922406670733e+00 -4.2665259198892079e+02
    3.7810056958895588e+00 -9.6399691634652572e+02
    4.4738886090756980e+00 -1.1406056307252168e+03
    3.4091016310026245e+00 -8.6914830316485904e+02
    1.4926265299919392e+00 -3.8032690804395872e+02 1. -255.
    4.1070144346351096e+00 -1.0470287432095076e+03 1. -255. 1. -255. 1.
    -255. 6.3048863876144567e+00 -1.6076662201532356e+03
    9.2908141194181426e-01 -2.3668250964849372e+02
    2.1794543196237559e+01 -5.5575625349916400e+03
    1.4382071493554927e+00 -3.6649705350949495e+02
    1.2609772775228913e+01 -3.2154122489949223e+03
    1.2609772775228913e+01 -3.2154122489949223e+03
    1.6102341988944926e+00 -4.1038551089293310e+02
    1.2609772775228913e+01 -3.2154122489949223e+03
    2.1622431613157955e+00 -5.5111655124727110e+02
    5.4438041273281113e-01 -1.3789132884884438e+02
    1.7457527420250061e+00 -4.4492018669798904e+02
    4.1208963414092409e-01 -1.0400916324989336e+02
    7.6986610094006180e-01 -1.9596178230088677e+02
    8.6046814944212499e-02 -2.1880579533451098e+01
    8.5053039219981100e-02 -2.1472483104004766e+01
    8.5400225128444959e-02 -2.1712016308024840e+01
    8.6068294283187907e-02 -2.1834836260661067e+01
    8.4935702221787340e-02 -2.1499125638333428e+01
    8.7483659861612884e-01 -2.2250010824803545e+02
    5.7194968292157000e-01 -1.4527883939678080e+02
    3.8224451615692023e-01 -9.6610285401086927e+01
    6.8602846779326587e-01 -1.7439162061142190e+02
    8.7867468862674580e-01 -2.2327420437056622e+02
    1.3626992404043683e+00 -3.4701682386550567e+02
    2.5877310392527231e+00 -6.5974039065302657e+02
    8.9734110362445441e-01 -2.2852665397241012e+02
    6.0624915139571671e+00 -1.5458458055936815e+03
    3.7718965586222160e+00 -9.6169038587048954e+02
    1.0453215134005533e+00 -2.6623059860915947e+02
    4.0763731776153858e+00 -1.0393461611407331e+03
    9.5320536946718204e-01 -2.4279990863577879e+02
    7.2785388662685619e+00 -1.8559506330623412e+03 1. -255. 1. -255. 1.
    -255. 2.2420433864241383e+00 -5.7147510097255599e+02
    2.1794543196237559e+01 -5.5575625349916400e+03
    3.0407114177008099e+00 -7.7515047140603303e+02
    1.0897271607534282e+01 -2.7787582798722651e+03
    7.7631931200276174e+00 -1.9794832212505864e+03
    4.2233980559643847e+00 -1.0767348410864138e+03
    4.3919022010684410e+00 -1.1196941552445458e+03
    2.3269987878683520e+00 -5.9315886401984335e+02
    1.1639167362119585e+00 -2.9595161314756598e+02
    1.2929602402662164e+00 -3.2939935167524840e+02
    1.7445817348145729e+00 -4.4348445475685054e+02
    1.3016624953036320e+00 -3.3172346929365574e+02
    8.5452946586545328e-02 -2.1716225822620416e+01
    6.0697515582917395e-02 -1.5382338316207530e+01
    6.0892777073338900e-02 -1.5443384605684308e+01
    6.0708364824217584e-02 -1.5365492059759932e+01
    6.0542793388315370e-02 -1.5340700843678519e+01
    6.0881267730637706e-02 -1.5424538906692579e+01
    6.0543510480546098e-02 -1.5350845401019981e+01
    6.0537944794839059e-02 -1.5306904395910255e+01
    8.6020953012483969e-02 -2.1867651424357131e+01
    1.6247365248592645e+00 -4.1310811387349901e+02
    8.5500945596453115e-01 -2.1748806986307906e+02
    1.1468293882803056e+00 -2.9188501561632080e+02
    2.3540465420928691e+00 -6.0005341645955446e+02
    2.9147852020642926e+00 -7.4303040242749057e+02
    3.0252511781138436e+00 -7.7119013734741316e+02
    3.0662435657886906e+00 -7.8166569888623724e+02
    1.5427385943219424e+01 -3.9339183210654960e+03
    2.9546620747456380e+00 -7.5311468891691663e+02
    9.7550690572244871e+00 -2.4874808686488441e+03
    1.9670928791504509e+00 -5.0127668538519617e+02 1. -255. 1. -255. 1.
    -255. 2.2857246668114559e+00 -5.8261867984000025e+02
    2.5062882222394429e+00 -6.3901889622473766e+02 1. -255.
    4.3767107783426500e+00 -1.1159596792399036e+03
    2.1873066509576122e+00 -5.5751862373153131e+02
    3.3439205444465565e+00 -8.5257980919409215e+02
    5.4659974080064497e+00 -1.3937370859208345e+03
    4.9056653673030519e+00 -1.2508204746023464e+03
    1.1957046345762408e+00 -3.0399150654749712e+02
    8.2173362109637149e-01 -2.0898731650457296e+02
    1.0798639398327892e+00 -2.7481853810554719e+02
    1.0045056021368821e+00 -2.5532455580391076e+02
    8.5330298486673187e-02 -2.1652653251856702e+01
    6.0699033977237499e-02 -1.5343921835836655e+01
    6.0793584557061728e-02 -1.5400400138584784e+01
    8.5428821977761735e-02 -2.1681618742457250e+01
    6.0852141784244453e-02 -1.5403037914079428e+01
    6.0813052646987824e-02 -1.5392245496238544e+01
    6.0820984114045080e-02 -1.5379368550542408e+01
    6.0859825688493935e-02 -1.5412173072455818e+01
    6.0859925518151205e-02 -1.5376118946046830e+01
    8.5387710131842251e-02 -2.1673346374224060e+01
    7.7963900865288438e-01 -1.9815331360850271e+02
    1.4623431976314609e+00 -3.7222804604183261e+02
    2.1573107240332390e+00 -5.4986846505232029e+02
    2.3766640019405960e+00 -6.0582870189551579e+02
    1.3686794635038229e+00 -3.4876204987422409e+02
    2.4175808297700083e+00 -6.1626379518696376e+02
    2.1085000366105784e+00 -5.3742285215845368e+02
    1.3577036715173894e+00 -3.4607694725754016e+02
    2.3344372685956647e+00 -5.9517315408280353e+02
    2.2210482255084374e+00 -5.6606272338090037e+02 1. -255. 1. -255. 1.
    -255. 1.0931994817201124e+01 -2.7875664252654665e+03
    7.2648477404485217e+00 -1.8524901937653829e+03
    4.9056653673030519e+00 -1.2508204746023464e+03
    3.5570792756730878e+00 -9.0685259685688379e+02 1. -255.
    2.2328453999142481e+00 -5.6912591283004167e+02
    2.2244697367295325e+00 -5.6705675687503413e+02
    4.6539975761034276e+00 -1.1865435550197699e+03
    8.7148845687031107e-01 -2.2141322554232929e+02
    1.0776958727774455e+00 -2.7450778248029042e+02
    1.1226901640675326e+00 -2.8564411623708941e+02
    1.0245805065233677e+00 -2.6044015082168988e+02
    1.8003173407297344e+00 -4.5882264851230667e+02
    6.0643649819039795e-02 -1.5339516959290286e+01
    8.6132965458947705e-02 -2.1853059970660446e+01
    8.5431069783259567e-02 -2.1708142972520918e+01
    1.1995541662224893e+00 -3.0551429875290626e+02
    8.5420336030256144e-02 -2.1606479300311307e+01
    8.5458083685610295e-02 -2.1666148292723303e+01
    6.0745144663054751e-02 -1.5411453294820623e+01
    6.0628338422356098e-02 -1.5321957871889483e+01
    6.0522099567319687e-02 -1.5335712685088746e+01
    8.6044023414206625e-02 -2.1868796507875288e+01
    7.2311486288748006e-01 -1.8306552833678211e+02
    1.8201578565947312e+00 -4.6393673367131993e+02
    2.3347770785254442e+00 -5.9518097880250320e+02
    2.1951738435988402e+00 -5.5944051715800902e+02
    8.9133023625018630e+00 -2.2728168846965195e+03
    2.8844050739856737e+00 -7.3533465134041103e+02
    2.2857246668114559e+00 -5.8261867984000025e+02
    3.5640105169292728e+00 -9.0868733964543571e+02
    2.5846515058476518e+00 -6.5887892564258118e+02 1. -255.
    2.1794543196237559e+01 -5.5575625349916400e+03
    4.3589086440682490e+00 -1.1114757241884154e+03
    8.6470635060308845e-02 -2.2001851080345165e+01
    2.2758759444947616e+00 -5.8010349311795903e+02 1. -255.
    2.3344372685956647e+00 -5.9517315408280353e+02
    1.1634993939284461e+00 -2.9646651856516849e+02
    1.5427385943219424e+01 -3.9339183210654960e+03
    6.0624915139571671e+00 -1.5458458055936815e+03
    3.8671013489448161e+00 -9.8601294268095478e+02
    1.6961813676491022e+00 -4.3219345367205824e+02
    6.8887417716921151e-01 -1.7467029690176375e+02
    1.6423126609478267e+00 -4.1845017866664750e+02
    8.5484162601172350e-02 -2.1699090632933451e+01
    8.4971669317057297e-02 -2.1547309511754541e+01
    2.1307298513310764e+00 -5.4306639945001552e+02
    1.5050425385124742e+00 -3.8326511530313655e+02
    1.1336728664132896e+00 -2.8811076125290651e+02
    1.2109185825206359e+00 -3.0718500851605768e+02
    1.1138766575695154e+00 -2.8358970708614248e+02
    1.5072323117803170e+00 -3.8378459206331979e+02
    1.2198317545695361e+00 -3.1070967697880366e+02
    6.0870192033988559e-02 -1.5400030166472451e+01
    6.1653459962646699e-02 -1.5608080664847503e+01
    6.0500404324554891e-02 -1.5291285736055539e+01
    1.9789722381836472e+00 -5.0427469165513810e+02
    2.3059755920341827e+00 -5.8779025945306762e+02
    3.1197040895820334e+00 -7.9530734825490333e+02
    9.7882920340159316e+00 -2.4959112166483874e+03
    1.2268599367029338e+00 -3.1261633577000072e+02
    2.1236823439150747e+00 -5.4134634297094249e+02
    5.2965026607524619e+00 -1.3505299600981534e+03
    8.5769649742897774e-02 -2.1810280996752528e+01
    8.6464061647595541e-02 -2.1999631280348027e+01
    8.5468796940861153e-02 -2.1748563170932425e+01
    2.1794543196237559e+01 -5.5575625349916400e+03
    2.1794543196237559e+01 -5.5575625349916400e+03
    7.2648477404485217e+00 -1.8524901937653829e+03
    1.3636237235175541e+00 -3.4746513360010590e+02
    4.5610671267813414e+00 -1.1628411772215570e+03 1. -255.
    1.5617135450234525e+00 -3.9814470086017735e+02
    3.0312457575865439e+00 -7.7287813771915478e+02
    4.6539975761034276e+00 -1.1865435550197699e+03
    4.2876977638704149e-02 -1.0839281855512663e+01
    3.8506111065866690e-02 -9.6951726269110967e+00
    4.3013941759699394e-02 -1.0824812356007389e+01
    6.0540673867953219e-02 -1.5354468756083822e+01
    8.5653907082813674e-02 -2.1766753961308694e+01
    8.3505152881161407e-02 -2.1095269032592636e+01
    8.5421223766379478e-02 -2.1718796676482608e+01
    4.9916034099935731e-02 -1.2622438141954634e+01
    1.8721391019172556e-02 -4.5443214453626952e+00
    1.6192518446399500e-02 -3.8618814880349590e+00
    1.6766942894786543e-02 -4.0145862510867394e+00
    2.1244386485112073e-02 -5.2073845741755935e+00
    6.0227957685567726e-02 -1.5199427270686281e+01
    4.9613907968436656e-02 -1.2550539314251893e+01
    4.3168520939404952e-02 -1.0897774716475098e+01
    4.3268828527045909e-02 -1.0906392037818279e+01
    4.3220007357219335e-02 -1.0897551011177361e+01
    4.2878507582038948e-02 -1.0837045255934814e+01
    3.5293821290794759e-02 -8.8835441703393467e+00
    6.0611734795288801e-02 -1.5389370613667113e+01
    8.4902112364098795e-02 -2.1575525406550963e+01
    8.5805389492624215e-02 -2.1834032169332019e+01
    8.5470569906344454e-02 -2.1745047334843452e+01
    8.5368340824037436e-02 -2.1702109073746175e+01
    8.5790039687007089e-02 -2.1825963451257113e+01
    8.5468796940861153e-02 -2.1748563170932425e+01 1. -255. 1. -255.
    3.5936945411643868e+00 -9.1614191407316673e+02
    7.2648477404485217e+00 -1.8524901937653829e+03
    7.2648477404485217e+00 -1.8524901937653829e+03
    2.2857246668114559e+00 -5.8261867984000025e+02
    1.2609772775228913e+01 -3.2154122489949223e+03
    1.0897271607534282e+01 -2.7787582798722651e+03
    3.8391536912018617e-02 -9.6847106574765611e+00
    1.5861908898332153e-02 -3.7802543010550456e+00
    1.1663460100275634e-02 -2.5804052116784915e+00
    1.1604521359935083e-02 -2.5592621200045862e+00
    1.2564394689674850e-02 -2.8516139584821323e+00
    1.3164002322823004e-02 -3.0153896966304439e+00
    1.0816560898997163e-02 -2.3275687311728115e+00
    8.2366080680999782e-03 -1.3691710116240539e+00
    8.0159549803218901e-03 -8.3230641415932949e-01
    9.7633804329403055e-03 -5.0464730085872889e-01
    1.2171359885521642e-02 -3.6752884818875792e-01
    1.3896730691424022e-02 -3.2302569358251026e-01
    9.4176038939130270e-03 -5.3753855137092188e-01
    7.9129168175745539e-03 -8.9102114392663345e-01
    8.3233256924682541e-03 -1.4086087350177603e+00
    1.0488800503299315e-02 -2.2207711597270379e+00
    1.2336799272789831e-02 -2.7696374637440022e+00
    1.2463538888959232e-02 -2.8199939983633140e+00
    1.2553810600726545e-02 -2.8501917333497633e+00
    1.4468905911979517e-02 -3.3937215643081409e+00
    3.5080539110843113e-02 -8.8316367355190284e+00
    8.5799097338855670e-02 -2.1831345003891784e+01
    8.5451696824212997e-02 -2.1731412113877493e+01
    8.6140048249983350e-02 -2.1917008647773191e+01
    8.5453340967372990e-02 -2.1740844305104176e+01
    8.5807796509057149e-02 -2.1826679377841813e+01
    1.0897271607534282e+01 -2.7787582798722651e+03 1. -255. 1. -255.
    2.8801953117063337e+00 -7.3415813913709428e+02
    1.8648703215769600e+00 -4.7533734707233151e+02
    1.6227928998819228e+00 -4.1326441127583735e+02
    2.7151845841999798e+00 -6.9207420061998550e+02
    3.3771101695963668e+00 -8.6092085327710254e+02
    2.2242003311106235e+00 -5.6681446159530935e+02
    4.9733739979680565e-02 -1.2579068815788911e+01
    1.3394240096873112e-02 -3.0896329735692309e+00
    1.0453189996976246e-02 -2.2074093939817243e+00
    1.0368377347116103e-02 -2.1761999095623201e+00
    9.6917223510063488e-03 -1.9516552534301836e+00
    8.0831924337745522e-03 -1.2608415944800746e+00
    8.3308275824540423e-03 -7.1929841696100028e-01
    9.6532742543329643e-03 -5.2292641989136612e-01
    1.1243987103264146e-02 -4.1730848337684145e-01
    1.3293323080007404e-02 -3.3356705635782291e-01
    1.9126127975115710e-02 -2.2402587029080681e-01
    2.7379215945363022e-02 -1.6150271684226797e-01
    2.1163061686924844e-02 -2.0654076659011464e-01
    1.3702894503092370e-02 -3.2242274766453421e-01
    9.5814647390778246e-03 -5.2902218077300789e-01
    8.1531422356203760e-03 -7.7788545245505458e-01
    8.0895172810626689e-03 -1.2654462602452212e+00
    9.7216101543527497e-03 -1.9637652511792554e+00
    1.0655207687712364e-02 -2.2730884940375247e+00
    1.2482198673050417e-02 -2.8212139038816675e+00
    2.3215876012779666e-02 -5.7343213751565774e+00
    8.6071257038790330e-02 -2.1869362685071206e+01
    8.5435875409495307e-02 -2.1714951666580056e+01
    8.5468196714218264e-02 -2.1700807896103129e+01
    8.5773605513713852e-02 -2.1812191690742701e+01
    8.5416820034873761e-02 -2.1707765770128614e+01
    8.6144439604422626e-02 -2.1920852050140599e+01
    8.5468796940861153e-02 -2.1748563170932425e+01 1. -255.
    1.4600728274014361e+00 -3.7191812907267803e+02
    6.4426203110972058e-01 -1.6385187310184980e+02
    3.1529313444469671e+00 -8.0383119898669565e+02
    8.4353923338929782e-01 -2.1470386993984224e+02
    1.8680392266256181e+00 -4.7603866291842837e+02
    2.3640971265365751e+00 -6.0251558918591650e+02
    8.5436075256739977e-02 -2.1717165399702171e+01
    1.2165086431903147e-02 -2.7348859501191205e+00
    1.0317757334351680e-02 -2.1602641163144805e+00
    9.6187098396220156e-03 -1.9196428552923279e+00
    7.9680350725300029e-03 -1.1610973639129110e+00
    8.5337810276348673e-03 -6.7834557290976061e-01
    9.2844797480848978e-03 -5.6294503789021089e-01
    1.0286494259669290e-02 -4.7656416443531135e-01
    1.0997599594677559e-02 -4.3159777987382270e-01
    1.5276205845623180e-02 -2.8953888885459633e-01
    1.8734264881835105e-02 -2.3433640608523276e-01
    2.3266604452021399e-02 -1.9418288441391701e-01
    2.5132845088176106e-02 -1.7995965449213019e-01
    1.4023985325144777e-02 -3.1716692549694520e-01
    1.1239079388727955e-02 -4.1838302914368092e-01
    9.5609391344693845e-03 -5.3349636955185809e-01
    8.4076998470995513e-03 -7.0990076641480637e-01
    8.0936425684869535e-03 -1.2667745883352535e+00
    1.0246595252883066e-02 -2.1422085438290153e+00
    1.2500121322301171e-02 -2.8272426302136369e+00
    3.0597401906869416e-02 -7.6552246614716264e+00
    8.5408759156638786e-02 -2.1703374750333300e+01
    8.5270219366198302e-02 -2.1655577504395747e+01
    8.5367738557815848e-02 -2.1691690226541049e+01
    8.5181507959443792e-02 -2.1595489053768695e+01
    1.0615828238726588e+00 -2.7010563988927061e+02 1. -255.
    1.0897271607534282e+01 -2.7787582798722651e+03 1. -255.
    1.2039146017254558e+00 -3.0656643972207286e+02
    1.9339851748725212e+00 -4.9298261340500500e+02
    1.1863613893429359e+00 -3.0203409421721267e+02
    1.8260913814029787e+00 -4.6543370899037564e+02
    9.0531076015793321e-01 -2.3046270648619623e+02
    1.9889998945111640e+00 -5.0687606172485556e+02
    1.8460917115656312e+00 -4.7027433733420941e+02
    1.2083614297341888e-02 -2.7091514240354848e+00
    9.8794065377033492e-03 -2.0148153400563449e+00
    8.1382286362336968e-03 -1.2894284995987066e+00
    8.5662988142790903e-03 -6.7144240474031858e-01
    9.2872533062044287e-03 -5.6348548066061854e-01
    9.2371329657174039e-03 -5.6929190997363399e-01
    9.4935697263046400e-03 -5.4091315949010421e-01
    9.6128781347008772e-03 -5.3237903779331797e-01
    1.0681394854471008e-02 -4.4713130105994459e-01
    1.1519861341317045e-02 -4.0178554365960628e-01
    1.1636415260616076e-02 -4.0049889991917864e-01
    1.1764305693751672e-02 -3.9211870391473130e-01
    1.0993536144438657e-02 -4.3334014625040479e-01
    1.0373729767173321e-02 -4.6966295528172886e-01
    1.0137337239682149e-02 -4.8408993337596085e-01
    9.3009909764361423e-03 -5.6045338453369009e-01
    8.1046418711999899e-03 -7.9487044579819655e-01
    8.6350935832660795e-03 -1.5553370248205165e+00
    1.3031428442587163e-02 -2.9830699222846415e+00
    2.8842775512855124e-02 -7.2025400134063498e+00
    6.7961826311442708e-01 -1.7265028091334122e+02
    1.2326374781696288e+00 -3.1392207977790065e+02
    1.1534929624669772e+00 -2.9359072777186918e+02
    1.1354669622806617e+00 -2.8911288539589253e+02
    1.0592053151976615e+00 -2.6956328349706558e+02 1. -255. 1. -255.
    5.4486358049440788e+00 -1.3893561502117532e+03
    1.3557196620026146e+00 -3.4533955213050149e+02
    6.3321412080127415e-01 -1.6105948111005065e+02
    1.8916315917871884e+00 -4.8203482083797280e+02
    4.2272592575740333e+00 -1.0778173366542401e+03
    1.3186420394243157e+00 -3.3571402267841501e+02
    2.0839040587822977e+00 -5.3112735324352445e+02
    6.0735771420972022e-02 -1.5418941599517400e+01
    1.1494003604586151e-02 -2.5323908827800539e+00
    8.6114267309321361e-03 -1.5359042769192692e+00
    8.0654507955939501e-03 -8.2168906944985620e-01
    9.1738798868631951e-03 -5.7652222377611995e-01
    9.1679996893367852e-03 -5.7483744887571575e-01
    8.7653205225078600e-03 -6.3476454062363874e-01
    8.8860379884981907e-03 -6.1469261520014173e-01
    8.3313728731146310e-03 -7.2792294550035719e-01
    8.2881444111537542e-03 -7.3295872874840307e-01
    8.0204603483452781e-03 -8.3363717295765161e-01
    7.9998070578445827e-03 -8.5341401621723445e-01
    8.0247708812868530e-03 -8.3970593025516171e-01
    8.2296468413865179e-03 -7.4877632769720759e-01
    8.9737306577598180e-03 -6.0254625663401218e-01
    9.4837321637907326e-03 -5.4631499310613063e-01
    9.3366660585758130e-03 -5.5712713671046055e-01
    8.5857638048956898e-03 -6.6316874351232280e-01
    7.8971519494339358e-03 -1.0753788390889512e+00
    1.1935905442418671e-02 -2.6589873402674202e+00
    6.0648319818033737e-02 -1.5378059625084047e+01
    1.1766424272011073e+00 -2.9943563877876284e+02
    1.1283251939917747e+00 -2.8735395736860141e+02
    1.1203419889792228e+00 -2.8501358384189786e+02
    7.4282992163516570e-01 -1.8897029031774588e+02
    7.9469260749527582e-01 -2.0207825880593478e+02
    2.1794543196237559e+01 -5.5575625349916400e+03
    7.2648477404485217e+00 -1.8524901937653829e+03 1. -255.
    2.3193810193730968e+00 -5.9126111121077929e+02
    1.6404232253198612e+00 -4.1798952807527888e+02
    2.4998664851372432e+00 -6.3718115879396873e+02
    2.4168264947005702e+00 -6.1597972995417967e+02
    2.4471708455941443e+00 -6.2371363435734804e+02
    1.5240842408770485e+00 -3.8827814488521039e+02
    8.5399954842836828e-02 -2.1671769975159222e+01
    1.0594879330946874e-02 -2.2568434098882784e+00
    7.9961902924508867e-03 -1.1867426048382594e+00
    8.6891255647910809e-03 -6.4788979923293499e-01
    9.2604168692058172e-03 -5.6642883183308912e-01
    8.7970925363447076e-03 -6.2884364221301203e-01
    8.6764484881794689e-03 -6.5234445405430364e-01
    8.0608061847601432e-03 -8.2148798219625208e-01
    7.9398603248295088e-03 -1.1189675307150551e+00
    8.0794892019237056e-03 -1.2589003259436227e+00
    8.1626024180917901e-03 -1.3109070600734587e+00
    8.1768507184234000e-03 -1.3123845403069556e+00
    8.2344492077072520e-03 -1.3487993057713055e+00
    8.1821511566093508e-03 -1.3186037184621837e+00
    8.0470544315476341e-03 -8.2475517160129885e-01
    8.5320755195093159e-03 -6.7284595552586124e-01
    8.9338103941369700e-03 -6.0987391715924910e-01
    8.6689242129706183e-03 -6.4585314273595873e-01
    7.9614283024723696e-03 -8.5840657437648815e-01
    9.8051353324120020e-03 -1.9891806301689252e+00
    4.3137957081158612e-02 -1.0880321061020581e+01
    1.1665079622485892e+00 -2.9695502798465407e+02
    1.1500349800217298e+00 -2.9283432893190439e+02
    1.0053027921886097e+00 -2.5574139512170240e+02
    9.6568125794979442e-01 -2.4578625317054230e+02
    1.3874306474068450e+00 -3.5338795251492786e+02 1. -255.
    1.0897271607534282e+01 -2.7787582798722651e+03 1. -255.
    9.0365090106057666e-01 -2.2997152857391626e+02
    1.0268186541692732e+00 -2.6148131993987789e+02
    3.9239271079960991e+00 -1.0004027326854359e+03
    8.2142262107162956e-01 -2.0905032410361352e+02
    8.7217125038123733e-01 -2.2204118417142416e+02
    3.7810056958895588e+00 -9.6399691634652572e+02
    4.9586230936034668e-02 -1.2560694435145034e+01
    9.4270314748255805e-03 -1.8669698853086534e+00
    7.9226003998546148e-03 -9.1776807037050012e-01
    9.2585229651908820e-03 -5.6687943775478855e-01
    9.3191103465766756e-03 -5.6071946642271475e-01
    8.6684593899324439e-03 -6.5004301479989179e-01
    8.2837415479504635e-03 -7.3697337779972794e-01
    7.9703164217370774e-03 -1.1524505835371182e+00
    8.5778101517825275e-03 -1.5204078010805082e+00
    8.7236130497322113e-03 -1.5839799171693090e+00
    8.7517685695245543e-03 -1.5971423729979177e+00
    8.8369169442375824e-03 -1.6330025927840892e+00
    9.3069032133104041e-03 -1.8119598085103883e+00
    9.6262710320575134e-03 -1.9262696358452640e+00
    8.1472154519073390e-03 -1.2955275743810377e+00
    8.1007597082482785e-03 -7.9414789477401060e-01
    8.4896833300604369e-03 -6.8820167146464606e-01
    8.5461475970393056e-03 -6.6982685522701946e-01
    8.1546935527852926e-03 -7.6561217824061412e-01
    8.3950817431470356e-03 -1.4425903018166015e+00
    2.7357154504103479e-02 -6.8242825919096957e+00
    1.0114452939954861e+00 -2.5724425310618528e+02
    8.9983258558241364e-01 -2.2889728693375429e+02
    1.3579933862860141e+00 -3.4580126946143861e+02
    7.3997131018418805e-01 -1.8806199125031307e+02
    8.3026138745827294e-01 -2.1109658517071986e+02
    1.0897271607534282e+01 -2.7787582798722651e+03
    2.1794543196237559e+01 -5.5575625349916400e+03 1. -255.
    1.7190168525732028e+00 -4.3813170033622072e+02
    7.9594199820498757e-01 -2.0254708811283501e+02
    1.5347281893319842e+00 -3.9092829561933564e+02
    2.2340354838867871e+00 -5.6953294058522249e+02
    1.9492313396714855e+00 -4.9667154749262238e+02
    8.0674686569949694e-01 -2.0530005734445237e+02
    6.0636699931669931e-02 -1.5386754495952168e+01
    8.5572548804749727e-03 -1.5239134999380872e+00
    8.2523586344386002e-03 -7.4276450721741349e-01
    1.0436675850197445e-02 -4.6725041817940921e-01
    1.0113304936341130e-02 -4.8966318204436482e-01
    8.7566550415237917e-03 -6.3522696962615099e-01
    8.0509633203579428e-03 -8.2393286858068238e-01
    8.2221723876210982e-03 -1.3436313311661237e+00
    9.0508643393620459e-03 -1.7147950886000181e+00
    9.2032532712776078e-03 -1.7746745896652234e+00
    9.2687805216883790e-03 -1.8016241025005004e+00
    9.6421215400336151e-03 -1.9284446500352885e+00
    1.0228763376178038e-02 -2.1296112711846114e+00
    1.1932953599354014e-02 -2.6565171512891017e+00
    9.2823223793481596e-03 -1.8055292005348544e+00
    7.8947346071485524e-03 -9.8106234718327257e-01
    8.2564109832854189e-03 -7.4258926801566238e-01
    8.5655948356602833e-03 -6.6766462530198412e-01
    8.2308337408266187e-03 -7.3613868095962631e-01
    8.0460884157143378e-03 -1.2423567910744746e+00
    2.0590603156789712e-02 -5.0368351169337773e+00
    1.3626091475533602e+00 -3.4689614146320480e+02
    1.1305567733739428e+00 -2.8779348276808713e+02
    1.1468293882748184e+00 -2.9185114301695830e+02
    9.8141063249604843e-01 -2.4989944662393052e+02
    1.2762055750664096e+00 -3.2503932878547943e+02 1. -255. 1. -255. 1.
    -255. 1.6903472021379420e+00 -4.3057850534459340e+02
    1.5939821011532678e+00 -4.0614260397612821e+02
    6.0985125765715846e+00 -1.5549791803625847e+03
    1.6464984669304206e+00 -4.1948543114328771e+02
    2.7841439708826181e+00 -7.0959841556615652e+02
    6.0985125765715846e+00 -1.5549791803625847e+03
    4.2889093254164984e-02 -1.0836372778928380e+01
    8.2259331311625179e-03 -1.3634223850562279e+00
    8.8194951375320969e-03 -6.1877875589402409e-01
    1.1951131680502186e-02 -3.8462977591995962e-01
    9.6185500272643089e-03 -5.2563143746039531e-01
    8.6946253371608228e-03 -6.4320050094418613e-01
    7.8843724099198036e-03 -9.5884946744689259e-01
    8.6871951924898036e-03 -1.5724006572566724e+00
    9.4647058284534763e-03 -1.8704774651484797e+00
    9.3807294043770865e-03 -1.8445007620619174e+00
    9.4740106122796937e-03 -1.8775730145492191e+00
    1.0079355150848485e-02 -2.0835132848845683e+00
    1.0559153596264290e-02 -2.2399885476058294e+00
    1.2493786792962851e-02 -2.8236485316095750e+00
    1.0616042609180166e-02 -2.2582831061735131e+00
    7.9278654412877070e-03 -1.1212242944886162e+00
    8.1758339854309352e-03 -7.6759697050558540e-01
    8.5388383149261372e-03 -6.6765068697846519e-01
    8.2863076719219310e-03 -7.2473725138157696e-01
    7.9618651695359446e-03 -1.1644311796365827e+00
    1.6932577104790847e-02 -4.0693198065720351e+00
    1.2531441111411989e+00 -3.1904943319097026e+02
    1.3669936585554401e+00 -3.4795756515968253e+02
    1.7132915609221508e+00 -4.3652427958018404e+02
    1.0707442762095816e+00 -2.7239372954104681e+02
    1.3549052411710156e+00 -3.4491771272392776e+02 1. -255. 1. -255. 1.
    -255. 1.8309485044750160e+00 -4.6647469050086892e+02
    1.6358351671907485e+00 -4.1687913295528790e+02
    2.6949223869989640e+00 -6.8700053103509038e+02
    8.5776120809180234e-02 -2.1811202668796803e+01
    8.6473351760560771e-02 -2.1989042266674918e+01
    8.5455112971158279e-02 -2.1740573994075902e+01
    3.0463553619842147e-02 -7.6306702980672112e+00
    8.1338431375838939e-03 -1.3087422248398961e+00
    8.8957317557379380e-03 -6.0406522789438188e-01
    1.0558277630986827e-02 -4.5251352336180883e-01
    9.3267820361006455e-03 -5.5539609652104815e-01
    8.4099529488806373e-03 -6.9357272304787554e-01
    7.8717510637184157e-03 -9.8650976463726803e-01
    8.9430245733066981e-03 -1.6779491359220067e+00
    9.4160280722065219e-03 -1.8574009299143082e+00
    9.3822236890982232e-03 -1.8452894211811623e+00
    9.8940670342744751e-03 -2.0264677423807358e+00
    1.0173265134295199e-02 -2.1133992500188059e+00
    1.0607775908565880e-02 -2.2568155141844253e+00
    1.3282432436463125e-02 -3.0541748441244492e+00
    1.1656707456991180e-02 -2.5797965872589570e+00
    7.9817211247749740e-03 -1.1891248959245451e+00
    8.1321112007586883e-03 -7.7555292580231339e-01
    8.4992814596168836e-03 -6.7268047248423501e-01
    8.2636286918019199e-03 -7.2594409014057382e-01
    7.8788164660321403e-03 -1.0897533466867786e+00
    1.5451144762673702e-02 -3.6639097472146864e+00
    1.0750648919540806e+00 -2.7347927118573659e+02
    1.8070949255051014e+00 -4.6043939965828611e+02
    1.4940568987726384e+00 -3.8057474674643112e+02
    9.0964142860299257e-01 -2.3145000948663275e+02
    1.6093707950182561e+00 -4.1001267475867002e+02
    1.0897271607534282e+01 -2.7787582798722651e+03
    1.0897271607534282e+01 -2.7787582798722651e+03 1. -255.
    8.5388650886491169e-02 -2.1712676587970243e+01
    8.5188386113473735e-02 -2.1640006740825203e+01
    8.5402820000836058e-02 -2.1714117422026916e+01
    3.1346765774623577e+00 -7.9921687566013372e+02
    1.8775111837313940e+00 -4.7843658934464952e+02
    9.6687992090916997e-01 -2.4620760855218739e+02
    3.0618928097744171e-02 -7.6736589145892893e+00
    8.2369669314073714e-03 -1.3690221346481100e+00
    8.5257742990095427e-03 -6.7139573261419661e-01
    9.7688840664521669e-03 -5.1350530675046868e-01
    9.1132928559287812e-03 -5.8209716140527379e-01
    8.2847456046373971e-03 -7.3171432487877641e-01
    7.8957500237341830e-03 -1.0630944441238726e+00
    8.9260783641201737e-03 -1.6676889743631191e+00
    9.3792966079396384e-03 -1.8373527578768507e+00
    9.5843562349382586e-03 -1.9157591381418255e+00
    1.0126472551730072e-02 -2.0989784846728434e+00
    1.0170429414410464e-02 -2.1142477484775304e+00
    1.0642936019212188e-02 -2.2609053936340353e+00
    1.4329118788249494e-02 -3.3459399276814987e+00
    1.2619835912420304e-02 -2.8585792030479813e+00
    8.0713073191116657e-03 -1.2533514245215487e+00
    8.0971330310505244e-03 -8.0322193063290226e-01
    8.3842612767369151e-03 -7.0077566088979559e-01
    8.2329982874475606e-03 -7.3709651545234622e-01
    7.9281894530131135e-03 -1.1288136071834367e+00
    1.7294966954504096e-02 -4.1614463525213106e+00
    1.5462478425322193e+00 -3.9382345366570615e+02
    1.2927871055774720e+00 -3.2934433364325326e+02
    1.0400515511310862e+00 -2.6471945018187739e+02
    1.0919079606389275e+00 -2.7805643541966612e+02
    1.0672292668068644e+00 -2.7176745609997670e+02
    8.5468796940861153e-02 -2.1748563170932425e+01
    8.5468796940861153e-02 -2.1748563170932425e+01
    8.5805288267395530e-02 -2.1834368459198689e+01
    1.0250044366941367e+00 -2.6099121407909018e+02
    1.0155855321406868e+00 -2.5862078408658567e+02
    2.1959511006112682e+00 -5.5972662462795824e+02
    7.7337497227464957e-01 -1.9682556203666684e+02
    1.0424735275669164e+00 -2.6550305215486441e+02
    2.0916809051473604e+00 -5.3317122785362767e+02
    4.2881824337299590e-02 -1.0837069315486879e+01
    8.6594822148922234e-03 -1.5702162370674824e+00
    8.0217840811917865e-03 -8.2903615355557403e-01
    8.3637416614649896e-03 -7.1305308920139598e-01
    8.2599905681358127e-03 -7.3973966164001104e-01
    7.9583849342293768e-03 -8.7376014844352523e-01
    7.9876090203312225e-03 -1.1810707877804945e+00
    9.0945552701511157e-03 -1.7348919453213798e+00
    9.4371051976553291e-03 -1.8600653801606470e+00
    9.8369869792856168e-03 -2.0036116200741136e+00
    1.0166812086623719e-02 -2.1145038732819117e+00
    1.0180780423872823e-02 -2.1152611782368509e+00
    1.0513457554587506e-02 -2.2238402559874526e+00
    1.5048732922572711e-02 -3.5472149381985791e+00
    1.2947398066121033e-02 -2.9528808450209878e+00
    8.1625866307583495e-03 -1.3157951883607255e+00
    7.9901007732173877e-03 -8.4836664918667659e-01
    8.2562913294404756e-03 -7.3923418569926957e-01
    8.0553029941833020e-03 -8.0425572615975693e-01
    8.0318318451437446e-03 -1.2362920916069358e+00
    1.7911599540231100e-02 -4.3327932558710929e+00
    1.0962123750335071e+00 -2.7899761286770513e+02
    8.5956431865900546e-02 -2.1828400126857204e+01
    8.5350780652003980e-02 -2.1689181922141739e+01
    8.5238144114578460e-02 -2.1655343942425912e+01
    8.5305951539531799e-02 -2.1669511394660056e+01 1. -255. 1. -255.
    2.1794543196237559e+01 -5.5575625349916400e+03
    1.6910355155568610e+00 -4.3095362272726186e+02
    1.4668737470865509e+00 -3.7377737984569774e+02
    2.0056497287683888e+00 -5.1110640588114444e+02
    2.0768708962868057e+00 -5.2933042033463380e+02
    2.6113027283995121e+00 -6.6560123279008576e+02
    1.4632138784788984e+00 -3.7278614850816183e+02
    4.9576502847262692e-02 -1.2537311856115046e+01
    8.7630803410910785e-03 -1.6123328327156861e+00
    7.9155305374855808e-03 -9.1195595496221005e-01
    8.0413312177392837e-03 -8.2555970685410707e-01
    7.9585475597062621e-03 -8.7359331124792583e-01
    7.8848500866440571e-03 -9.5014107014543303e-01
    8.1463613809764288e-03 -1.3006508079133232e+00
    9.4580033446033246e-03 -1.8697714375725720e+00
    9.6280671802805862e-03 -1.9291681022091742e+00
    1.0099346586914070e-02 -2.0876883473113952e+00
    1.0176632914729727e-02 -2.1144638591562699e+00
    1.0258963883132900e-02 -2.1433875765283066e+00
    1.1455427613096404e-02 -2.5145871989186808e+00
    1.5047366857531972e-02 -3.5473056274142145e+00
    1.2100186605714266e-02 -2.7105949665990554e+00
    8.0293858587616607e-03 -1.2173497581309027e+00
    7.9034263851946833e-03 -9.1858156748261666e-01
    8.0695119871330139e-03 -8.0344419561340819e-01
    7.9150107961276778e-03 -8.9095636294976455e-01
    8.3691182314927105e-03 -1.4216377481964104e+00
    1.7278715194191167e-02 -4.1613634819056564e+00
    8.6437909455803444e-02 -2.1960882113995869e+01
    8.5389598600079525e-02 -2.1692380834237500e+01
    1.4791137610500633e+00 -3.7668721213374965e+02
    1.2909590163524896e+00 -3.2866890551976661e+02
    1.1229926044374670e+00 -2.8595324552276151e+02 1. -255.
    1.0897271607534282e+01 -2.7787582798722651e+03 1. -255.
    1.2441116294400301e+00 -3.1688363108422845e+02
    7.6357911461620698e-01 -1.9437437968268256e+02
    1.8881465378913502e+00 -4.8120251038779116e+02
    2.0651683402271637e+00 -5.2640879578676447e+02
    1.3427546526533918e+00 -3.4197468125245740e+02
    1.7296045047090003e+00 -4.4077912605660003e+02
    1.6266009451089920e+00 -4.1457391050141820e+02
    8.9787568566253723e-03 -1.6994665166790264e+00
    7.8806277120003054e-03 -9.9618449630302597e-01
    7.9511325048955677e-03 -8.7373552485758532e-01
    7.9255592053749501e-03 -9.0968364676882740e-01
    7.8990128375744026e-03 -9.3836606301893888e-01
    8.1005261862814523e-03 -1.2716800729400326e+00
    9.3708140787116118e-03 -1.8371342613764428e+00
    9.4018036756614957e-03 -1.8483469985658061e+00
    9.8871759136925849e-03 -2.0184231588364199e+00
    1.0078079370154340e-02 -2.0850993410807930e+00
    1.0314354796925411e-02 -2.1593993937293039e+00
    1.1928657421961721e-02 -2.6566177048353734e+00
    1.4315167312301900e-02 -3.3435277914450281e+00
    1.1754628942731932e-02 -2.6078413072103164e+00
    7.9368013735566147e-03 -1.1313458261724183e+00
    7.9115817973990921e-03 -9.1912884986788146e-01
    8.0135861177108806e-03 -8.2835797259383970e-01
    7.8904349366882686e-03 -9.3536611622893218e-01
    8.5450667505589505e-03 -1.5160462731118260e+00
    2.0052557585712127e-02 -4.9002274213304249e+00
    6.0772059672565347e-02 -1.5405332493706249e+01
    1.3823237409513238e+00 -3.5216301262881649e+02
    1.3081301038970299e+00 -3.3313989289392862e+02
    8.0122340274178694e-01 -2.0389783323993260e+02
    8.5413957627905601e-02 -2.1709200698869832e+01 1. -255.
    2.1794543196237559e+01 -5.5575625349916400e+03
    2.1794543196237559e+01 -5.5575625349916400e+03
    1.4773310374197386e+00 -3.7639527439880203e+02
    1.5007817355193911e+00 -3.8246504329915689e+02
    1.3517666030263948e+00 -3.4430978329786018e+02
    1.3765582530201657e+00 -3.5075517443727756e+02
    1.3321914270940973e+00 -3.3936311866525517e+02
    1.7668741119166993e+00 -4.5025841952010558e+02
    8.5443831523278502e-02 -2.1721660637946378e+01
    9.2165358943372931e-03 -1.7890579486033213e+00
    7.9039028778482932e-03 -1.0915556672717872e+00
    7.8922717908738917e-03 -9.6235764761377474e-01
    7.9031038993745660e-03 -9.4463766776996927e-01
    7.8850460660617721e-03 -1.0005524593574207e+00
    8.1382182725083657e-03 -1.2948866748825072e+00
    9.2381039683834439e-03 -1.7924455355870399e+00
    9.4330183068875861e-03 -1.8583842099868704e+00
    9.3313027615326422e-03 -1.8257264755428244e+00
    9.5484628735987929e-03 -1.9029038996387402e+00
    9.8703760151110948e-03 -2.0149310632366664e+00
    1.1049048904738682e-02 -2.3905339922524598e+00
    1.1926489474076991e-02 -2.6596826368297646e+00
    1.0278325501189813e-02 -2.1471075024289279e+00
    7.9378973206945657e-03 -1.1429567344670972e+00
    7.9066050552251913e-03 -9.3364662057186587e-01
    7.9661846027854911e-03 -8.6604527165852141e-01
    7.8606746514296461e-03 -1.0365642807755484e+00
    8.7679458054874208e-03 -1.6122661527558726e+00
    2.2448406731177643e-02 -5.5367053462626918e+00
    1.0051219595682446e+00 -2.5575052594853764e+02
    1.6585089467491725e+00 -4.2257338398279393e+02
    1.1640430795268737e+00 -2.9629316790716632e+02
    1.5675439716293040e+00 -3.9939300728622584e+02
    1.4323706648860297e+00 -3.6474080010916413e+02 1. -255. 1. -255. 1.
    -255. 1.2004925318782127e+00 -3.0574316024431636e+02
    8.2566870391333358e-01 -2.1020061991272107e+02
    2.1313975250201609e+00 -5.4329502777533946e+02
    1.2758726566944945e+00 -3.2506758915267369e+02
    1.9724504747973994e+00 -5.0264612932753732e+02
    1.6953674531905396e+00 -4.3199679535095652e+02
    2.0116374022468597e+00 -5.1264924051563173e+02
    9.3247187640450122e-03 -1.8305170485113680e+00
    7.9602907864578295e-03 -1.1635627576787568e+00
    7.9009188194523825e-03 -9.7629686956570771e-01
    7.8883448543209268e-03 -9.6462475272363679e-01
    7.8789143951278461e-03 -9.9578507314118958e-01
    8.1884615963634944e-03 -1.3237667409412275e+00
    9.4681660298256195e-03 -1.8710614177505607e+00
    9.4372535671294749e-03 -1.8593380509010282e+00
    9.1870551431753912e-03 -1.7720550160975521e+00
    9.3823844079712580e-03 -1.8444698866835143e+00
    9.8080795133727028e-03 -1.9924885917757051e+00
    1.0276917407417173e-02 -2.1459027434580480e+00
    1.0418357174099353e-02 -2.1931521037738553e+00
    9.4565608205227046e-03 -1.8703042346867975e+00
    7.9192913603958019e-03 -1.1115577499968208e+00
    7.9308924435396201e-03 -9.0791986637930466e-01
    7.9227191035197604e-03 -8.9083789042255834e-01
    7.9142257101806196e-03 -1.1173751328622521e+00
    9.3657941082531618e-03 -1.8385211906975358e+00
    2.4098457285897421e-02 -5.9637072501062010e+00
    1.4558450913177972e+00 -3.7066000309139889e+02
    1.2011591842901650e+00 -3.0591547832807748e+02
    1.5971278717334356e+00 -4.0680262069645812e+02
    7.6598714484513752e-01 -1.9479182373942623e+02
    1.2196540613298379e+00 -3.1063868471317443e+02 1. -255. 1. -255. 1.
    -255. 3.0567924427099245e+00 -7.7919187107684945e+02
    1.9340012730862499e+00 -4.9296631606388337e+02
    1.7828496106023106e+00 -4.5417905765788947e+02
    2.6924865343554214e+00 -6.8626596658568747e+02
    2.6034133399218780e+00 -6.6360127245295621e+02
    1.9894728674028974e+00 -5.0695881917565185e+02
    1.2807396583787420e+00 -3.2624546112157054e+02
    9.6560179542358720e-03 -1.9469098985322288e+00
    7.9973924388190894e-03 -1.2037087948579543e+00
    7.8716995868475369e-03 -9.8542386093746659e-01
    7.8832138980137988e-03 -9.5910772633872943e-01
    7.8675485335824788e-03 -1.0322256872467526e+00
    8.3334604070819610e-03 -1.4116952254157238e+00
    9.7601534800686365e-03 -1.9763075334673157e+00
    9.3618009478358671e-03 -1.8371645581556890e+00
    9.2884752800525949e-03 -1.8128791425812358e+00
    9.7097200279221210e-03 -1.9623876777107243e+00
    9.7580402991149125e-03 -1.9752620435860269e+00
    9.6136715743023234e-03 -1.9265270502705798e+00
    9.6789456001165688e-03 -1.9511855862310941e+00
    8.6429151032219632e-03 -1.5565087804986000e+00
    7.8781098025116209e-03 -1.0514949718478854e+00
    7.9631538677816874e-03 -8.5239346190613341e-01
    7.8732509338143766e-03 -9.5698202384131115e-01
    7.9338338626790354e-03 -1.1562642262317886e+00
    1.0285437729214491e-02 -2.1559058652919334e+00
    3.0483029094641761e-02 -7.6349698252003471e+00
    1.2648277492785136e+00 -3.2192534632111335e+02
    1.9425576953378918e+00 -4.9487681844479278e+02
    1.4590487294767227e+00 -3.7157723276382512e+02
    1.4878832511563964e+00 -3.7903041074659012e+02
    1.4410556985002332e+00 -3.6703141404459740e+02 1. -255. 1. -255. 1.
    -255. 2.2317808964041390e+00 -5.6873687349883699e+02
    2.4859038192730751e+00 -6.3373240466139362e+02
    3.5805465834123940e+00 -9.1280520800204692e+02
    2.0615516658541817e+00 -5.2540427402992134e+02
    4.0729105216670449e+00 -1.0383687744310810e+03
    6.0784218865988260e+00 -1.5498821680089045e+03
    1.4861271007710224e+00 -3.7863947590467097e+02
    1.0005359332083593e-02 -2.0671410113733044e+00
    8.0587737441642077e-03 -1.2525952649816412e+00
    7.8727780202764840e-03 -9.8374845857163684e-01
    7.9007815312910432e-03 -9.3549253726198001e-01
    7.8685170279989749e-03 -1.0206495800622131e+00
    8.4791638936031598e-03 -1.4822079364898113e+00
    9.3889174230492173e-03 -1.8465663245703381e+00
    9.6828884122676252e-03 -1.9498763329944242e+00
    9.8164607432602771e-03 -1.9986645430602590e+00
    1.0242226849700607e-02 -2.1404309389257237e+00
    9.9166205329456331e-03 -2.0289740348652603e+00
    9.5110480786511822e-03 -1.8901502488625794e+00
    8.8655627075580664e-03 -1.6480220702285997e+00
    8.2634845920426647e-03 -1.3728018864987335e+00
    7.8811313054405058e-03 -9.6718440514235060e-01
    7.9776189862116893e-03 -8.5505264762763433e-01
    7.8681102406518780e-03 -9.9071791477440230e-01
    8.0037944503526127e-03 -1.2192446879370480e+00
    1.1902334076423420e-02 -2.6548733696879649e+00
    4.9528558385051678e-02 -1.2543055165699586e+01
    2.0802883989476002e+00 -5.3007416146939283e+02
    1.6029621482356844e+00 -4.0838335236485494e+02
    2.2233193239353546e+00 -5.6665561368350700e+02
    1.4527306877909505e+00 -3.7007241580038328e+02
    1.8325213964715779e+00 -4.6691794644738792e+02
    7.2648477404485217e+00 -1.8524901937653829e+03 1. -255.
    1.0897271607534282e+01 -2.7787582798722651e+03
    2.8945519148085990e+00 -7.3795196538635093e+02
    7.8996050296259135e-01 -2.0107994625411075e+02
    2.4179582622472515e+00 -6.1630899445132115e+02
    1.5768756252573806e+00 -4.0189369970562944e+02
    3.2254601623793184e+00 -8.2226097928537411e+02
    8.6013056939731367e-02 -2.1871269465890173e+01
    8.5444819946622674e-02 -2.1728040869759838e+01
    1.1271119300618030e-02 -2.4676855435869984e+00
    8.1531115377788763e-03 -1.3063211157134063e+00
    7.8834382664907422e-03 -1.0099283161521464e+00
    7.9375331732031741e-03 -8.9444611683607833e-01
    7.8832444304425854e-03 -1.0267177461370096e+00
    8.6629446220098383e-03 -1.5605362647572407e+00
    9.0830932769067774e-03 -1.7317664675540492e+00
    9.1122809834076370e-03 -1.7404456678308586e+00
    9.9492045009724767e-03 -2.0419377895856634e+00
    1.0406514181561913e-02 -2.1901321417934003e+00
    9.6566282496236468e-03 -1.9383338358274098e+00
    9.0645698290927907e-03 -1.7216180663162608e+00
    8.5480271634451703e-03 -1.5068512778396375e+00
    7.9790075615662013e-03 -1.1721229441337893e+00
    7.9604937711068718e-03 -8.8319495132645420e-01
    7.9825474861501943e-03 -8.6026263858127483e-01
    7.8824646427671750e-03 -1.0388556249655387e+00
    8.2549729666332606e-03 -1.3771175788260728e+00
    1.3285064887948077e-02 -3.0559012549847147e+00
    4.9706840192811463e-02 -1.2584953976158463e+01
    1.3354285142760551e+00 -3.4011730189964965e+02
    1.3045827638039424e+00 -3.3232181694671567e+02
    1.7025154775859084e+00 -4.3381459254714861e+02
    8.8572295542951351e-01 -2.2547815641320184e+02
    1.3524267151927925e+00 -3.4459204994510361e+02 1. -255. 1. -255.
    2.1794543196237559e+01 -5.5575625349916400e+03
    1.2358509638956450e+00 -3.1480304932649824e+02
    8.5406669774519980e-02 -2.1719240452786156e+01
    8.5790955862101198e-02 -2.1823300639394205e+01
    8.6688916969757057e-02 -2.2043491903723243e+01
    8.5296242624245538e-02 -2.1683780464090642e+01
    2.5008057157203254e+00 -6.3749969501308578e+02
    4.1380418056406425e+00 -1.0549824092882773e+03
    1.2772790208787074e-02 -2.9125195293808908e+00
    8.2883201784793529e-03 -1.3854783987798165e+00
    7.8883186516985893e-03 -1.0494792211253512e+00
    7.9209453517796805e-03 -9.1311454833743733e-01
    7.8930378012582909e-03 -1.0714715555315713e+00
    8.4184922782131778e-03 -1.4479984323848991e+00
    8.4664119672475460e-03 -1.4741023486180858e+00
    8.2975294507133639e-03 -1.3868252651347359e+00
    8.4153049084222092e-03 -1.4471306295156174e+00
    8.5425079123191677e-03 -1.5100955284412139e+00
    8.2891142953007424e-03 -1.3804523066598000e+00
    8.0191234223630087e-03 -1.2104139332835102e+00
    7.9621256258482764e-03 -1.1526772628087227e+00
    7.8837684758549624e-03 -1.0101702075549603e+00
    7.9585068824907877e-03 -8.7491526400783215e-01
    7.9552219832920018e-03 -8.8235831339576731e-01
    7.9039505067996108e-03 -1.0894611948560180e+00
    8.4656868460673013e-03 -1.4806200532190408e+00
    1.3970225416380259e-02 -3.2531173007560916e+00
    4.9466320025364573e-02 -1.2523118993763184e+01
    9.4237758476383660e-01 -2.3987286995132155e+02
    1.3165193791403915e+00 -3.3543191750929526e+02
    1.1825045920493571e+00 -3.0119938695461411e+02
    1.1234341017883727e+00 -2.8608462712313400e+02
    1.0923282903986589e+00 -2.7816577768114036e+02 1. -255.
    8.5468796940861153e-02 -2.1748563170932425e+01
    8.5468796940861153e-02 -2.1748563170932425e+01
    8.5441121864403211e-02 -2.1733229160483610e+01
    8.6433404093981273e-02 -2.1985448659922223e+01
    3.6914275769662108e+00 -9.4112712440096777e+02
    3.1222071866724548e+00 -7.9589935520175675e+02
    2.0270482610526455e+00 -5.1662361228845123e+02
    1.8831480575103350e+00 -4.7992465263132590e+02
    1.0508453857575040e+00 -2.6767293288099052e+02
    1.3669205832960338e-02 -3.1687756863657128e+00
    8.6526353952236564e-03 -1.5581132788171206e+00
    7.8986742398038223e-03 -1.0702203678843054e+00
    7.9011026670415315e-03 -9.3196339686559504e-01
    7.9098449059135951e-03 -1.0899566031110810e+00
    8.3194738357775366e-03 -1.3994794225648142e+00
    8.1475567445807463e-03 -1.3012026277737605e+00
    7.9987485194005399e-03 -1.1961335285910317e+00
    7.9542277988570685e-03 -1.1588672222225136e+00
    7.9438797244174436e-03 -1.1446560868728088e+00
    7.8922920508357596e-03 -1.0403339654604833e+00
    7.9091619091556445e-03 -9.3239674751415247e-01
    7.8796444265501059e-03 -1.0058515723992980e+00
    7.8819237684460992e-03 -9.9776175501702802e-01
    7.9079644752677002e-03 -9.3310644114287444e-01
    7.8912196240284015e-03 -9.5635255549010867e-01
    7.9367562368623280e-03 -1.1352910261007163e+00
    8.7599516700842053e-03 -1.6114060463494770e+00
    1.4683203256580644e-02 -3.4486321775287130e+00
    4.9534231737725143e-02 -1.2539580314145260e+01
    1.4058660714843250e+00 -3.5808654544819728e+02
    1.6382173199495220e+00 -4.1738943265473398e+02
    1.9602179746843300e+00 -4.9959091276311221e+02
    8.5375336353098408e-02 -2.1702446524306286e+01
    8.6092868298235620e-02 -2.1890473993755176e+01
    8.5468796940861153e-02 -2.1748563170932425e+01
    8.6486282618724805e-02 -2.2008022018787656e+01 1. -255.
    1.6419578944652768e+00 -4.1841521130099545e+02
    9.9102475015910885e-01 -2.5246460048779051e+02
    2.9513955124853157e+00 -7.5238792563536526e+02
    4.3561466357088676e+00 -1.1106152080846946e+03
    1.6911323770873350e+00 -4.3088911275441268e+02
    2.1573107240332390e+00 -5.4986846505232029e+02
    1.8330146137777095e+00 -4.6721376918308340e+02
    1.4826299564455244e-02 -3.4920940132372928e+00
    9.1033301773403609e-03 -1.7428268008504342e+00
    7.9144074819560047e-03 -1.0983995396476662e+00
    7.8936016004095399e-03 -9.5244463361228449e-01
    7.8913020595542255e-03 -1.0666576433663275e+00
    8.1443832501931004e-03 -1.3014002779596532e+00
    8.0401979861586658e-03 -1.2276228878739688e+00
    7.9232715939743324e-03 -1.1157604549075797e+00
    7.8996662538310843e-03 -1.0757378854135760e+00
    7.8772192272925229e-03 -1.0252350391774903e+00
    8.0783963826868924e-03 -8.0472076371587975e-01
    8.1178721909060912e-03 -7.8820428658664776e-01
    7.9503609258742124e-03 -8.8307711473913797e-01
    7.8930912671824581e-03 -9.5676255663973697e-01
    7.9041773099551259e-03 -9.3180912215819089e-01
    7.8895195182014308e-03 -1.0058138712350089e+00
    7.9549737920952442e-03 -1.1507859766328501e+00
    8.9105413781198298e-03 -1.6725499736161973e+00
    1.4457570363868971e-02 -3.3882566697062204e+00
    4.9470126061757894e-02 -1.2522621404316629e+01
    8.6076206998884325e-02 -2.1869894011159573e+01
    8.5454583858170827e-02 -2.1737735123837442e+01
    8.6025219921182117e-02 -2.1872002908863422e+01
    1.0496260185808868e+00 -2.6734683301537774e+02
    1.2537182091323762e+00 -3.1926172243317188e+02 1. -255. 1. -255.
    2.1794543196237559e+01 -5.5575625349916400e+03
    1.7010348240067186e+00 -4.3346960827452222e+02
    1.5905682052683840e+00 -4.0538013207943544e+02
    1.6397458005778722e+00 -4.1782729438733332e+02
    2.0409621377111673e+00 -5.2027741785185242e+02
    1.0953310422478459e+00 -2.7902518430021235e+02
    3.2591370455649291e+00 -8.3080491395698391e+02
    8.5468469037700945e-02 -2.1738021564932726e+01
    1.5006885689441158e-02 -3.5423532049251114e+00
    9.0669667414577920e-03 -1.7236609833460341e+00
    7.9566524695161185e-03 -1.1553596543710030e+00
    7.8784139221137889e-03 -9.8879081060453444e-01
    7.9165407410391533e-03 -1.0942529879143528e+00
    8.1522689660385051e-03 -1.3021271802083867e+00
    8.0416049776443257e-03 -1.2284315046862244e+00
    7.8832195858169769e-03 -1.0352962430740651e+00
    7.8873902586057872e-03 -9.4254313590339156e-01
    8.0641636728235547e-03 -8.0837286268820929e-01
    8.5193653154458683e-03 -6.7755914274615681e-01
    8.4550180436424212e-03 -6.8870938114986047e-01
    7.9771438815275913e-03 -8.6442619901009121e-01
    7.8897249404050410e-03 -9.6555918579737554e-01
    7.9055451845970581e-03 -9.4441243898271821e-01
    7.8938109550685445e-03 -9.6414407475261255e-01
    7.9488098900328107e-03 -1.1503638414271535e+00
    8.7483602644354719e-03 -1.6044197421674591e+00
    1.4831271838123175e-02 -3.4925142010537358e+00
    3.8499649502102114e-02 -9.7058915961027346e+00
    1.1466146211985404e+00 -2.9202387567740044e+02
    1.2536173561909765e+00 -3.1936563339553834e+02
    1.2507467081306902e+00 -3.1852613371008442e+02
    1.0630983119136039e+00 -2.7078280272629775e+02
    1.3156062849184369e+00 -3.3508270033617748e+02 1. -255.
    2.1794543196237559e+01 -5.5575625349916400e+03
    2.1794543196237559e+01 -5.5575625349916400e+03
    1.9704043284061885e+00 -5.0218290061837467e+02
    7.7614757063994355e-01 -1.9757540510756587e+02
    3.4275908450309438e+00 -8.7383319176208715e+02
    1.2224617839830740e+00 -3.1145953545253150e+02
    2.3951616023207736e+00 -6.1056408524982930e+02
    2.1648575612295273e+00 -5.5181945203137968e+02
    8.6458171451615717e-02 -2.1984452507848818e+01
    1.3963818672059593e-02 -3.2521262334697778e+00
    8.8490887026610263e-03 -1.6400311062265103e+00
    8.0029178404640005e-03 -1.1927217827086465e+00
    7.9456163737420971e-03 -1.1406653109367688e+00
    7.9691175716962333e-03 -1.1708886585721783e+00
    8.3559045305379043e-03 -1.4193402898137739e+00
    8.3697902941742269e-03 -1.4260604091725837e+00
    8.0314107422343357e-03 -1.2214352450958788e+00
    7.8751297674146455e-03 -1.0036636903998286e+00
    7.9565527284326427e-03 -8.7453257510255744e-01
    8.2278119627718777e-03 -7.4914748668630526e-01
    8.2428458017583129e-03 -7.4771654206371763e-01
    7.9571964543901103e-03 -8.8289627241717095e-01
    7.8811513490017228e-03 -9.8898473289023514e-01
    7.9313679889393366e-03 -9.0651854887927741e-01
    7.9485900895135790e-03 -8.9119793313755091e-01
    7.9005891864617917e-03 -1.0798138604551493e+00
    8.5726124111636885e-03 -1.5317666838892587e+00
    1.4314076545240011e-02 -3.3461418810027839e+00
    3.8457469118817256e-02 -9.6974483944251340e+00
    1.1560838063456635e+00 -2.9437210743266564e+02
    1.0174461969503543e+00 -2.5906026173785085e+02
    1.9333576572123874e+00 -4.9273700089005325e+02
    7.5824181692727666e-01 -1.9296454407658973e+02
    1.5097302417105285e+00 -3.8467862857086305e+02
    5.4486358049440788e+00 -1.3893561502117532e+03 1. -255.
    2.1794543196237559e+01 -5.5575625349916400e+03
    2.9645272254646371e+00 -7.5564798292798082e+02
    2.8134156075747292e+00 -7.1728446398435301e+02
    2.2163814377577280e+00 -5.6481722154234012e+02
    2.6418269253202831e+00 -6.7342063307752858e+02
    4.0970300934534301e+00 -1.0445784468859504e+03
    3.2254601623793184e+00 -8.2226097928537411e+02
    4.9657085763912957e-02 -1.2570576023171821e+01
    1.2059811275488892e-02 -2.7047561541659770e+00
    8.2915473166411385e-03 -1.3915980246429378e+00
    7.9909907266803495e-03 -1.1899664144361444e+00
    8.1050736120186102e-03 -1.2765319945815132e+00
    8.5395304378019787e-03 -1.5103979183839757e+00
    9.3881133108311698e-03 -1.8471013908329201e+00
    8.9334105128465006e-03 -1.6752406334501835e+00
    8.2086024991997169e-03 -1.3403920536667893e+00
    7.9809554465827028e-03 -1.1931360018053661e+00
    7.8666181432674228e-03 -1.0116736472094843e+00
    7.8963613308412010e-03 -9.4769663162213980e-01
    7.8961613237368260e-03 -9.3927670902442451e-01
    7.8729776935849444e-03 -1.0131392834928290e+00
    7.8777964897207304e-03 -1.0269721533603868e+00
    7.9577805793224678e-03 -8.6546739798449912e-01
    8.0339079337787955e-03 -8.2189929013671170e-01
    7.8644623993850450e-03 -9.8144840571903702e-01
    8.1707828160008499e-03 -1.3318031231312777e+00
    1.3415907309014551e-02 -3.0936969040179885e+00
    3.8464327765673684e-02 -9.6984475377942836e+00
    2.1301058209897601e+00 -5.4280399113900876e+02
    1.8455878655686462e+00 -4.7030952045183795e+02
    1.6499662098771559e+00 -4.2032018961277782e+02
    1.7521459139771882e+00 -4.4647930817261749e+02
    1.8341258103463043e+00 -4.6731513526481683e+02
    2.1794543196237559e+01 -5.5575625349916400e+03 1. -255.
    2.1794543196237559e+01 -5.5575625349916400e+03
    3.0933516663719431e+00 -7.8850447623992329e+02
    1.3624290154823566e+00 -3.4714921260315845e+02
    1.9753258184392148e+00 -5.0328718094321846e+02
    2.5127243975211169e+00 -6.4046376273271892e+02
    2.0911312476406256e+00 -5.3285906458866100e+02
    1.8590522619331056e+00 -4.7367788782794719e+02
    3.8597552286237673e-02 -9.7275603293543309e+00
    1.0932505107542706e-02 -2.3639581824735907e+00
    8.0313532319601384e-03 -1.2353542885843496e+00
    7.9827772105554567e-03 -1.1889622479130679e+00
    8.1904059938902422e-03 -1.3342758861523560e+00
    9.4430831739942944e-03 -1.8669413721547539e+00
    1.0898793745470347e-02 -2.3488969912706090e+00
    1.0497587361281296e-02 -2.2221886460835529e+00
    8.6379583630004520e-03 -1.5554521057289885e+00
    8.1727823625583843e-03 -1.3267667299926269e+00
    7.9529712858107098e-03 -1.1677445053794384e+00
    7.9171059299285342e-03 -1.1203205973502668e+00
    7.9491942665144803e-03 -1.1538574116434512e+00
    8.0986962714543476e-03 -1.2765869000379388e+00
    7.9022414363619908e-03 -1.1016624817642124e+00
    8.0035142346235495e-03 -8.4009883381742634e-01
    8.0645967271219653e-03 -8.0814405050963345e-01
    7.8939313633522908e-03 -9.1724484746699175e-01
    8.0059014638956452e-03 -1.2232645854908060e+00
    1.2355893893118332e-02 -2.7894864164482822e+00
    2.8746285033944243e-02 -7.1874203048794678e+00
    8.6115460826635612e-02 -2.1885862844895904e+01
    2.2031265405646057e+00 -5.6152303901297591e+02
    1.7998370674878581e+00 -4.5858253687252346e+02
    1.5328331650425315e+00 -3.9055554221206035e+02
    1.7962278816434438e+00 -4.5769705389218387e+02 1. -255. 1. -255. 1.
    -255. 9.4907876656560231e-01 -2.4163064850549316e+02
    9.8870012806431695e-01 -2.5180356700378962e+02
    1.5102589164211588e+00 -3.8487387246872879e+02
    1.2546841209372785e+00 -3.1964004435396851e+02
    1.3499069956765815e+00 -3.4384466462026950e+02
    6.0503517214672509e-02 -1.5354363050111722e+01
    3.5112009681803419e-02 -8.8363742846476079e+00
    9.4912059877878679e-03 -1.8895509372227637e+00
    7.9791966703151238e-03 -1.1840858518775650e+00
    7.9947268026867944e-03 -1.1829159695772904e+00
    8.4133357121848711e-03 -1.4470227438821930e+00
    9.2406973791812428e-03 -1.7920324567280554e+00
    1.0707173826707611e-02 -2.2811927494466699e+00
    1.0409759571013297e-02 -2.1921548119396737e+00
    9.0591122940706613e-03 -1.7222251625385980e+00
    8.6000017983833728e-03 -1.5397994781122366e+00
    8.2708618558766257e-03 -1.3774474805163643e+00
    8.2021967618199632e-03 -1.3316283747027287e+00
    8.2108760287816340e-03 -1.3307335599304511e+00
    8.4995366166617254e-03 -1.4902341552761731e+00
    8.0576357451430571e-03 -1.2370850761208769e+00
    8.0767123263846361e-03 -8.0881287762974574e-01
    8.1014769228640784e-03 -7.9850822860609050e-01
    7.9639072168386955e-03 -8.6660415682979552e-01
    7.9196715819684262e-03 -1.1350693859093357e+00
    1.1095131380619801e-02 -2.4113418867213703e+00
    2.6125904099878056e-02 -6.5003343882259887e+00
    1.4288715340216751e+00 -3.6391308113635159e+02
    1.3189483039004848e+00 -3.3602573244519522e+02
    1.8000447060415496e+00 -4.5867341696287849e+02
    1.0275228995931185e+00 -2.6166499291389567e+02
    1.1651961058767768e+00 -2.9683247886229259e+02 1. -255. 1. -255. 1.
    -255. 1.8870240174505601e+00 -4.8085671513034464e+02
    1.1043581808686866e+00 -2.8128515438033025e+02
    1.5807993840097487e+00 -4.0266028528941990e+02
    1.0545213153906947e+00 -2.6858257451868570e+02
    1.0418916164483136e+00 -2.6529549948441513e+02
    4.3068793604350307e-02 -1.0874688660230923e+01
    2.7521445046134095e-02 -6.8625942527062733e+00
    8.8448097633165162e-03 -1.6463848317029106e+00
    7.9702489058004235e-03 -1.1794455042184793e+00
    7.9639909071359469e-03 -1.1691105048338410e+00
    8.2501787470376335e-03 -1.3618712782346256e+00
    8.7634712299263749e-03 -1.6066363921531688e+00
    1.0373532353996212e-02 -2.1783980241604954e+00
    9.6420405542296753e-03 -1.9377857072499434e+00
    8.8516152174989617e-03 -1.6418065542026872e+00
    8.5468444472904855e-03 -1.5113850244132667e+00
    8.2566103815954282e-03 -1.3664690181540433e+00
    8.2448675193279534e-03 -1.3601422271600196e+00
    8.5806835196635019e-03 -1.5255513957153641e+00
    9.5863880537048526e-03 -1.9159225727671345e+00
    8.3188601568501032e-03 -1.4000431039924119e+00
    8.0821669683768891e-03 -8.0519867246342158e-01
    8.1180760087990519e-03 -7.9344773277561698e-01
    8.0063230062467263e-03 -8.3655940829194431e-01
    7.8725062766590425e-03 -1.0764572770234231e+00
    1.0390117947408923e-02 -2.1900571186573266e+00
    2.3205771569542614e-02 -5.7379452431753224e+00
    1.2294944248709270e+00 -3.1309308977646674e+02
    1.2611156239940662e+00 -3.2125191143283445e+02
    1.5281420287759622e+00 -3.8923776308488823e+02
    1.4090117101628670e+00 -3.5902153442687887e+02
    1.5316083552865831e+00 -3.9019500033616436e+02 1. -255. 1. -255.
    2.1794543196237559e+01 -5.5575625349916400e+03
    1.2548951621742930e+00 -3.1958261542520131e+02
    9.5863464530151421e-01 -2.4415251402972447e+02
    1.7409066456388929e+00 -4.4361533393849794e+02
    1.6576669429611386e+00 -4.2242529544362009e+02
    1.7205903444242749e+00 -4.3831131539849531e+02
    3.5253558172134297e-02 -8.8713273527721661e+00
    2.4989016242166876e-02 -6.2082943917591003e+00
    8.4736863270701863e-03 -1.4860235779276565e+00
    7.9726785715873959e-03 -1.1746581295441960e+00
    7.9416155238324071e-03 -1.1364217252120348e+00
    8.1859440420497236e-03 -1.3243959423981206e+00
    8.6099389892587037e-03 -1.5407612972276183e+00
    1.0004297005086600e-02 -2.0593655429964342e+00
    9.1667104713552567e-03 -1.7626771996247812e+00
    8.5800929497603356e-03 -1.5257903266418744e+00
    8.3090361137856759e-03 -1.3979339725022495e+00
    8.2222158515335431e-03 -1.3484260532045569e+00
    8.2995438706215535e-03 -1.3901385791566603e+00
    8.8592191919922101e-03 -1.6407872034316713e+00
    1.0415855938530862e-02 -2.1932848039677295e+00
    8.8288701064813714e-03 -1.6337134958638841e+00
    8.0602476836316196e-03 -8.1150029527060785e-01
    8.1082184150925111e-03 -7.9058550736356659e-01
    8.0233841094292640e-03 -8.2480050105518943e-01
    7.8603964908434566e-03 -1.0370085108827105e+00
    9.9731775126679148e-03 -2.0541168798085030e+00
    2.3238990112354665e-02 -5.7463060656300442e+00
    1.6095192387102224e+00 -4.0999616337465903e+02
    2.3059755920341827e+00 -5.8779025945306762e+02
    1.4695784690930760e+00 -3.7442937159050990e+02
    1.1806653225011869e+00 -3.0075830034895745e+02
    1.5731282031222524e+00 -4.0077598217855899e+02 1. -255.
    7.2648477404485217e+00 -1.8524901937653829e+03 1. -255.
    1.3849410661733572e+00 -3.5281227569936510e+02
    1.4509531799979458e+00 -3.6969613588162849e+02
    8.5432801547015144e-02 -2.1722641578163206e+01
    8.5435070483419306e-02 -2.1725922132615850e+01
    8.5448097815037469e-02 -2.1733381165782525e+01
    3.8468358747058576e-02 -9.6954060711336556e+00
    2.7444095727125327e-02 -6.8348536126491366e+00
    8.4069844258058361e-03 -1.4531135591178193e+00
    7.9517688301808821e-03 -1.1543149992976502e+00
    7.8970294899922879e-03 -1.0837590049029502e+00
    8.1775317923957914e-03 -1.3235524979937139e+00
    8.6325416436965965e-03 -1.5493955281381604e+00
    1.0193005017420291e-02 -2.1195214209535784e+00
    9.2959279935561513e-03 -1.8133531436037602e+00
    8.6539815561834186e-03 -1.5566577540998117e+00
    8.3480052432160206e-03 -1.4184564183304185e+00
    8.3086954122393933e-03 -1.3904794590208647e+00
    8.3553385568427823e-03 -1.4187153341960643e+00
    8.9280108208974456e-03 -1.6686904275438130e+00
    1.0910480121329105e-02 -2.3496202316983807e+00
    9.1635154556679553e-03 -1.7627587896175432e+00
    8.0528251430658816e-03 -8.1612154899282452e-01
    8.1111244618890573e-03 -7.9015015195723048e-01
    8.0310935599334134e-03 -8.3103180786416464e-01
    7.8548632520425710e-03 -1.0195082215024536e+00
    9.5834517751338163e-03 -1.9169531923117351e+00
    2.3196715283437686e-02 -5.7365379019505607e+00
    1.4448466636827313e+00 -3.6800610307964655e+02
    1.4102147232908349e+00 -3.5921798668804939e+02
    2.1647446759202160e+00 -5.5173130707435735e+02
    1.3131201548957472e+00 -3.3442732484991501e+02
    1.3090726381073263e+00 -3.3347658840966972e+02 1. -255.
    1.0897271607534282e+01 -2.7787582798722651e+03
    8.6486282618724805e-02 -2.2008022018787656e+01
    8.5380368049092353e-02 -2.1705706984497315e+01
    8.4998015937873289e-02 -2.1567618921754793e+01
    2.3883109185965168e+00 -6.0880262312502396e+02
    8.6296004145398153e-01 -2.1962150995923355e+02
    1.0051490782369128e+00 -2.5593555390415500e+02
    3.8399843251679583e-02 -9.6827554116608585e+00
    3.2765645747674467e-02 -8.2274259969070940e+00
    8.6855371190908050e-03 -1.5801080946275070e+00
    7.9566290889826578e-03 -1.1519486734840398e+00
    7.8947937613215984e-03 -1.0913303198799054e+00
    8.2618404680212844e-03 -1.3685547004802261e+00
    8.7809640932675539e-03 -1.6140301214979513e+00
    1.0979500742556996e-02 -2.3700433691496765e+00
    9.6142357054251493e-03 -1.9271877453908548e+00
    8.7045372204823494e-03 -1.5818017257879065e+00
    8.3479105353151169e-03 -1.4179295888370367e+00
    8.3064227566337547e-03 -1.3985106921796557e+00
    8.3596804480092820e-03 -1.4186412993185034e+00
    8.9819168385904067e-03 -1.6930155273077214e+00
    1.1242187932304928e-02 -2.4508918400267130e+00
    9.4235872675445444e-03 -1.8567250255074264e+00
    7.9870480570744095e-03 -8.5481634585524213e-01
    8.1053751497225466e-03 -7.9124877410962380e-01
    8.0240109767803942e-03 -8.2533893496398347e-01
    7.8582486523119180e-03 -1.0202128809408666e+00
    9.5276578540245075e-03 -1.9015516630937266e+00
    2.1724832919327655e-02 -5.3499005218173838e+00
    1.0804557191450637e+00 -2.7508083487490956e+02
    1.2624568182010285e+00 -3.2156160133304803e+02
    1.3222233145931612e+00 -3.3683499464227600e+02
    9.1743386587247278e-01 -2.3360111421915713e+02
    8.5389349198708595e-02 -2.1707449766023601e+01
    8.6144439604422626e-02 -2.1920852050140599e+01
    8.5468796940861153e-02 -2.1748563170932425e+01
    8.5468796940861153e-02 -2.1748563170932425e+01
    1.0337401210649921e+00 -2.6324388462689848e+02
    1.0769946137501218e+00 -2.7431552683133378e+02
    1.6235542740804139e+00 -4.1353365953222897e+02
    2.2244697367295325e+00 -5.6705675687503413e+02
    1.5586961955503915e+00 -3.9708936517655599e+02
    3.8644305573194614e-02 -9.7426044641281777e+00
    3.2555602643185494e-02 -8.1766761490954281e+00
    8.5498177647718044e-03 -1.5223004642946860e+00
    7.9123165880571299e-03 -1.1193424074446390e+00
    7.9082821730694815e-03 -1.0803314077438715e+00
    8.2425187965296069e-03 -1.3593548087812499e+00
    9.0471419787406700e-03 -1.7138035406563814e+00
    1.2116756651919188e-02 -2.7158661961389248e+00
    9.8320590174443400e-03 -2.0017366906338210e+00
    8.7058262493030694e-03 -1.5755892506254512e+00
    8.3186370293035009e-03 -1.4044456685802573e+00
    8.3137537718732824e-03 -1.3975174536610113e+00
    8.3616826864420617e-03 -1.4212390871643275e+00
    9.0960344519387237e-03 -1.7307412388615051e+00
    1.1378549540604625e-02 -2.4937507635582916e+00
    9.7330664653008415e-03 -1.9679069426899509e+00
    8.0143070994090453e-03 -8.4048777618486004e-01
    8.0906015027986753e-03 -7.9828975038901107e-01
    8.0282872315806508e-03 -8.2538922651769686e-01
    7.8548923884898415e-03 -9.8989872748194241e-01
    9.4464663345708629e-03 -1.8708587070840501e+00
    2.2467539283068289e-02 -5.5445052163678206e+00
    8.5781261632196279e-02 -2.1805632901529457e+01
    8.6451498789082828e-02 -2.1989686504229031e+01
    8.5366243331278166e-02 -2.1697793806045848e+01
    8.5376877760818551e-02 -2.1706620870699926e+01
    8.5336508800978247e-02 -2.1692936613831797e+01 1. -255. 1. -255. 1.
    -255. 2.0014971663359420e+00 -5.0996374319737987e+02
    1.4097406302294608e+00 -3.5910911952832492e+02
    3.2065110859671049e+00 -8.1745738318199358e+02
    2.1233413886617045e+00 -5.4111608237002235e+02
    1.5588647725089335e+00 -3.9704680405112032e+02
    3.8573893161486537e-02 -9.7304679987885727e+00
    3.5114702339043076e-02 -8.8363111088531223e+00
    8.5649365517348509e-03 -1.5297807877772664e+00
    7.8954995659488315e-03 -1.0997564722418560e+00
    7.9003411440960614e-03 -1.0970473715282758e+00
    8.3635836706320264e-03 -1.4250205578219066e+00
    9.4634261795633300e-03 -1.8769527890149953e+00
    1.3300364288737127e-02 -3.0579613927986751e+00
    1.0297139490082001e-02 -2.1580979561681986e+00
    8.8206463664787776e-03 -1.6293631952661367e+00
    8.3143453686444647e-03 -1.4040894593330875e+00
    8.2966108926794471e-03 -1.3966661805284046e+00
    8.3951447046837976e-03 -1.4376242524877296e+00
    9.1006206968118168e-03 -1.7405225076978448e+00
    1.1912499889518480e-02 -2.6569147169198399e+00
    9.7523300402725700e-03 -1.9754023456258440e+00
    7.9830047436619117e-03 -8.5497307133332689e-01
    8.0828522647932739e-03 -7.9616094808213744e-01
    7.9871126126740549e-03 -8.3841091805107659e-01
    7.8485664278753389e-03 -1.0180286099549190e+00
    9.4541402648695549e-03 -1.8764274426970422e+00
    2.0539035186877424e-02 -5.0363967505712299e+00
    8.5413334981550765e-02 -2.1701654370955914e+01
    2.2445305408044374e+00 -5.7204749363265830e+02
    1.8029722552144885e+00 -4.5944601848702030e+02
    1.1377642139824773e+00 -2.8972901670955054e+02
    2.2259654919452050e+00 -5.6729247136493836e+02
    1.0897271607534282e+01 -2.7787582798722651e+03
    2.1794543196237559e+01 -5.5575625349916400e+03 1. -255.
    2.0339039691801850e+00 -5.1815634536354946e+02
    1.0542813111288742e+00 -2.6832571479317539e+02
    2.4501768780091404e+00 -6.2443843257464596e+02
    2.2814843798741897e+00 -5.8143196227857038e+02
    1.2909398649364026e+00 -3.2856053663726300e+02
    3.8433220012698999e-02 -9.6909283179277885e+00
    3.2652653231604788e-02 -8.1933360127860979e+00
    8.2424985780032104e-03 -1.3700632446491918e+00
    7.8646457824778568e-03 -1.0157505277584640e+00
    7.8833804008179732e-03 -1.0468098012824558e+00
    8.2889333065058555e-03 -1.3864027879179130e+00
    9.9469671847154210e-03 -2.0404293529625526e+00
    1.4664689710263893e-02 -3.4420254297793447e+00
    1.0788575849179584e-02 -2.3124652272168706e+00
    9.0067134531645193e-03 -1.7010527463168652e+00
    8.4395316039864460e-03 -1.4650955644844488e+00
    8.2968167054759141e-03 -1.3966133082557335e+00
    8.4190643152331039e-03 -1.4507255613402830e+00
    9.1804550796368706e-03 -1.7715954137856214e+00
    1.2581500332086588e-02 -2.8524968664304162e+00
    9.5386353254597305e-03 -1.9025552733648508e+00
    7.9876120201128331e-03 -8.5255119688090386e-01
    8.0623474293864718e-03 -8.0669399057702995e-01
    7.9435661045346873e-03 -8.7233427518848972e-01
    7.8530361726571445e-03 -1.0314482552766158e+00
    9.3348448343745696e-03 -1.8322882458763197e+00
    2.0032087649466079e-02 -4.9007192318981776e+00
    8.5413497228844337e-02 -2.1693586718114162e+01
    2.0731131823902409e+00 -5.2825460608075036e+02
    1.6823219721417342e+00 -4.2863363344638208e+02
    9.7723650164717646e-01 -2.4864071589694331e+02
    2.0895863869709532e+00 -5.3242132130808000e+02 1. -255. 1. -255. 1.
    -255. 7.9893591588935731e-01 -2.0325671328501605e+02
    1.2373153724316384e+00 -3.1521261705191995e+02
    1.0373382080691824e+00 -2.6400695090807136e+02
    1.4829816389756425e+00 -3.7787561049333146e+02
    1.1773391076816593e+00 -2.9967254430946099e+02
    5.0055946131055372e-02 -1.2667850485322804e+01
    2.6194754350873543e-02 -6.5230464653158426e+00
    7.9118029494459549e-03 -1.1280995829922043e+00
    7.9484357197895407e-03 -8.7640726679130920e-01
    7.9384106290106282e-03 -9.1151041538930888e-01
    8.0476885584483092e-03 -1.2226034875397949e+00
    9.6734339897394730e-03 -1.9434622760398523e+00
    1.5064507899149360e-02 -3.5502023615661993e+00
    1.0635883580215350e-02 -2.2588462621373817e+00
    9.1782129507783916e-03 -1.7636884987525296e+00
    8.5552754456453394e-03 -1.5113778480843962e+00
    8.3268093798777379e-03 -1.4034011555689296e+00
    8.4219865197191282e-03 -1.4533612475811510e+00
    9.2298383471758685e-03 -1.7815340511001421e+00
    1.2945112058285852e-02 -2.9545989306702807e+00
    9.3667296425661312e-03 -1.8374006094840538e+00
    8.0187824790913329e-03 -8.4060186203284648e-01
    8.0716542995549340e-03 -8.2014138053832220e-01
    7.9459058250046215e-03 -8.7165245819148807e-01
    7.8573341120568227e-03 -1.0072803951880440e+00
    9.1583275369570092e-03 -1.7650067943059553e+00
    1.8327149189862741e-02 -4.4436377108509610e+00
    8.5460583825640674e-02 -2.1723034688253833e+01
    1.6844132710949509e+00 -4.2926952388550183e+02
    1.0192228632558782e+00 -2.5941372129067281e+02
    1.2893532621070551e+00 -3.2846138344449162e+02
    8.6901703048704604e-01 -2.2120150164420582e+02 1. -255. 1. -255. 1.
    -255. 1.0662055014045206e+00 -2.7141003333221408e+02
    6.3952238957281182e-01 -1.6253178198288771e+02
    2.2556089508137447e+00 -5.7480910630104188e+02
    7.6735605013733221e-01 -1.9512860640327622e+02
    9.1496755622463499e-01 -2.3283607932356898e+02
    4.9480707999006786e-02 -1.2517053278558874e+01
    2.0571813160008123e-02 -5.0380110026161669e+00
    7.8713736223138785e-03 -9.5024418020262602e-01
    8.1813547256217416e-03 -7.6909912493455523e-01
    8.0224797960760687e-03 -8.2954810600227080e-01
    7.9406761312440441e-03 -1.1323337153228850e+00
    9.2223291289628556e-03 -1.7818746173371418e+00
    1.3585442211878204e-02 -3.1308138818871636e+00
    1.0369068880858543e-02 -2.1774388379620606e+00
    9.0839171531763695e-03 -1.7321535189297321e+00
    8.5973999655755851e-03 -1.5338559609469726e+00
    8.3415443893662539e-03 -1.4134166227348945e+00
    8.4603634374889412e-03 -1.4668556709276712e+00
    9.2120510023373028e-03 -1.7808410494644973e+00
    1.3061686631855043e-02 -2.9843749449715888e+00
    8.9207491831824869e-03 -1.6672579101032772e+00
    8.0104998526842625e-03 -8.3753662911219284e-01
    8.0648471264188684e-03 -8.1112965624001421e-01
    8.0171190747620018e-03 -8.3437236514152802e-01
    7.8688791569393145e-03 -9.6740730799890640e-01
    8.9703368796021331e-03 -1.6940689369503472e+00
    1.5884700980331495e-02 -3.7831727714548999e+00
    4.9743571898497187e-02 -1.2576518262269836e+01
    1.0593243405612469e+00 -2.6961368870318319e+02
    1.4711631495532771e+00 -3.7480209024663333e+02
    6.9135813819093439e-01 -1.7579895577640323e+02
    1.2129746175467342e+00 -3.0888117143827731e+02 1. -255. 1. -255. 1.
    -255. 1.2699243288405682e+00 -3.2328951247369974e+02
    1.1373088861795853e+00 -2.8961066915537617e+02
    1.4465209600334026e+00 -3.6840508501103875e+02
    1.3948901184543692e+00 -3.5535561469164321e+02
    1.7812501393421067e+00 -4.5381293107010862e+02
    3.8508001829395351e-02 -9.7016604862121589e+00
    1.6754205323260416e-02 -4.0112183179315650e+00
    7.9107377197590763e-03 -8.9084252743734171e-01
    8.2226742648431259e-03 -7.5364105645958812e-01
    8.0903360686707670e-03 -8.0618321420153238e-01
    7.8998135139367789e-03 -1.0631749022807067e+00
    8.8114352315213345e-03 -1.6234418780674886e+00
    1.2107266675628003e-02 -2.7107505975056911e+00
    9.9226173533547672e-03 -2.0300126004364385e+00
    9.0434405462615237e-03 -1.7126444811723880e+00
    8.7192790802159085e-03 -1.5813350762252332e+00
    8.3865310617560040e-03 -1.4253033391178871e+00
    8.4711715220537904e-03 -1.4746093532830808e+00
    9.2796676647003001e-03 -1.8049540928580354e+00
    1.2935993223912810e-02 -2.9514805805479378e+00
    8.5926243261115372e-03 -1.5330220704351778e+00
    8.0529495413218678e-03 -8.2459485007932098e-01
    8.0743703681472115e-03 -8.0464337280548881e-01
    8.0485570068509066e-03 -8.2416204945468874e-01
    7.8765583672061896e-03 -9.3382083123105275e-01
    9.0355327144449205e-03 -1.7094312905075162e+00
    1.5926413863314774e-02 -3.7912593001416086e+00
    6.0515320595119097e-02 -1.5351996352155867e+01
    1.2509383427185783e+00 -3.1852215484753873e+02
    1.7893036039454808e+00 -4.5588737899005872e+02
    1.2759974705419286e+00 -3.2484903536435894e+02
    1.2362165785294570e+00 -3.1484662779884934e+02 1. -255. 1. -255. 1.
    -255. 1.1312906922040469e+00 -2.8793257467972239e+02
    8.3718800944037985e-01 -2.1304668620828468e+02
    1.5679813168787535e+00 -3.9940189075659032e+02
    1.3569245908861740e+00 -3.4564934378223296e+02
    1.6784466831467060e+00 -4.2749399634930217e+02
    4.9467097702185693e-02 -1.2509644587475311e+01
    1.8685811734239090e-02 -4.5380110079893097e+00
    7.8765044633610937e-03 -9.2866314016750651e-01
    8.2082331165516473e-03 -7.5735669905566738e-01
    8.1622714842065330e-03 -7.7455479189791110e-01
    7.8807464647344429e-03 -1.0342731562831227e+00
    8.3905909122239195e-03 -1.4332864041600391e+00
    1.1314172328121229e-02 -2.4715976537713940e+00
    9.6613790230471522e-03 -1.9396135608294665e+00
    8.9997992227899230e-03 -1.6956836898500474e+00
    8.6195447471959456e-03 -1.5414982883439938e+00
    8.3253016335323067e-03 -1.4039198526824987e+00
    8.4484686237566164e-03 -1.4601235224855316e+00
    9.2247664729018814e-03 -1.7824623132628912e+00
    1.1596951121176197e-02 -2.5599413285040251e+00
    8.2871604613266089e-03 -1.3860363288873196e+00
    8.0389628940066068e-03 -8.2229771290276443e-01
    8.1270153188123685e-03 -7.8363973659561026e-01
    8.0964538145053191e-03 -7.9447734139297765e-01
    7.8683349350535739e-03 -9.6255964038822051e-01
    9.2242835868350127e-03 -1.7914959882634127e+00
    1.6425794864435989e-02 -3.9282600300479640e+00
    8.5416874123819514e-02 -2.1703995224360646e+01
    1.8254548034893405e+00 -4.6522909529772005e+02
    1.2911888999192327e+00 -3.2881460109778618e+02
    1.0062152230795625e+00 -2.5623037145859161e+02
    1.3203752421501158e+00 -3.3619149282669900e+02 1. -255. 1. -255. 1.
    -255. 1.3862908884970115e+00 -3.5308010024008803e+02
    7.3671438943791112e-01 -1.8737102638037541e+02
    1.7480305236169609e+00 -4.4530893197736634e+02
    8.5921324674034705e-01 -2.1860813996548336e+02
    8.6686353860702803e-01 -2.2053995988219432e+02
    6.0498365632075994e-02 -1.5329443468861788e+01
    2.6140674228643742e-02 -6.5003694739578251e+00
    7.8631836826921989e-03 -1.0334280394451334e+00
    8.1959165375176859e-03 -7.6007615855738908e-01
    8.2078422403890176e-03 -7.5756305944046232e-01
    7.8995238518982172e-03 -9.5315921447598051e-01
    8.0514930207291873e-03 -1.2383671881502967e+00
    1.0055156694982706e-02 -2.0725926569898738e+00
    9.4201178545928032e-03 -1.8558427120202219e+00
    8.9120764031355420e-03 -1.6619142306952610e+00
    8.5506942813926168e-03 -1.5109112874099577e+00
    8.3132913569830200e-03 -1.3980886508900876e+00
    8.4681594533512258e-03 -1.4704762372276077e+00
    9.0926337824432570e-03 -1.7320316389252830e+00
    1.0523653882137959e-02 -2.2259082086822524e+00
    7.9306047097512829e-03 -1.1307804204821528e+00
    8.1083657986174250e-03 -7.9973461909528099e-01
    8.2469297654401384e-03 -7.4893953308678529e-01
    8.0894010701636366e-03 -7.9810304018186173e-01
    7.8542955610159393e-03 -1.0148445815072176e+00
    9.5418977353375171e-03 -1.9039508181608067e+00
    1.7606321814043851e-02 -4.2456493586262454e+00
    4.9604827446025207e-02 -1.2550753904587252e+01
    9.9297995874526479e-01 -2.5277415143907413e+02
    1.6765033246046066e+00 -4.2699549338162689e+02
    1.3493161644693998e+00 -3.4370555632496905e+02
    1.7071135860609683e+00 -4.3480975368173148e+02 1. -255. 1. -255. 1.
    -255. 6.8517430665413548e-01 -1.7416147924666004e+02
    1.1107893729924847e+00 -2.8290211792621466e+02
    1.1814866090865559e+00 -3.0086780833289606e+02
    1.2796610619479891e+00 -3.2593021241952920e+02
    1.0668939900104897e+00 -2.7151101547045431e+02
    6.1470114124959736e-02 -1.5596031360539891e+01
    4.2885303519894086e-02 -1.0837043819218129e+01
    8.1099750803159711e-03 -1.2916760732349661e+00
    8.1341647579395975e-03 -7.8105142361363467e-01
    8.2308632662646958e-03 -7.5619753907024256e-01
    7.9869912394181213e-03 -8.6011807556138820e-01
    7.9150516034521435e-03 -1.0736416833239641e+00
    8.5601485048709507e-03 -1.5137918314848053e+00
    8.8547128817659734e-03 -1.6352263546527099e+00
    8.5255356990858698e-03 -1.4973646560103349e+00
    8.3465940393118426e-03 -1.4138320295577786e+00
    8.2439545015399497e-03 -1.3595046234638677e+00
    8.3587806771896617e-03 -1.4194937776590335e+00
    8.6463757543049722e-03 -1.5486133249735758e+00
    8.7295800616088697e-03 -1.5907910062902728e+00
    7.9244972789616827e-03 -9.2011103849142439e-01
    8.3143853683039677e-03 -7.3210443484578624e-01
    8.2619108254765247e-03 -7.3973733213760273e-01
    8.0429353420100273e-03 -8.2044727775710724e-01
    7.9132960588191130e-03 -1.1181620888850796e+00
    1.0577032706689611e-02 -2.2480434240564096e+00
    1.8698447446166899e-02 -4.5394623236713283e+00
    8.6031710749742737e-02 -2.1854958554426208e+01
    1.1547656429927182e+00 -2.9411929651313267e+02
    1.2548292003483974e+00 -3.1959493751658215e+02
    8.6027250183995707e-01 -2.1893390695559921e+02
    9.3206733483614523e-01 -2.3728389302674609e+02 1. -255. 1. -255. 1.
    -255. 2.2317808964041390e+00 -5.6873687349883699e+02
    1.0404147741638166e+00 -2.6482287447861705e+02
    2.0081861473608638e+00 -5.1161295945781262e+02
    2.6617454801991265e+00 -6.7841939863674452e+02
    1.3259272963149829e+00 -3.3755199756609488e+02
    1.5263345704869875e+00 -3.8875805912606126e+02
    8.5428465397762401e-02 -2.1706580050719630e+01
    9.0256399903497504e-03 -1.7179943934373751e+00
    7.9868566219371741e-03 -8.4289982205861858e-01
    8.2091166812593326e-03 -7.5619126931186964e-01
    8.1218525974653000e-03 -7.8321046493152202e-01
    7.9077182411269441e-03 -9.0730222899512425e-01
    7.8672952947342299e-03 -1.0076445091631119e+00
    7.9532937349165739e-03 -1.1593855215222162e+00
    8.0002981648995847e-03 -1.1957745233937571e+00
    7.9246792942503554e-03 -1.1375425721113801e+00
    7.9411164914447580e-03 -1.1530032050088843e+00
    7.9755881692177427e-03 -1.1837691022552232e+00
    7.9161958867855695e-03 -1.1155823899694144e+00
    7.8722256161620572e-03 -9.7522592443256539e-01
    8.3305908227701477e-03 -7.1455027654296599e-01
    8.4503327408626452e-03 -6.8850601361205765e-01
    8.3154726509979196e-03 -7.2286719532567356e-01
    7.9298594516946028e-03 -8.7879237792840892e-01
    8.1948737362205430e-03 -1.3447545758453718e+00
    1.1654347611447367e-02 -2.5801840471419553e+00
    2.1758898494846822e-02 -5.3566368467588097e+00
    1.4115835394701726e+00 -3.5941478015847184e+02
    2.1582721373016094e+00 -5.5002700288949893e+02
    1.9033075024422659e+00 -4.8491376353889314e+02
    1.1098754838872267e+00 -2.8258506914120244e+02
    1.7186552207402293e+00 -4.3785823725019009e+02 1. -255. 1. -255. 1.
    -255. 1.7982432417721899e+00 -4.5811953777097591e+02
    1.5150653342017488e+00 -3.8608595299204484e+02
    2.6215065938637019e+00 -6.6831273269176347e+02
    1.8685616901344353e+00 -4.7614815135630329e+02
    1.5264295400104764e+00 -3.8882733232055892e+02
    4.1546990596837166e+00 -1.0593080172131135e+03
    8.5367111383786873e-02 -2.1697113944596953e+01
    1.1341201540945605e-02 -2.4886998672572069e+00
    7.8668247374085055e-03 -1.0156170316054347e+00
    8.2355593106148515e-03 -7.5101698565680797e-01
    8.3544266199846832e-03 -7.1171254623413815e-01
    8.4851731573605312e-03 -6.8174965089645245e-01
    8.3823521853428531e-03 -7.0539085225518083e-01
    8.2143349221584956e-03 -7.5207955053129616e-01
    8.0498114054118729e-03 -8.1999386898503557e-01
    7.9783730725936520e-03 -8.5058882879841269e-01
    7.9842440236847119e-03 -8.4656568806402155e-01
    8.0259577891374050e-03 -8.3060196917372631e-01
    8.3817882904256499e-03 -7.0449461073957353e-01
    9.3011395701813309e-03 -5.5938309225139071e-01
    9.2163739368072428e-03 -5.6842083474393024e-01
    8.5660814750977525e-03 -6.6528092266407923e-01
    8.2786151978020573e-03 -7.3695394150054383e-01
    7.8693612968045619e-03 -9.8582842574737317e-01
    9.1862998183949336e-03 -1.7792932490021529e+00
    1.2919277331055953e-02 -2.9521093818649820e+00
    2.4056855456954535e-02 -5.9637655217824888e+00
    1.3019963707503610e+00 -3.3158880989002387e+02
    1.5364284340077710e+00 -3.9136462593600055e+02
    1.6915199897563733e+00 -4.3108779485774238e+02
    1.6673611039335277e+00 -4.2489567034626754e+02
    1.6126927437758058e+00 -4.1074671769003788e+02
    2.1794543196237559e+01 -5.5575625349916400e+03 1. -255.
    2.1794543196237559e+01 -5.5575625349916400e+03
    1.7230099284182125e+00 -4.3904764804685345e+02
    8.2733223046244009e-01 -2.1055430722604444e+02
    1.5206921131570479e+00 -3.8736904603147980e+02
    1.5970190866879859e+00 -4.0705792822214283e+02
    1.6450302918885737e+00 -4.1920161166018761e+02
    8.5317910948274026e-02 -2.1682809085573702e+01
    6.0744178961280128e-02 -1.5416334380812481e+01
    1.2462716374391421e-02 -2.8209384806085560e+00
    8.1516217403906216e-03 -1.3054461069436956e+00
    8.2900090458616228e-03 -7.3761842090551455e-01
    8.8916683804646339e-03 -6.1633893735980172e-01
    9.8157779200133046e-03 -5.1211854000406964e-01
    1.0931737573450730e-02 -4.3477872728838224e-01
    1.0944979688948375e-02 -4.3650610978877646e-01
    1.0752489051538970e-02 -4.4516212056413657e-01
    1.0364043236747047e-02 -4.6712535803768757e-01
    1.0127880697556281e-02 -4.8374518774825781e-01
    1.0992489314952461e-02 -4.3230167367094691e-01
    1.1703028119037978e-02 -3.9726101779603606e-01
    1.1695784155292146e-02 -3.9671902457550023e-01
    1.0178400376313058e-02 -4.8162730388254338e-01
    9.0179867661656088e-03 -5.9545348060643710e-01
    8.2730513714516264e-03 -7.4049045882955000e-01
    7.9359464039545132e-03 -1.1272727244267033e+00
    1.0098744214906905e-02 -2.0960646695168168e+00
    1.4857660990569305e-02 -3.4990418538317742e+00
    3.8402066622120083e-02 -9.6749712952467473e+00
    1.6971922514744742e+00 -4.3244028898645178e+02
    1.8330146137777095e+00 -4.6721376918308340e+02
    1.3102123794340843e+00 -3.3373375916319327e+02
    7.3506484809845118e-01 -1.8696079765136977e+02
    1.5504442681971318e+00 -3.9502310652551648e+02
    6.3048863876144567e+00 -1.6076662201532356e+03
    5.0083774850219243e+00 -1.2770622953000102e+03 1. -255.
    1.3296311929458562e+00 -3.3871653358020927e+02
    1.1089881279219627e+00 -2.8244804592220061e+02
    1.8047356558709997e+00 -4.5995249248140163e+02
    1.0014452034846604e+00 -2.5502626080638478e+02
    9.9211606916333950e-01 -2.5264424077713269e+02
    2.1608721421080492e+00 -5.5078989733618653e+02
    3.8496819876888397e-02 -9.7016046935737332e+00
    1.0253233574093083e-02 -2.1466031370436731e+00
    8.7158515717362748e-03 -1.5829567811309297e+00
    7.9079107604585440e-03 -9.4454488526185854e-01
    8.7339163344532997e-03 -6.3720737273853167e-01
    9.7422703662085521e-03 -5.1932055979534064e-01
    1.2222430019468549e-02 -3.7644568745616319e-01
    1.6180832968208832e-02 -2.7046569537366788e-01
    2.4153633275384674e-02 -1.8843910517378171e-01
    2.6240970503903525e-02 -1.7565949242380988e-01
    1.7621152086644481e-02 -2.4769986572428729e-01
    1.6184613154168973e-02 -2.7496769985342351e-01
    1.4322206647864580e-02 -3.0992167423448730e-01
    1.1397267042172409e-02 -4.1068633139304794e-01
    1.0209087021416489e-02 -4.8385472560363169e-01
    9.0648646390741414e-03 -5.8831736475071272e-01
    8.0453850751736090e-03 -8.3279919559787585e-01
    8.1958061642056317e-03 -1.3297954862378201e+00
    1.0850876155030683e-02 -2.3362119498931357e+00
    1.6679128833438920e-02 -3.9990850480833329e+00
    8.5754175960028378e-02 -2.1809783587201142e+01
    8.7810908856335490e-01 -2.2353248701314669e+02
    7.3564092648614277e-01 -1.8713370462641274e+02
    1.6581537284839558e+00 -4.2252835430634201e+02
    1.1316549628162935e+00 -2.8815659787357674e+02
    9.1247706789199901e-01 -2.3230049100561877e+02 1. -255.
    2.1794543196237559e+01 -5.5575625349916400e+03
    6.0738282495663848e-02 -1.5422910719785023e+01
    1.6881587995400000e+00 -4.3012790375368218e+02
    2.2407403098322045e+00 -5.7110514099330931e+02
    1.6794577956737891e+00 -4.2790033558635474e+02
    2.0654035931805224e+00 -5.2631189537110254e+02
    1.6845728267659317e+00 -4.2925687707862767e+02
    1.1454890701757527e+00 -2.9178071593856549e+02
    2.6124242723259600e-02 -6.4970550737257620e+00
    9.8566445708586220e-03 -2.0154134848261975e+00
    9.3078747178651396e-03 -1.8140930003920197e+00
    8.2829029452836222e-03 -1.3761501534746325e+00
    7.9028988319913632e-03 -9.6148601232759057e-01
    8.5262266237989409e-03 -6.7652190574067128e-01
    9.7404484958438526e-03 -5.1803157411756895e-01
    1.2318878967579515e-02 -3.7304892130935940e-01
    1.3580565793107933e-02 -3.3020257545478676e-01
    1.4334813979362350e-02 -3.0828922722704599e-01
    1.3303893005925988e-02 -3.3644254316884986e-01
    1.2617597200069755e-02 -3.6159797545516364e-01
    1.1060812917956632e-02 -4.3004160604435182e-01
    9.8079921318142745e-03 -5.0968451938997728e-01
    8.8807626158674251e-03 -6.1578908205846972e-01
    8.1426140814573073e-03 -7.8093509734820499e-01
    8.0182553602641884e-03 -1.2017233350066834e+00
    8.6069339031108472e-03 -1.5348124222794186e+00
    1.0242110874089020e-02 -2.1423514068213168e+00
    1.9586034136684825e-02 -4.7758932733168118e+00
    1.0108930945181183e+00 -2.5737252878997157e+02
    1.1490917532381750e+00 -2.9268869986383510e+02
    2.0527175661628090e+00 -5.2310952103270927e+02
    1.8713118340132038e+00 -4.7681341363877362e+02
    1.3478751701135678e+00 -3.4342380652872487e+02
    1.5158321167227653e+00 -3.8625257149766315e+02
    9.7550690572244871e+00 -2.4874808686488441e+03 1. -255.
    4.9450403624533575e-02 -1.2529835077040834e+01
    1.4299179288939385e+00 -3.6421276664814974e+02
    8.9004550707504904e-01 -2.2661797914001357e+02
    2.2930682292315532e+00 -5.8445664974293595e+02
    2.0179167031566791e+00 -5.1431332681088270e+02
    1.4863608949366622e+00 -3.7859869757421501e+02
    9.0168673203640060e-01 -2.2963145671795363e+02
    2.0590523756396660e-02 -5.0501517506828062e+00
    9.8954508213868631e-03 -2.0287135537339900e+00
    9.5579317974368687e-03 -1.9042868419543102e+00
    9.2364454485700433e-03 -1.7851282015685690e+00
    8.4368045945732439e-03 -1.4540138551280344e+00
    7.9228053147648459e-03 -1.0991638765800342e+00
    7.9667898168256264e-03 -8.7511992698873398e-01
    8.4225498872128463e-03 -6.9937371521268021e-01
    9.0791365804796624e-03 -5.8979910039267880e-01
    9.2216101830637602e-03 -5.6928851725065766e-01
    9.5531039746682457e-03 -5.3334133013005436e-01
    9.2375648050948347e-03 -5.7056579071468660e-01
    8.9011258290937600e-03 -6.1109796778558889e-01
    8.2540111154037945e-03 -7.4334857910201935e-01
    7.9076071209068285e-03 -9.3221345634842334e-01
    8.0648873349833186e-03 -1.2400359786095343e+00
    8.6478135257391613e-03 -1.5506040492955633e+00
    9.2730946811060231e-03 -1.8030300107484691e+00
    1.1362400773914091e-02 -2.4938551993969460e+00
    2.0058682159286023e-02 -4.9069291795313328e+00
    1.1321713465744638e+00 -2.8835018839907684e+02
    1.2595118193563024e+00 -3.2068393231859778e+02
    1.4458142220179677e+00 -3.6839895420393265e+02
    1.9164072407231547e+00 -4.8839274655037053e+02
    7.8172600523320401e-01 -1.9898225255148051e+02
    1.3820416748585389e+00 -3.5198618782826514e+02
    7.7136929766189120e+00 -1.9669266145823237e+03
    9.7550690572244871e+00 -2.4874808686488441e+03
    8.5797629931018748e-02 -2.1831333641308380e+01
    1.4966464346358601e+00 -3.8127857292830942e+02
    2.2097241739764897e+00 -5.6323258550066998e+02
    1.4221991218156502e+00 -3.6227072145152238e+02
    1.2494641559734847e+00 -3.1829703973375166e+02
    1.5539647279433513e+00 -3.9596922743824035e+02
    1.5561405407193267e+00 -3.9647112320668668e+02
    1.9172728854363275e-02 -4.6677909489314811e+00
    1.1753860022414244e-02 -2.6104232034168140e+00
    1.0471571803547006e-02 -2.2090156282284221e+00
    1.0536987330329870e-02 -2.2274835537420121e+00
    1.0638360834990203e-02 -2.2605170146400386e+00
    9.5665107105546623e-03 -1.9045227493702335e+00
    8.6458477510778352e-03 -1.5508535003958690e+00
    8.0853113398332236e-03 -1.2558501309786523e+00
    7.9074592187759109e-03 -1.0756313249979206e+00
    7.8849413940257195e-03 -1.0093723078200267e+00
    7.8904786798350279e-03 -9.5967530779006194e-01
    7.8960318724239989e-03 -9.8940277854588821e-01
    7.9185667863774841e-03 -1.0952680920854021e+00
    8.3401690664051519e-03 -1.4020985489990736e+00
    8.6783097857215767e-03 -1.5659588908914603e+00
    9.2585512880104595e-03 -1.7937368816045920e+00
    9.9799135791967756e-03 -2.0467455252052695e+00
    1.0913788603485752e-02 -2.3488361114080001e+00
    1.3174991682938836e-02 -3.0244110654442506e+00
    2.1188772599092732e-02 -5.2026930120633050e+00
    8.5422572068558675e-02 -2.1717697758248814e+01
    1.1693335611111293e+00 -2.9779521412651661e+02
    1.5331217828550165e+00 -3.9066142442361729e+02
    1.3742132614826197e+00 -3.4996920977500309e+02
    1.3395818039963197e+00 -3.4133335679972043e+02
    1.3707897842782062e+00 -3.4913495252483278e+02 1. -255.
    5.4486358049440788e+00 -1.3893561502117532e+03
    9.7550690572244871e+00 -2.4874808686488441e+03
    1.2318879366984297e+00 -3.1379356429740170e+02
    6.7822056154511201e-01 -1.7256277671616792e+02
    2.3328251954052979e+00 -5.9465879722623617e+02
    1.1048350745198705e+00 -2.8137165827144764e+02
    1.5333142853410473e+00 -3.9061990129129288e+02
    1.9738352326141131e+00 -5.0303648966199336e+02
    4.9855286674058197e-02 -1.2622748542279322e+01
    1.6658334903506551e-02 -3.9957511501879344e+00
    1.4177007898154306e-02 -3.3032129309705902e+00
    1.4718105119860823e-02 -3.4495636501810512e+00
    1.5956658939461615e-02 -3.7897738257969835e+00
    1.5521945454056479e-02 -3.6704161523584817e+00
    1.3066030254577752e-02 -2.9866354008285563e+00
    1.1852229154658629e-02 -2.6332452579685657e+00
    1.1125034280513656e-02 -2.4102363298196381e+00
    1.0470945668167805e-02 -2.2092811735727049e+00
    1.0092443828581748e-02 -2.0857504324979734e+00
    1.0430619281114788e-02 -2.1938849166019008e+00
    1.1237718048708635e-02 -2.4474042914940766e+00
    1.1265226652523117e-02 -2.4541557691832110e+00
    1.2314242208487331e-02 -2.7682884114130473e+00
    1.3064522508180527e-02 -2.9861253861999719e+00
    1.3881828030414389e-02 -3.2158689673749214e+00
    1.5755545377623935e-02 -3.7376873651427815e+00
    2.0032937460457517e-02 -4.9017301406410612e+00
    3.5357224006715329e-02 -8.8939082969803422e+00
    1.5709753579180634e+00 -4.0022420104664889e+02
    1.9888423118271032e+00 -5.0682331579727349e+02
    9.8252322864311514e-01 -2.5015787621427364e+02
    1.3409319407803202e+00 -3.4160948433963455e+02
    6.9003821105236551e-01 -1.7558269762286255e+02
    1.4435662969283378e+00 -3.6767694492735097e+02
    9.7550690572244871e+00 -2.4874808686488441e+03 1. -255.
    4.1300230990687563e+00 -1.0530687589735230e+03
    1.9913681387042310e+00 -5.0741656629653653e+02
    2.0545100383459287e+00 -5.2367467049130471e+02
    2.0378098375055411e+00 -5.1924598429165451e+02
    3.0334175151114651e+00 -7.7319508598787365e+02
    1.6661142937061657e+00 -4.2453224905263619e+02
    2.3009437632014271e+00 -5.8641542073000426e+02
    1.2212277282519184e+00 -3.1105752339095062e+02
    4.2883165259716888e-02 -1.0838222429923130e+01
    2.7464771151641219e-02 -6.8431316509517535e+00
    2.8870500933567963e-02 -7.2037990652233832e+00
    2.7451234943149910e-02 -6.8368053507885866e+00
    2.8832829367217545e-02 -7.1952508172153200e+00
    2.7387226063166563e-02 -6.8204593109713789e+00
    2.5059317051434743e-02 -6.2134946703334899e+00
    2.6154396951587930e-02 -6.4972156984166221e+00
    2.0571900190920884e-02 -5.0370775024436245e+00
    1.8713536190811619e-02 -4.5433623308831246e+00
    2.0101307562011662e-02 -4.9072211066206313e+00
    1.9606506383827334e-02 -4.7784447900263745e+00
    2.0592498781181731e-02 -5.0402530191906347e+00
    2.4158138644831063e-02 -5.9775083854044757e+00
    2.7403452610368008e-02 -6.8262347331573672e+00
    2.6216348681569628e-02 -6.5141542510926316e+00
    2.8857798683614572e-02 -7.2055609818576354e+00
    3.5116072606399484e-02 -8.8366559247808389e+00
    6.0607947201179506e-02 -1.5363603156028953e+01
    2.4552994791068037e+00 -6.2577502989969537e+02
    1.4154615149109535e+00 -3.6060225884933988e+02
    2.2886002621786923e+00 -5.8320680520794144e+02
    1.7178423828782816e+00 -4.3762215910826637e+02
    1.8028548788789125e+00 -4.5942751830097620e+02
    2.2318551146872152e+00 -5.6874166128260345e+02 1. -255.
    5.0083774850219243e+00 -1.2770622953000102e+03 1. -255.
    9.7550690572244871e+00 -2.4874808686488441e+03 1. -255. 1. -255.
    1.0897271607534282e+01 -2.7787582798722651e+03
    2.1794543196237559e+01 -5.5575625349916400e+03 1. -255.
    2.1794543196237559e+01 -5.5575625349916400e+03
    6.0499552749912040e-02 -1.5362291495737159e+01
    6.0737538016298567e-02 -1.5422849816834836e+01
    6.0618366281128738e-02 -1.5392333222005007e+01
    6.0618565061049963e-02 -1.5392511583856484e+01
    6.0500092864843591e-02 -1.5362173369254949e+01
    6.0856468387178592e-02 -1.5453306127607547e+01
    6.0737538016298567e-02 -1.5422849816834836e+01
    4.2912576598969125e-02 -1.0850454046335546e+01
    4.9579366646261766e-02 -1.2562930358191059e+01
    3.8385458964463229e-02 -9.6850400102425738e+00
    3.8415540996723375e-02 -9.6927110570551243e+00
    4.2870567902518829e-02 -1.0839741694339413e+01
    4.9579366646261766e-02 -1.2562930358191059e+01
    6.0499822312763747e-02 -1.5362232307472430e+01
    6.1095823554510785e-02 -1.5514214570285096e+01
    6.0498962878143242e-02 -1.5361758808279928e+01
    6.0618565061049963e-02 -1.5392511583856484e+01
    6.0499552749912040e-02 -1.5362291495737159e+01
    8.5468848349747217e-02 -2.1748395938515635e+01 1. -255. 1. -255.
    7.7136929766189120e+00 -1.9669266145823237e+03
    2.1794543196237559e+01 -5.5575625349916400e+03 1. -255.
    2.1794543196237559e+01 -5.5575625349916400e+03 1. -255. 1. -255. 1.
    -255. 1. -255. 4.3633388052687661e+00 -1.1125869578506304e+03
    2.1794543196237559e+01 -5.5575625349916400e+03 1. -255. 1. -255.
    5.4486358049440788e+00 -1.3893561502117532e+03
    2.1794543196237559e+01 -5.5575625349916400e+03
    8.5468848349747217e-02 -2.1748395938515635e+01
    8.5459928212143835e-02 -2.1745224645017839e+01
    8.5467585385273923e-02 -2.1747894253320766e+01
    8.6144439604422626e-02 -2.1920852050140599e+01
    8.6144439604422626e-02 -2.1920852050140599e+01
    8.5441567441211633e-02 -2.1740372502003488e+01
    1.0897271607534282e+01 -2.7787582798722651e+03
    7.2648477404485217e+00 -1.8524901937653829e+03
    5.1424619835468199e+00 -1.3112627113489511e+03
    2.1794543196237559e+01 -5.5575625349916400e+03
    2.1794543196237559e+01 -5.5575625349916400e+03
    1.0897271607534282e+01 -2.7787582798722651e+03
    8.5441638234429698e-02 -2.1740210258522918e+01
    8.5468848349747217e-02 -2.1748395938515635e+01
    8.5468796940861153e-02 -2.1748563170932425e+01
    8.5467642349461331e-02 -2.1747728436821159e+01
    9.7550690572244871e+00 -2.4874808686488441e+03
    8.5468848349747217e-02 -2.1748395938515635e+01
    8.5805337474060772e-02 -2.1834199956611478e+01
    1.0897271607534282e+01 -2.7787582798722651e+03 1. -255. 1. -255.
    2.1794543196237559e+01 -5.5575625349916400e+03
    6.0506255928296682e+00 -1.5428457010070840e+03
    1.0897271607534282e+01 -2.7787582798722651e+03 1. -255. 1. -255. 1.
    -255. 7.2648477404485217e+00 -1.8524901937653829e+03
    1.0897271607534282e+01 -2.7787582798722651e+03 1. -255.
    5.4486358049440788e+00 -1.3893561502117532e+03
    5.4486358049440788e+00 -1.3893561502117532e+03 1. -255. 1. -255. 1.
    -255. 1. -255. 8.9133023625018630e+00 -2.2728168846965195e+03 1.
    -255. 6.5801607949578704e+00 -1.6778715917354073e+03
    5.8345366727351324e+00 -1.4877329966528671e+03
    5.4486358049440788e+00 -1.3893561502117532e+03
    2.1794543196237559e+01 -5.5575625349916400e+03
    1.0897271607534282e+01 -2.7787582798722651e+03
    6.9110603460301174e+00 -1.7622329064611479e+03
    2.1794543196237559e+01 -5.5575625349916400e+03
    2.1794543196237559e+01 -5.5575625349916400e+03 1. -255.
    8.9133023625018630e+00 -2.2728168846965195e+03
    9.7550690572244871e+00 -2.4874808686488441e+03
    5.2885846262830745e+00 -1.3485332929445228e+03
    7.2648477404485217e+00 -1.8524901937653829e+03 1. -255. 1. -255. 1.
    -255. 5.4486358049440788e+00 -1.3893561502117532e+03
    2.1794543196237559e+01 -5.5575625349916400e+03
