<?xml version="1.0"?>
<opencv_storage>
<opencv_ml_svm>
  <format>3</format>
  <svmType>C_SVC</svmType>
  <kernel>
    <type>LINEAR</type></kernel>
  <C>1.0000000000000001e-01</C>
  <term_criteria><iterations>100</iterations></term_criteria>
  <var_count>1504</var_count>
  <class_count>10</class_count>
  <class_labels type_id="opencv-matrix">
    <rows>10</rows>
    <cols>1</cols>
    <dt>i</dt>
    <data>
      0 1 2 3 4 5 6 7 8 9</data></class_labels>
  <sv_total>45</sv_total>
  <support_vectors>
    <_>
      -3.38813179e-21 -4.84343676e-09 -7.42156061e-08 -3.38813179e-21
      -3.20036904e-08 -3.38813179e-21 -7.26515514e-09 -3.38813179e-21
      -1.99343361e-07 6.61270363e-08 -5.00319538e-06 1.43714757e-07
      7.89359476e-08 -6.39224993e-08 -6.02820535e-07 4.53030768e-09
      -8.21255028e-08 -4.83359543e-07 -1.02718253e-07 7.89359476e-08
      -1.58586261e-07 -2.93830226e-07 -5.49652519e-08 -2.63541722e-08
      7.89359476e-08 -3.38813179e-21 -3.38813179e-21 2.36807836e-07
      -3.38813179e-21 -3.38813179e-21 -3.38813179e-21 7.89359476e-08
      -4.94770696e-08 -3.38813179e-21 -4.84343676e-09 -3.38813179e-21
      -1.24488551e-07 -9.18262515e-08 -6.22442755e-08 -1.60996024e-07
      -6.55910952e-08 -2.78651072e-07 1.29622890e-07 -2.73815374e-07
      -1.28942489e-07 3.35356020e-07 2.05539806e-07 -2.10172416e-07
      7.27797058e-08 -5.15768932e-07 -1.82841987e-07 -2.52987007e-07
      -4.08599874e-07 -1.21462733e-07 -1.54586090e-07 -1.56271724e-07
      2.09002835e-07 -3.38813179e-21 -3.38813179e-21 2.36807836e-07
      -3.38813179e-21 -3.38813179e-21 -1.36459875e-07 -3.38813179e-21
      -5.43205054e-08 7.89359476e-08 -2.71602527e-08 -2.47385348e-08
      -3.17148618e-07 -2.95819724e-08 -1.48148629e-07 -1.18777706e-07
      2.33829255e-07 -1.33424678e-07 1.08707724e-07 4.90816774e-07
      -9.20933516e-08 5.38590314e-07 -3.02832575e-07 -2.29539765e-07
      -1.67952720e-07 -1.06004123e-07 -5.09211802e-08 -3.68661546e-07
      -3.93026500e-09 -9.74422463e-08 -1.17629206e-07 4.79266937e-08
      -4.91412884e-08 -3.38813179e-21 -1.24488551e-07 -1.24488551e-07
      7.89359476e-08 -6.22442755e-08 -4.55526070e-08 -3.38813179e-21
      -1.19768217e-07 2.34386121e-07 2.36807836e-07 -3.38813179e-21
      -1.24488551e-07 -7.49785727e-08 -2.25259129e-07 -6.82386982e-08
      -3.15720797e-07 5.05853137e-08 -1.18528966e-07 -5.56206032e-08
      -2.98452996e-08 -2.93849013e-07 -1.19429497e-08 2.01591720e-05
      2.04029657e-05 -1.42986636e-07 -6.63644002e-08 -1.01611285e-07
      -1.68133056e-07 -7.95783777e-08 -2.08024460e-07 -7.50297602e-08
      -7.69462858e-08 -2.43941855e-07 2.97946592e-08 2.01286657e-05
      1.99627484e-05 2.00664217e-05 1.97226127e-05 3.15743790e-07
      -6.95094329e-08 -1.73940862e-08 -2.18710653e-07 -1.03595184e-07
      -6.22140590e-07 -4.91932951e-07 -5.76058348e-08 -8.53267235e-09
      -5.84383386e-08 -7.83068685e-08 3.43038892e-07 -1.70309363e-07
      -7.95612252e-08 2.08913463e-07 3.14743374e-07 -1.62459898e-07
      -1.73592483e-07 -3.31026257e-07 -3.04410008e-07 1.29900400e-07
      4.33612213e-09 -1.84832615e-07 -3.38171020e-08 -1.85751503e-07
      -9.82825767e-08 2.36807836e-07 -2.76782117e-07 -4.91412884e-08
      -3.38813179e-21 3.33833405e-08 -7.29035534e-08 -7.42156061e-08
      -3.38813179e-21 -4.81650169e-08 -1.98815556e-07 -7.42156061e-08
      2.68406648e-08 -3.30296182e-08 -6.30375823e-08 -3.40925332e-08
      3.08461011e-07 -2.52447574e-08 -1.48671049e-07 -3.02419238e-07
      -9.04250825e-08 -6.62245085e-08 -1.59697847e-05 -1.60051204e-05
      -1.62550405e-05 -1.34085894e-07 -1.40616820e-07 2.70401813e-07
      2.13088398e-07 -1.03013065e-07 -2.87667575e-07 -2.91457866e-07
      -1.07796886e-07 -3.38813179e-21 -4.91412884e-08 5.92535336e-08
      -7.29035534e-08 -5.99258237e-06 2.12069310e-07 -1.22820793e-05
      -1.22031433e-05 -1.23659811e-05 -1.20894192e-05 -1.20357245e-05
      -1.24721118e-05 -1.91436957e-05 -6.94246137e-06 -7.77172045e-06
      -2.79965516e-05 -2.82738183e-05 -3.26441841e-05 -1.22695265e-05
      2.71157137e-06 6.67621953e-06 -9.63600087e-06 -9.70507972e-06
      -1.45837294e-05 -6.94388564e-06 2.38102748e-05 2.94893816e-05
      -1.97297995e-05 -1.94537279e-05 -1.95443572e-05 -1.97295903e-05
      -1.94867571e-05 1.30136532e-05 7.48529101e-06 7.83651831e-06
      7.73520151e-06 -1.21038474e-05 -1.20914337e-05 -1.23443233e-05
      -1.23467453e-05 -1.21075154e-05 -2.81652920e-05 -3.46334200e-05
      -3.49040529e-05 -4.07178522e-05 -2.86126615e-05 -2.82716410e-05
      -3.41042141e-05 -3.45516237e-05 -3.84197119e-05 -8.62987054e-06
      -5.33449520e-06 1.06381322e-05 1.08101021e-05 -1.34562652e-05
      -3.04717378e-05 -3.02169792e-05 -3.03665183e-05 -4.41109165e-07
      -3.55345577e-07 9.47900571e-06 9.49540390e-06 -3.23087188e-05
      -3.20912732e-05 -3.18090279e-05 -3.19053979e-05 6.17778710e-07
      -1.49361822e-05 -2.95095674e-06 -2.90811431e-06 4.03147169e-06
      -1.58897401e-05 -3.27947928e-05 -4.09412896e-05 -4.07964690e-05
      -4.08967389e-05 -2.83907302e-05 -2.85508304e-05 -2.90126118e-05
      -1.87674832e-05 -1.85714107e-05 -3.45234730e-06 -8.90988531e-07
      1.00317857e-05 1.03582515e-05 1.67029593e-05 -7.69692178e-06
      -1.76629237e-05 -2.41025082e-05 -2.41311900e-05 -4.30668806e-05
      -5.23089966e-06 -8.25307507e-06 -8.45326940e-06 -1.70579606e-05
      -2.83251193e-05 -2.85107162e-05 -1.27390595e-05 -1.96799574e-05
      -1.95206230e-05 1.28085248e-05 1.28767406e-05 -7.79990387e-06
      -2.77193649e-05 -2.77089403e-05 -4.06994113e-05 -2.88261836e-05
      -1.28502634e-05 -1.27532148e-05 -1.23999707e-05 -1.29042683e-05
      -1.87174955e-05 -3.42800899e-06 -1.12577309e-05 -1.60227023e-06
      5.16787168e-06 2.06329751e-05 2.07981375e-05 -3.34887886e-06
      -1.30301505e-05 -3.59403748e-05 -5.24737588e-05 -6.50446163e-05
      -2.54303814e-05 -1.02544236e-05 1.10724513e-05 1.06988082e-05
      1.67441176e-05 -1.24609733e-05 -1.26138002e-05 -1.76916310e-05
      -1.83446846e-05 1.51078416e-06 -5.15706461e-06 -4.05510182e-05
      -1.21539888e-05 -1.19407468e-05 6.62907269e-06 1.38579026e-05
      -6.45851969e-06 -6.19052025e-06 -7.15200395e-06 -1.34982556e-05
      -3.12238080e-05 -1.13358337e-05 -1.75543701e-05 -1.75658697e-05
      7.57955240e-06 1.32674659e-05 2.86764880e-05 4.46691865e-06
      -1.73340031e-05 -3.78621953e-05 -4.47804050e-05 -4.51370252e-05
      -3.23317072e-05 -6.45250748e-06 -5.95363599e-06 1.02820914e-05
      1.62148863e-05 1.67815924e-05 -2.78403422e-05 -3.47917776e-05
      -1.89855127e-05 -2.53827566e-05 -1.74421039e-05 -1.16621295e-05
      -6.22239486e-06 2.72606968e-07 4.06633831e-07 1.29109831e-05
      1.99629994e-05 -1.55911912e-05 -1.64600224e-05 -5.10412883e-06
      -6.75971421e-08 -6.41610995e-06 -7.53940640e-07 1.56319529e-05
      3.30210460e-05 3.40007427e-05 1.75988116e-05 -6.75735782e-06
      -1.24763274e-05 -1.10247484e-07 -1.96987803e-05 -2.06184577e-05
      -2.47065709e-05 -3.67575240e-06 -2.22848230e-05 7.00574083e-06
      1.70328003e-05 2.34737399e-05 1.64124958e-05 -1.29653754e-05
      -2.52249047e-05 -1.83706943e-05 -1.27227431e-05 7.57192356e-06
      -8.19291017e-06 -1.53105411e-05 -1.52697376e-05 2.30798392e-07
      1.33749845e-05 1.99392052e-05 1.86811485e-05 1.49695134e-05
      9.55642918e-06 4.89482227e-06 1.13514370e-05 2.06337118e-05
      2.13366129e-05 2.17210218e-05 3.37905512e-05 9.49119931e-06
      -4.25023302e-07 -1.53212022e-05 -1.59916763e-05 -1.96797464e-05
      -1.99456790e-05 -3.48200228e-06 -1.31835277e-05 5.76157436e-06
      2.35664393e-05 1.63449131e-05 4.57973829e-06 4.74924764e-06
      -3.40913684e-05 -2.78730276e-05 -2.16632017e-07 1.22659671e-07
      1.96576675e-05 7.37721166e-06 4.99056114e-07 4.04679696e-07
      4.78971344e-07 1.28926749e-05 4.27326340e-05 2.97791321e-05
      2.96444196e-05 6.40200051e-06 3.52473921e-06 2.12897721e-05
      1.78897772e-05 1.82802760e-05 3.37209494e-05 9.98351607e-06
      -1.28021327e-07 -3.15300468e-07 -1.27289780e-07 2.22833296e-05
      9.78524804e-06 1.36952076e-06 -1.34025704e-05 -2.92629720e-05
      -1.36051840e-05 -8.27509950e-07 4.65711537e-06 1.11355685e-05
      2.92038712e-05 -5.78180810e-08 -2.74620731e-07 -4.15959818e-07
      4.71484867e-07 1.98326106e-05 7.64519245e-06 4.19326142e-07
      2.47910575e-05 2.48922152e-05 4.48856590e-05 1.35394848e-05
      -9.87562544e-06 1.43025036e-05 5.34019782e-05 5.38400745e-05
      3.40293445e-05 3.40077495e-05 3.37812380e-05 9.66997686e-06
      -1.96772376e-07 -8.35594989e-08 -1.60113159e-05 -1.58319308e-05
      2.22777180e-05 1.43501131e-06 -4.93540801e-06 -3.83004844e-05
      -3.14515855e-05 -1.17459922e-06 2.41451380e-05 2.95206210e-05
      2.93824523e-05 2.94386882e-05 -5.89654476e-08 -4.38880576e-08
      -1.00391567e-07 -2.40208522e-07 4.24184736e-06 4.24726841e-06
      7.33194884e-06 8.54342886e-07 -4.38092957e-06 -3.15007128e-05
      -1.32344048e-05 8.75210208e-06 5.37288106e-05 5.40772598e-05
      5.38914392e-05 3.81904974e-05 1.82590829e-05 -6.28507405e-06
      3.94721610e-07 1.41882978e-07 -2.15786429e-07 6.21509102e-08
      -1.58924763e-07 1.68709482e-06 -2.43603899e-05 -6.75200135e-05
      -5.52585880e-05 -1.79464423e-05 -3.38813179e-21 2.90170719e-05
      2.93134781e-05 1.35464743e-05 1.33140884e-05 1.03688052e-07
      -1.61669973e-07 -4.05257765e-08 5.57209112e-10 1.99468468e-05
      7.60416606e-06 -5.65753271e-06 -7.03416754e-06 -3.55217271e-05
      -4.00904974e-05 -1.68420720e-05 4.13829775e-06 2.00495942e-05
      5.40938381e-05 5.36883090e-05 5.36604639e-05 2.95361733e-05
      -1.69601222e-07 -1.85981534e-07 -2.41035156e-08 -1.22291503e-05
      -1.81966898e-05 -3.31562696e-05 -4.16082476e-05 -5.55559491e-05
      -5.87034556e-05 -4.07799853e-05 -1.57046779e-05 -3.13935686e-07
      -6.78474947e-08 2.91950000e-05 2.95116370e-05 2.91463293e-05
      -2.58495078e-07 -5.89269185e-08 -1.21831190e-05 -2.80545592e-05
      -1.68377246e-05 -6.38758547e-06 -3.98014054e-05 -2.31848644e-05
      -2.27748787e-05 -1.35351574e-05 1.29641667e-05 2.00945979e-05
      5.38395143e-05 5.41377849e-05 5.42393718e-05 2.94485180e-05
      1.98238777e-05 7.62528362e-06 -1.28316287e-05 -2.82839519e-05
      -2.84949074e-05 7.26450389e-06 -1.89796992e-06 -2.25813710e-05
      -2.27078108e-05 -5.16145428e-06 -1.95925732e-05 -1.03849892e-07
      3.03793009e-08 -5.15933216e-08 1.35587188e-05 1.35952041e-06
      1.67821800e-05 -1.24119051e-05 -3.18911674e-07 -1.14281193e-06
      -1.24921316e-05 -1.27248059e-05 -2.25640342e-05 -2.29730813e-05
      -3.53768155e-05 -2.55594477e-05 -1.91022209e-05 -7.10828181e-06
      2.42558635e-05 3.36090488e-05 1.80962834e-05 -1.84843047e-05
      -2.55787495e-06 7.72370549e-06 2.02129686e-05 7.40072983e-06
      -1.28958900e-05 -7.90213653e-06 -9.14315115e-06 -2.33471783e-05
      -3.04021323e-05 -4.52603927e-05 -3.53460709e-05 -1.97618247e-05
      8.30505513e-08 4.68573347e-07 -1.22064021e-05 1.71408774e-05
      2.94361671e-05 2.94121546e-05 -1.04951232e-06 -5.75315562e-06
      -1.26152381e-05 -7.70004681e-06 -1.78527971e-05 -2.29092966e-05
      -2.31302802e-05 -4.30494292e-05 -4.06886102e-05 -1.96020483e-05
      1.70093608e-05 2.21113169e-05 2.17427969e-05 -2.59881131e-06
      9.67310643e-06 -8.85504647e-08 -6.39055770e-06 7.45198167e-06
      -3.95601683e-06 4.14920851e-06 -9.21363790e-06 -2.32648217e-05
      -2.32489765e-05 -1.70732401e-05 -1.97387872e-05 -1.95690573e-05
      -3.15898178e-05 -1.22389538e-05 -2.08691180e-08 -1.07834325e-07
      2.93670564e-05 2.81337216e-05 2.35766784e-05 1.66377285e-05
      -2.85000842e-05 -1.60341751e-05 -1.77381608e-05 -2.32677721e-05
      -2.29857051e-05 -1.44922769e-05 -1.26262912e-05 -3.18648999e-05
      -7.29941803e-06 1.45408176e-05 3.40454790e-05 -6.40127382e-06
      -6.28427142e-06 -2.20052389e-05 -1.29209302e-05 -7.81973085e-06
      -1.95284755e-07 1.99934348e-05 1.07838168e-05 -3.46919728e-06
      -2.33281316e-05 -1.39004505e-05 -1.25088254e-05 -3.17372505e-05
      -1.95392658e-05 -1.96798337e-05 5.83555391e-08 -1.59508381e-05
      -1.66649152e-05 -6.12554322e-06 1.66492118e-05 1.67856560e-05
      2.89811887e-05 4.98757061e-07 -1.34172778e-05 -2.31560043e-05
      -2.29777925e-05 -1.01117766e-05 -2.79873693e-05 -4.01096986e-05
      4.52401946e-06 1.44019150e-05 2.68980421e-05 3.41502018e-05
      3.31430283e-06 -1.27786925e-05 -1.25277375e-05 -8.79081057e-08
      7.59225571e-08 5.91142815e-08 1.09439079e-05 -3.03703791e-06
      -1.54474073e-05 -1.07931319e-05 -1.57160212e-05 -1.58485582e-05
      -1.96599231e-05 -1.97597928e-05 -1.95902030e-05 -1.36923145e-05
      -1.06676373e-06 -1.24873186e-05 -1.23634900e-05 2.94218280e-05
      2.96609996e-05 1.35390292e-05 -2.90590397e-05 -2.31584963e-05
      -3.55286502e-05 -2.22771559e-05 -2.30797870e-08 4.96399878e-07
      1.18276375e-05 1.43165826e-05 1.41620112e-05 1.44650057e-05
      -2.96598864e-06 -1.27870899e-05 -1.76323894e-07 2.77444741e-07
      -9.73170629e-08 -1.59394895e-05 -3.67450739e-05 -5.14928324e-05
      -3.42697103e-06 1.49003631e-06 1.99873502e-05 1.98331563e-05
      -5.67591165e-08 -1.95666435e-05 -2.04024200e-05 -2.07126468e-05
      -4.10191351e-05 -2.85225033e-05 -4.32993772e-07 -4.91412884e-08
      2.92603763e-05 2.94990496e-05 3.98541670e-06 -3.55431257e-05
      -2.31737467e-05 -9.63697948e-06 2.05077804e-08 2.06804913e-07
      -2.00400905e-08 2.17309789e-05 1.66509199e-06 -2.27331384e-05
      -6.37905850e-06 3.97966642e-06 -1.57933555e-05 -1.60337308e-07
      -1.20092936e-05 -1.22836809e-05 -8.77369621e-06 -3.24725534e-06
      -3.24557004e-06 9.64372430e-06 2.01093753e-05 4.08544838e-06
      4.31634589e-06 2.00612540e-05 -2.09567752e-05 -3.19567407e-05
      -3.23771310e-05 -1.25877850e-05 5.61870728e-08 7.69091741e-08
      -1.23602194e-05 1.76322046e-05 2.43440427e-05 6.26480414e-06
      -2.29929065e-05 -1.83083157e-05 2.22195908e-07 -1.59032570e-05
      -1.58941748e-05 -6.83721919e-06 8.93033302e-06 -2.26913926e-05
      -1.00816233e-05 -7.09027427e-06 -1.22842512e-05 -1.21519588e-05
      -4.67972292e-08 -6.18210322e-07 -2.46303262e-05 -3.90776113e-05
      -3.25360520e-06 -1.02624344e-05 -1.60873039e-08 7.84735761e-08
      1.99983751e-05 1.87601872e-05 7.20840990e-06 -1.23343780e-05
      -1.97166555e-05 -3.19108985e-05 -1.21591474e-05 -1.23871660e-05
      -4.24088427e-08 -9.82825767e-08 8.83269149e-06 -9.73943679e-06
      -9.09978553e-06 -2.26480170e-05 6.92695536e-08 1.80678853e-07
      -6.34613980e-06 1.12402950e-05 2.12843388e-05 -3.00437978e-06
      -2.22743347e-05 -4.76156383e-05 -2.27789260e-05 -1.58707026e-05
      2.54204968e-09 -7.31870443e-07 -8.85150621e-06 -2.34718664e-05
      -2.30958140e-05 -1.03477996e-05 -1.41004421e-07 -2.35496422e-08
      -6.05947662e-06 -1.27884277e-05 7.22369305e-06 7.16850991e-06
      -1.19440419e-05 -2.76303836e-05 -3.53957985e-05 -1.58329822e-05
      1.95397988e-07 9.52732790e-08 -4.90440289e-06 6.17106298e-06
      6.37271523e-06 6.86246449e-06 -5.53587506e-06 -6.04168372e-06
      -2.84781599e-05 -4.29092097e-06 6.10599045e-06 2.17068227e-05
      -2.96307917e-06 -1.97489953e-05 -1.95748144e-05 -7.09027427e-06
      -1.08369065e-07 -5.60765159e-07 -8.87122678e-06 -2.33186256e-05
      -2.32778693e-05 -1.44807436e-05 -5.62640071e-06 -6.06704361e-06
      -2.88017254e-05 -2.86772774e-05 -2.79020460e-05 -1.23641003e-05
      1.98914458e-05 4.46491441e-07 4.33551264e-07 2.06156272e-07
      -6.98580470e-06 5.70518992e-08 -7.67017752e-07 -3.90784880e-05
      -9.58624787e-06 -4.27637633e-06 2.34204326e-05 -1.26618688e-05
      -1.26759833e-05 1.22567908e-05 3.34453543e-05 3.40465122e-05
      9.68012591e-06 -1.24299640e-05 -1.96484634e-05 -1.95966768e-05
      -7.13588224e-06 -7.10112033e-07 -9.26077428e-06 -3.91894973e-05
      -3.91360736e-05 -3.90280911e-05 -6.06641743e-06 -1.29281125e-05
      -2.52227474e-05 -1.23764976e-05 -2.42171838e-09 2.98152969e-07
      -1.12064740e-07 -9.00492765e-08 3.34770107e-07 -1.53655983e-05
      -1.53398178e-05 -2.91115362e-06 -6.67351628e-07 -1.75329478e-05
      -2.31703871e-05 5.15820375e-06 1.68632705e-05 4.93509469e-06
      -6.29715032e-06 2.42331516e-05 3.39047110e-05 3.38828286e-05
      9.83799782e-06 -2.47385348e-08 -2.81888279e-05 -3.55318916e-05
      -1.98261714e-05 -7.73922966e-06 -9.46388900e-06 -2.33723331e-05
      -2.32807233e-05 -2.92556415e-05 -2.52974314e-05 -2.49910190e-05
      -2.13738048e-07 -2.09307416e-08 -1.59167139e-05 -1.56715923e-05
      -1.57756076e-05 -5.39876304e-08 -3.42081563e-08 -1.28701049e-05
      4.97412373e-07 2.34844109e-07 1.20118157e-05 2.36869914e-06
      -2.92162222e-05 -4.28918611e-05 1.66975424e-05 2.33429309e-05
      1.37816514e-05 8.48376294e-06 1.82791209e-05 3.38322279e-05
      9.72344151e-06 9.83799782e-06 3.39374324e-08 -1.24969974e-05
      -1.96459569e-05 -2.02987958e-05 -1.64246303e-05 -2.43971353e-05
      -4.15866598e-05 -4.82754112e-05 -2.86864088e-05 -1.60642794e-05
      -7.83315812e-08 -8.95570835e-08 -6.85066297e-08 -1.58166685e-07
      -2.92391690e-07 -4.79668643e-08 5.88248277e-08 -9.43861451e-08
      -1.28770043e-05 -1.96670298e-05 -1.27760870e-07 -5.10509926e-05
      -3.18465609e-05 -3.15097786e-05 1.37487496e-05 2.93541543e-05
      2.96979852e-05 5.38838067e-05 3.40776533e-05 3.41447303e-05
      9.42617589e-06 9.67497272e-06 -1.09011573e-07 -1.25404913e-05
      -1.24332137e-05 -4.82228970e-05 -5.74035075e-05 -4.86352947e-05
      -3.60827398e-05 -3.54301410e-05 -6.34640355e-06 -1.87062064e-08
      -2.42171838e-09 -2.06140228e-07 -1.09709013e-07 -3.13347499e-07
      -4.84904632e-08 -1.59064984e-05 -1.57791128e-05 -1.61398730e-05
      -1.57068971e-05 -4.85570490e-06 -1.17836789e-05 -3.01543660e-05
      -3.56340934e-05 -9.89928139e-06 1.44602773e-05 2.00138475e-05
      4.95682725e-05 5.36377411e-05 6.35133110e-05 3.39548897e-05
      1.34569746e-05 1.38837340e-05 7.91688399e-06 7.63580920e-06
      -2.45831761e-05 -2.64328628e-05 -3.45973858e-05 -5.54915423e-05
      -4.29446191e-05 -2.29087818e-05 -3.57175139e-07 -8.31963760e-08
      -1.70309363e-07 -1.59349220e-05 -1.36038025e-07 -2.19054670e-07
      -2.20089277e-07 -6.26852952e-08 1.31408839e-07 -5.20495973e-07
      -1.23890532e-05 -1.21739713e-05 -1.94721251e-05 -4.93421830e-05
      -4.15618233e-05 -3.47393761e-05 7.11923178e-08 2.00208397e-05
      2.00255508e-05 7.39744210e-05 8.33526356e-05 6.34864700e-05
      -2.83660347e-06 -2.80310906e-05 -2.79254018e-05 -1.97108662e-07
      -1.28226691e-06 -2.54681399e-05 -3.95690768e-05 -5.53134778e-05
      -4.27258674e-05 -2.95502123e-05 -7.88254368e-08 2.10993647e-07
      -2.45516190e-07 -1.40022266e-07 -5.36082183e-08 -3.09844026e-08
      -3.54020457e-08 3.64951660e-08 -1.22323800e-05 -1.23612754e-05
      -1.43659477e-07 -6.02392129e-06 -1.28456095e-05 -3.74583178e-05
      -3.47964560e-05 -3.43670145e-05 -2.42453571e-05 -3.14008247e-07
      -1.58577641e-05 1.63226086e-05 7.11951798e-05 7.09416126e-05
      7.15196002e-05 -2.26107403e-07 -1.46060330e-07 -1.27855117e-06
      -1.25135175e-05 -1.29744385e-05 -2.72830039e-05 -3.55302109e-05
      -4.28027088e-05 -4.22580015e-05 -2.50214089e-05 -7.37889749e-08
      -1.66978271e-08 1.63812874e-08 1.97833714e-08 -6.89502784e-08
      -1.22608772e-05 -1.23406680e-05 -1.18186208e-05 -1.23367763e-05
      -5.75201375e-06 -1.26532395e-05 -1.27715466e-05 -1.04999317e-05
      -2.15426826e-05 -3.41698542e-05 -2.80130316e-05 -2.40377685e-05
      -1.93151300e-05 1.19418983e-05 3.35142395e-05 8.35430765e-05
      8.33483646e-05 4.81383468e-05 3.69042718e-05 -1.25835104e-05
      -1.31317902e-05 -7.50933896e-06 -1.47883438e-05 -2.32303555e-05
      -3.55470875e-05 -2.38139928e-05 -1.89810762e-05 -1.97279551e-05
      3.25948690e-08 6.08256300e-07 -8.05792766e-09 1.27878096e-07
      -1.18756579e-05 -1.23635327e-05 -1.19729320e-05 -1.69346677e-05
      -1.24803028e-05 -1.28921229e-05 -6.65150992e-06 -6.53147208e-06
      -1.00436464e-05 -8.82129007e-06 -4.67702266e-05 -1.79344697e-05
      4.51857295e-06 1.74427605e-05 3.40994011e-05 2.78320385e-05
      5.14354906e-05 3.69863410e-05 3.65077867e-05 3.64952975e-05
      1.36151557e-05 -1.88337617e-05 -2.30836959e-05 1.42882607e-06
      -5.41670215e-06 -1.94351305e-05 -1.95069333e-05 -1.97616610e-05
      -1.24768276e-05 -5.78236055e-08 -1.50060274e-07 -1.19553670e-05
      -1.22498568e-05 -1.23251011e-05 -1.23044574e-05 -1.24548851e-05
      -1.76230351e-05 -6.43255362e-06 -6.31048033e-06 1.75860951e-05
      9.63809498e-07 -3.17860713e-06 -1.61929711e-06 -1.02293943e-05
      -1.18077078e-05 -7.49509627e-06 7.53528695e-07 1.33227941e-05
      1.99943515e-05 4.55408699e-05 4.73847031e-05 5.92383367e-05
      5.48649914e-05 2.09091668e-05 2.09440168e-05 -1.03046632e-05
      -2.43242675e-06 4.67899372e-06 -1.93647793e-05 -1.97542540e-05
      -1.21058811e-05 -1.21809317e-05 -1.23644304e-05 -1.20622353e-05
      -1.17110894e-05 -1.18608777e-05 -1.23933160e-05 -1.13751973e-07
      -3.10218161e-06 -9.63405910e-06 -9.21719038e-06 1.51545291e-05
      1.50294800e-05 -7.93476920e-06 4.87297825e-07 -5.66369908e-06
      -1.80045463e-05 -1.41386327e-05 -1.13469232e-05 -5.40068322e-06
      4.21162838e-07 8.75900298e-07 1.74750603e-05 1.78388636e-05
      3.76719436e-05 3.77131073e-05 1.51974091e-05 2.47543612e-05
      2.84098223e-05 1.83062893e-05 -2.19470439e-05 -2.29764701e-05
      -2.26983011e-05 -1.54246936e-05 -2.57010220e-06 -3.21265088e-06
      -3.15267721e-06 -3.25219003e-06 -3.20089907e-06 -2.81964867e-06
      -3.08508879e-06 -8.92382377e-06 -9.18831211e-06 8.67046219e-06
      8.74534271e-06 9.22527397e-06 4.46918966e-06 3.93733853e-06
      -4.05435594e-06 1.55898197e-05 1.65388064e-05 3.59664118e-05
      8.14113901e-06 8.24439121e-06 8.22870516e-06 3.76717726e-05
      3.69457266e-05 3.83881634e-05 4.65953635e-05 2.19326703e-05
      2.85599126e-05 3.25909532e-05 4.78920401e-06 -2.60485012e-06
      3.43099373e-07 5.66100027e-07 1.96811434e-05 1.97405989e-05
      1.80965962e-05 1.80091774e-05 1.79147391e-05 -1.62043852e-06
      -7.84711392e-06 -8.02993600e-06 -7.82124516e-06 1.96008950e-05
      1.86245161e-05 1.72257533e-05 2.34356085e-05 2.51849706e-05
      1.85943754e-05 -3.30786247e-06 -4.41292150e-06 -5.17809440e-06
      3.41992709e-05 4.22813682e-05 2.53985272e-05 4.61718882e-05
      4.61448726e-05 4.35435395e-05 3.78908444e-05 4.16243165e-05
      5.45751536e-05 4.70531813e-05 -2.01006424e-05 4.95423080e-07
      -1.08701300e-07 -1.48672943e-05 -2.63578363e-06 4.39013593e-06
      1.79881918e-05 1.78091468e-05 1.80299758e-05 1.77339880e-05
      1.79733761e-05 -6.72280567e-06 1.64187750e-05 2.62410394e-05
      2.62176090e-05 2.60882389e-05 2.62189278e-05 3.18307866e-05
      3.19534884e-05 3.19700193e-05 5.26304611e-05 4.41745688e-05
      4.43470781e-05 4.41823031e-05 3.68264227e-05 5.72940226e-05
      5.38052154e-05 6.18729246e-05 6.18012418e-05 6.21248546e-05
      4.90783677e-05 4.83156800e-05 1.39940512e-05 1.50305104e-05
      -5.01951308e-06 -1.39469694e-05 -3.04484206e-06 2.67911037e-05
      4.84409211e-05 4.05449791e-05 4.58817340e-06 1.99877322e-05
      2.00036793e-05 4.76972991e-06 4.22556377e-06 -7.23418498e-06
      -6.87101692e-06 -2.89911168e-06 -5.34267838e-06 9.61788191e-06
      8.74616126e-06 -6.07251968e-06 -6.91338164e-06 2.27109176e-05
      2.82737838e-05 2.38894554e-05 2.81320408e-05 2.81797802e-05
      2.91718370e-05 4.45203405e-05 4.44972356e-05 4.46991835e-05
      4.46874656e-05 4.41717457e-05 3.51110684e-05 3.54679651e-05
      3.50351438e-05 3.50312148e-05 4.77559406e-05 4.03860868e-05
      4.76538153e-05 4.76006644e-05 4.73149266e-05 1.83266511e-05
      1.79861181e-05 1.79740618e-05 1.60846321e-05 1.57786235e-05
      1.55030120e-05 -4.54421797e-06 -4.11346855e-06 -4.57834221e-06
      -4.58775003e-06 -4.48659512e-06 5.58694410e-06 5.09113988e-06
      3.46127781e-05 3.41022896e-05 3.40747392e-05 3.42320054e-05
      3.43686916e-05 3.43999600e-05 2.22378749e-05 3.25523106e-05
      3.27850248e-05 3.26891568e-05 3.25590117e-05 3.24495850e-05
      3.25467518e-05 3.24753746e-05 3.18469392e-05 4.48807950e-05
      4.48889514e-05 4.48875071e-05 4.47362290e-05 1.56326350e-05
      1.55404850e-05 1.60110576e-05 1.59875926e-05 1.55508515e-05
      1.58001931e-05 1.54429854e-05 1.58917264e-05 1.56117312e-05
      -4.56300677e-06 -4.19559365e-06 -4.40580015e-06 -4.59135481e-06
      -4.49934487e-06 -4.62356957e-06 -4.49151230e-06 -4.80604058e-06
      -4.49986555e-06 -4.40299345e-06 -4.44943271e-06 -4.61228547e-06
      1.55705038e-05 1.56843871e-05 1.56253973e-05 3.15319221e-06
      3.20827094e-05 3.26500522e-05 5.38224322e-06 1.81909636e-05
      1.78946029e-05 1.82547028e-05 1.63854074e-05 1.66487789e-05
      1.62282540e-05 1.68410588e-05 1.63735058e-05 1.61491535e-05
      1.19648921e-05 9.96162998e-06 1.42186236e-05 1.50195792e-05
      1.37922389e-05 6.65312155e-06 -1.44641590e-05 -1.44641590e-05
      -1.13216456e-05 -3.33024082e-06 -1.51385530e-05 -3.48462049e-06
      -3.87814271e-06 -1.55048456e-05 -1.58226921e-05 -1.54735117e-05
      -2.73728620e-05 -1.99232927e-05 -2.86259328e-05 3.37985057e-06
      1.30470016e-05 -8.03536568e-06 -9.30998613e-06 -9.40301925e-06
      4.21854111e-06 1.37664611e-05 -1.76568519e-05 -2.71710701e-06
      -3.50356436e-06 -1.86956440e-05 1.24389294e-06 1.18736239e-06
      1.03241637e-05 3.23284348e-06 2.40336431e-06 1.71857773e-05
      1.63879813e-05 1.88014849e-06 1.17240734e-06 1.02172714e-06
      -4.62402886e-06 -5.00096166e-06 -5.15728789e-06 -5.00778742e-06
      -5.09371512e-06 -5.10495875e-06 -4.86236422e-06 -5.10658037e-06
      -4.94217966e-06 -5.03602860e-06 -5.07025698e-06 -4.91406627e-06
      -5.13353052e-06 -4.83513031e-06 -5.16109276e-06 -5.13072973e-06
      -6.24286758e-06 -6.05141349e-06 -6.28232965e-06 -5.74010210e-06
      -6.22521884e-06 -6.00889825e-06 -5.27826978e-06 -6.23307960e-06
      -6.00856038e-06 -6.47103889e-06 -4.69007728e-06 -5.04499849e-06
      -4.95883342e-06 -5.07573077e-06 -6.02374212e-06 -5.51967196e-06
      -5.90455829e-06 -5.78809613e-06 -5.71433520e-06 -5.81581571e-06
      -5.90217678e-06 -5.73828675e-06 -5.76857065e-06 -5.76506818e-06
      -2.20287548e-05 -2.24303167e-05 -2.07441553e-05 -2.00991490e-05
      -1.11291029e-05 -2.37660697e-05 -2.49913937e-05 -2.50666453e-05</_>
    <_>
      0. 0. -9.96338940e-08 0. -3.32112968e-08 0. 0. 0. -6.56712800e-08
      -1.13252902e-07 7.53536824e-08 -3.09945243e-08 0. -2.35879270e-07
      5.20026475e-08 -3.10710782e-08 -6.76094487e-08 -5.31121941e-07
      -1.12307006e-07 1.55358926e-08 -2.01386584e-07 9.53647145e-07
      -3.43981483e-08 -1.39919877e-07 0. 0. 0. 0. 0. 0. 0. 0.
      -6.64225936e-08 0. 0. 0. -8.20641759e-08 -7.42433883e-08
      -4.10320879e-08 2.85020661e-07 -1.34640771e-07 -2.03994063e-07
      5.25770247e-07 -1.85661690e-07 -4.85310579e-07 2.87161566e-08
      -1.14257546e-07 -1.61099209e-07 2.28066668e-07 -1.86050158e-07
      -2.96731542e-07 -2.20119830e-07 -5.63831463e-07 1.41047693e-07
      -3.73649556e-07 -8.29590689e-08 5.35375477e-07 0. 0. 0. 0. 0.
      -1.40665989e-07 0. -6.64225936e-08 0. -3.32112968e-08
      -3.32112968e-08 -4.67788794e-07 -3.32112968e-08 8.80909354e-08
      2.08480131e-07 -9.49108809e-08 -2.55957843e-07 1.03720325e-07
      3.64764475e-07 -4.13964223e-08 1.23427625e-07 -2.59716330e-07
      4.76552771e-08 -1.47881821e-07 2.37077757e-07 -1.39694990e-07
      1.88599500e-08 0. 1.69578357e-07 -2.89414159e-09 -5.42441647e-08
      -3.83539174e-08 -1.54487232e-08 -8.20641759e-08 -8.20641759e-08 0.
      -4.10320879e-08 -8.20641759e-08 0. -1.81698070e-07 0.
      1.72971681e-07 0. -8.20641759e-08 1.03732518e-07 -4.18935912e-07
      -8.44972448e-09 -1.90765874e-07 1.10386658e-07 -1.87536902e-08
      -2.72000335e-07 2.98249745e-07 -2.70479205e-07 5.67262703e-07
      -5.40107067e-07 2.85972561e-07 2.12500471e-08 -6.06514305e-08
      -8.82937723e-09 -2.60608175e-07 -6.13020035e-08 -6.36905710e-08
      -5.83240407e-08 6.73288980e-08 1.35394131e-07 2.40863216e-07 0.
      -7.42433883e-08 -4.10320879e-08 -2.48120671e-07 0. -4.10320879e-08
      1.53081061e-07 -3.88927361e-07 -1.92862302e-07 0. 3.83639446e-07
      5.95455617e-07 0. -7.15452515e-08 -2.38452325e-09 6.39983000e-07
      -2.89293467e-07 3.87651596e-07 -2.89245747e-07 -2.05047712e-07
      -1.10963903e-07 1.08172697e-08 -6.17431866e-08 -1.03877198e-07
      1.71026159e-07 -1.79489263e-07 -1.69812736e-07 9.43979160e-07
      -2.21473272e-07 -1.06258128e-07 -2.18259313e-08 -2.96362828e-07
      -3.83539174e-08 0. -8.20641759e-08 4.33292335e-08 7.33377945e-08
      0. -9.64311511e-08 -9.77268400e-09 4.40081458e-05 -9.64311511e-08
      -1.04880876e-07 1.34127234e-07 -3.32112968e-08 -1.59016182e-07 0.
      -3.97575519e-07 8.11957968e-09 3.67159885e-07 -3.69883750e-08
      -1.02644708e-05 -1.05185754e-05 -1.04307874e-05 -2.23682520e-07
      -7.76747402e-06 5.61054037e-07 -4.47755788e-08 2.66714665e-07
      -8.34439575e-08 -2.11083332e-07 8.29187030e-08 4.36115869e-07
      -1.03877731e-07 4.10005867e-07 -1.81715265e-07 -8.29590954e-06
      -3.32112968e-08 1.89989205e-05 1.95178363e-05 1.85533445e-05
      1.99035603e-05 1.94789918e-05 1.93420474e-05 -3.27128801e-05
      -8.55657800e-06 -8.28258908e-06 -1.95506564e-05 -1.95862522e-05
      -1.98923481e-05 -2.24358682e-05 -2.20326165e-05 -2.21376358e-05
      -1.34472020e-05 -1.28966440e-05 -9.26252051e-06 -7.83306314e-06
      -1.50923352e-05 1.58607036e-05 7.50624577e-06 7.81828112e-06
      7.21023071e-06 -2.42715741e-05 -2.30155656e-05 -7.68411337e-06
      -2.46938343e-05 1.98147081e-05 1.94230015e-05 1.95552802e-05
      1.96996752e-05 1.94768036e-05 1.94768036e-05 1.91308609e-05
      9.26315715e-06 6.68573321e-08 6.82589700e-07 -4.41171396e-05
      -1.96802994e-05 -1.95271932e-05 -1.91224153e-05 -1.95999783e-05
      -1.96418405e-05 -3.12622651e-05 -2.35951502e-05 -1.32740324e-05
      -1.31554889e-05 -1.31072693e-05 -1.37863090e-05 1.93286269e-05
      9.65530489e-06 5.67842926e-06 6.06119011e-06 5.71098235e-06
      5.81625818e-06 3.29208997e-05 3.24005741e-05 3.29898830e-05
      3.29131763e-05 4.27997875e-05 1.49022367e-06 3.29992727e-05
      3.32345917e-05 3.34162251e-05 3.36147132e-05 8.50337165e-06
      -5.81501176e-08 -1.89406066e-07 -4.42595447e-05 -1.90382270e-05
      -1.96280580e-05 -1.91229246e-05 -9.22324307e-06 -9.08307447e-06
      -1.33041949e-05 -1.45747499e-05 -1.41252149e-05 -2.17921697e-05
      2.50153280e-05 2.46300133e-05 1.80056250e-05 1.18646340e-05
      1.20384921e-05 6.54463349e-07 4.51539163e-05 2.52451810e-05
      2.48194265e-05 2.28250356e-05 4.71014282e-05 4.67942591e-05
      5.73356192e-05 5.73552061e-05 5.71210403e-05 6.70411609e-05
      3.08547824e-05 2.71567151e-05 -7.87669421e-07 -3.48986106e-07
      -4.26507910e-07 2.39561668e-05 -8.78057290e-06 -9.18227306e-06
      -9.22430809e-06 -9.15987403e-06 -9.20298316e-06 -2.10234357e-05
      -1.47462024e-05 -1.42573117e-05 -1.49729985e-05 -1.29420687e-05
      -1.34156980e-05 2.48132365e-05 1.20741615e-05 1.61667026e-06
      2.09695281e-05 9.36704055e-06 2.69959328e-05 3.46038833e-05
      1.89324583e-05 2.64793489e-05 2.63697330e-05 2.63219554e-05
      2.57778192e-05 2.00374197e-05 2.02356987e-05 1.28403844e-05
      4.81347433e-06 1.33313088e-05 4.26625047e-05 4.18202717e-06
      -1.14243880e-06 -5.69720441e-07 -9.28135364e-07 -8.48500974e-07
      -9.27583869e-07 -9.04215813e-06 -1.46666180e-05 -2.24910236e-05
      -2.52537338e-05 -2.46335312e-05 -1.54686932e-05 -1.37969737e-05
      -4.41502334e-06 -4.17681031e-06 5.37078340e-05 2.87702806e-05
      2.88556985e-05 -2.37794829e-05 -3.50224596e-08 1.32224704e-05
      -2.50273042e-05 -1.90170267e-05 -9.89967702e-06 -9.45959982e-06
      -2.02029169e-05 -2.31966624e-05 -1.20394352e-05 6.13433585e-05
      3.69691770e-05 2.43381746e-05 4.90104367e-06 1.30350554e-05
      -1.58716357e-05 -1.19343895e-07 -4.26869313e-08 -1.02798886e-05
      -1.05737263e-05 -1.60969958e-05 -1.30540193e-05 -2.16573608e-05
      -2.22004801e-05 -1.69857576e-05 -3.74960045e-08 -2.76649033e-08
      1.57049162e-05 1.54979407e-05 1.93277920e-05 3.78667719e-05
      1.48455993e-05 1.34794464e-05 9.17034322e-06 7.64303604e-06
      2.41722000e-06 -2.02038573e-05 -1.79855215e-05 -8.75603746e-06
      -8.75306705e-06 -8.85514146e-06 7.48576895e-06 1.69277719e-05
      5.54323742e-05 2.71491281e-05 8.77265666e-06 2.98751343e-06
      2.89099808e-06 2.06849891e-05 -4.62071199e-07 -8.82445050e-08
      -4.15636976e-07 -1.27107996e-05 -1.30572062e-05 -1.41057671e-05
      -1.62868801e-05 -1.60657255e-05 1.92204425e-05 1.93653032e-05
      4.39773066e-05 1.22570341e-07 -2.41025464e-06 -1.22147276e-05
      2.54239822e-05 1.40465118e-05 1.31791003e-05 8.06765729e-06
      9.48486650e-06 -1.35170694e-05 -7.44750650e-06 -9.43842224e-06
      1.04925584e-05 1.06372254e-05 8.25455572e-06 -3.48402718e-05
      2.58475666e-07 -1.04127615e-07 3.83100341e-05 2.09905120e-05
      1.51507265e-05 1.32470623e-05 1.28634547e-05 -2.13546127e-06
      -1.60844380e-07 -1.25913684e-05 -1.29554401e-05 2.54677670e-05
      1.02434406e-05 1.98528269e-05 3.30702824e-05 -1.02641625e-05
      1.63438983e-07 -1.39147730e-07 -1.53515494e-08 -1.07370425e-07
      -1.85223001e-07 2.52192403e-05 1.32333353e-05 1.15345820e-05
      -3.04429122e-05 -3.34469332e-05 1.25148345e-05 3.16180035e-06
      1.08508084e-05 1.83714728e-05 -8.08630674e-08 8.72236541e-08
      -2.12822915e-08 -2.90151917e-07 3.10393027e-08 3.76041389e-05
      2.11225943e-05 1.51371260e-05 1.33426347e-05 1.35130167e-05
      -7.48299317e-06 -2.37796103e-05 -5.71172313e-05 -4.25848884e-05
      -6.57111610e-09 5.67182155e-07 -6.38786872e-08 1.11335751e-07
      9.23049015e-08 -1.53190349e-08 5.30820117e-08 6.43663213e-07
      -1.06408506e-05 -1.04883247e-05 2.53935268e-05 1.14991190e-05
      1.73589779e-05 -2.74415288e-05 -1.29874270e-05 2.97735482e-06
      -9.84924100e-07 -1.58758535e-08 -1.66048721e-07 3.21634275e-07
      -8.63716210e-08 2.57290822e-07 -1.78661651e-07 -4.58027671e-07
      2.79162468e-05 2.72466496e-05 2.11609949e-05 1.34871561e-05
      -1.88057784e-05 -6.34914031e-05 -2.45852061e-05 -9.75610419e-06
      2.37411101e-07 3.10655309e-07 -3.98086613e-08 -1.02713602e-05
      -1.04790588e-05 -1.03362891e-05 -3.45954959e-07 8.11747753e-08
      -3.02442487e-07 1.07186970e-07 4.44848520e-05 4.56505177e-06
      -1.68196275e-05 -7.14662892e-05 -4.72903230e-05 -1.74075467e-05
      8.50437374e-08 -8.57506350e-08 -2.28632857e-07 -9.76411684e-06
      -1.08558952e-05 -6.12589091e-08 -1.10120467e-07 -1.01156743e-07
      -9.69979226e-08 3.80727397e-05 1.36447179e-05 -3.19121887e-06
      5.40405063e-06 -8.94415916e-06 -4.86483987e-05 -2.19499871e-05
      -1.02129088e-05 1.10279743e-07 -1.30104965e-07 5.26660031e-08
      7.28118721e-08 -3.56421452e-08 -1.08759977e-07 -5.80254529e-08
      4.36539558e-05 1.91907202e-05 1.86179386e-05 -3.53800278e-05
      -3.38068348e-05 -4.73532127e-05 -4.86684949e-05 -4.30302789e-05
      -1.03559623e-05 -2.73983545e-07 -5.42297727e-08 -2.75821378e-07
      -5.63314950e-09 -4.80712060e-07 -3.70615851e-07 -3.16775697e-07
      -2.43554932e-05 -3.49324910e-05 2.76214614e-05 3.76448334e-05
      3.37078950e-06 -5.93897448e-06 3.02609294e-07 -3.42208841e-05
      -2.18357286e-06 2.72640648e-08 -5.97356760e-08 -1.00434576e-07
      4.59146605e-07 4.41612392e-05 4.37886010e-05 1.89852653e-05
      1.96053952e-05 -3.51107265e-05 -1.96866713e-05 -9.26140729e-06
      -1.07596006e-05 -3.62808241e-05 -3.81654318e-05 -3.26234476e-05
      -2.49360928e-05 -2.41377137e-07 -6.24534451e-08 -2.21270842e-08
      -1.05323188e-05 -3.51271556e-05 -2.47510434e-05 -2.46591826e-05
      3.22604933e-07 7.84931899e-07 -9.15389592e-06 2.91389297e-05
      2.84827656e-05 1.78452119e-05 2.37191171e-06 6.08285063e-06
      5.51339144e-06 -1.72578666e-06 1.52195028e-07 4.34652320e-05
      3.35284130e-05 9.41802773e-06 1.93267279e-05 -2.44399544e-05
      -4.09356602e-08 -9.23414609e-06 -9.38886842e-06 -8.47407136e-06
      -1.74301397e-06 -1.33487902e-05 -2.84881899e-05 -4.70221639e-05
      -3.54447038e-05 -2.51195997e-05 0. -2.36562641e-07 -2.43998984e-05
      -2.46543495e-05 -1.67083329e-07 -2.98842302e-08 5.33525508e-07
      -7.66728760e-07 -9.18710793e-06 -8.40148914e-06 3.34903816e-05
      2.47031712e-05 1.76762933e-05 -6.47518709e-06 -4.57085889e-06
      5.74872429e-05 4.10079338e-05 1.94287568e-05 1.93025844e-05
      -2.46507589e-05 -9.73770469e-08 2.73839646e-07 -7.51437881e-07
      -9.33137653e-06 -1.90845785e-05 -1.04813180e-05 -1.87929743e-06
      -1.32263312e-05 -1.33446265e-05 -2.68786280e-05 -2.51556794e-05
      -2.50175362e-05 -4.95323729e-05 -2.46216950e-05 4.15291112e-07
      -5.53383828e-08 -1.11733442e-07 6.03645503e-07 -7.18226602e-07
      -9.28277495e-06 -1.95946886e-05 -1.06786465e-05 -5.85909766e-06
      2.53089529e-05 6.91511741e-05 6.26205147e-05 5.97303842e-05
      3.27331181e-05 -4.91365900e-05 -2.63651164e-05 -1.96031442e-06
      -1.05657082e-05 -1.02042623e-05 -1.08855129e-05 -9.34448508e-06
      -8.51898130e-06 -2.69570137e-07 -2.45622175e-07 -1.63909920e-06
      -1.32762425e-05 -1.33511148e-05 -1.16436713e-05 -3.96100440e-05
      -4.91503743e-05 -2.50423291e-05 -2.43178911e-05 -1.28012204e-07
      -1.05611734e-05 -1.05015361e-05 -1.24972701e-07 -9.24356664e-06
      3.49487418e-05 4.37679628e-05 4.42358505e-05 3.88327680e-05
      2.54328370e-05 2.48321212e-05 3.05362337e-05 -3.98945940e-06
      -1.93826454e-05 -2.50725316e-05 -2.46386444e-05 -2.36872984e-06
      1.52666090e-07 -7.10394943e-07 -9.24806318e-06 -9.22815070e-06
      -2.04746684e-07 -5.97684604e-08 -6.93248907e-08 -1.78861717e-06
      -5.71355486e-06 -3.77694232e-05 -3.78847544e-05 -1.01326877e-05
      -2.53270246e-05 -2.50306439e-05 -2.51134261e-05 -2.48873530e-05
      -9.82326674e-06 -7.55127232e-08 3.48444119e-05 3.49206712e-05
      4.39348078e-05 4.40778967e-05 -1.00739862e-05 2.17713550e-05
      2.47076005e-05 4.93161906e-07 5.90603122e-06 3.82296530e-05
      3.09170173e-05 -2.27700129e-05 -2.49292407e-05 -2.50101912e-05
      -1.11883082e-05 -8.93578908e-06 -9.25312725e-06 -3.36826474e-07
      1.44888375e-07 -1.87536902e-08 -1.06560447e-05 -3.66471904e-05
      -4.08072738e-05 -1.31442775e-05 -1.32389087e-05 2.11150038e-07
      -9.39349150e-08 -1.27548965e-05 -2.43659797e-05 -2.49904679e-05
      1.90412047e-05 1.45594386e-05 2.43615596e-05 4.36831979e-05
      -3.83539174e-08 2.35733850e-07 -1.30999439e-07 -2.99896128e-05
      3.09785833e-07 2.50912053e-05 3.06960901e-05 3.80328602e-05
      3.82673898e-05 3.79776793e-05 -2.23763582e-05 -3.39701473e-05
      -3.42268941e-05 -2.19226495e-05 -1.05329300e-05 -1.04930668e-05
      -5.40332445e-09 -2.43637460e-05 -2.43187860e-05 -1.51114762e-06
      -5.56558825e-06 -1.30979197e-05 -1.17595046e-05 1.72971681e-07
      -1.06236093e-05 3.35049335e-05 3.85027270e-05 1.90329429e-05
      -3.44113323e-05 -3.42250642e-05 -9.43982923e-06 -1.31202086e-07
      3.30067508e-07 -2.45166066e-05 -2.46216950e-05 -4.08669666e-06
      -1.32553805e-05 2.50013363e-05 2.91366960e-05 3.04292425e-05
      2.78092903e-05 2.78610241e-05 -2.93121702e-05 -3.19341525e-05
      -3.41670348e-05 -2.49250133e-05 -2.25691065e-06 -2.47122352e-05
      -2.45622869e-05 1.09872147e-07 6.17102216e-07 -1.20948544e-05
      -1.61055887e-05 -1.33042377e-05 -1.17704694e-05 4.40423028e-05
      4.40545809e-05 4.40309886e-05 1.93357891e-07 -1.48196305e-05
      -3.43652464e-05 -2.48419219e-05 -4.92239269e-05 -2.42377137e-05
      -2.43635222e-05 3.48075389e-07 -1.05607562e-07 -1.45152735e-05
      -2.37168297e-05 -2.37877593e-05 2.47423541e-05 3.07596965e-05
      3.77114557e-05 3.74773335e-05 2.89730124e-05 -9.24925826e-06
      -2.26931934e-05 -4.96362918e-05 -5.99963896e-05 -1.26423301e-05
      -1.05994786e-05 2.66156064e-07 -8.32510310e-08 -1.43163288e-06
      3.07217997e-05 3.08761519e-05 3.16972946e-05 4.40797012e-05
      2.71283568e-07 -7.15410010e-07 -8.67710332e-06 -9.14238535e-06
      -3.20760810e-05 -4.94301094e-05 -5.97307881e-05 -3.53471587e-05
      -1.00035832e-05 -6.79486689e-08 -3.77017848e-08 -3.63236313e-06
      -1.33669428e-05 -1.32295118e-05 -1.31151801e-05 3.83353618e-05
      3.75035743e-05 1.83933025e-05 1.81994019e-05 3.18536468e-06
      -2.46085747e-05 -2.24998512e-05 -2.50260637e-05 -2.50208632e-05
      -1.72254681e-06 4.35422953e-05 4.37291346e-05 4.24688769e-05
      -1.31109946e-05 -1.32783334e-05 -1.18616836e-05 1.34878263e-07
      -9.92652303e-07 -1.98477737e-05 -1.93683973e-05 -3.46774177e-05
      -2.46602467e-05 -7.59223303e-06 -2.50035264e-05 -2.49799723e-05
      -2.50348821e-05 -2.62199961e-07 -2.88997271e-08 -2.67005248e-07
      -2.37556178e-05 -2.36280630e-05 -1.98150919e-05 3.71986098e-05
      2.90791450e-05 2.89309519e-05 1.36373064e-05 3.83013939e-05
      3.79734884e-05 -7.34053037e-06 2.19997164e-05 1.87718724e-05
      1.88625072e-05 -7.84422355e-06 -1.90011849e-06 -1.31641468e-06
      -1.59693209e-05 -2.38162465e-05 -2.32980601e-05 -3.67268143e-07
      -9.55106043e-06 -3.37610363e-05 -2.46964992e-05 -6.54777992e-08
      -1.54487232e-08 -3.88886363e-08 -5.66563085e-06 -2.50370831e-05
      -3.53641335e-05 -3.54858603e-05 -1.63105633e-05 -1.39805238e-07
      -1.31229044e-05 -1.28610609e-05 -1.01113501e-05 2.86861014e-05
      4.96370149e-06 3.00023967e-05 3.76804383e-05 4.43207973e-05
      4.39927171e-05 4.42983292e-05 4.41427659e-07 -3.31972115e-05
      -3.54564654e-05 -2.51492238e-05 -7.62271338e-06 -1.90677099e-06
      -5.72447061e-06 -1.32578207e-05 -1.38954429e-05 -3.37716447e-05
      -3.36267476e-05 -8.78380604e-08 -8.66991812e-08 -1.05034496e-05
      -1.03356779e-05 -1.04112050e-05 -1.46047981e-07 -5.61281286e-06
      -2.50865924e-05 -2.43898558e-05 -2.49166042e-05 -1.34774209e-05
      -1.33521880e-05 -1.41236987e-05 -4.29853499e-05 -9.04252738e-06
      2.99051280e-05 7.15713613e-05 7.12956244e-05 3.41213781e-05
      -1.61744921e-07 4.45739232e-07 -1.19536921e-07 1.72971681e-07
      -1.67578837e-05 -2.47319549e-05 -2.50840822e-05 -9.29747603e-06
      -5.57772046e-06 -3.86254651e-05 -4.68758772e-05 -1.96580149e-05
      -1.06709822e-05 -4.10320879e-08 -1.00132674e-07 -6.21110274e-08
      -1.40514203e-07 -2.97939266e-07 -6.21110274e-08 -1.18023756e-07
      -8.34853040e-08 -2.47819298e-05 -2.49539025e-05 -2.43410177e-05
      -6.61060767e-05 -3.27618436e-05 -3.29606992e-05 2.78712632e-05
      8.23204755e-05 8.23344744e-05 3.81028258e-05 5.97670294e-07
      6.55756693e-08 -2.13682654e-07 -6.82381440e-08 4.27211091e-07
      -9.83097470e-06 -1.73163098e-05 -6.00053791e-05 -6.07718321e-05
      -3.87653745e-05 -2.25981730e-05 -2.20022084e-05 -8.47006777e-06
      -6.75860150e-08 -7.72436159e-09 2.44849137e-08 1.70993872e-07
      -4.81411234e-07 4.75162835e-07 -1.05527333e-05 -1.03247439e-05
      -1.09210068e-05 -1.03939101e-05 -4.18784512e-05 -3.40428705e-05
      -3.01179512e-06 4.17513957e-06 2.22760373e-05 3.65396227e-05
      3.00547924e-07 3.89644192e-05 3.78158657e-05 3.82572725e-05
      7.29944645e-07 -1.09376078e-05 -1.00406987e-05 -2.47075113e-05
      -2.43462273e-05 -3.39372637e-05 -4.17396222e-05 -2.73741844e-05
      -3.94568415e-05 -3.02147619e-05 -1.33301382e-05 2.61357741e-07
      -4.69469335e-08 -3.11119379e-07 -1.02679323e-05 -7.20557480e-08
      -3.85724604e-07 -1.72058733e-07 9.24615620e-07 0. 4.36405899e-05
      1.94485947e-05 1.94765289e-05 2.58941927e-05 4.15537306e-06
      -4.53308530e-05 -3.12417615e-05 -7.53082759e-06 1.58433238e-07
      3.85670319e-05 3.81051577e-05 3.82414946e-05 3.80586243e-05
      -2.47777534e-05 -3.47104287e-05 -3.47836940e-05 3.73368636e-07
      1.84551581e-07 -1.87016631e-05 -2.77962154e-05 -3.98632001e-05
      -3.82348881e-05 -2.10249891e-05 3.65555280e-07 -1.58758535e-08
      -2.70233556e-07 -1.42727316e-07 -7.22700690e-08 -7.42433883e-08
      -5.74312310e-07 4.40002805e-05 1.92056723e-05 1.90487972e-05
      4.39161849e-05 4.35189577e-05 -8.50033575e-06 -3.19972714e-05
      -3.64801272e-05 -3.66873828e-05 -3.07503069e-05 -7.28968917e-06
      2.75308666e-05 3.04286550e-06 1.39772865e-05 1.37407478e-05
      1.37707548e-05 -1.82054947e-07 -1.61871611e-07 -2.73201891e-07
      -8.90840420e-06 -8.84630663e-06 -1.06179623e-05 -3.58909347e-05
      -3.82204489e-05 -3.07875707e-05 -2.48950782e-05 1.60469227e-07
      -7.45987094e-08 2.29617385e-07 4.40416043e-05 4.37824310e-05
      1.96443161e-05 2.02676274e-05 1.93003107e-05 1.87414171e-05
      -7.06476953e-07 -9.13870554e-06 -9.52206301e-06 -4.82160658e-06
      -2.14717329e-05 -3.65720407e-05 -3.65838387e-05 -3.24047251e-05
      5.62983769e-06 1.39305839e-05 3.83850092e-05 3.83717925e-05
      -3.64025681e-08 3.96959422e-07 -9.04116405e-06 -9.07078811e-06
      -8.75569549e-06 -9.44000931e-08 -1.67911742e-06 -2.01877028e-05
      -3.62208884e-05 -2.87850708e-05 -2.48028900e-05 -2.46400341e-05
      4.36263326e-05 4.39147370e-05 4.46421072e-05 4.35935908e-05
      1.98484850e-05 1.94931235e-05 -2.48719643e-05 -2.49235127e-05
      -8.70651820e-06 -8.94766981e-06 -6.30712918e-07 -1.35525923e-07
      -4.04834282e-06 2.11849183e-05 -2.20781640e-05 -1.91316522e-05
      5.94259473e-06 2.51652873e-05 3.26323243e-05 3.70236594e-05
      2.91286888e-05 -8.70517306e-06 -9.03114687e-06 -9.30453280e-06
      -7.53928742e-09 -1.67065411e-06 -5.19103696e-06 -1.97299669e-05
      -2.63289166e-05 -2.52279206e-05 1.89835337e-05 1.87936967e-05
      3.44357941e-05 4.40748481e-05 4.38224852e-05 1.88676477e-05
      2.01267085e-05 -2.45458214e-05 -2.46058207e-05 -2.43553241e-05
      -2.48103788e-05 -5.32484762e-07 -3.94733348e-07 -7.73052193e-07
      -2.91256456e-05 -3.71801361e-05 1.77996662e-05 4.12000236e-06
      4.23357505e-06 3.84351824e-06 1.14603508e-05 2.30497244e-05
      2.36188407e-05 1.96662313e-05 -5.57333715e-06 -6.95109202e-06
      -7.04165313e-06 -1.15788762e-05 -1.14060622e-05 -3.59465994e-05
      9.58014516e-06 2.09722257e-05 1.91045710e-05 1.89079547e-05
      2.64361552e-05 1.92957013e-05 1.93230389e-05 1.98927210e-05
      1.95128905e-05 1.94411277e-05 -2.38607827e-05 -1.32845187e-07
      -2.16933290e-06 -2.74158265e-06 -2.53007647e-06 -2.76983110e-06
      -2.85208398e-06 2.72040215e-05 2.90922871e-05 1.54802656e-05
      3.34723973e-06 3.74857541e-06 3.54852750e-06 1.20162458e-05
      1.48585777e-05 1.63506938e-05 7.21947572e-06 7.91344337e-06
      7.76719389e-06 -3.06323818e-05 1.35534829e-05 7.87115005e-06
      4.59335897e-05 5.58356696e-05 5.56063496e-05 5.53643840e-05
      2.29108537e-05 3.06697148e-05 4.18781892e-05 4.20521719e-05
      4.20447359e-05 4.21236145e-05 4.20022843e-05 4.18007476e-05
      4.20167125e-05 4.14413844e-05 4.18909476e-05 3.27387825e-05
      3.31638585e-05 3.27073067e-05 -1.49154157e-05 -1.52696302e-05
      1.41057117e-05 2.45964111e-05 2.19448648e-05 2.29787929e-05
      1.04143992e-05 1.10245173e-05 1.41285072e-05 5.73177340e-06
      5.64936363e-06 5.64713810e-06 1.46771054e-05 9.24407232e-06
      9.61183196e-06 1.35380760e-05 1.16206575e-05 1.12664611e-05
      1.32768619e-05 -1.21233879e-05 -2.15505770e-06 6.66480844e-07
      -1.45720207e-06 -1.45893898e-06 -1.47554215e-06 -1.49359414e-06
      -2.17884144e-06 -2.11956876e-06 -2.28631302e-06 -1.06701200e-05
      -6.65632979e-06 -6.66878577e-06 -3.90487048e-06 -2.56516432e-06
      -3.69243548e-06 2.31372396e-05 2.17691613e-05 2.03451691e-05
      2.68909625e-05 1.55414145e-05 3.04872515e-06 2.29097495e-05
      1.48182344e-05 6.15368526e-06 6.46148919e-06 1.05070221e-05
      1.26893638e-05 5.97905955e-06 3.45635431e-06 1.34168467e-05
      1.29149930e-05 8.43671933e-06 -1.29357486e-05 -1.05787813e-05
      -1.46603998e-06 -1.52564917e-06 -1.32900163e-06 -9.74546083e-07
      -1.11221584e-06 -1.98128146e-06 -2.14652891e-06 -1.96279598e-06
      -1.66142991e-06 -2.21885034e-06 -1.98642419e-06 -1.13768408e-06
      -1.09522591e-06 -1.47465164e-06 3.53290634e-05 3.15160905e-05
      3.11442454e-05 3.12585762e-05 3.10745963e-05 2.90665321e-05
      1.77385973e-05 1.95591747e-05 1.95242574e-05 1.95379471e-05
      1.11380841e-05 4.95966788e-06 3.01946011e-06 3.24391635e-06
      9.66522566e-06 9.23753305e-06 1.81741871e-05 -1.06805437e-05
      -6.77680987e-07 -6.23715414e-06 2.81671964e-05 -8.98742272e-08
      -4.52190847e-07 -1.04041310e-05 -1.03138482e-05 -1.01228725e-05
      -7.57534872e-06 -5.00466149e-06 -9.94564107e-06 6.05954369e-07
      -5.36143659e-07 -9.86220311e-06 -9.98259384e-06 2.82498750e-05
      3.53845135e-05 3.12621814e-05 3.53144569e-05 3.53371870e-05
      3.54000877e-05 2.72013986e-05 2.72149045e-05 2.16420376e-05
      2.16549524e-05 2.16856897e-05 2.16265889e-05 1.97083045e-05
      1.96723249e-05 2.52611117e-05 3.69219779e-05 3.66852510e-05
      3.73006296e-05 3.71748720e-05 3.74403899e-05 -1.43111890e-06
      -1.08235895e-06 -1.40072416e-06 -5.59211230e-06 -6.21664867e-06
      -6.04649358e-06 -6.25465145e-06 -5.59774571e-06 -6.07519496e-06
      -6.28015232e-06 -6.21664867e-06 -6.22290008e-06 -6.07862967e-06
      -6.07862967e-06 -6.33171021e-06 -6.29800252e-06 -6.25722851e-06
      -6.37006451e-06 -6.37273570e-06 -1.59585434e-05 -1.60187228e-05
      -1.60187228e-05 -1.59968986e-05 -2.34974286e-05 -2.35334101e-05
      -2.34885592e-05 -1.79666094e-05 -1.59121118e-05 -6.37406765e-06
      -6.28707448e-06 -5.89315550e-06 -6.07176025e-06 -6.04367688e-06
      -6.21946538e-06 -5.89315550e-06 -6.21664867e-06 -5.69773374e-06
      -5.92185688e-06 -6.22228163e-06 -5.36429252e-06 -5.93148161e-06
      -6.21664867e-06 -6.25465145e-06 -5.63043841e-06 -6.23252436e-06
      -6.23252436e-06 -6.23877577e-06 -6.24502718e-06 -6.46134367e-06
      -6.26427618e-06 -6.22290008e-06 -6.34230628e-06 -6.23252436e-06
      -6.21664867e-06 -6.21664867e-06 -6.21664867e-06 -1.60519830e-05
      -1.79588860e-05 -1.71184347e-05 -1.13729493e-05 -1.67768349e-06
      -1.11842360e-06 -1.68308179e-06 4.05611627e-06 3.97483427e-06
      3.97201757e-06 3.96638416e-06 4.12535564e-06 3.97201757e-06
      -4.71847352e-06 -9.23623429e-06 -7.80909204e-08 1.45512161e-06
      -1.16776869e-06 -1.56194437e-05 -1.71984320e-05 -1.73489534e-05
      -1.08638142e-05 3.78843470e-06 -1.78821829e-05 5.49649712e-06
      4.43575436e-06 -1.88200302e-05 -1.91497784e-05 -1.90353694e-05
      -2.47767694e-05 -9.22478102e-06 -2.69681132e-05 -3.33385151e-06
      2.25082317e-06 -2.71639437e-05 -2.80662935e-05 -2.81343582e-05
      -4.82500991e-06 1.43849957e-06 -6.09843755e-06 3.66832819e-06
      3.51801827e-06 -6.52405333e-06 -6.75382216e-06 -6.45559567e-06
      -8.83204564e-07 -5.48182743e-06 -5.50374307e-06 3.66832819e-06
      3.51176686e-06 -6.68763414e-06 -6.76969830e-06 -6.78557399e-06
      2.61531227e-06 2.29551551e-06 2.25076587e-06 2.27963960e-06
      2.27061741e-06 2.31426930e-06 2.31426930e-06 2.29551551e-06
      2.23226334e-06 2.31145259e-06 -6.06507956e-06 -5.98837187e-06
      -6.03721401e-06 -5.98837187e-06 -5.38100153e-07 -5.98615202e-07
      -1.95758730e-06 -1.99114106e-06 -1.99395754e-06 -1.97629538e-06
      -1.94748918e-06 -1.95593884e-06 -1.64644609e-06 -1.94748918e-06
      1.54973841e-05 2.19650447e-05 7.36302854e-06 3.38564905e-06
      1.22735864e-05 3.50609480e-05 3.67476277e-05 3.69611553e-05
      3.67822577e-05 2.65735525e-05 3.52314382e-05 -6.97365249e-06
      -4.95507220e-06 3.63443323e-05 3.67947578e-05 3.67504545e-05
      1.06325306e-05 2.05213109e-05 2.42118276e-05 -1.68958868e-05
      -1.04621740e-05 2.13525564e-05 2.03591935e-05 2.02865976e-05</_>
    <_>
      7.32741299e-08 2.71050543e-20 5.82307962e-07 2.71050543e-20
      1.69677946e-07 2.71050543e-20 2.19822383e-07 1.69677946e-07
      3.34665827e-07 5.76348391e-08 6.53271172e-07 -2.12933912e-07
      2.75221026e-07 -2.71802804e-07 -3.72179784e-07 1.77528094e-07
      2.71050543e-20 -2.40692117e-07 -4.02402748e-07 3.96576866e-07
      -3.72754243e-07 -6.87593342e-08 3.12969661e-07 -2.85329207e-07
      2.71050543e-20 2.71050543e-20 2.71050543e-20 2.71050543e-20
      2.71050543e-20 2.71050543e-20 2.71050543e-20 3.66370642e-07
      1.69677946e-07 2.19822383e-07 5.09033839e-07 2.71050543e-20
      6.06757737e-08 8.05453510e-07 3.56919060e-07 -1.36436626e-07
      -7.84303964e-08 -5.80642279e-07 6.28441853e-07 3.21649651e-07
      -6.12884548e-07 1.69556529e-07 -3.14740021e-07 -1.99245264e-07
      -2.89125268e-07 1.34031879e-07 -1.90677540e-07 -1.88487874e-07
      -3.85741885e-07 -3.50975171e-07 -2.43304697e-07 -1.67293194e-07
      -2.58755648e-08 2.71050543e-20 2.71050543e-20 2.71050543e-20
      1.46548260e-07 2.71050543e-20 2.00015833e-07 2.71050543e-20
      1.69677946e-07 7.32741299e-08 2.42952069e-07 5.59379771e-07
      -3.92406747e-07 1.88970674e-07 8.03495539e-07 -4.39504305e-07
      5.21792003e-07 1.83370176e-07 -2.11714664e-07 -2.48529631e-07
      -2.92161019e-07 -1.13058093e-07 -6.20034768e-07 1.12185603e-07
      -2.90248778e-07 -4.71187235e-07 -1.02718623e-07 -2.03961115e-08
      -1.67293194e-07 4.40639809e-07 2.71050543e-20 -9.28031625e-08
      2.71050543e-20 -9.87201147e-08 6.06757737e-08 -8.58724789e-08
      2.71050543e-20 1.26741710e-07 6.06757737e-08 2.71050543e-20
      3.91093920e-07 1.37610513e-07 7.41129668e-07 4.12630015e-07
      8.03925445e-07 2.93903327e-07 -5.10580151e-07 6.13173199e-07
      -1.56950378e-07 7.37516856e-08 8.90506442e-08 -3.34887886e-07
      -4.52063659e-07 -1.24846039e-07 1.58262608e-07 -2.62451550e-07
      2.68072228e-07 -6.57491006e-10 -2.44185458e-07 -2.48593324e-07
      -3.96512490e-07 -1.49785549e-07 -1.49545357e-07 -1.34443496e-07
      -1.42203817e-07 -9.46873726e-08 -4.76174193e-08 7.32741299e-08
      1.26741710e-07 1.03612010e-07 4.64368043e-07 3.48495149e-07
      1.76886132e-07 9.84956006e-10 2.37183656e-07 1.20426966e-08
      -1.31916877e-07 1.47795687e-09 -2.97338886e-07 1.22439658e-07
      4.38941129e-07 -1.07873241e-07 -3.90327102e-07 3.57218426e-07
      -1.20324202e-07 -5.71764758e-07 -5.58886086e-07 -1.15415951e-07
      -2.63225587e-07 -1.83634882e-07 1.96150964e-07 -6.93766538e-07
      -1.27568839e-07 -1.77379746e-07 -3.16498046e-08 -1.12111536e-07
      -2.65240025e-08 1.36962072e-07 1.13272961e-07 2.71050543e-20
      1.69677946e-07 1.89348540e-07 3.64669972e-07 3.14307727e-07
      2.71050543e-20 1.88174763e-05 -5.54115935e-08 3.14307727e-07
      4.91222750e-07 1.52850490e-07 1.85829049e-05 2.71050543e-20
      -3.34639935e-07 1.56683157e-07 -2.50610071e-07 -2.98551129e-07
      -1.80384731e-07 2.96445307e-07 -1.09568073e-05 -1.10480323e-05
      -1.09135335e-05 -3.42845965e-07 -3.91293497e-06 -2.70203458e-07
      -5.17829548e-08 1.92787695e-07 -9.40902538e-08 -1.41656358e-07
      -1.57278038e-07 3.49449911e-05 3.47219502e-05 4.10036279e-07
      6.60051640e-08 1.88225131e-05 2.00616178e-05 -1.48279123e-05
      9.22342588e-06 9.22342588e-06 -1.43783454e-05 2.78908046e-05
      1.15401490e-05 -2.38917964e-05 9.72641192e-06 2.62715148e-05
      1.11086301e-05 1.07869055e-05 -1.58076236e-05 -2.42607020e-05
      -2.79917986e-05 -2.73647529e-05 -1.96163073e-05 -1.98807811e-05
      -1.28929360e-05 -1.33619506e-05 -1.97386780e-05 -2.92874502e-05
      1.22150341e-05 1.25383704e-05 1.89750135e-05 1.63250515e-05
      -9.20770944e-08 1.87347669e-05 9.13690474e-06 9.54534880e-06
      9.13120402e-06 9.16604404e-06 9.50198319e-06 5.24483658e-05
      5.22593946e-05 5.24483658e-05 -1.61803073e-05 -3.48083740e-05
      -3.48932117e-05 -3.96868018e-05 -5.92069000e-06 -6.47206616e-06
      -5.54434519e-06 -6.00524254e-06 -1.19833139e-05 -2.54790593e-05
      -4.23005122e-06 7.01685713e-06 2.39360324e-05 -2.00892846e-05
      1.53513174e-05 3.62901892e-06 -3.11490430e-06 3.51819790e-06
      3.22107667e-06 5.86679198e-06 1.25670213e-05 1.59944875e-06
      -9.39325400e-06 -9.61177011e-06 -9.70707151e-06 3.02021385e-06
      -1.74274339e-06 3.16589503e-05 7.51150510e-05 7.43681958e-05
      4.13493326e-05 -2.06288860e-05 -3.93105620e-05 -3.91580106e-05
      -3.95498755e-05 -6.15933050e-06 -5.14130079e-06 -6.12869690e-06
      3.06164202e-06 -4.26177576e-06 -1.04703813e-05 5.71954615e-06
      4.52692293e-05 5.87052236e-05 1.56858478e-05 1.51984696e-05
      1.54774061e-05 3.39061830e-06 3.48932963e-06 -3.30180706e-06
      -3.38174618e-06 1.24255266e-05 1.92666521e-05 -2.08858728e-05
      1.29008931e-05 1.28480588e-05 2.36937867e-05 2.39532401e-05
      2.41779453e-05 6.69412839e-05 7.36167640e-05 3.67350149e-05
      3.36199696e-06 -8.24388990e-05 -8.23932351e-05 -4.95363856e-05
      -3.85732819e-05 -3.82896906e-05 -3.76488897e-05 -3.76738608e-05
      3.66368477e-05 2.04064800e-05 2.42358765e-05 2.69846678e-05
      4.30880973e-05 1.80848692e-05 1.81994856e-05 1.80846910e-05
      5.97810822e-06 -4.90748243e-06 -1.99591504e-05 -2.46470472e-06
      6.16403258e-06 5.81146105e-06 6.50835427e-05 3.59956503e-05
      3.57303179e-05 3.64634689e-05 3.57912832e-05 1.86860761e-05
      4.56119742e-05 4.55324698e-05 2.88930605e-05 -1.53640231e-05
      -5.96952559e-05 -3.06352777e-05 -2.08832244e-05 -2.11937513e-05
      1.32685773e-05 1.36268964e-05 1.38760788e-05 -3.81697246e-05
      -1.04872643e-05 -1.46380471e-05 -2.17316428e-05 -1.88723425e-05
      -2.41618818e-06 -1.71498687e-05 -6.95072595e-06 4.70687301e-05
      3.73768344e-05 2.54447004e-05 3.03545420e-07 -3.40188453e-05
      -3.84691120e-05 -2.58757882e-05 -2.59083608e-05 -1.32901314e-05
      -2.83522411e-07 3.45249589e-07 7.48003367e-05 2.98232771e-05
      4.09329368e-05 4.09410750e-05 2.41239795e-05 -2.66345633e-05
      4.82998712e-06 -1.84514956e-05 3.44553082e-05 2.49450665e-07
      -2.07042575e-07 -1.07477199e-05 -1.79520866e-05 1.90065020e-05
      7.01264480e-06 -9.95574101e-06 -1.50592305e-05 -5.54118287e-06
      -1.65890597e-05 7.55049484e-07 -1.55156267e-05 1.90213905e-05
      1.28327395e-06 -2.63178322e-07 -1.17230966e-05 -1.93510641e-05
      -2.49468376e-05 -3.81409300e-05 -3.76351381e-05 -3.00422726e-05
      -1.72621549e-05 5.80745791e-07 4.81297757e-05 4.76643072e-05
      7.56026429e-06 2.44854946e-05 -1.54539539e-05 -6.52527751e-06
      -2.91762408e-05 -2.95082118e-05 -2.95269874e-05 -1.83723641e-05
      -3.34752954e-08 -4.51154456e-08 -6.98683471e-06 2.39232486e-05
      -9.76272077e-06 -1.37658772e-05 -1.45175136e-06 -3.75073978e-05
      1.58584180e-06 1.60111006e-06 -4.33011706e-08 6.21912875e-07
      -7.34157993e-06 -1.74840843e-05 -1.75938367e-05 -1.86207781e-05
      -1.86551297e-05 -2.78252846e-05 -3.11197582e-05 -1.97589143e-05
      -1.28929159e-05 4.23417896e-06 -2.87414787e-05 -1.19494207e-05
      -2.53739963e-05 -4.44010584e-05 -2.31571306e-07 -2.03802443e-07
      -1.83093846e-07 5.57921737e-07 -1.22506117e-05 -1.91341933e-05
      -1.86912621e-05 -6.55857366e-06 3.28041097e-05 7.41588610e-06
      -9.62460126e-06 3.27283524e-05 4.35849415e-06 1.56814474e-06
      -1.10086867e-05 -1.12233301e-05 -1.24972786e-07 1.16271693e-07
      -1.03192988e-07 -1.46373694e-07 -5.76521643e-07 -1.47365782e-07
      -1.82469794e-05 -1.86316174e-05 -3.37770180e-05 2.61803166e-07
      -2.62687245e-05 -3.46083216e-05 -1.43850102e-05 -3.75187483e-05
      -2.37379581e-07 9.26602723e-08 -2.80480691e-07 -2.35927885e-07
      -2.89372878e-07 -8.21820407e-08 -2.81156645e-07 -1.18537728e-05
      -1.91201016e-05 2.43880695e-05 6.18675476e-05 1.42015360e-05
      -2.35100888e-05 -7.83462383e-05 -1.57949174e-08 -2.28063769e-07
      -7.41414183e-08 -6.59698856e-08 -1.94089708e-07 -6.43873008e-08
      -2.56675179e-07 -1.03665371e-07 -1.12716943e-05 -1.05262816e-05
      -1.22096635e-05 2.37240729e-05 -1.35864673e-06 -6.73777322e-05
      -4.83536169e-05 -4.18953423e-05 -4.71172825e-06 -1.81954988e-07
      -1.58298604e-07 -2.25219750e-07 1.73578002e-07 -3.05412129e-07
      -4.10425862e-08 -5.06827917e-07 -1.08328441e-05 2.40131758e-05
      6.61073718e-05 5.94174417e-05 -3.62248538e-05 -5.52064776e-05
      -6.37496341e-05 -8.46460534e-06 3.06505257e-08 9.82137180e-08
      -2.80132610e-07 -1.09785115e-05 -1.09272505e-05 -1.10215860e-05
      -1.77285870e-07 7.21742666e-08 -4.89285867e-07 4.23433012e-05
      4.24125610e-05 -3.07826349e-06 -7.49361425e-05 -1.10126333e-04
      -4.27898885e-05 -4.07791777e-06 -2.26655004e-07 -1.44668377e-07
      5.13398213e-08 -1.09894090e-05 2.39548172e-05 3.45728040e-05
      3.48982430e-05 3.49447691e-05 3.43817119e-05 4.30697582e-05
      9.85020233e-06 -1.88321337e-05 -2.40971785e-05 -7.66022422e-05
      -6.59699508e-05 -2.13014318e-05 -1.06580064e-05 -2.92193334e-07
      -1.36874206e-07 -8.05195413e-08 -2.47224477e-07 1.68083290e-08
      1.83747215e-05 4.23655911e-05 4.27246341e-05 9.43215218e-06
      -3.80877718e-05 -7.18243682e-05 -5.94463054e-05 -5.97298276e-05
      -4.86709469e-05 -3.33789030e-05 2.40025911e-05 3.44703585e-05
      3.51723429e-05 3.48275025e-05 3.46606103e-05 -5.18029026e-07
      -8.73837607e-08 -2.99141675e-07 9.30717943e-06 -1.27766384e-06
      1.54010959e-05 -1.56332953e-06 -4.87598118e-05 -4.81183051e-05
      -3.84286868e-05 -1.05292575e-05 -6.55636586e-06 1.37044324e-07
      1.86078305e-05 1.83745378e-05 4.22877929e-05 4.28608764e-05
      4.20780743e-05 -9.47132412e-06 -3.36368503e-05 -4.42571327e-05
      -4.92136896e-05 -3.84187406e-05 -1.20980294e-05 3.30570924e-06
      -3.56568171e-06 5.69417443e-06 1.63280492e-05 3.49082002e-05
      1.18036759e-07 3.80872052e-07 -1.08774957e-05 -4.44221369e-05
      -3.38309146e-05 9.50850063e-06 4.28984640e-05 9.78475964e-06
      5.41514191e-06 4.89637250e-06 -4.25340295e-05 -1.95875582e-05
      -3.16228725e-05 -3.68113206e-06 3.17571139e-05 3.57215249e-05
      4.26758306e-05 4.23861529e-05 1.31662528e-05 -2.02432293e-05
      -3.33485223e-05 -3.31710580e-05 3.50648043e-05 -3.65432084e-06
      -3.38000086e-06 1.43357124e-06 2.62530539e-05 1.53223118e-05
      -3.20025947e-06 -4.87681318e-05 -2.97098177e-05 -1.91202453e-05
      -2.50075232e-07 -4.70562242e-07 9.95751361e-06 9.60631769e-06
      4.30792061e-05 4.25588842e-05 2.67915020e-05 5.48296521e-06
      5.27223210e-06 -1.50660589e-05 3.35962341e-06 2.30180867e-05
      2.30898731e-05 6.16396301e-06 9.18367004e-06 3.65400883e-05
      1.72721975e-05 -3.35558834e-05 -3.35472359e-05 1.44904607e-06
      3.49527436e-05 3.49418260e-05 -3.62883543e-06 -3.14274143e-06
      -4.42699384e-05 -1.10503443e-05 -9.14321481e-06 -1.94084096e-05
      2.32463299e-05 1.10031087e-05 2.42156202e-05 2.43938321e-05
      -9.32584862e-06 9.47247372e-06 4.30923865e-05 4.31092631e-05
      4.35752991e-05 2.67111227e-05 2.36862397e-05 -1.95461816e-05
      -1.36354693e-05 3.14575918e-05 2.96477847e-05 2.31643098e-05
      2.27832479e-05 2.93958710e-05 4.72153624e-05 -1.73911685e-05
      -1.66652626e-05 -5.17591570e-06 2.81269822e-05 2.40241352e-05
      2.41160633e-05 -4.90935272e-05 -3.83639599e-05 -3.35669829e-05
      8.88033966e-08 -4.81067275e-07 3.59195001e-05 2.34222407e-05
      2.35794960e-05 3.00238335e-05 -9.49631976e-06 -8.56158204e-06
      2.44153798e-05 2.42808455e-05 4.31672452e-05 3.18270359e-05
      3.39613689e-05 -1.95246048e-05 5.30851457e-06 2.14373849e-05
      4.26707338e-05 4.24007194e-05 2.91964516e-05 5.82933426e-05
      3.94726230e-05 2.85433562e-05 -9.14451903e-06 -2.13670028e-05
      1.60243781e-05 1.60595719e-05 -6.84548786e-06 -1.06802446e-07
      -3.80222955e-05 -3.82062644e-05 -3.81160789e-05 -2.99789150e-07
      9.32431306e-08 2.13467445e-07 3.63774416e-05 2.74299600e-05
      -9.82327765e-06 -3.48433150e-06 3.20449326e-05 1.34208522e-05
      2.44242983e-05 2.44499060e-05 4.85945384e-05 6.92948161e-05
      9.38032463e-06 4.06656545e-06 2.10889666e-05 4.27786617e-05
      4.26591541e-05 3.13610362e-05 -3.06060542e-07 -1.95554931e-05
      -5.32308259e-05 -3.96975229e-05 3.50723749e-05 3.48768808e-05
      2.28862318e-05 -1.88523063e-05 -1.86729321e-05 -2.83219670e-05
      -3.83718361e-05 -3.81673599e-05 -5.50020900e-07 2.50071906e-07
      -2.23688986e-07 -1.08956938e-05 -5.12324696e-05 -6.05107816e-05
      2.35983389e-05 3.03867273e-05 4.28809035e-05 4.31861699e-05
      3.08306699e-05 2.42203605e-05 2.40364425e-05 -5.21559341e-05
      -4.91037026e-05 -6.36403365e-06 4.22138946e-05 4.27258892e-05
      2.35750795e-05 -1.27413870e-07 -4.67404752e-05 -5.31146979e-05
      -1.95858465e-05 2.88319261e-05 3.47749155e-05 1.37610513e-07
      1.79756626e-07 -1.20235873e-05 -4.05055871e-05 -5.70634729e-05
      -5.57071471e-05 -2.78700336e-05 -1.08827553e-05 -1.52403487e-07
      -3.34648539e-05 -3.33975586e-05 -6.74366811e-06 -1.58477651e-05
      -1.98576145e-05 2.36561555e-05 4.26280712e-05 3.18802231e-05
      3.22696651e-05 3.10812538e-05 -9.21513947e-06 -5.71613818e-05
      -5.71665223e-05 1.72038682e-07 4.28247040e-05 4.33037094e-05
      -3.35816221e-05 -3.30275579e-05 2.18860278e-05 1.54434128e-05
      -1.93181277e-05 -6.33750142e-06 -3.88120861e-06 -1.09920711e-05
      -1.08173699e-05 -3.25036308e-05 -5.03668562e-05 -5.69813747e-05
      -1.92020088e-05 -6.49390768e-06 -3.36133817e-05 -3.37315396e-05
      -2.59065303e-07 -8.17074763e-08 -1.77182847e-05 -2.66118168e-05
      -1.98552261e-05 -1.89683760e-05 3.37410597e-07 4.24458267e-05
      4.30671062e-05 9.88903776e-06 -3.83604347e-05 -5.73105754e-05
      2.36438318e-05 -9.40515929e-06 9.94946276e-06 1.87415128e-06
      3.49438305e-05 3.53271680e-05 -2.41043763e-05 -3.04916521e-05
      -3.02320495e-05 -1.28420279e-05 -4.08789720e-06 -3.25457535e-07
      -2.12184787e-05 -3.87014516e-05 -3.82194194e-05 -1.24604003e-05
      -5.23354574e-05 -6.33435557e-05 -1.75916812e-05 -1.09071025e-05
      -1.10411300e-07 -2.63613202e-07 -9.69534639e-08 -1.94406857e-05
      -1.95858465e-05 -1.96382462e-05 -6.71794425e-08 4.32643428e-05
      5.23088647e-06 5.56218174e-06 4.73950058e-05 2.80566064e-06
      2.54120168e-05 -2.81564699e-05 5.59030013e-06 -1.08851000e-05
      4.02682971e-08 -2.25638175e-07 -1.33377152e-05 -1.95355315e-05
      -1.97871086e-05 -1.27956428e-05 -1.02576379e-07 -2.16583121e-05
      -4.93609696e-05 -4.93701373e-05 -4.45039768e-05 -3.32498530e-05
      -1.21991807e-05 -1.87783171e-05 -1.90666196e-05 -6.75599813e-06
      -2.42459578e-07 -3.34818786e-08 -6.66827376e-08 -1.93084670e-05
      -1.94885833e-05 -1.99809419e-05 6.17254273e-07 4.73436330e-06
      3.63572690e-05 7.18817973e-05 3.34005235e-05 2.59685603e-05
      -6.56779002e-06 -1.85964291e-05 -1.83778520e-05 -1.80816096e-05
      -2.76831145e-08 -1.87875926e-07 -7.10809900e-06 -3.04878376e-05
      -3.06693073e-05 -1.74874003e-05 -2.14886859e-05 -3.82894868e-05
      -3.83327279e-05 -3.36665071e-05 -2.03077349e-07 -5.07934210e-08
      -5.27724850e-08 -1.22089723e-05 -1.87679798e-05 -1.89134444e-05
      -6.82900645e-06 -6.82151131e-06 9.76311981e-07 -2.67084888e-05
      -2.99082967e-05 -2.95699756e-05 8.27661497e-05 8.17112305e-05
      4.90752063e-05 9.63158072e-06 9.25400272e-08 -5.17511296e-08
      -2.60451483e-08 2.25553777e-07 -1.87307687e-05 -2.95670125e-05
      -2.96435792e-05 -2.33558349e-05 -6.79631967e-06 -1.96300280e-05
      -1.94921595e-05 -2.83694189e-05 -3.84018240e-05 -7.07978397e-05
      -1.89922844e-07 -2.63862425e-08 -6.00949534e-07 -6.65310083e-08
      -3.10013668e-08 -1.57806411e-07 -2.31049853e-05 -2.97260631e-05
      -1.80813895e-05 -1.88819486e-05 3.98436697e-08 3.85636231e-05
      4.13478556e-05 6.18869381e-05 1.43717853e-05 1.39983667e-05
      2.40678837e-05 5.28326552e-07 -1.09058055e-05 -1.03690309e-05
      -1.08628692e-05 1.09089490e-06 -2.67895786e-07 -1.91614999e-05
      -1.90860301e-05 -1.86399557e-05 1.55475409e-05 -1.95615503e-05
      -2.24337891e-05 -7.78824469e-05 -3.84554369e-05 -4.38247781e-07
      -1.09506864e-05 -1.10562742e-05 -1.09120119e-05 -1.05544970e-07
      -6.71794425e-08 -8.02533293e-08 2.75221026e-07 -1.16885039e-05
      1.61263724e-05 3.47725108e-05 2.78861880e-05 1.06802499e-05
      -5.57886733e-06 -5.64375068e-06 -6.01342435e-06 -1.08848435e-05
      -4.29362395e-08 -9.59842410e-08 1.88970674e-07 3.32502481e-07
      -2.55213905e-07 1.51096742e-07 1.11822828e-07 3.52118332e-05
      1.57023824e-05 -1.89507791e-05 1.75980367e-05 -3.79684279e-05
      -6.87619613e-05 -6.83313774e-05 -3.75465534e-05 -6.81628620e-08
      2.87985785e-07 -3.02650562e-08 1.31371792e-07 1.75516732e-07
      -2.37753213e-07 3.54104814e-05 3.48981521e-05 5.37749329e-05
      6.68383018e-06 -2.09330210e-05 -4.32240231e-05 -2.01494295e-05
      -1.47826422e-05 -1.48004319e-05 2.71050543e-20 1.97765345e-07
      4.51090841e-07 -8.58724789e-08 -6.48436138e-10 2.33417325e-07
      3.47848618e-05 2.48431315e-05 2.38301072e-05 -1.09251432e-05
      7.88295711e-06 -9.59991576e-06 -1.09932253e-05 -7.65834557e-05
      -6.95309427e-05 -5.32460654e-05 -1.05571853e-05 -2.06730505e-07
      -8.44989501e-08 3.39923572e-05 3.50716109e-05 3.52515199e-05
      2.35912557e-05 7.28017267e-06 -1.45613312e-05 9.18976457e-06
      8.81555206e-06 2.38408156e-05 -2.05797169e-05 -2.94998426e-05
      -1.61405878e-05 -1.95858465e-05 -2.72410375e-07 8.06178946e-07
      -3.66316470e-07 -1.07155847e-05 3.47788482e-05 3.51659255e-05
      3.48977774e-05 -1.44496866e-07 1.88135746e-05 4.24039827e-05
      8.58167186e-06 9.72559883e-06 3.31091451e-06 -2.91250108e-05
      -7.16317008e-05 -7.16772483e-05 2.22076105e-05 3.50154260e-05
      3.42032436e-05 3.48780704e-05 -1.36013810e-07 1.84483670e-05
      -1.43413145e-05 -1.71257136e-06 -1.40761983e-06 4.23010133e-05
      9.57499196e-06 4.94149708e-06 -1.65242491e-05 -1.27672038e-05
      5.02190414e-06 -3.15831203e-05 1.02574511e-07 3.50388982e-05
      3.48936010e-05 3.46284069e-05 3.54028998e-05 3.48328977e-05
      3.44451182e-05 7.73408683e-05 4.40960830e-05 4.33000387e-05
      5.36440821e-05 3.04227233e-05 4.01473990e-05 7.19057471e-06
      6.73146633e-06 3.91819813e-05 -2.95952736e-06 -5.78075242e-06
      5.42099633e-06 -2.59424796e-05 9.34320542e-06 8.90093179e-06
      8.71886095e-06 8.56493862e-05 2.64063583e-05 9.86913528e-06
      4.95590348e-06 4.87696889e-06 1.27024941e-05 -3.17405938e-05
      -3.79530065e-05 -2.56538679e-05 -1.88879676e-05 3.51323943e-05
      3.49944312e-05 3.47565547e-05 3.56561359e-05 7.71411796e-05
      4.38309144e-05 4.44045763e-05 4.45865771e-05 4.36944683e-05
      7.27239021e-05 6.38584024e-05 4.82449541e-05 4.09451713e-05
      2.05548622e-05 3.10323157e-05 2.99656058e-05 5.40203509e-05
      3.40013830e-05 5.20934118e-05 8.54809405e-05 5.07783916e-05
      2.64318842e-05 9.65355412e-06 4.75843854e-06 4.89644663e-06
      2.57973647e-06 2.40138488e-05 -9.22044364e-06 -1.94598724e-05
      -2.92584336e-05 9.72337239e-06 1.68887054e-05 1.63017903e-05
      3.46661873e-05 3.44865839e-05 5.89649717e-05 5.91210410e-05
      4.28854983e-05 9.21938681e-06 9.07756021e-06 4.75160778e-06
      2.09439841e-05 6.42424347e-05 4.74236986e-05 4.73636283e-05
      3.91999456e-05 4.00913414e-05 -2.17773068e-05 -1.31506577e-05
      1.16021261e-06 1.45156300e-05 1.43477519e-05 -7.16743352e-06
      -6.95020026e-06 4.79151458e-06 5.10453583e-06 4.61609670e-06
      2.39290493e-05 -9.11311963e-06 -2.73171318e-05 -3.11713120e-05
      5.65532491e-06 1.60966301e-05 1.62530214e-05 1.59302599e-05
      3.49284528e-05 -2.60323219e-07 5.38082588e-07 -9.56595886e-06
      -8.95630728e-06 9.30175065e-06 9.01360727e-06 9.49739569e-06
      4.74103435e-05 6.37839839e-05 6.41060615e-05 2.88385563e-05
      -2.47646367e-05 -2.86417744e-05 2.53646704e-06 1.95494863e-06
      1.87159253e-06 -1.26092827e-05 -8.89981857e-06 -1.84906582e-06
      1.48621639e-05 7.40456744e-06 2.44655530e-05 2.43833929e-05
      -2.15350810e-05 -2.73048536e-05 7.14968019e-06 5.88146531e-06
      6.98848453e-06 2.26719985e-05 -1.88383019e-05 -1.93351079e-05
      -6.56389921e-06 -3.38076024e-05 -9.35783282e-06 -8.63284458e-06
      9.28305326e-06 8.80130938e-06 8.89599596e-06 2.41458238e-05
      6.46906556e-05 6.01507199e-05 3.63886247e-05 3.60287486e-05
      1.94645600e-05 1.29938853e-05 6.39654309e-06 2.55581904e-06
      -6.14752889e-06 -3.74141382e-06 -3.90216701e-06 1.22893798e-05
      2.09655827e-05 2.86542345e-05 2.78829921e-05 -1.76614958e-05
      -1.80016250e-05 -1.75145997e-05 -1.81775340e-05 -1.25236929e-05
      -2.38761331e-05 -2.06471905e-05 -2.09224600e-05 -2.06697641e-05
      -2.07733847e-05 1.51856202e-05 2.16847438e-05 2.20487091e-05
      2.16398184e-05 2.21348291e-05 2.18291898e-05 2.17479901e-05
      4.10194843e-05 3.59451260e-05 3.63415602e-05 1.93724936e-05
      1.98353264e-05 1.92999178e-05 1.31914376e-05 1.32944979e-05
      6.95904373e-06 7.47214744e-06 1.69082450e-05 1.73969020e-05
      1.74037759e-05 1.50720361e-05 2.16519493e-05 -2.16282442e-05
      -1.52183629e-05 -1.50941623e-05 -1.06138123e-05 -8.87145052e-06
      -8.53937036e-06 -1.40615475e-05 -2.08405145e-05 -2.05998313e-05
      1.68206534e-05 1.74256456e-05 1.73561984e-05 2.38779994e-05
      -1.58203488e-06 -1.32390949e-06 -1.67244491e-06 -1.54145869e-06
      -6.05855575e-06 -6.15409908e-06 -6.35058359e-06 -2.28437439e-05
      -2.77310846e-05 -2.85740589e-05 -7.98230758e-06 -6.60814067e-06
      -3.87587716e-06 -1.67145372e-05 -1.74303459e-05 -2.41565067e-05
      -2.40179907e-05 -3.35947443e-05 -3.65840606e-05 -6.57214559e-06
      -6.70438249e-06 -1.70572130e-05 -1.74123979e-05 -1.09585890e-05
      -2.81521898e-06 -1.44409032e-05 -2.91985962e-05 -1.87193727e-05
      -7.32927629e-06 -1.74616489e-05 -1.75971145e-05 -1.11366171e-05
      -1.55319265e-06 -1.31181855e-06 -1.48570780e-06 -1.49709149e-06
      -1.58359057e-06 -6.21897425e-06 -6.19309867e-06 -5.85249200e-06
      -6.15310955e-06 -5.75933382e-06 -6.33606851e-06 -1.27201542e-06
      -1.21048674e-06 -1.54976226e-06 -1.11657835e-06 -7.93599338e-06
      -7.75535864e-06 -7.91189359e-06 -7.88519992e-06 -1.44867654e-05
      -1.41678868e-06 -1.55506700e-06 -1.45983222e-06 -1.36534686e-06
      -1.03476341e-05 -1.11599666e-05 -1.77097681e-05 -2.89938598e-05
      -1.07124579e-05 -1.64907015e-05 -1.75959249e-05 -1.10795136e-05
      -5.37161611e-07 -6.33943637e-06 -1.08278919e-05 7.50719806e-08
      -6.82017401e-07 -1.07259066e-05 -1.10795136e-05 -1.10507381e-05
      -1.21817229e-05 -9.16650333e-06 -1.04813525e-05 -4.29362395e-08
      -4.43010236e-07 -1.08628692e-05 -1.08365275e-05 -1.09741377e-05
      -1.18086848e-06 -7.69622966e-06 -1.58681576e-06 -1.51137510e-06
      -1.45983222e-06 -1.17637614e-06 -1.48915444e-06 -1.36022736e-05
      -1.36275012e-05 -1.34120064e-05 -1.36540248e-05 -2.01060575e-05
      -2.00590894e-05 -7.79095626e-06 -1.54949100e-06 -1.32167429e-06
      -1.52521807e-06 -1.10191695e-06 -1.59060392e-06 -1.54352347e-06
      -8.37165487e-07 -1.49644302e-06 -8.03929015e-06 -7.41662370e-06
      -8.05759555e-06 -8.09008361e-06 -7.79384118e-06 -8.05759555e-06
      -8.06865228e-06 -8.03929015e-06 -8.03929015e-06 -8.03929015e-06
      -7.85031989e-06 -8.03929015e-06 -7.92408355e-06 -1.20638219e-06
      -4.48531546e-06 -4.61229865e-06 -4.39082987e-06 -4.43844738e-06
      -4.24947666e-06 -4.48531546e-06 -1.13428732e-05 -2.31320882e-05
      -1.12932139e-05 -1.10360679e-05 -4.54088013e-06 -4.55058944e-06
      -4.63439255e-06 -4.48531546e-06 -4.52192626e-06 -4.48531546e-06
      -9.70686074e-07 -9.52380617e-07 -1.01776652e-06 -8.21608921e-07
      -9.52380617e-07 -8.58219721e-07 -8.21608921e-07 -9.12391499e-07
      -4.43667574e-07 -8.72402325e-07 -8.47005595e-07 -8.47005595e-07
      -8.47005595e-07 -8.47005595e-07 -7.52520293e-07 -9.93033836e-07
      -8.03313696e-07 -8.21608921e-07 -1.01207854e-06 -8.47005595e-07
      -5.38152904e-07 -7.27123563e-07 -5.85121882e-07 -9.71334543e-07
      -7.53490940e-06 -7.62681930e-06 5.49467086e-06 5.46749834e-06
      5.25455516e-06 5.31096248e-06 1.13474061e-06 1.28381771e-06
      1.26551231e-06 1.22890151e-06 1.21843186e-06 1.26551231e-06
      -1.14649210e-05 -1.67438975e-05 -4.32661864e-06 -8.64831964e-06
      -8.96404708e-06 -2.88405990e-05 -3.12092052e-05 -2.68056665e-05
      -2.05129527e-05 -1.35441283e-07 -1.91348699e-05 1.32563418e-05
      1.16198898e-05 -2.02129795e-05 -2.04292901e-05 -2.04507614e-05
      -1.86717243e-05 5.63656477e-06 -2.54228798e-05 5.18495654e-06
      9.34535274e-06 -1.82433814e-05 -1.77482598e-05 -1.78517621e-05
      1.68733677e-05 1.26469895e-05 1.78001719e-05 1.09266666e-05
      1.15631719e-05 1.83273933e-05 1.82058266e-05 1.83836801e-05
      1.67174076e-05 1.07796168e-05 2.18545101e-05 1.33052718e-05
      1.53001529e-05 3.31949486e-05 3.45701701e-05 3.45447734e-05
      2.48587476e-05 1.03052389e-05 2.36860906e-05 6.46958733e-06
      7.20576463e-06 2.49600635e-05 2.51066122e-05 2.51066122e-05
      1.21151315e-05 1.38773657e-05 2.41540492e-05 6.49498406e-06
      7.28139730e-06 2.47721873e-05 2.50870107e-05 2.50510475e-05
      6.12875237e-06 6.34120715e-06 6.22896368e-06 6.22826656e-06
      6.34250409e-06 6.28758744e-06 6.34250409e-06 6.34250409e-06
      3.63232903e-05 3.66274435e-05 2.86098857e-05 2.81208631e-05
      8.24352992e-06 2.37844470e-05 6.91391615e-05 6.91899550e-05
      6.91645619e-05 5.10091450e-05 6.61170707e-05 -8.86131147e-06
      -5.50653522e-06 6.85740815e-05 6.91645619e-05 6.91893074e-05
      9.31113846e-06 2.41452944e-05 8.43807175e-06 -2.78686184e-05
      1.26966252e-05 7.61820847e-05 8.05594755e-05 8.05607706e-05</_>
    <_>
      0. -2.96413205e-08 -3.24175424e-08 0. -5.52678259e-08 0.
      -4.44619808e-08 0. -4.81777498e-08 -9.39166327e-08 1.10561992e-07
      -1.08217797e-07 7.08885537e-08 -1.87937601e-07 -2.53466965e-07
      -1.78335391e-08 -5.12530143e-08 -4.40713023e-07 -2.71325966e-08
      -6.99376912e-08 2.09133006e-07 -1.33436330e-07 -2.56265071e-08
      9.44503427e-08 0. 0. 0. 0. 0. 0. 0. 0. -2.16116938e-08 0.
      -2.96413205e-08 0. -9.50347641e-08 -8.79645512e-08 -4.75173820e-08
      -1.65997733e-07 -9.33607414e-09 -2.44775862e-07 2.57674571e-09
      -6.31928216e-08 -3.24071436e-07 2.57074646e-07 -2.18290623e-07
      -1.93344661e-07 -1.85622042e-07 8.81568738e-08 -1.08422263e-07
      -1.17018413e-08 2.78975847e-07 1.60045602e-07 -1.64683541e-07
      -1.56879125e-07 -2.33788331e-08 0. 0. 0. 0. 0. -7.99349209e-08 0.
      -5.12530143e-08 0. -2.56265071e-08 -1.08058469e-08 -3.02354152e-07
      -4.04471656e-08 -2.41462104e-08 -2.53843126e-07 -4.50508679e-08
      -1.43771999e-07 -4.09002077e-08 3.38196693e-09 2.41103436e-07
      -1.88935445e-07 2.52231587e-07 -6.02145747e-08 7.59609691e-08
      -7.38196420e-08 1.04956426e-08 -9.36860278e-09 -9.40194909e-08
      7.33962580e-08 0. -6.70718805e-08 0. -6.68261819e-08
      -9.50347641e-08 -9.50347641e-08 0. -4.75173820e-08 -9.50347641e-08
      0. -1.27452310e-07 -1.48206603e-08 0. 0. -9.50347641e-08
      2.27102532e-08 -2.29871176e-07 -1.63443573e-07 1.07478026e-08
      -6.75914364e-08 5.08357004e-07 -3.32028200e-08 9.67816760e-09
      1.45766961e-07 -1.10982612e-07 -2.52294484e-07 3.24829131e-07
      -1.60192101e-07 -7.40405284e-08 -6.91083315e-08 -2.81387884e-07
      -5.03874773e-08 -8.55705693e-08 -1.35620283e-07 -9.40194909e-08
      -8.58215685e-08 -3.13398303e-08 0. -5.83232307e-08 -4.75173820e-08
      -1.49063993e-07 0. -9.19793592e-08 -1.03659687e-07 -1.87907077e-07
      -1.48121671e-07 -3.51818449e-06 -3.84190389e-06 -3.43533095e-08
      3.56222465e-08 1.26206658e-07 1.35431879e-08 -7.28150127e-08
      4.95646324e-09 -9.50223509e-08 -1.37400491e-07 -2.91464829e-07
      6.92153037e-08 -1.17327851e-07 -9.84550663e-09 -5.91582037e-08
      -6.67639384e-08 -6.83266137e-08 -1.64740001e-07 -2.34174262e-08
      -1.08064910e-07 -1.77431776e-08 0. -2.99506866e-07 0. 0.
      -9.50347641e-08 -6.26356922e-08 -3.24175424e-08 0. -5.18298435e-08
      -2.06742541e-07 -3.24175424e-08 1.90587102e-08 -6.66505073e-08
      2.66321933e-07 5.46946922e-07 -1.24814093e-07 -1.82144746e-07
      3.33650405e-07 -1.97635302e-07 2.03767286e-07 -6.85356838e-08
      -1.27816093e-05 -1.19795804e-05 -1.22886295e-05 5.97757008e-08
      -2.26540169e-06 -2.65191858e-07 -5.43258638e-09 -1.76130346e-08
      -1.15252064e-07 -1.43984892e-07 -1.60295329e-07 -9.81660122e-08
      -1.17398322e-07 -2.16116938e-08 -1.18683054e-07 -2.75549110e-06
      -1.08058469e-08 7.24025404e-06 7.24025404e-06 7.14855423e-06
      -1.30210365e-05 -1.29517593e-05 -2.44559997e-05 -1.78684843e-06
      1.18192011e-05 -4.35873972e-06 -1.63258683e-05 -1.63484328e-05
      -1.47084274e-05 2.56431758e-06 -6.82804739e-07 -6.92440665e-07
      6.25835446e-06 -1.15112261e-05 -1.12078224e-05 -1.05353320e-05
      -1.05447389e-05 -1.54026529e-05 -1.10531028e-05 -1.09431885e-05
      -1.09419616e-05 -1.32616096e-05 -7.18546175e-07 -8.06957075e-07
      -1.33116446e-05 7.30343754e-06 7.01434783e-06 7.28644818e-06
      7.32661465e-06 -1.32641280e-05 -1.31185025e-05 -1.31932393e-05
      -1.07422838e-05 -1.41890941e-05 -1.38418618e-05 -4.06814434e-05
      -2.74810754e-05 -9.51821676e-06 -9.57582779e-06 -1.02383701e-05
      -1.04746696e-05 -2.01070507e-05 -1.66096397e-05 -4.70389978e-06
      -1.13213237e-05 -1.16216470e-05 -1.14838886e-05 -1.94767672e-05
      -2.45347819e-05 -1.99129427e-05 -1.97195113e-05 -1.60335840e-05
      -1.61089556e-05 -2.70324344e-05 -6.08753362e-06 -5.99445866e-06
      -5.92202196e-06 2.06646246e-06 -2.59450226e-05 -1.18879652e-05
      -1.20610375e-05 1.46604752e-05 2.31669515e-06 -1.09695720e-05
      -1.37810794e-05 -4.08469969e-05 -4.07713487e-05 -2.73317382e-05
      -9.60333273e-06 -1.04042938e-05 -1.99781357e-06 -2.17837328e-06
      -5.81167433e-06 -5.26272925e-06 -4.56895214e-06 -1.33113517e-05
      -1.06392263e-05 -1.08577051e-05 -1.16346682e-05 -1.95120610e-05
      -1.93881970e-05 -4.31289573e-06 -3.41000191e-06 -1.26527257e-05
      -1.25027900e-05 -1.86924572e-05 -5.01036811e-06 -2.51629754e-05
      -1.31995857e-05 -1.33493068e-05 -1.32586592e-05 1.37648276e-05
      1.82541007e-05 2.31246645e-06 -1.35345254e-05 -4.09189634e-05
      -4.08825435e-05 -2.79801407e-05 -1.51620379e-05 2.17434854e-06
      2.50199764e-06 1.72275111e-06 -2.07488074e-06 -8.10859274e-06
      -6.64380423e-06 -2.14726333e-06 -1.89093025e-05 -6.71817952e-06
      -6.95742528e-06 1.35958180e-05 4.65349558e-06 -7.05558114e-06
      -2.04348380e-05 -2.48926135e-05 -1.65769470e-05 -1.57412705e-05
      -1.08779413e-05 -5.34444189e-06 -4.80748849e-06 2.22150811e-05
      2.19774502e-05 1.42350946e-05 1.29631335e-05 1.19664355e-05
      -1.78018320e-06 -5.40621004e-05 -3.68720939e-05 -1.76724316e-05
      -1.65273070e-06 -1.58718626e-06 1.63480800e-05 1.61901917e-05
      1.26780351e-05 -1.93687106e-06 -6.18503782e-06 -8.93538800e-06
      -1.89394723e-05 -3.24051798e-05 2.81084772e-06 4.60544288e-06
      1.61214812e-05 1.65739366e-05 3.34349602e-06 -6.19706498e-06
      -5.76432740e-06 -3.32749623e-05 -2.39752299e-05 -1.58639450e-05
      1.11025720e-05 1.18961325e-05 2.61133682e-05 2.67176856e-05
      1.47822529e-05 -2.67165819e-06 9.52224036e-06 6.76211585e-06
      -3.18180500e-05 -4.01565449e-05 -1.60286163e-05 -1.32586565e-05
      -2.63711030e-07 1.78971950e-05 1.79768085e-05 5.91700473e-06
      2.05578112e-06 4.54502640e-07 2.54475599e-05 1.15350240e-05
      -2.27319902e-06 2.57852639e-06 1.85827103e-05 2.04107600e-05
      7.24467691e-06 7.13676582e-06 -1.33511821e-05 -1.14390687e-07
      -8.54086284e-06 -1.69983759e-05 9.41368216e-06 3.13422015e-06
      -1.16147180e-06 -8.75620287e-08 1.68901570e-05 2.41367998e-05
      1.11722366e-05 1.13852029e-05 -3.32997988e-05 -2.89432155e-05
      -1.78327446e-05 -4.71775729e-06 -2.52086447e-05 -2.52125210e-05
      -7.23901940e-06 5.64879701e-06 1.81682099e-05 3.78795376e-05
      3.37439778e-05 2.68925633e-05 1.43262296e-05 -3.64873199e-06
      -1.31542038e-06 2.63736570e-06 7.13020472e-06 -1.32285795e-05
      -8.87220963e-08 3.73739795e-07 -4.92081608e-06 -1.64927915e-05
      1.02794220e-05 1.36444569e-05 1.35594419e-05 8.26479209e-06
      7.57729276e-06 1.54005975e-05 2.01430066e-05 1.11125410e-05
      -2.84411090e-05 -1.75077221e-05 -2.52616355e-05 -2.51094207e-05
      -1.09361224e-07 -1.14151568e-07 1.79037906e-05 1.72457530e-05
      2.96386243e-05 2.52384780e-05 2.50561334e-05 3.37048587e-05
      3.01129730e-05 2.56538133e-05 -3.85459134e-06 -6.60815795e-06
      -3.25824294e-05 -1.32280411e-05 -1.21327839e-05 -1.23451609e-05
      1.76625846e-07 1.77257007e-07 2.66780644e-05 2.68089480e-05
      2.68050571e-05 2.59721655e-05 1.36367516e-05 1.22061883e-05
      4.64583582e-06 -4.55680265e-06 -3.45440276e-05 -3.42671010e-05
      -1.59832034e-05 -1.32785435e-05 -4.01605895e-08 2.64657292e-08
      2.77214468e-07 3.79140765e-05 3.83878469e-05 3.83943807e-05
      3.76502067e-05 2.96702947e-05 2.51021138e-05 2.52905393e-05
      2.56693856e-05 -3.63711406e-05 -5.22126757e-05 -4.03153972e-05
      -1.23855344e-08 -1.11696238e-07 -5.62370062e-08 -1.12275922e-08
      2.69258253e-05 1.60108002e-07 -1.24838834e-07 -1.00893395e-07
      -1.22397314e-05 1.49365869e-05 1.82269287e-05 1.27359253e-05
      -2.39381698e-05 -5.33756465e-05 -4.03874619e-05 -1.78485698e-05
      -2.72737793e-07 -7.76944304e-08 2.02378778e-05 6.52536656e-08
      1.79940125e-05 1.78204446e-05 1.79765357e-05 3.82778744e-05
      2.63711790e-05 2.62900703e-05 9.47308217e-06 4.84952625e-06
      -3.42221538e-05 -4.27763516e-05 -3.14702738e-05 -7.32337321e-06
      -3.56072576e-08 2.69082211e-05 2.68439417e-05 -1.21612102e-05
      -1.20161058e-05 -1.21660150e-05 -1.29724270e-07 -4.38834249e-08
      2.69113534e-05 2.69258580e-05 -1.17235814e-07 -2.28166700e-05
      -5.08815610e-05 -3.29272079e-05 -6.87790316e-06 1.79896124e-05
      3.88243478e-07 -1.27747597e-07 1.80088537e-05 6.04872412e-06
      7.59564091e-06 2.10092367e-05 2.03532800e-05 1.82916210e-05
      1.81913183e-05 1.78956379e-05 5.20305230e-06 -2.33955634e-05
      -3.22724809e-05 -4.02241676e-05 -1.12315611e-05 6.72069382e-06
      -1.22014862e-05 -1.12470545e-07 -1.18650526e-07 -4.22193764e-08
      -1.72923308e-07 -8.20543704e-08 2.72767484e-05 2.66624666e-05
      2.45160606e-07 7.44391264e-06 7.00842929e-06 -9.20837465e-06
      -1.30577391e-05 -3.86842585e-05 -3.65859196e-05 -2.71179542e-05
      -1.21290705e-05 3.82623111e-05 2.06513469e-05 2.04820699e-05
      1.07083963e-07 1.84015590e-07 -2.54723574e-07 1.79383915e-05
      4.90017010e-06 -7.05346201e-06 -1.37904181e-05 1.41363234e-05
      3.22775145e-06 2.62471713e-06 -2.44199346e-05 -8.94220102e-06
      -4.11223164e-06 -2.45245502e-07 -1.63735265e-07 1.59058061e-07
      2.66669394e-05 2.70735945e-05 2.05691558e-05 7.32048966e-06
      3.75486206e-06 -2.51946331e-05 -2.76530191e-05 -1.57472587e-05
      -2.47946482e-05 -1.99983097e-05 -2.47336757e-05 5.07589630e-06
      2.52367608e-05 -1.13531158e-07 -6.03885653e-08 3.96861822e-07
      -1.19648794e-05 -2.52977716e-05 4.62419666e-06 4.74915805e-06
      1.77592592e-05 1.43276820e-05 1.16876090e-05 1.14007898e-05
      -2.48218366e-05 -1.21314797e-05 -2.01632720e-05 -1.56102524e-05
      -7.22061259e-06 -4.59510920e-06 2.68237800e-05 4.73257533e-05
      8.34084676e-06 -4.86688987e-06 -1.32720797e-05 -1.32465238e-05
      -5.81903450e-08 -1.55915513e-05 -1.53418550e-05 -1.56262904e-05
      1.14873365e-05 2.71240206e-05 -6.50615584e-06 -1.29523260e-05
      -2.51938582e-05 -1.30649414e-05 -5.63466998e-08 3.07187065e-07
      -1.30068947e-05 4.93305242e-06 4.48891333e-05 4.47559505e-05
      2.52284990e-05 1.43078332e-05 -1.53935398e-05 -1.54364661e-05
      -8.80730931e-06 -1.13398301e-05 -1.20975428e-05 -2.77680392e-05
      1.99559672e-05 4.22554986e-05 1.57826489e-05 -1.31485394e-05
      -1.28095517e-05 -1.29841637e-05 -4.69351953e-08 -7.60254153e-08
      -1.25819970e-05 4.71846897e-06 1.06376337e-05 5.85733414e-06
      8.74631860e-06 6.91218338e-06 -1.12595744e-05 -1.91900199e-05
      -1.29844657e-05 -1.30443777e-05 -2.65600447e-05 -1.32492542e-05
      4.49922263e-05 4.50888765e-05 4.47615021e-05 -1.13857357e-06
      -1.28261991e-05 -1.56275710e-05 -1.64084722e-05 -1.22079964e-05
      1.48851659e-05 9.09312803e-06 3.55205630e-05 3.99444871e-05
      -8.73960016e-06 -2.56185231e-05 -2.62458307e-05 -1.76249214e-05
      -4.49182471e-06 -1.21278190e-05 8.30876797e-06 -4.52698987e-06
      2.21886921e-06 2.64884375e-06 1.77156544e-05 1.83544798e-05
      1.25866945e-05 -1.13689721e-05 -1.14038148e-05 -6.02509772e-06
      -2.63333968e-05 -2.61452606e-05 1.37112147e-05 3.14963254e-05
      4.49160361e-05 5.88751436e-06 -1.36475164e-05 -1.25443039e-05
      -1.54371282e-05 1.62227625e-05 2.02478204e-05 2.05629203e-05
      2.21251230e-05 1.56653095e-05 -1.14724071e-05 -6.50153424e-06
      -2.60887336e-05 -3.39016369e-05 -1.31683764e-05 7.18835008e-06
      1.58595285e-05 2.05719625e-05 -1.29269656e-05 2.51954771e-06
      2.25106828e-06 1.79693452e-05 1.80293264e-05 3.51003280e-07
      -5.28283044e-06 -9.19889953e-06 -2.41196649e-05 6.06716139e-06
      1.48189374e-05 1.80621748e-06 3.14890422e-05 4.83807798e-06
      4.92012077e-06 1.90059873e-05 7.63760545e-06 4.76211198e-06
      1.61403968e-05 1.60445992e-07 2.68998028e-05 1.47628753e-05
      1.03059238e-05 -1.13565584e-05 -2.47653679e-05 -1.97583176e-05
      2.05184188e-05 1.96439159e-05 1.17358559e-05 -1.34680631e-05
      -1.32144578e-05 -1.86826928e-05 2.36645201e-06 2.68553094e-06
      1.79032540e-05 1.80315365e-05 1.45034505e-07 -1.22458714e-05
      -2.96035250e-05 -7.48526918e-06 1.55119451e-05 -7.38361223e-06
      3.74830591e-07 1.81202104e-05 2.94731271e-05 2.52779664e-05
      7.13295003e-06 -2.57785741e-05 -2.76851406e-05 -2.75611565e-05
      2.67160995e-05 2.68321946e-05 2.69372977e-05 -5.18298435e-08
      -1.80957231e-05 -3.99227929e-06 9.28295322e-06 1.38406267e-05
      4.69077683e-08 9.21700334e-08 -7.29979348e-08 -8.41093515e-06
      -2.74152244e-05 -1.04835290e-05 -1.41870469e-05 -5.48239814e-06
      6.02538603e-06 1.15561797e-07 1.38551377e-05 1.37499610e-05
      2.24680334e-05 -9.24304277e-06 9.08384391e-06 1.40624634e-05
      3.82944709e-05 2.66670377e-05 5.94220728e-06 9.92258629e-06
      -2.60234629e-05 -2.86440554e-05 -2.07632684e-06 2.68974418e-05
      2.71420467e-05 2.12665668e-07 7.51118432e-06 7.24025404e-06
      1.65078163e-05 -1.13260085e-05 -1.12673606e-05 -7.49788160e-06
      -2.02433876e-06 -1.18460002e-05 -1.21283629e-05 -7.59299382e-06
      -5.76959565e-06 -1.06566758e-05 5.03358478e-06 1.36853241e-05
      3.17144659e-05 1.37798597e-05 2.69844204e-05 1.69425512e-05
      3.68111182e-06 -5.91323840e-07 2.69874326e-05 1.13168053e-05
      1.81568048e-05 1.80818315e-05 1.80355837e-05 -1.27445146e-05
      1.12761918e-05 -1.84946828e-06 3.40077313e-05 -6.22671905e-06
      7.79596030e-06 7.21582455e-06 2.06343684e-05 -3.41576580e-08
      -1.57628328e-05 -2.31982704e-05 -2.35134357e-05 -7.52752294e-06
      -2.33007472e-06 -9.32278468e-08 6.69285100e-06 2.32574712e-06
      2.37303402e-06 9.61940714e-06 1.83027660e-05 6.47117713e-06
      4.83301737e-05 2.66517127e-05 3.86654574e-05 3.45451699e-05
      3.39561884e-05 6.55428494e-06 6.74642797e-06 1.13514725e-05
      3.85913227e-05 3.81725222e-05 3.47369823e-05 3.18747552e-05
      3.18574275e-05 2.68537997e-06 -6.22819061e-06 -1.77261627e-05
      -4.78135325e-06 -1.17585214e-05 1.15411083e-07 -1.33802246e-07
      -3.63860659e-06 -1.12433208e-05 -1.12056268e-05 -7.48809225e-06
      1.80765819e-05 6.66511687e-06 -9.48036268e-06 -9.82140682e-06
      1.93342112e-05 5.23683702e-05 5.67405004e-05 5.19559471e-05
      5.21617367e-05 3.39226572e-05 3.82295148e-05 3.45328990e-05
      3.35902696e-05 2.71225981e-05 5.36808984e-05 5.85417292e-05
      6.54947144e-05 5.24671195e-05 3.75855161e-05 1.07661890e-05
      -5.01493560e-06 7.25329755e-06 -4.39508312e-06 -1.29423779e-05
      -1.32177693e-05 -1.30477565e-05 2.55902847e-07 -5.72885916e-08
      -3.69652753e-06 -2.35178813e-05 -2.31952272e-05 -1.97396548e-05
      6.58526324e-06 2.59178364e-06 4.97107940e-05 5.21186957e-05
      6.55159238e-05 6.53876632e-05 6.44372485e-05 5.67293064e-05
      5.23766394e-05 5.20217218e-05 6.08807313e-05 5.70357988e-05
      6.01876018e-05 4.35846196e-05 4.18184427e-05 4.22022895e-05
      5.20571521e-05 4.97638357e-05 3.65831729e-05 3.38954960e-05
      4.72742395e-05 4.07960414e-07 1.06056106e-07 1.33126065e-07
      -1.31060178e-05 -2.52460159e-05 -2.50620578e-05 -2.00483137e-05
      -3.82950475e-06 -1.11344470e-05 -1.12384514e-05 1.93885771e-05
      4.98478003e-05 3.67018438e-05 6.25587272e-05 6.54839023e-05
      6.47634806e-05 6.53913739e-05 6.51593145e-05 6.52722010e-05
      4.47608581e-05 3.99854362e-05 5.21711117e-05 4.92037325e-05
      5.98403894e-05 5.61802954e-05 5.26202930e-05 4.12610680e-05
      1.56006263e-05 -1.74058937e-06 1.26336161e-07 -3.80948038e-08
      -1.19564038e-05 -1.16452011e-05 -1.14944351e-05 1.84864859e-07
      3.54021985e-08 -1.35331993e-05 -1.33525164e-05 -1.28922939e-05
      -1.25598162e-05 -1.15256371e-05 -2.24933501e-05 -1.85182707e-05
      2.16957301e-06 1.53361852e-05 5.77933270e-06 5.89796127e-06
      6.41449606e-06 1.81008745e-05 1.78873852e-05 1.81364394e-05
      6.55603144e-05 5.64553957e-05 5.21380061e-05 4.83232507e-05
      2.70977871e-05 3.43095235e-05 -1.92146199e-05 -4.02603691e-05
      -2.76900773e-05 -1.20203713e-05 2.33711717e-08 8.23170687e-09
      -1.36236755e-08 1.67958447e-07 -1.98694451e-07 -1.02825176e-07
      -4.39398384e-08 4.92768599e-08 -1.34736902e-05 -1.33983885e-05
      -1.68490733e-05 -4.53290013e-05 -3.90426285e-05 -3.91032372e-05
      -1.78772116e-05 3.23083817e-08 -2.01373197e-07 2.18507026e-07
      6.31566763e-08 2.02603842e-05 2.02140691e-05 2.09374921e-05
      6.53315947e-05 4.50896223e-05 3.62095379e-05 -2.42817441e-05
      -2.63922720e-05 -2.96905473e-05 -2.69001503e-05 -2.33825831e-05
      -2.79995288e-06 -2.62423629e-08 1.80101821e-07 -1.16646461e-07
      -1.76661406e-08 -2.20902152e-07 -8.48957242e-08 -1.21225685e-05
      -1.21197500e-05 -1.24242588e-05 -1.19830429e-05 -2.58278124e-05
      -1.98094531e-05 -4.03378435e-05 -3.56451201e-05 -2.70816945e-05
      -2.19200615e-06 -9.64165991e-08 2.04007338e-05 2.00785435e-05
      2.05157430e-05 2.03075124e-05 1.48492900e-05 1.47072687e-05
      3.17553095e-05 4.88297110e-06 4.67001610e-06 -9.26888515e-06
      -1.26846389e-05 -3.80258061e-05 -2.80720487e-05 -7.60675539e-06
      -2.64049703e-07 -6.34551682e-08 -1.61362507e-07 -1.21724670e-05
      -2.16116938e-08 -2.07319374e-07 -2.78233301e-07 -6.51617569e-08
      -1.48206603e-08 -3.61000559e-07 -1.32493151e-05 -1.32659125e-05
      -1.79208328e-05 -3.73811745e-05 -3.92268084e-05 -1.64462144e-05
      1.42041881e-05 2.03482068e-05 2.03211857e-05 -2.75167963e-07
      2.68722561e-05 2.69260454e-05 1.37311763e-05 -2.51892925e-05
      -7.32450644e-06 1.80019561e-05 5.14324938e-06 -1.94438398e-05
      -3.29118739e-05 -2.67293326e-05 -2.45464234e-05 -2.02381852e-05
      -1.01616521e-07 -2.61475841e-09 -1.47525526e-07 -3.61786874e-07
      -2.54631960e-08 -1.62345387e-07 -2.94635583e-07 -1.56329719e-07
      -1.33581980e-05 -1.33888034e-05 8.00671245e-08 -8.34370795e-08
      1.05884249e-06 -1.24336557e-05 -1.61457265e-05 -3.40208044e-06
      -1.96373821e-05 -6.77637763e-06 1.07411233e-05 1.31400043e-06
      1.38248797e-05 1.36761564e-05 -1.33438261e-05 1.78535465e-05
      1.63173027e-05 5.14470230e-06 -1.55174657e-05 -1.94591867e-05
      -1.35230366e-05 -2.00964641e-05 -2.45837618e-05 -1.50471733e-05
      -1.32546938e-05 -2.19746603e-08 -1.44252155e-07 -1.14536526e-07
      -8.46587866e-08 -1.71193676e-07 -1.31831030e-05 -1.32911018e-05
      -1.34172315e-05 7.08930111e-06 2.01670737e-05 6.14041255e-06
      4.75653223e-06 -1.66476129e-05 -2.92099412e-05 -2.51953788e-05
      -2.11491770e-05 6.97999667e-06 -2.82405267e-07 1.36531780e-05
      -1.88517120e-07 -1.52851703e-06 1.64001376e-05 5.13837585e-06
      2.31801687e-06 -1.61752123e-05 -2.01951734e-05 -9.85982479e-06
      -9.17645593e-06 -1.21260518e-05 -1.63957011e-05 -1.33027306e-05
      -1.30988601e-05 -1.32650512e-05 -4.03747293e-07 -5.91838045e-08
      -1.45992288e-07 3.36062357e-07 -1.33189569e-05 7.09334745e-06
      6.71728321e-06 7.33842353e-06 -1.41435030e-05 -1.42286071e-05
      -1.27917701e-05 -1.67349481e-05 -1.65312249e-05 1.13875012e-05
      -1.13012456e-05 -1.11327008e-05 -2.11204133e-05 -9.89656201e-06
      -9.50452250e-06 -2.80386985e-06 -5.58487955e-06 2.37178256e-06
      -1.62670440e-05 -1.63109889e-05 -9.95504706e-06 -9.24961296e-06
      -1.71856773e-05 -2.01340645e-05 -1.56007372e-05 -1.33411413e-05
      -1.33225767e-05 -1.34008578e-05 -5.19008339e-08 -1.62842824e-07
      2.01121347e-05 7.27182805e-06 7.29272006e-06 -1.33487683e-05
      -1.33058120e-05 -1.33033773e-05 -1.35009086e-05 -1.12803627e-05
      -1.13699780e-05 1.03322000e-05 8.34753610e-06 6.08829578e-06
      -1.00930301e-05 -1.55356611e-05 -1.56602309e-05 -2.28754870e-05
      -6.61055765e-06 -1.96270980e-06 -5.16211742e-07 -1.86935176e-05
      -1.23819282e-05 -1.33598114e-05 -1.72383279e-05 -1.71908905e-05
      -1.72035288e-05 -1.55489852e-05 -1.07150436e-05 -8.79215986e-06
      -1.32425585e-05 6.92309095e-06 1.57700215e-05 6.88037017e-06
      -1.30724966e-05 -1.31974430e-05 -1.33306730e-05 -1.32224832e-05
      -1.32869563e-05 -4.32233875e-08 -2.49792652e-06 2.43947470e-05
      2.43955874e-05 2.46177151e-05 -4.03659533e-06 -7.60132934e-06
      -6.58681120e-06 -9.51043876e-06 -1.76011472e-05 3.97732992e-06
      4.08452115e-06 4.21470804e-06 6.58277122e-06 -6.88970158e-06
      -8.42294048e-06 -1.22617193e-05 -1.22312513e-05 -1.22293441e-05
      -1.20022796e-05 -5.32071726e-06 -1.33528938e-05 4.79269966e-06
      -1.53885048e-05 -1.56657879e-05 -1.56365059e-05 -6.95116796e-06
      -2.48310903e-06 -2.54493034e-06 -2.39970200e-06 -2.49139021e-06
      -2.31189415e-06 2.44471103e-05 2.45479987e-05 -2.25070721e-06
      -2.47612593e-06 -6.70043573e-06 -6.64691652e-06 -6.84477936e-06
      -6.61018748e-06 -7.32829585e-06 -1.41440578e-05 -6.79446111e-06
      -1.00493035e-05 -1.34471647e-05 -1.44789628e-05 -1.82323492e-05
      -1.36823737e-05 -1.44957185e-05 -1.44591477e-05 -1.04845576e-05
      -7.73198371e-06 -3.13998271e-06 -3.14744170e-06 -1.09576722e-05
      -1.55447087e-05 -1.55381204e-05 -5.37300821e-06 -4.61681657e-06
      -4.63436572e-06 -2.01840550e-07 -1.72590421e-06 -1.65107735e-06
      -1.72514694e-06 -1.65252561e-06 -1.74611148e-06 -1.61916796e-06
      -1.71280044e-06 -6.01244710e-06 -8.56001589e-06 -9.77185755e-06
      -3.63264121e-06 -2.71887893e-06 -4.95857466e-06 -1.29001082e-05
      -1.37436928e-05 -2.20169131e-05 -1.44029009e-05 -2.42232491e-05
      -2.74620543e-05 -5.19692458e-06 -2.92893310e-06 -1.31823208e-05
      -1.35608179e-05 -1.35172568e-05 -3.82998087e-06 -1.37424158e-05
      -2.49211280e-05 -1.32630712e-05 -5.83125711e-06 -1.69474406e-05
      -1.67102462e-05 -1.21475068e-05 -1.59372905e-06 -1.66775612e-06
      -1.31516583e-06 -1.61559103e-06 -1.80412246e-06 -1.65001302e-06
      -1.63226980e-06 -1.61559103e-06 -1.61916796e-06 -1.68241718e-06
      -1.68926567e-06 -1.64880930e-06 -1.55311113e-06 -1.56091039e-06
      -6.32473757e-06 -6.30699424e-06 -6.37249195e-06 -6.28144289e-06
      -6.30699424e-06 -1.06700345e-05 -3.29073418e-06 -2.39399901e-06
      -2.34129129e-06 -2.34895788e-06 -1.21645999e-05 -1.29865421e-05
      -1.73599892e-05 -2.46864020e-05 -9.40254358e-06 -1.65046768e-05
      -1.73913286e-05 -1.19381775e-05 -7.30503928e-07 -7.12760720e-06
      -1.17426316e-05 -4.75173820e-08 -6.90424713e-07 -1.20218974e-05
      -1.21286785e-05 -1.21228059e-05 -8.34518323e-06 -4.93108564e-06
      -1.14248569e-05 -4.75173820e-08 -6.01120576e-07 -1.18108701e-05
      -1.58011571e-05 -1.58962011e-05 -6.33117997e-06 -6.30699424e-06
      -6.29217357e-06 -6.35894321e-06 -2.52414907e-06 -1.64880930e-06
      -1.72103410e-06 -9.60724719e-06 -9.30682199e-06 -9.60724719e-06
      -9.64273386e-06 -1.40257016e-05 -1.39943622e-05 -6.14955115e-06
      -1.65107735e-06 -1.36010237e-06 -1.63226980e-06 -1.61559103e-06
      -1.64894868e-06 -1.63226980e-06 -1.63226980e-06 -1.61559103e-06
      -4.12686040e-06 -4.21295636e-06 -4.12686040e-06 -4.21066034e-06
      -4.26329098e-06 -3.98481188e-06 -4.21295636e-06 -3.96641417e-06
      -4.21066034e-06 -4.21423738e-06 -4.21423738e-06 -7.98635119e-06
