<?xml version="1.0"?>
<opencv_storage>
<opencv_ml_svm>
  <format>3</format>
  <svmType>C_SVC</svmType>
  <kernel>
    <type>LINEAR</type></kernel>
  <C>1.0000000000000001e-01</C>
  <term_criteria><iterations>100</iterations></term_criteria>
  <var_count>1504</var_count>
  <class_count>10</class_count>
  <class_labels type_id="opencv-matrix">
    <rows>10</rows>
    <cols>1</cols>
    <dt>i</dt>
    <data>
      0 1 2 3 4 5 6 7 8 9</data></class_labels>
  <sv_total>45</sv_total>
  <support_vectors>
    <_>
      8.47032947e-21 4.00849785e-06 -7.78759386e-08 3.73847868e-08
      -4.99918063e-09 1.27873960e-07 8.47032947e-21 8.47032947e-21
      -2.10280930e-07 3.22341869e-08 -6.32485308e-06 1.23629107e-07
      8.78734312e-08 -2.53094925e-07 -8.02118905e-07 1.46157319e-07
      -9.18328453e-08 -7.23960966e-07 -1.58072510e-07 5.55169315e-08
      -1.74274518e-07 -4.15772462e-07 -7.75561020e-08 -2.06853841e-07
      5.04886479e-08 8.47032947e-21 8.47032947e-21 1.51465940e-07
      8.47032947e-21 8.47032947e-21 8.47032947e-21 5.04886479e-08
      -7.28767588e-08 8.47032947e-21 4.01444322e-06 4.00849785e-06
      -1.06993504e-07 -1.21970388e-07 -8.55320152e-08 -4.26809166e-08
      -7.36305239e-08 -1.06210734e-07 -1.95819496e-07 -1.39470799e-07
      -3.79945618e-07 1.26473580e-07 6.58380515e-08 3.61889170e-06
      4.46421247e-08 -6.22743926e-07 -3.88716188e-07 -3.96691405e-07
      -4.75112842e-07 -1.98285505e-07 -2.03391352e-07 -1.19927677e-07
      1.01781538e-07 8.47032947e-21 8.47032947e-21 1.51465940e-07
      8.47032947e-21 8.47032947e-21 -2.10566753e-07 8.47032947e-21
      1.18142680e-07 5.04886479e-08 1.91965839e-07 1.54581059e-07
      -4.90829621e-07 3.23856071e-08 -1.67244579e-07 -1.30093367e-08
      2.11357616e-07 2.12493035e-07 -1.18901307e-08 3.31587131e-07
      -2.56881634e-07 2.90603253e-07 -2.71395123e-07 -1.93490180e-07
      -2.65802782e-07 -2.72370016e-07 7.18515878e-08 -6.21181186e-07
      -3.93356236e-09 -8.11750738e-08 -1.51255151e-07 1.37157548e-08
      -1.69810637e-08 -1.71333561e-08 -1.86783623e-07 -1.71064030e-07
      5.04886479e-08 8.97678234e-08 -1.52014579e-07 8.47032947e-21
      -7.03102785e-08 3.42485379e-07 1.51465940e-07 1.91019438e-07
      -2.02503230e-07 -1.01827943e-07 -1.21200143e-08 -3.99191613e-08
      -4.25038962e-07 2.46344797e-07 6.47134399e-08 -3.01992088e-07
      -8.14565979e-08 -2.52255319e-07 -2.87544907e-07 1.25546931e-05
      1.29632563e-05 -2.23781342e-07 5.85319668e-08 -3.10011274e-07
      -3.69836556e-07 1.97778238e-08 -2.17119606e-07 1.76204171e-08
      3.74109277e-08 -3.13085053e-07 2.34301027e-07 1.29701148e-05
      1.26864261e-05 1.27733538e-05 1.27709718e-05 2.01954592e-07
      -1.01251615e-07 -1.28086540e-07 -3.77177912e-07 -1.78575178e-07
      5.83975570e-08 2.38337748e-07 -1.26727926e-07 2.90937948e-07
      -1.18622459e-07 7.97962514e-08 2.10978371e-07 -1.14346236e-07
      -1.22401829e-07 -2.07123190e-08 -1.71930576e-08 -2.26629552e-07
      -1.57006440e-07 -4.61041822e-07 -3.54442534e-07 1.86694464e-08
      1.71824652e-07 -2.18055249e-07 -3.68261297e-08 -1.69197904e-07
      -2.17886615e-08 1.51465940e-07 -4.47537928e-07 2.11423156e-07
      8.47032947e-21 -8.58063274e-08 -7.85671688e-08 -1.09315138e-07
      8.47032947e-21 -8.92875889e-08 -3.40739518e-07 -1.09315138e-07
      1.23735774e-07 -1.16102896e-07 6.08659363e-08 8.55797043e-06
      1.19442262e-07 2.77457758e-07 2.50732210e-05 -4.80328538e-07
      -2.57812502e-07 2.17102638e-08 -1.81091018e-05 -2.59787412e-05
      -2.62573540e-05 5.73520822e-07 -2.08001936e-07 2.45314168e-05
      2.44371950e-05 2.42578644e-05 -1.07183979e-07 -3.39581305e-07
      -2.61832866e-07 -1.71333561e-08 4.92218319e-08 5.82782711e-08
      -1.35706401e-07 -9.08983202e-06 2.09345160e-07 -2.27683358e-05
      -2.27178462e-05 -2.28304925e-05 -2.22872204e-05 -2.27145847e-05
      -2.26949087e-05 -3.57057907e-05 2.07596277e-05 1.96227684e-05
      -1.82958265e-05 -2.69001357e-05 -4.99696835e-05 -3.35730765e-05
      -2.43691338e-05 -1.67751350e-05 -5.42016824e-06 1.95745142e-05
      8.31401030e-06 1.60393647e-05 6.80637049e-06 1.41611299e-05
      -2.45080573e-05 -1.47679848e-05 -1.46767979e-05 -1.71699685e-05
      -1.46353086e-05 6.30591876e-06 -6.23920187e-06 -5.85392536e-06
      -5.94582934e-06 -2.26191878e-05 -2.25736239e-05 -2.28695881e-05
      -2.28695881e-05 -2.25271015e-05 -4.90500352e-05 -5.87976501e-05
      -5.30236721e-05 -4.10445646e-05 -1.85505596e-05 -1.81066007e-05
      -3.35846016e-05 -6.00888961e-05 -6.77314165e-05 -2.32721541e-05
      -8.29216970e-06 1.97143527e-05 5.23506333e-06 -1.80762236e-05
      -3.23542663e-05 -3.23751010e-05 -4.02235710e-05 -2.65169347e-05
      -1.69901286e-05 -2.01951684e-06 -2.04236471e-06 -4.07286025e-05
      -4.01415273e-05 -4.91294850e-05 -4.51515989e-05 -1.84977362e-05
      -4.15885806e-05 -1.95941266e-05 -1.91735689e-05 -9.09032315e-06
      -2.68313543e-05 -6.14756573e-05 -7.50868567e-05 -6.65197440e-05
      -4.12805493e-05 -1.83852881e-05 -1.85429290e-05 -3.49963898e-06
      -1.03509592e-05 -9.53298968e-06 -2.26992015e-05 -2.86415234e-05
      -8.71828433e-06 -6.10756024e-06 8.76082868e-06 -1.42810568e-05
      -1.47130877e-05 -2.46268246e-05 -3.00597858e-05 -5.43334791e-05
      -2.99996809e-05 -3.15292928e-05 -3.16395090e-05 -4.68085964e-05
      -3.20520994e-05 -3.24702305e-05 -1.61754942e-05 -2.64001210e-05
      -2.24475152e-05 3.93367236e-06 6.64233403e-06 -3.28779897e-05
      -6.84044644e-05 -4.44462858e-05 -1.69112918e-05 4.95372387e-06
      3.14951758e-05 3.15751531e-05 -1.31582976e-06 -2.73488240e-05
      -3.42338717e-05 -3.16473670e-05 -3.10441719e-05 -2.98188461e-05
      -1.89225775e-05 1.71349948e-05 1.66901937e-05 -6.04004208e-06
      -6.20654191e-06 -4.21163422e-05 -7.87770914e-05 -9.48836823e-05
      -6.05341374e-05 -4.18676027e-05 1.94027962e-06 1.31783656e-06
      9.67925735e-06 -6.55618078e-06 1.75849254e-05 -4.72876718e-06
      -6.19908906e-06 1.02803579e-05 -1.46190405e-06 -2.69194024e-05
      1.50578117e-05 1.50171618e-05 2.26249103e-05 3.37038218e-05
      1.60258514e-05 8.02817885e-06 -1.74892284e-05 -2.50972407e-05
      -4.31461522e-05 -3.74157498e-05 -5.67819807e-05 -5.04828822e-05
      -1.54646259e-05 -2.18259459e-07 2.44888379e-05 1.92755056e-06
      -2.07549874e-05 -4.82397591e-05 -5.85164416e-05 -6.10822390e-05
      -3.79312842e-05 -3.51535982e-06 6.69117162e-06 2.57325592e-05
      3.50767041e-05 3.57164099e-05 -5.43080660e-06 2.24217047e-06
      1.59172050e-05 6.97875612e-06 1.04235260e-05 -7.39322061e-08
      1.40748107e-05 2.38742432e-05 2.61237528e-05 4.02809164e-05
      4.18217824e-05 -2.13944295e-05 -2.60296620e-05 -2.43977192e-05
      -1.55527214e-05 -1.61766220e-05 -2.45416813e-05 -4.82025962e-06
      2.46324889e-05 2.84322505e-05 2.59026524e-06 -1.14749282e-05
      -1.73170120e-05 2.39043056e-05 -2.43986287e-05 -2.71515892e-05
      -3.01302007e-05 -2.24641990e-05 -5.36810730e-05 -1.03988932e-05
      3.08314302e-05 4.06520667e-05 4.79370174e-05 8.15445674e-06
      -8.49005119e-06 -4.59531111e-06 8.24494509e-06 3.07184237e-05
      8.81821597e-06 -1.79933511e-06 -1.62097228e-06 1.51897038e-05
      6.71939188e-06 1.65914898e-05 2.40889094e-05 7.49542733e-06
      -6.81697475e-06 -1.90149913e-05 -1.30477974e-05 7.59248906e-06
      3.01291971e-06 5.92543120e-06 2.85633159e-05 1.43029893e-05
      2.93754533e-06 -2.76554692e-05 -2.81462871e-05 -2.65240396e-05
      -2.21177697e-06 7.76104457e-07 -1.85173019e-06 -2.56734825e-06
      1.77414095e-05 2.37247605e-05 9.88895681e-06 1.01797041e-05
      -1.88634967e-05 -4.94269216e-06 3.34804390e-05 3.39397338e-05
      5.01909381e-05 3.65113410e-05 1.79825547e-05 -9.93887625e-06
      -1.33236017e-06 1.26829873e-05 3.84581836e-05 9.90910485e-06
      1.57235281e-05 -1.00897078e-05 -2.75069506e-05 3.16484125e-06
      2.65218819e-06 2.74075546e-06 2.81180146e-05 1.44592868e-05
      2.98015311e-05 2.94850997e-05 2.39036854e-05 1.53685523e-05
      -1.17727984e-06 -1.02940912e-05 -2.87198745e-05 -5.21001675e-05
      -1.25500574e-05 -2.18692239e-05 -1.42281961e-05 -2.48558854e-06
      3.36874364e-05 4.31763510e-05 4.30019863e-05 3.32822892e-05
      3.80347738e-05 4.17465017e-05 3.06259108e-06 -7.59932527e-06
      4.30823911e-06 1.89040893e-05 2.18420846e-05 -1.88294143e-05
      -6.53275638e-05 -2.89521831e-05 3.38579266e-05 4.50460720e-05
      5.27955999e-05 5.28578130e-05 5.27357333e-05 1.41830797e-05
      5.22288792e-06 5.89091496e-06 -2.59272383e-05 -2.54503793e-05
      5.30260058e-06 -9.67004780e-06 -9.66967673e-06 -6.93670372e-05
      -5.68330470e-05 -2.09304999e-05 2.08499423e-05 3.40121951e-05
      3.79532503e-05 3.78787263e-05 4.73059699e-05 4.30638538e-05
      2.53565122e-05 2.50175817e-05 -8.91593936e-06 -8.92551543e-06
      2.78757670e-06 -9.20537605e-06 -3.01579057e-05 -7.13187983e-05
      -2.55126488e-05 8.98467260e-06 5.50681543e-05 3.11320910e-05
      3.96134928e-05 1.38994055e-05 2.82648671e-06 -1.16271603e-05
      5.64872516e-06 5.66377594e-06 -3.54799937e-07 -6.05672597e-08
      -3.02904027e-07 -2.59593598e-05 -6.92105168e-05 -1.03258040e-04
      -7.92378705e-05 -2.06894019e-05 1.90132468e-07 1.57809991e-05
      2.42482820e-05 2.39988367e-05 3.28036658e-05 3.49840593e-05
      3.46732559e-05 -1.33831151e-07 8.97068873e-08 1.27466465e-05
      1.40439179e-05 -1.31455488e-06 -7.73962529e-06 -6.75147967e-05
      -7.18521042e-05 -4.15897302e-05 -1.29862419e-05 1.27003041e-05
      3.96648065e-05 3.94572926e-05 4.47677085e-05 3.09180505e-05
      5.31943397e-06 5.19853256e-06 -1.13040528e-07 -2.26246957e-05
      -3.63585859e-05 -5.77882056e-05 -6.03897824e-05 -7.94366060e-05
      -7.97794346e-05 -5.89324227e-05 -2.52009540e-05 7.67644269e-06
      3.35535806e-05 4.95576933e-05 4.13173220e-05 2.49991645e-05
      3.34644828e-05 3.35761833e-05 1.66836628e-06 -4.85187156e-05
      -2.81671455e-05 -1.72503715e-05 -5.64288457e-05 -4.24348182e-05
      -4.11563415e-05 -2.98691193e-05 5.48126486e-08 1.26000023e-05
      3.57474710e-05 3.56305827e-05 4.54314250e-05 3.07985247e-05
      2.21518749e-05 -4.87916395e-07 -2.26796819e-05 -4.88135665e-05
      -5.23979397e-05 -1.38916585e-05 -2.29860270e-05 -3.89560228e-05
      -4.11238325e-05 -2.05261495e-05 -1.75804489e-05 3.34985743e-05
      5.79271582e-05 4.97781039e-05 1.44008263e-05 -3.25705550e-05
      2.38249413e-06 -1.34422544e-05 9.08570564e-06 -2.06589743e-06
      -2.59352328e-05 -2.65712479e-05 -3.02371445e-05 -2.74641588e-05
      -4.12119043e-05 -3.42996318e-05 -2.63941765e-05 -1.26925170e-05
      2.27965174e-05 2.24348078e-05 2.65166568e-06 -3.43379070e-05
      -1.31969928e-05 -3.10541424e-07 1.69045834e-05 -9.67203323e-06
      -2.68144086e-05 -1.39539452e-05 -9.32036528e-06 -2.76800292e-05
      -1.60450054e-05 -2.95640075e-05 5.79066545e-06 7.06653964e-06
      3.37156489e-05 7.49676516e-08 -2.25497661e-05 -6.89921717e-06
      1.57918621e-05 2.54284405e-05 7.31038563e-06 -4.89343120e-06
      -2.63194779e-05 -1.39679896e-05 -2.09377449e-05 -2.72726647e-05
      -2.75651364e-05 -5.92299948e-05 -5.88284493e-05 -2.65499839e-05
      9.88930606e-06 3.75673579e-07 5.69598660e-06 -8.55346025e-06
      5.64814354e-06 5.41696227e-06 -1.33913836e-05 -9.56892109e-06
      9.55408836e-07 1.56771130e-05 1.48190438e-05 -2.76041119e-05
      -1.91251365e-05 1.10213405e-05 7.14831731e-06 7.48128286e-06
      -3.97402437e-05 -1.31155439e-05 9.09153286e-09 3.36429025e-07
      1.59055435e-05 1.34892316e-05 1.09051080e-05 -1.24012445e-06
      -4.30016516e-05 -2.60493907e-05 -2.08624206e-05 -2.75647508e-05
      -2.74997219e-05 -1.93686501e-05 -1.40555248e-05 -4.93544794e-05
      -3.47459318e-05 -1.26997911e-05 2.63500169e-05 -1.16785568e-05
      3.97932308e-06 -1.28157180e-05 -2.54217139e-06 -1.41198152e-05
      3.83238103e-06 1.64873036e-05 7.59949535e-06 -2.48776041e-06
      6.21524759e-06 1.53755391e-05 8.55594044e-06 -4.88361984e-05
      -2.65980980e-05 -2.65122144e-05 9.65503801e-08 -2.59407352e-05
      -2.78391453e-05 -1.46251114e-05 -1.07248525e-05 -1.18020307e-06
      2.51262591e-05 9.78136814e-06 -1.21605626e-05 -2.74600970e-05
      -2.73464757e-05 -1.59894553e-05 -4.83204749e-05 -6.18692138e-05
      1.17077825e-05 2.05905944e-05 4.00665594e-05 2.86089908e-05
      -1.14649583e-05 -2.10986254e-05 -2.09798563e-05 -2.59754444e-07
      3.26112854e-07 1.47036214e-08 1.58781932e-05 -2.10059579e-06
      3.53407927e-07 8.14043869e-06 -3.40803098e-07 -2.76197025e-05
      -2.65963608e-05 -2.67749856e-05 -2.62537687e-05 -1.63365567e-05
      -2.11877546e-06 -2.64388636e-05 -2.64143855e-05 1.59165993e-05
      2.55133164e-05 -1.61533464e-07 -2.82251385e-05 -2.71959325e-05
      -2.59069511e-05 -1.44344967e-05 2.42401165e-05 1.80515812e-07
      3.38850384e-07 -3.85944804e-06 1.91336176e-06 -9.52242772e-06
      -2.08777801e-05 -2.10486742e-05 -3.19975470e-07 1.03194616e-07
      1.13570266e-07 -2.58142063e-05 -4.81755378e-05 -4.23207202e-05
      1.45394388e-05 2.25458734e-05 1.67060280e-05 1.68673032e-05
      -1.58313938e-07 -2.63804613e-05 -2.74468894e-05 -2.86182312e-05
      -6.60229125e-05 -5.23312592e-05 -7.21233732e-07 -5.43658523e-08
      1.56120623e-05 4.93393745e-05 1.52349212e-05 -4.08404958e-05
      -2.75498132e-05 -1.55540274e-05 -5.62530964e-08 1.18695084e-07
      -7.14674897e-08 9.15182773e-06 -2.35226235e-05 -3.89386332e-05
      -4.69249389e-05 -7.33571051e-06 -2.57732081e-05 -3.19890546e-07
      -2.23277766e-05 -1.42467643e-05 2.54924271e-05 1.06038906e-05
      1.05194558e-05 1.53513929e-06 1.68348033e-05 -9.17474699e-06
      -8.84729161e-06 1.67309790e-05 -2.83160953e-05 -5.31366204e-05
      -5.30559519e-05 1.02626827e-05 2.40081972e-05 3.09370677e-07
      -2.28878780e-05 -6.49422918e-06 2.19303602e-05 -2.09062955e-06
      -1.78441351e-05 -2.42704136e-05 1.51014092e-07 -2.59687095e-05
      -2.58236942e-05 -4.18117525e-05 -1.18306789e-05 -3.87973523e-05
      -2.12082869e-05 -6.83347707e-06 -2.28294775e-05 -2.26297925e-05
      8.35451374e-06 3.38904902e-05 -8.62293746e-06 -2.79443375e-05
      -1.46730290e-05 -1.12161524e-05 -1.56728195e-08 9.78278525e-09
      1.65895872e-05 3.88904264e-05 1.43779753e-05 -3.64766165e-05
      -2.66715415e-05 -4.93280022e-05 -2.24477772e-05 -2.28860627e-05
      -1.76196835e-07 -1.08731705e-07 -1.30308545e-05 -2.79836186e-05
      -2.76291703e-05 -1.80536499e-05 6.40257269e-08 -1.89827830e-07
      -1.62159158e-05 -3.99600322e-06 2.04183630e-06 3.05013430e-07
      -3.51186936e-05 -6.93043694e-05 -3.80362617e-05 -1.72177788e-05
      3.38163118e-05 2.52170557e-05 1.71556985e-05 -2.77164145e-05
      -2.73585283e-05 1.31253910e-05 2.41431098e-05 2.43378090e-05
      -1.47130941e-05 -2.67148480e-05 -1.00044190e-05 -1.08626464e-05
      -3.25764922e-05 -5.81949207e-05 -5.21976981e-05 -2.56037347e-05
      1.01539669e-07 5.50287638e-08 -3.29468594e-06 -1.17132786e-05
      -2.06040636e-06 -2.09133191e-06 2.73889373e-06 -4.17421688e-06
      -5.23528506e-05 -2.96309554e-05 -1.97652753e-05 5.88026251e-06
      3.38734651e-07 -2.06940058e-05 -1.79325889e-05 2.13104449e-05
      3.39389589e-05 4.97537112e-05 1.56598890e-05 -3.29711793e-06
      -2.75833318e-05 -1.92698917e-05 -6.93440552e-06 -1.48533145e-05
      -5.27270822e-05 -5.25300748e-05 -4.83721415e-05 -2.28757708e-05
      1.44831201e-05 -9.71635291e-06 -1.91105414e-07 -4.27614879e-07
      -9.34026389e-07 2.37934614e-08 -2.73727665e-07 -5.32962804e-05
      -3.75410018e-05 -2.43805152e-05 1.18362068e-05 -1.72400269e-05
      -1.71216197e-05 2.62847408e-07 2.82597539e-05 2.88728061e-05
      3.88327899e-05 2.45792580e-05 3.73860603e-05 3.16384394e-05
      1.26757468e-05 -2.36521419e-06 -9.41851431e-06 -5.35154650e-05
      -5.33410275e-05 -5.31985752e-05 -1.46763668e-05 -2.69460998e-05
      -4.96890207e-05 -2.29409379e-05 8.47032947e-21 1.43201262e-07
      -3.34521708e-08 -1.42369345e-07 -9.86478153e-06 -3.53733631e-05
      -3.52920215e-05 -1.95986977e-05 1.25687450e-07 -2.06858658e-05
      -2.75194579e-05 -2.20306592e-05 -1.20668642e-06 -2.33279934e-05
      2.45637602e-05 4.72886677e-05 5.23195631e-05 6.14083910e-05
      2.29083271e-05 3.96245741e-05 -5.54092094e-06 -2.69567936e-05
      -2.66186325e-05 -1.27603826e-05 -5.61808110e-06 -2.38230823e-05
      -2.47381740e-05 -4.21811528e-05 -4.98036461e-05 -4.93080697e-05
      -2.25058088e-07 6.41173017e-08 -2.59197404e-05 -2.54112838e-05
      -2.56577750e-05 -8.04970224e-09 -2.79150605e-08 -1.64894409e-05
      -9.67402957e-06 -9.62118702e-06 5.84249028e-06 -3.67685971e-06
      -1.68731131e-05 -4.91391002e-05 1.35895398e-05 4.03871709e-05
      -2.31340422e-07 6.82053223e-06 3.13689452e-06 3.74515330e-05
      4.83509903e-05 3.97162294e-05 2.54900242e-05 -1.35774362e-05
      -2.67114046e-05 -2.66208117e-05 -2.21398641e-05 -2.98796131e-05
      -6.49998692e-05 -7.68442187e-05 -5.25276846e-05 -2.60443685e-05
      -1.16924433e-07 -1.65535255e-07 -8.98287524e-08 -9.30628588e-08
      -4.75586489e-07 -6.31335624e-08 1.90668970e-07 -1.27245130e-07
      7.77257992e-06 -2.46289233e-06 1.47210549e-05 -6.57261917e-05
      -6.31851653e-05 -6.28796479e-05 6.84197130e-06 1.57125833e-05
      2.54808365e-05 4.85472447e-05 4.68094695e-05 6.25732282e-05
      4.76964051e-05 3.11664953e-05 -2.02505817e-07 -1.37289617e-05
      -1.38611886e-05 -7.50046383e-05 -8.51624936e-05 -7.72238564e-05
      -5.43001952e-05 -5.40006622e-05 -9.35335993e-06 1.42703609e-08
      -8.56667803e-09 -3.22445231e-07 1.65495333e-08 2.38406974e-05
      2.41992384e-05 -1.45924491e-06 -1.41564965e-06 -1.78303856e-06
      -2.55528230e-05 -2.60848392e-05 -3.82497456e-05 -6.13002703e-05
      -6.15325625e-05 -2.33605588e-05 1.01437645e-05 1.69191826e-05
      3.27766938e-05 5.66909002e-05 6.27031332e-05 4.64066652e-05
      2.64230894e-05 -7.34755758e-06 -9.70236397e-06 -1.01169826e-05
      -3.58717516e-05 -3.87912296e-05 -4.97012843e-05 -8.02902869e-05
      -6.67867207e-05 -2.99004969e-05 2.35311945e-05 2.38166504e-05
      2.41515536e-05 -1.29937439e-06 2.41048838e-05 2.39404508e-05
      2.42100286e-05 -4.27524149e-08 4.46443607e-07 -7.07140828e-07
      -2.28554909e-05 -2.25573822e-05 -3.36823905e-05 -7.25392019e-05
      -5.87851537e-05 -4.67460632e-05 4.09147742e-06 1.66430091e-05
      2.52918435e-05 6.41776060e-05 7.53892018e-05 8.74297839e-05
      1.15229966e-06 -4.27600680e-05 -4.80869348e-05 -2.48747483e-07
      2.17931101e-05 -1.35855225e-05 -3.13288620e-05 -5.64744914e-05
      -2.96468988e-05 -1.61451298e-05 2.42221031e-05 2.42592323e-05
      2.39515248e-05 2.41453781e-05 2.42988299e-05 2.41761536e-05
      2.38741795e-05 2.40702866e-05 -2.20431066e-05 -2.28371282e-05
      9.46234741e-06 -1.35676810e-05 -2.63877682e-05 -5.32809863e-05
      -4.64659861e-05 -4.53249377e-05 -3.06000948e-05 7.46762862e-06
      -1.32553487e-05 2.40154968e-05 9.64800056e-05 7.21223041e-05
      6.85420382e-05 3.90600107e-05 3.81012469e-05 2.21775754e-05
      5.08080120e-07 -2.05529068e-06 -1.84590463e-05 -1.68448714e-05
      -2.98141476e-05 -2.97861916e-05 -8.95451285e-06 2.44639778e-05
      2.41248199e-05 2.41877933e-05 2.45488009e-05 2.39806704e-05
      -2.23608113e-05 -2.28465397e-05 -2.26314696e-05 -2.28678891e-05
      -1.36371209e-05 -2.54021907e-05 -2.64068076e-05 -1.78195387e-05
      -1.40075017e-05 -3.23383283e-05 1.83339253e-05 2.22727558e-05
      2.52337577e-05 5.80120031e-05 6.49556750e-05 8.45079267e-05
      9.38443554e-05 7.82906718e-05 4.40427502e-05 -2.96559529e-06
      -3.32363675e-06 1.43807483e-05 1.39068015e-05 -2.94424194e-06
      -1.69331342e-05 -5.53001883e-06 -2.60577799e-05 -2.58730124e-05
      -1.04199982e-08 5.62813511e-07 -2.66278505e-07 -4.81178608e-09
      -2.23498864e-05 -2.27718738e-05 -2.25238800e-05 -3.48241228e-05
      -2.52068221e-05 -1.69469531e-05 -9.04798162e-06 -6.08240589e-06
      8.11104371e-07 2.15290675e-05 -3.57341232e-05 -8.85205827e-06
      2.81396224e-05 1.98869511e-05 2.77020463e-05 3.78451914e-05
      4.91120227e-05 5.70880729e-05 2.07660978e-05 1.47078426e-05
      7.78112371e-06 -2.36978431e-05 -2.18247296e-05 -7.51179778e-06
      -2.25823514e-05 -2.64218725e-05 -2.65646941e-05 -2.66801399e-05
      -1.38650103e-05 1.36814549e-07 -8.03057354e-09 -2.26906250e-05
      -2.26006141e-05 -2.27608489e-05 -2.27515593e-05 -1.68951065e-05
      -2.92521017e-05 -7.42192105e-06 -7.53483255e-06 5.48447451e-06
      4.56971338e-06 -1.08225333e-06 1.50051947e-05 1.37011034e-06
      -2.80379463e-05 -2.82488054e-05 -2.54868701e-05 -8.79258550e-06
      1.79308438e-06 1.72173277e-05 5.05516764e-05 5.46662814e-05
      3.78018121e-05 8.95355424e-06 8.80997140e-06 -1.95211287e-05
      -1.78772425e-05 -1.02428930e-05 -2.60559464e-05 -2.64788123e-05
      -1.58825696e-05 -2.27416094e-05 -2.28382341e-05 -2.23482330e-05
      3.06840457e-06 1.15900757e-05 1.09180792e-05 3.37504753e-05
      2.87357561e-05 1.23683121e-05 1.26531031e-05 2.69743941e-05
      2.62258145e-05 5.55254019e-06 1.37627749e-05 5.98069073e-06
      -3.86464199e-05 -2.51306592e-05 -3.54945150e-05 4.97317671e-07
      1.29856862e-05 2.49050772e-05 2.39708334e-05 2.94288066e-06
      1.59669034e-05 1.58422881e-05 9.77475611e-06 1.01051564e-05
      -6.39358132e-06 -1.99238020e-05 -3.65680316e-05 -2.77534837e-05
      -5.06345314e-05 -2.14699703e-05 -2.37336953e-05 8.14216673e-06
      2.59241206e-05 3.29587892e-05 2.59600238e-05 2.11694423e-05
      3.06589427e-05 -5.18729667e-06 -7.98960991e-06 4.24723839e-06
      2.37026652e-05 1.09658913e-05 1.99931746e-05 -9.94490347e-06
      -8.78323772e-06 6.90852858e-06 6.59611715e-06 2.90257285e-05
      1.87075457e-05 1.87153601e-05 -4.46460120e-07 1.56606184e-05
      1.54042045e-05 1.56598053e-05 2.40625886e-05 1.72203872e-05
      2.77547788e-05 1.52248613e-05 -2.30275896e-06 -1.28090633e-05
      -1.29475811e-05 -1.28236443e-05 1.94539443e-05 4.71557578e-05
      4.34871836e-05 4.34734102e-05 4.35905131e-05 3.07203190e-05
      1.71737756e-05 1.69233663e-05 2.54704100e-05 2.70381915e-05
      4.18108721e-05 4.18533346e-05 4.54622859e-05 4.45078658e-05
      1.79113631e-05 6.21848676e-06 6.20040464e-06 1.32614241e-05
      2.92884015e-05 2.33048631e-05 1.33280546e-05 2.23197003e-05
      2.25812328e-05 3.88658846e-05 3.21585831e-05 3.50641858e-05
      3.67736866e-05 3.42568892e-05 -1.37316476e-06 -3.45733451e-06
      -3.49363791e-06 5.34929359e-06 9.56488748e-06 2.20734819e-05
      2.16859717e-05 2.17489323e-05 2.19819631e-05 2.16793014e-05
      2.18462683e-05 -7.31487444e-06 1.14242930e-05 1.15697212e-05
      1.16110750e-05 1.17623867e-05 2.01945204e-05 3.36965422e-05
      3.35946861e-05 4.31083245e-05 5.07099248e-05 3.07192204e-05
      2.23638399e-05 2.28828067e-05 1.15543162e-05 2.67855958e-05
      2.62467420e-05 3.45800145e-05 3.46889938e-05 3.48205467e-05
      3.46399538e-05 3.51189119e-05 1.27367639e-05 1.24555108e-05
      -3.18455614e-06 -3.42983844e-06 1.02403792e-05 2.84850867e-05
      3.86613319e-05 4.73977416e-05 2.16034168e-05 1.32892792e-05
      1.85466470e-05 1.83738521e-05 1.83445936e-05 5.91472644e-06
      -6.41388533e-06 -6.81055099e-06 7.17977900e-06 7.08861216e-06
      2.25131271e-06 2.31103627e-06 1.20405330e-05 2.79329015e-05
      2.27213422e-05 1.89938055e-05 2.26130633e-05 2.26806369e-05
      2.68012391e-05 3.38779173e-05 3.39392609e-05 3.39568724e-05
      4.02616097e-05 4.20156648e-05 3.53337418e-05 2.53672133e-05
      4.66321762e-05 2.81957346e-05 6.18129852e-05 5.27455632e-05
      4.80731542e-05 4.21940495e-05 5.14676285e-05 2.53868529e-05
      1.64456578e-05 3.76234166e-05 3.38505488e-05 3.34130928e-05
      2.40118570e-05 5.06025629e-07 -1.18713479e-06 4.00953559e-06
      -4.70024997e-06 1.66742702e-05 2.11192564e-05 2.06901932e-05
      1.55083799e-05 2.50332105e-05 2.63415786e-05 2.23656407e-05
      2.21570826e-05 2.22402541e-05 1.26134473e-05 2.53333674e-05
      7.29423209e-06 2.72125567e-06 7.28144869e-06 7.63986463e-06
      3.42118506e-06 1.16518559e-05 -4.33043488e-06 9.65579511e-06
      1.12422576e-05 1.13848955e-05 1.93326741e-05 5.72029558e-06
      1.38435043e-05 -5.61696470e-06 -6.01489091e-06 -5.81703944e-06
      9.82819165e-06 1.60171985e-05 1.01368132e-05 5.50490859e-06
      -2.99683234e-06 -2.25903295e-05 -2.28908484e-05 -2.27715300e-05
      -3.20686831e-06 -3.23378390e-06 -3.04192531e-06 -3.19852529e-06
      -3.26395434e-06 -3.11120425e-06 -3.07618825e-06 -3.30703801e-06
      9.77663785e-06 1.00067691e-05 9.95129176e-06 -4.33655441e-06
      9.33335650e-06 9.73240640e-06 -4.24268455e-06 9.74250361e-06
      9.55878204e-06 1.37111256e-05 1.35690507e-05 1.39272479e-05
      9.51487800e-06 9.85457245e-06 9.71112149e-06 9.50194863e-06
      1.00247407e-05 1.00509269e-05 9.70861129e-06 9.61517162e-06
      9.61918886e-06 9.74247814e-06 -3.12806787e-06 -3.27465659e-06
      -3.14242379e-06 -2.92200161e-06 -5.05292155e-06 -4.51535698e-06
      -5.05292155e-06 -4.53402890e-06 -5.22926985e-06 -5.00630995e-06
      -4.50221251e-06 -4.91908304e-06 -3.08966446e-06 9.50254525e-06
      9.50832964e-06 9.69079520e-06 3.10698113e-07 3.90703917e-07
      3.17671748e-07 3.32720020e-07 -1.23510627e-05 -1.24749631e-05
      -1.23617847e-05 -1.20514287e-05 3.23246383e-07 3.73271860e-07
      4.19623711e-06 3.18404250e-06 5.85217595e-06 8.53144684e-06
      2.62985600e-06 7.97618031e-06 1.01423223e-06 2.36321966e-07
      -8.74455145e-06 -4.41819765e-07 -1.42294982e-06 -3.37876668e-06
      -2.47322269e-08 -8.25364805e-06 -8.09320227e-06 -8.30692898e-06
      -1.20663583e-06 -8.77509774e-06 -6.34744038e-06 -8.12110648e-06
      -5.07546065e-06 -9.65868458e-06 -9.98216183e-06 -9.95649498e-06
      -1.14173554e-05 -1.12861426e-05 -1.14323693e-05 -1.11971840e-05
      -1.14051509e-05 -1.13895267e-05 -1.07442183e-05 -1.13815786e-05
      4.00016745e-07 3.49541824e-06 -3.49231073e-06 -1.13307506e-05
      5.63594040e-06 -9.07905633e-06 9.03420096e-06 1.11138152e-05
      1.11733902e-06 -1.02714239e-05 -7.70691622e-06 -2.24053815e-06
      -1.15021994e-05 1.06937423e-05 1.08573859e-05 2.03120071e-05
      4.38559164e-06 8.23843220e-06 -7.64764536e-06 -3.36257540e-06
      -1.23601794e-05 1.05513636e-05 8.72400324e-06 8.84621022e-06</_>
    <_>
      1.34283781e-07 -1.50822519e-08 -1.82034483e-07 -3.38813179e-21
      -1.28062794e-07 -3.38813179e-21 3.80227959e-07 -3.38813179e-21
      8.81771598e-08 -2.29451473e-07 1.38971970e-07 -1.23562643e-07
      2.19226450e-07 -4.78606637e-07 -1.78542166e-07 2.96797058e-08
      -9.07549733e-08 -5.44036652e-07 3.10550718e-07 1.28566713e-08
      3.17404374e-05 3.21059269e-05 3.19431274e-05 -1.63468783e-07
      1.84084481e-08 -3.38813179e-21 1.84084481e-08 4.69415454e-06
      4.65733774e-06 4.69415454e-06 4.69415454e-06 -3.38813179e-21
      5.54737518e-08 4.05066316e-07 1.44729313e-07 2.43039779e-07
      -2.57121258e-07 -1.42541253e-07 3.34658985e-08 -9.90494158e-08
      -1.65067036e-07 -4.57766191e-07 1.38018024e-07 -9.88385338e-08
      -7.72167994e-07 -4.29428439e-08 -1.87995724e-07 -2.67065587e-07
      1.15695720e-07 -9.35698381e-07 3.22215892e-05 3.16707155e-05
      3.17464619e-05 -2.26458633e-06 -3.70317684e-06 -2.70201917e-06
      6.36491322e-08 3.68168962e-08 -3.38813179e-21 -3.38813179e-21
      3.68168962e-08 -3.38813179e-21 -3.38337856e-07 -3.38813179e-21
      -1.06640563e-08 -3.38813179e-21 4.11081942e-08 1.67057550e-07
      -7.39129234e-07 2.86259080e-07 -1.92199821e-08 -5.63879219e-08
      2.98294509e-08 -3.20115703e-07 2.16443823e-07 8.22270394e-08
      1.97370298e-07 -7.43198783e-08 2.15025420e-08 7.16056414e-09
      3.17266931e-05 3.18971615e-05 3.21536063e-05 3.70436410e-08
      6.76547813e-08 -3.11555013e-08 -1.80331071e-07 -1.78814858e-07
      -5.01563306e-08 6.26581098e-08 -2.57121258e-07 -2.20304344e-07
      -3.38813179e-21 -2.20195844e-08 -2.01895901e-07 1.84084481e-08
      -4.11412998e-07 9.89999123e-08 5.14641023e-08 3.69160063e-07
      9.07783999e-08 1.65934452e-07 -7.71220527e-07 3.18069993e-07
      -1.18332750e-07 9.89051472e-08 -2.16508340e-08 5.12199616e-09
      7.49999671e-08 1.61541124e-07 3.20156978e-05 3.11774311e-05
      3.23350804e-07 1.19637591e-07 -5.47225483e-08 -3.71095012e-07
      -4.88441401e-07 -1.16361917e-07 -7.43166808e-08 -9.58523287e-08
      -2.82906694e-08 -3.19022689e-07 1.80434370e-07 -3.38813179e-21
      7.67103359e-08 -5.49268293e-08 -5.65091909e-07 5.32705187e-08
      3.46891262e-08 2.32288926e-07 -7.75089688e-07 -2.29700888e-07
      -1.61050230e-06 -1.76477283e-06 1.40965383e-07 1.01830445e-07
      1.39040651e-07 3.05703338e-07 2.36262537e-07 2.80851449e-08
      3.22491505e-05 -2.39968102e-07 -3.73950144e-07 -2.08203446e-08
      -1.02878900e-07 -1.48836904e-07 9.77622694e-09 -1.34674465e-07
      -2.55365251e-07 -3.61703286e-07 3.47257753e-07 -1.63069387e-07
      -8.85014870e-08 7.20120497e-09 -6.65925882e-07 -5.01563306e-08
      1.24949480e-07 1.08256174e-07 -1.29389392e-07 -1.49551909e-08
      2.23009096e-07 5.36420885e-07 -5.96645748e-07 1.31728602e-05
      2.98342513e-07 -1.37483696e-07 -8.39541414e-08 -7.12544121e-08
      3.20973413e-05 3.25359833e-05 -4.72008651e-07 -9.26891914e-08
      -5.35281224e-08 5.81337963e-06 -3.66229033e-05 -3.28880415e-05
      -3.28154274e-05 -3.34141390e-07 -1.17680047e-05 7.23269551e-08
      5.09415585e-08 4.68159591e-08 -1.98929769e-07 -1.59239875e-07
      -1.17308714e-08 1.23353336e-08 -1.69585135e-07 1.88723898e-05
      1.82325675e-05 -2.67265732e-05 2.74968115e-05 -2.75578509e-06
      7.17443072e-06 6.45446517e-06 7.94426978e-06 1.07601636e-05
      1.15768571e-05 6.76400214e-06 2.16065346e-05 -4.22523635e-06
      -4.27007144e-05 -4.80762537e-05 -4.78028815e-05 -3.87116997e-05
      -2.07358753e-05 -3.56898890e-05 -2.78552889e-05 -2.77335421e-05
      -1.72768796e-05 -1.13707256e-05 -8.36487743e-06 -5.26903432e-06
      -9.99273561e-06 -8.24702147e-06 -8.42854479e-06 -2.20245092e-05
      -7.25026257e-06 8.23647315e-06 -4.36276532e-05 -2.61127434e-06
      -2.55200530e-06 6.97221094e-06 7.37062055e-06 7.14113639e-06
      2.04320240e-05 2.04030675e-05 -2.08606380e-05 -7.70000679e-06
      -7.61457022e-06 -5.82821340e-05 -4.25926082e-05 -2.13750336e-05
      -2.19526355e-05 -1.81091291e-05 -2.01561343e-05 -6.24959794e-05
      -3.77894539e-05 -5.26880967e-06 -5.27523071e-06 -5.88647436e-06
      -1.62521101e-05 5.00994520e-06 4.19740400e-06 6.71361840e-06
      9.87008661e-07 -1.03235334e-05 -9.54153711e-06 -2.54972147e-05
      -1.39109561e-05 -1.36398648e-05 -3.21389234e-05 -8.91069612e-06
      -3.57000172e-05 1.50914575e-05 1.45546746e-05 3.14466997e-05
      5.42408961e-05 2.39015480e-05 -4.55161316e-05 -4.54958172e-05
      -5.86370479e-05 -4.20421056e-05 -4.26222541e-05 -1.53985166e-05
      1.68541810e-05 1.32016785e-05 -3.53160260e-07 -1.36592589e-05
      1.85995714e-06 -9.88016473e-06 2.79725882e-05 2.74902795e-05
      1.23338668e-05 1.92533344e-06 2.24570576e-05 -1.39619215e-06
      9.53733888e-06 -7.80947084e-06 -1.27747771e-05 -2.75720158e-05
      2.96388171e-05 1.74596119e-06 1.58339699e-05 -6.80184667e-06
      -6.80598487e-06 3.76312637e-05 5.49787619e-05 6.13229786e-05
      -3.79984267e-05 -3.88471999e-05 -5.87363793e-05 -1.64890644e-05
      -2.33489700e-05 -2.36623637e-05 -2.33504270e-05 1.70094063e-05
      4.01432771e-05 6.64545541e-06 3.58559328e-06 7.55696738e-06
      -1.58454259e-05 -1.51294316e-05 -1.57865379e-05 -4.84842940e-06
      -7.58665522e-07 -4.06852487e-05 -5.74462792e-05 -2.24631440e-05
      1.35214268e-05 2.16917670e-05 3.83290535e-05 2.54298720e-05
      3.17573613e-05 1.35608079e-05 1.31671513e-05 3.60610356e-05
      4.13064990e-05 5.15814027e-05 -2.71958197e-05 -9.26506546e-05
      -2.66615989e-05 -4.95458553e-05 -1.68703536e-05 -1.46852281e-05
      -1.48594891e-05 3.86432839e-06 7.30647616e-06 1.71816955e-05
      2.51781807e-06 -2.16441531e-05 -4.18969903e-05 -4.01271100e-05
      -2.44495513e-05 -4.41204793e-05 -1.25234774e-05 -1.19611186e-05
      3.03697507e-05 7.75000353e-06 4.36160036e-07 -2.95803238e-05
      1.88875365e-05 2.65311210e-05 -5.38013319e-06 5.10058726e-06
      1.52936318e-05 1.89485272e-05 1.78503427e-07 -1.69496634e-05
      -4.97552890e-07 1.71048960e-05 -4.30279179e-05 -2.69342108e-05
      -3.71159294e-05 -1.15213334e-05 -1.66205282e-07 1.58071889e-05
      -3.08848911e-07 -3.22167361e-05 -2.68261083e-05 -1.98253656e-05
      4.35436414e-06 -1.53275178e-05 -2.02183182e-05 -1.00685093e-05
      2.37742552e-05 5.56304144e-07 -2.46561467e-06 -3.13283886e-06
      2.61419009e-05 5.30452890e-05 2.67851556e-05 -3.45311787e-06
      1.03732073e-05 1.13080478e-05 -1.99548940e-05 -5.41313375e-06
      -6.20167557e-05 -2.66147199e-05 -9.99849271e-06 -9.59987574e-06
      -7.10908207e-05 -1.22613537e-05 -6.60112528e-06 5.06447323e-05
      -1.78646624e-05 -4.21552722e-05 -6.24742679e-05 -2.21218470e-05
      -3.27259863e-06 2.04181603e-07 3.38145655e-05 6.84367524e-06
      1.14221211e-05 -1.49330926e-05 -3.56777200e-05 -3.44829095e-05
      6.49947742e-06 -1.64602659e-06 3.17396189e-05 1.85802292e-05
      -1.45377426e-05 -3.74194024e-05 2.48001652e-05 3.17932136e-05
      3.00711545e-05 -1.04707233e-05 -1.29026939e-05 -1.34383108e-05
      6.16507486e-06 -1.02918157e-05 -4.39441428e-05 -2.84031903e-05
      -2.24846881e-05 -4.82557371e-05 -2.61558966e-07 2.11158252e-07
      3.08888812e-05 1.05038998e-05 4.29612055e-06 -3.00376560e-05
      -3.00082120e-05 -1.71847460e-05 2.52671452e-05 1.72025739e-05
      1.15186967e-05 -2.37546155e-05 -3.30651783e-05 -2.13790645e-06
      -9.15438250e-07 -3.29687318e-05 1.57447766e-09 2.06082092e-07
      3.17475788e-05 3.21190309e-05 1.80311545e-07 1.79492617e-05
      7.96091172e-07 2.28489444e-05 -3.35230179e-05 -5.38512613e-05
      -6.18056147e-05 -1.88721569e-05 -1.97957834e-05 -8.37270818e-06
      -2.25677766e-07 3.67404084e-07 -2.02226047e-07 -4.82643429e-07
      -4.34881343e-07 3.10219657e-05 1.10061537e-05 4.57158376e-06
      -9.85179577e-06 -2.43157720e-05 -5.77430183e-06 -2.81613502e-05
      -1.06036394e-04 -7.07929430e-05 1.55243688e-05 7.34383008e-08
      2.25082317e-07 3.21198277e-05 3.18280436e-05 1.53620647e-07
      -3.83591583e-07 3.07909318e-07 -3.28973620e-05 -3.27510097e-05
      2.28451354e-05 2.16906901e-05 2.13685489e-05 -7.49873871e-05
      -6.79549776e-05 -1.86347825e-05 -6.03190301e-06 -1.50367949e-08
      -6.09253902e-07 2.61657846e-07 -6.61003412e-08 -3.57176368e-08
      -1.31114646e-07 -5.91523758e-07 -1.51226607e-06 -1.89310595e-06
      2.89346608e-05 3.53777941e-05 -6.05164387e-05 -1.05828483e-04
      -9.45074644e-05 -3.24664943e-05 3.20613108e-05 3.18916973e-05
      3.20150357e-05 -3.27637608e-05 -3.28305541e-05 -3.25175824e-05
      -2.80535289e-07 3.28282468e-08 -5.56868883e-07 -6.65780391e-08
      2.87248713e-05 3.73678668e-05 -2.69184911e-05 -7.33279958e-05
      -9.37376753e-05 -6.67773747e-06 -1.00508906e-07 -5.37993365e-08
      -3.25016288e-07 -3.24805842e-05 -3.32913842e-05 3.71912648e-07
      5.67914711e-08 1.83153406e-05 1.83272969e-05 2.92535588e-05
      1.34586417e-05 -1.06932248e-05 -2.15665823e-05 -8.70177028e-05
      -9.91645065e-05 -4.28468193e-05 -8.64734034e-07 -2.88336878e-07
      1.35513091e-07 -1.52959373e-07 -7.67162533e-07 -8.97003982e-09
      -3.09322218e-07 2.39715064e-07 1.32770710e-05 7.49263563e-06
      6.94643222e-06 -2.01024941e-05 -4.00024728e-05 -7.84934819e-05
      -9.24666601e-05 -6.72379756e-05 -3.21559419e-05 -8.74735406e-07
      -8.32835880e-08 1.85465633e-05 1.83812899e-05 1.76821377e-05
      1.81752966e-05 -4.85648172e-07 -4.30203472e-05 -5.03384254e-05
      4.42791190e-08 7.89199985e-05 -1.29419923e-05 -4.47875682e-05
      -2.62436915e-05 -6.53362731e-05 -1.71927295e-05 -5.28882879e-07
      -2.90254594e-08 -7.71397950e-08 6.63543688e-07 1.28047332e-05
      1.29597465e-05 6.78649440e-06 5.39889834e-06 -6.62948660e-05
      -6.84942133e-05 -1.05320951e-05 -1.34929078e-05 -3.76069474e-05
      -5.95939964e-05 -4.01252364e-05 -2.20767524e-05 1.79733124e-05
      1.87060141e-05 1.86026700e-05 -3.27025846e-05 -7.62536438e-05
      -1.18730604e-05 1.75425544e-06 5.77170686e-05 5.44228751e-05
      8.63388868e-06 6.84491260e-06 6.18986996e-06 -2.51989586e-05
      -4.14864262e-05 -3.60797349e-05 -4.09956447e-05 -1.70113399e-05
      -6.25580014e-08 1.27977301e-05 7.81900144e-06 -2.56905041e-05
      7.65528239e-06 -4.35344991e-05 -1.44524506e-07 -4.12442932e-05
      -3.13133241e-05 2.92665754e-06 2.78140578e-05 7.14162479e-06
      -3.27785274e-05 -9.77634190e-05 -7.30337779e-05 -4.11687033e-05
      2.12976744e-07 -2.04059631e-07 -1.09878829e-05 -1.15373277e-05
      5.76326456e-05 6.30996001e-05 5.45296498e-05 3.23756854e-06
      -4.12301633e-05 -3.58289435e-05 -2.63902602e-05 -1.78343544e-05
      -2.53407143e-05 -6.88597211e-05 -5.33720195e-05 1.15695584e-05
      6.44708562e-05 7.51926837e-06 -2.07168359e-05 -4.32145935e-05
      3.56414773e-07 4.78744049e-08 -9.91611978e-06 -3.20995714e-05
      -7.01060526e-06 2.90021108e-05 2.75236616e-05 -1.54088266e-05
      -2.83169175e-05 -5.23987474e-05 -4.08607484e-05 -4.05410246e-05
      -4.74964545e-05 -1.13199458e-05 4.55862864e-05 6.32831579e-05
      6.31560542e-05 2.25596250e-05 3.32994523e-06 -4.16416115e-05
      -7.44183126e-05 -3.31748997e-05 2.97983297e-06 -1.77319598e-05
      2.30079695e-05 2.61537643e-05 8.71881930e-05 -2.94306483e-06
      -8.30329809e-05 -6.01914689e-05 -1.44065270e-05 -3.31839728e-05
      -1.42524086e-05 -2.79368232e-05 -3.72051145e-05 -6.15613862e-06
      4.28977874e-05 3.98764569e-05 2.79725627e-05 -2.22974959e-05
      -4.33088971e-05 -3.05812755e-05 -3.66272252e-05 -5.14504645e-05
      -9.03085402e-06 1.02121958e-05 6.30202121e-05 -1.65599931e-06
      -1.00874713e-05 -1.46122266e-05 -4.14433671e-05 -2.81077373e-05
      4.43920762e-05 4.51548367e-05 5.42407324e-05 2.17183442e-05
      5.16784894e-05 3.48953472e-05 -2.06771729e-05 -1.77278343e-05
      -2.29770967e-06 -2.22273757e-05 -1.75715068e-05 -2.59286736e-07
      -1.40091743e-05 -4.13745802e-05 -1.04403962e-05 3.51457566e-05
      4.33718778e-05 3.76210992e-05 1.74403540e-05 -3.71724782e-05
      -5.98585757e-05 -4.38249481e-05 -6.39195321e-07 -1.99371407e-05
      1.00380657e-05 2.24189007e-05 2.23451243e-05 1.00715479e-05
      2.27271794e-05 3.59695287e-06 3.96802534e-06 7.26178114e-05
      8.25486131e-05 3.65280539e-05 1.46439970e-06 -5.95284018e-06
      -3.09740753e-05 9.95986920e-06 3.05852191e-05 2.32770017e-05
      -3.36830885e-06 -2.11110219e-05 -4.06972104e-05 -4.94362794e-05
      -3.55380907e-05 -3.08974522e-05 3.01527925e-05 4.34446774e-05
      3.74835108e-05 4.51995311e-06 -2.70896126e-05 -8.17691398e-05
      -1.67858070e-05 1.37313118e-05 5.08779012e-05 6.33753807e-05
      5.29779682e-05 -8.36886829e-06 -8.66356095e-06 -4.33543755e-06
      -4.09447421e-06 8.10346592e-06 8.15058229e-05 6.90604065e-05
      1.83983138e-05 1.85692115e-05 -4.32159977e-05 -8.17281543e-05
      -3.80386664e-05 3.17704053e-06 3.06976981e-05 3.09143834e-05
      3.07258051e-05 -3.42161775e-06 -5.32286394e-05 -8.19995184e-05
      -8.57442064e-05 -2.22157869e-05 1.14215372e-05 3.71526839e-05
      -1.01482910e-05 -1.49428461e-05 -8.32559635e-06 -3.73819894e-05
      -1.69239593e-05 -1.92662606e-06 3.14285608e-05 -3.25953297e-05
      -1.92658499e-05 4.70966334e-05 9.05562217e-07 -1.32948662e-05
      -7.17735020e-05 6.21721802e-06 1.82747535e-05 1.86860252e-05
      -4.30361797e-05 -4.33780660e-05 -1.47357641e-05 -4.92148756e-05
      -1.71838747e-05 -5.80408732e-06 1.93770120e-05 -2.00075078e-06
      -2.18531914e-05 -7.74900545e-05 -6.47548368e-05 -8.17684413e-05
      -3.56610653e-05 2.64755981e-05 -2.02842628e-07 -5.78485970e-06
      2.84831949e-05 2.70642522e-05 -2.72830312e-05 -3.87609980e-05
      -3.09287680e-05 -2.88425290e-05 4.10725916e-05 5.05616008e-05
      5.05892240e-05 8.51391519e-07 -1.58337407e-05 -6.41851293e-05
      -2.22515519e-05 -8.31235666e-05 -4.29563661e-05 -4.34023277e-05
      -1.28842998e-07 -1.89841444e-07 -5.28501914e-05 -6.15907848e-05
      -6.17887272e-05 -1.30115386e-05 1.94784097e-05 3.04170571e-05
      5.27741213e-06 -3.05975700e-05 -3.67259163e-05 -8.31710440e-06
      -4.08381638e-05 -7.36734219e-05 -6.64362005e-06 5.42681732e-07
      2.10716898e-05 4.99648631e-05 2.33164701e-05 -1.22003667e-05
      7.20346225e-06 3.46208290e-05 4.18242853e-05 2.85102142e-05
      4.30086448e-06 -4.07639200e-05 -4.10881767e-05 -6.04990601e-05
      -8.42408845e-05 -1.16777279e-04 -7.34745190e-05 -3.22328815e-05
      -2.98006142e-07 -5.06092412e-08 -1.75806017e-05 -4.90133680e-05
      -2.87503717e-05 -2.39261099e-05 2.77925756e-05 2.55879495e-05
      -4.35081056e-05 -6.31824441e-05 -5.21642687e-05 1.24492118e-07
      1.96890069e-05 2.29480656e-06 -7.74735963e-06 3.54071672e-05
      4.39491487e-05 6.12396179e-05 6.65504413e-05 1.80777279e-05
      -2.05939141e-05 -3.03630532e-05 5.32429532e-08 -1.48909103e-05
      -7.43451383e-05 -7.38887611e-05 -7.58688620e-05 -4.33395107e-05
      -1.74361921e-05 -4.07801272e-05 -4.09005661e-05 -4.08306732e-05
      -3.09533652e-06 1.10311021e-07 -5.08562471e-06 -8.16671745e-05
      -8.15086678e-05 -4.72340944e-05 2.24117975e-05 -1.07950318e-05
      -1.05327626e-05 -3.26487789e-05 2.91762954e-05 7.26982034e-05
      4.93766674e-05 5.18452616e-05 2.23582701e-05 4.99150410e-05
      4.34837712e-05 2.13101430e-05 -5.18357137e-06 -6.44916654e-05
      -8.13421138e-05 -7.82765783e-05 -1.43156640e-05 -4.17162228e-05
      -8.51399600e-05 -4.35611037e-05 -4.11628562e-08 -1.58498679e-07
      -7.38174677e-08 -3.05585081e-06 -4.08898268e-05 -7.32117405e-05
      -7.35957365e-05 -3.91478825e-05 -4.76865398e-06 -4.85218698e-05
      -4.85706696e-05 -4.01601428e-05 -1.03462653e-05 -5.24857169e-05
      3.30365729e-05 4.75139677e-05 7.48435123e-05 6.95682393e-05
      6.98164658e-05 8.00660273e-05 -2.82507881e-05 -7.33632405e-05
      -4.05920437e-05 -2.20071106e-05 -1.28954007e-05 -3.18584425e-05
      -5.74120713e-05 -6.03910412e-05 -8.52612502e-05 -8.44862589e-05
      -2.63328701e-07 -1.27097977e-07 -3.29528884e-05 -3.23537897e-05
      -3.26206973e-05 -3.15320392e-07 3.16404680e-06 -3.26063528e-05
      -3.44929795e-05 -3.42391140e-05 -1.24196140e-05 -4.27714513e-05
      -4.83105905e-05 -9.40823447e-05 -1.68472507e-05 3.50028604e-05
      5.64153670e-05 6.34469980e-05 9.33992924e-05 8.47058036e-05
      5.45595867e-05 1.11882782e-05 6.87603142e-06 -1.36912477e-05
      -3.42931817e-05 -3.63359577e-05 -2.67723626e-05 -3.96785072e-05
      -1.00548736e-04 -1.24444618e-04 -6.80695230e-05 -2.70161854e-05
      6.13876637e-06 6.06281719e-06 6.30408476e-06 5.88888497e-06
      5.64933680e-06 6.13663906e-06 6.05920559e-06 6.03062654e-06
      -3.22188644e-05 -3.41192681e-05 -2.05038195e-05 -1.28959786e-04
      -9.79886900e-05 -9.79149772e-05 -3.59428736e-06 1.00365643e-04
      1.22642698e-04 9.58143282e-05 5.99634841e-05 4.72967804e-05
      3.35656550e-05 9.06162950e-06 4.52945824e-06 -8.05898981e-06
      -1.63151653e-05 -1.14681992e-04 -1.28946573e-04 -1.05899766e-04
      -7.39752941e-05 -6.56118573e-05 -1.37071665e-05 1.75214143e-06
      2.81886023e-05 6.45498903e-06 3.02588433e-05 3.13143319e-05
      1.01019632e-05 -3.20226973e-05 -2.31537961e-05 7.81241283e-07
      -9.73173974e-06 -2.34387699e-05 -4.87525540e-05 -8.57452033e-05
      -5.06353208e-05 -2.96776398e-05 8.18160333e-05 9.16958088e-05
      9.67727319e-05 8.52738085e-05 8.06054813e-05 6.97920623e-05
      -1.95225566e-05 -1.90283408e-05 -3.92445800e-05 -3.93941118e-05
      -5.16112850e-05 -7.02237085e-05 -5.94137782e-05 -1.09379114e-04
      -1.06540712e-04 -4.23556994e-05 3.84090981e-06 4.03544391e-06
      3.84630766e-06 -2.83228565e-05 2.26003285e-05 2.23252391e-05
      2.22577346e-05 2.29888428e-05 2.32117436e-05 1.58260009e-05
      -2.59241879e-05 1.80802954e-06 8.23942628e-06 -6.06225549e-05
      -5.41175832e-05 -4.19913595e-05 3.05574140e-05 6.23844389e-05
      7.85930097e-05 7.08196749e-05 3.99308628e-05 4.04940511e-05
      -3.49574439e-05 -6.71142188e-05 -6.68811408e-05 4.15292834e-06
      -4.39557152e-06 -5.18158668e-05 -6.93455295e-05 -1.09568449e-04
      -8.51398436e-05 -6.08972441e-05 4.27725081e-06 2.30110327e-05
      2.24862997e-05 2.29690013e-05 2.73675578e-05 2.30432597e-05
      3.28138117e-06 1.78886494e-05 1.53754365e-06 3.02597800e-05
      7.25503851e-05 6.77493517e-05 4.39677024e-05 -2.47146854e-05
      -1.54516110e-05 -2.05705819e-05 -3.41570581e-06 4.91080282e-05
      4.56572925e-05 -5.76250022e-06 2.35716902e-06 -7.67957135e-06
      -2.77912623e-05 3.83887209e-06 -4.66702068e-06 -4.93707148e-06
      -3.68729452e-05 -4.18015334e-05 -5.25193536e-05 -6.79534714e-05
      -6.10246861e-05 -4.50672451e-05 -1.55063317e-05 2.86983868e-05
      2.77853542e-05 9.60711623e-06 2.33674727e-05 2.24595660e-05
      2.86024624e-06 2.62465278e-06 2.47191701e-06 2.22106314e-06
      4.92620238e-05 3.48069880e-05 1.60034306e-05 3.37653946e-05
      1.50152837e-05 -9.29736689e-06 -1.59928150e-05 -1.57770719e-05
      4.67038044e-05 3.29772338e-05 9.30951137e-05 3.37446036e-05
      3.58521243e-06 5.55473935e-06 -2.31407885e-05 -2.75943239e-05
      -3.80127785e-05 3.27868147e-05 2.96319067e-05 -5.31874275e-06
      -4.28325038e-05 -1.78171795e-05 -1.00862726e-05 -4.10667417e-06
      3.87338150e-05 7.30920656e-05 7.33502675e-05 7.35446956e-05
      6.25886605e-06 6.02791215e-06 -2.43360046e-06 -3.32251602e-06
      2.58765540e-05 6.97603309e-06 2.45251449e-05 2.50149915e-05
      3.62801293e-05 3.50326700e-05 -5.68047399e-05 -4.36304799e-05
      1.05372574e-05 6.55366675e-05 5.75633530e-05 2.91173565e-05
      -2.30937476e-05 -1.99329734e-05 -4.75621073e-06 -1.90819828e-05
      1.08966788e-05 -7.12412145e-07 -1.08030972e-05 -2.98482100e-05
      -3.14758399e-05 -2.00529794e-05 -1.33191759e-06 8.55225881e-06
      3.68978945e-05 4.88621554e-05 4.85969395e-05 6.20830224e-06
      6.73306158e-06 -1.20228442e-05 1.44975957e-05 1.46189741e-05
      -9.84969483e-06 3.34829383e-05 3.40995284e-05 2.49273107e-05
      -3.97644908e-06 -3.47232672e-05 1.08116797e-06 -2.03700838e-05
      -3.24180064e-06 -4.61270338e-06 4.70446730e-06 4.79570872e-06
      1.66378777e-05 -1.89541261e-05 1.21017083e-05 8.91613945e-06
      -1.97759728e-05 -1.46445900e-05 -1.45065460e-05 -3.65083361e-05
      -1.83367429e-05 1.74788165e-05 8.76812192e-06 8.84966812e-06
      1.99663718e-05 -1.27851863e-05 -1.24407379e-05 -2.17813231e-05
      -4.76520381e-06 9.11618918e-06 -4.00643830e-06 3.91488247e-05
      4.26306251e-05 2.67316191e-05 2.71817480e-05 4.99692978e-05
      5.55425977e-05 1.97752179e-05 2.06621771e-05 2.40129816e-06
      1.82061183e-06 8.68561528e-06 -2.04924640e-06 2.90918670e-05
      1.85310819e-05 2.19957037e-05 2.17144202e-06 -3.14396166e-05
      -4.37646231e-05 -5.45098374e-05 -2.97530714e-05 -2.54604656e-05
      1.86898865e-06 8.76155900e-06 -7.30074180e-06 -1.00359023e-06
      -3.69215813e-05 -1.27210797e-05 -9.54640382e-06 -6.06431695e-06
      2.57396423e-05 6.12228032e-05 5.21304828e-05 3.59302358e-05
      4.84365482e-05 1.43823227e-05 1.90102546e-05 8.02252771e-07
      4.62967619e-05 2.95589471e-05 1.98591024e-05 -6.25135817e-06
      7.11154235e-06 3.41838459e-05 2.87897183e-05 2.72395482e-05
      1.51910972e-05 1.01340629e-05 -7.08355992e-06 6.26917836e-06
      -3.94207336e-06 -2.28837653e-05 3.03300823e-07 8.31518537e-06
      1.11717336e-05 1.55712987e-05 -8.60066120e-06 2.90290209e-05
      2.48444303e-05 3.53726296e-06 4.35051015e-06 1.85908757e-05
      1.56373917e-05 1.91082017e-05 3.20772997e-05 3.11224721e-05
      2.55985069e-05 2.57264564e-05 2.96777307e-05 2.89103191e-05
      5.04149612e-05 5.02055009e-05 5.63463545e-05 5.17172630e-05
      5.13686646e-05 4.86575191e-05 6.83029575e-05 4.97325927e-05
      5.00318638e-05 1.19390688e-05 -7.05390789e-07 2.51007896e-05
      3.20610052e-05 4.73157961e-05 2.77402396e-05 3.77272263e-05
      3.40375700e-05 2.00414870e-05 4.23689289e-06 4.18710897e-06
      4.34280582e-06 6.95463223e-06 1.16647861e-05 9.01854582e-06
      8.42340341e-06 8.75315709e-06 9.03076398e-06 1.88051981e-05
      1.88416052e-05 1.32518562e-05 3.33472121e-06 3.60111312e-06
      3.45124431e-06 3.41532268e-06 8.96038364e-06 2.24713913e-05
      1.70751155e-05 1.69604937e-05 4.25662620e-05 4.41841985e-05
      3.53222749e-05 3.28523820e-05 9.28784539e-06 -4.94852384e-06
      1.54781465e-05 1.94923559e-05 1.93310789e-05 1.94099612e-05
      -7.15402109e-07 -3.39215126e-06 -2.55600589e-05 -2.60026536e-05
      -2.55571522e-05 -2.84281100e-06 1.00082316e-05 2.07194171e-05
      2.36372198e-05 3.47007631e-06 1.41324099e-05 3.66933477e-06
      3.54624513e-06 3.79666744e-06 3.70705766e-06 3.65875690e-06
      -1.67466931e-06 -1.47446497e-06 3.73972262e-06 4.11070459e-06
      3.71300234e-06 3.83540964e-06 2.03304535e-06 3.28796013e-05
      2.93019730e-05 1.90195915e-05 3.38076970e-05 2.95688787e-05
      3.10877222e-05 2.19564081e-05 2.17998713e-05 1.86773723e-05
      1.85500139e-05 1.85903336e-05 1.84765704e-05 4.50769539e-06
      4.34551475e-06 7.99545796e-06 3.45424778e-05 3.19837491e-05
      3.48425492e-05 3.50959781e-05 3.47579407e-05 3.85765406e-06
      3.72251975e-06 3.57038880e-06 -4.48211586e-06 -4.93433481e-06
      -4.89024478e-06 -4.84236580e-06 -4.17964975e-06 -4.73952286e-06
      -4.85459350e-06 -4.75837260e-06 3.32847594e-06 3.68848328e-06
      3.47762875e-06 1.71189106e-06 1.58004059e-05 1.59553674e-05
      1.77807560e-05 1.75938585e-05 5.30888474e-06 5.39169878e-06
      -2.97901770e-05 -1.98675443e-05 -2.40730187e-05 -2.35593307e-05
      -4.94435299e-05 -1.24436210e-05 -3.23129498e-05 -1.98265643e-05
      -1.72496220e-05 -1.67428334e-05 -1.19968740e-06 2.81291454e-06
      -1.70893486e-06 -3.90258792e-05 -4.00154386e-05 -3.95217103e-05
      -9.52511982e-06 2.58351588e-06 -9.05230263e-06 -1.74761772e-05
      -1.82417625e-06 -3.96877986e-05 -3.91486101e-05 -3.97632139e-05
      1.41619319e-06 1.56633996e-06 1.46064440e-06 1.42438989e-06
      1.49713117e-06 1.62473532e-06 1.37914856e-06 1.54304837e-06
      -1.78461335e-06 -1.96587530e-06 -2.01400826e-06 -1.50224578e-05
      -1.04674700e-05 -1.03367584e-05 3.68375413e-06 1.66912341e-05
      1.64844259e-05 1.62655979e-05 1.88850499e-05 1.90185692e-05
      1.90734936e-05 1.91119307e-05 1.90258834e-05 1.90558803e-05
      1.33598796e-05 1.35077435e-05 8.08320328e-06 3.05055414e-06
      1.47928331e-05 4.47479488e-06 1.86323050e-05 1.90200717e-05
      1.24388980e-05 3.66714107e-06 3.17313879e-06 6.80177163e-06
      4.13052618e-07 1.63344994e-05 1.61600256e-05 1.66916016e-05
      1.19242877e-05 1.51657150e-05 6.15470162e-06 9.24501182e-06
      2.59192370e-06 1.87072801e-05 -6.06874437e-06 -6.16429679e-06
      -6.20290120e-06 -6.25388930e-06 -6.14488954e-06 -6.11343785e-06
      -5.89280216e-06 -6.03652870e-06 -6.02186583e-06 -5.75653439e-06
      1.21684616e-05 9.62816648e-06 1.12124289e-05 1.59160118e-05
      6.86133581e-06 1.36773861e-05 6.41506040e-06 4.89638205e-06
      1.22258289e-05 2.69441589e-05 1.55456855e-05 1.70170115e-05
      1.71680331e-05 5.68295809e-06 5.86593296e-06 5.61897195e-06
      2.35364969e-05 1.17055552e-05 1.68253446e-05 9.93127742e-06
      2.30223923e-05 4.07766638e-05 5.22072223e-05 5.28767196e-05
      -5.15639954e-07 -6.42174246e-06 -5.16064847e-06 -2.37057066e-06
      -6.96543293e-06 4.55199688e-06 4.61726222e-06 4.59016292e-06
      2.88495849e-05 3.41082414e-05 2.22891613e-05 1.94478980e-05
      1.07894957e-05 7.79374568e-06 3.77863507e-05 3.92598522e-05
      1.84093442e-05 2.64027640e-05 3.88728040e-07 8.19848992e-06
      -6.11839505e-06 2.86185805e-05 2.88164520e-05 2.87990824e-05
      5.47013769e-06 2.28625709e-06 5.54047892e-06 1.21867333e-05
      -1.08579025e-05 2.03740783e-05 2.41479538e-05 2.41251964e-05</_>
    <_>
      9.86082753e-08 -2.03517097e-08 1.55454131e-07 3.72330931e-08
      -3.64010084e-08 3.72330931e-08 2.65297274e-07 6.99823204e-08
      1.99571730e-07 5.77237756e-07 1.10762144e-07 -3.49555869e-08
      2.80138693e-07 -2.58588273e-07 -7.22687560e-07 3.54340813e-07
      7.07382668e-08 -4.80561937e-07 -3.95853277e-07 2.41121597e-07
      -4.30621981e-07 8.41192445e-07 6.85336019e-08 -8.05122440e-08
      -4.48927462e-20 -4.48927462e-20 -4.48927462e-20 -4.48927462e-20
      -4.48927462e-20 7.44661861e-08 -4.48927462e-20 4.93041398e-07
      -4.44961152e-08 3.33057926e-07 1.15129076e-07 -4.48927462e-20
      7.66476020e-08 2.58707527e-08 2.64174474e-07 2.15944027e-07
      -1.32862837e-07 -3.09388724e-07 1.84715987e-07 -1.10393805e-09
      -7.62464765e-07 1.02141691e-07 -6.15016290e-07 1.63290508e-07
      4.19154333e-07 -2.89159374e-07 -2.07276898e-07 -4.72302844e-07
      -3.63951045e-07 -1.17806058e-08 -3.53389566e-07 -1.78513233e-07
      -1.42164529e-08 -4.48927462e-20 -4.48927462e-20 -4.48927462e-20
      3.08915816e-07 -4.48927462e-20 -2.61784425e-08 -4.48927462e-20
      -2.76147336e-08 9.86082753e-08 2.57981810e-07 3.76316621e-07
      -5.81351173e-07 1.99931705e-07 2.11126704e-07 3.37939980e-07
      -4.34478631e-09 -3.53178649e-07 3.30305767e-07 -8.18908390e-08
      5.74292081e-08 -1.99236453e-07 -7.17323758e-07 3.39457898e-07
      -3.43851355e-07 1.07386072e-07 1.30706951e-07 -2.21815725e-07
      -1.27430042e-07 1.13281594e-07 -4.48927462e-20 -5.67303928e-08
      1.86165465e-07 -7.15973343e-08 3.94145090e-08 -8.33358627e-08
      3.72330931e-08 -4.61517899e-08 7.66476020e-08 3.72330931e-08
      2.59238031e-09 2.24575984e-07 4.85895100e-07 3.62866388e-07
      1.57687623e-07 3.38565627e-07 -3.83758419e-07 2.02601484e-07
      -3.08788742e-07 -1.02699161e-07 1.20528654e-07 -3.12019466e-07
      -1.67035509e-07 2.48503312e-07 2.81590133e-07 -4.26853319e-07
      3.67174181e-07 1.34707790e-07 -3.18146789e-07 -4.83140582e-07
      -2.93775201e-07 -1.77013177e-07 -1.26713644e-07 -1.41653388e-07
      -1.76315240e-07 -1.07333925e-07 1.19590055e-07 9.86082753e-08
      2.93694979e-09 2.80493140e-07 -1.51467518e-07 2.57002000e-07
      3.59985989e-07 -2.46559580e-07 1.12757917e-07 -2.16221085e-08
      -2.39661995e-06 -2.77858271e-06 -2.96416118e-07 -8.40967687e-08
      4.46296497e-07 1.08027145e-07 -8.39239434e-08 -2.66883490e-07
      1.67151924e-07 -4.83826284e-07 -4.06923760e-07 -9.03332875e-08
      -2.56601282e-07 1.01430146e-07 -1.85843987e-07 -4.05188587e-07
      1.57353366e-08 -2.09523989e-07 -7.49840225e-08 -4.00308124e-08
      -3.76274301e-08 9.96415892e-08 3.66415058e-08 1.24944506e-07
      3.27492309e-08 2.13247603e-07 -4.61728211e-09 3.85369788e-07
      1.53805559e-07 6.20661694e-06 -4.69451408e-07 9.95276969e-06
      6.23134611e-07 1.47629589e-05 6.02701630e-06 -1.56662072e-09
      -4.42928041e-07 5.45640205e-07 1.41490345e-05 7.40726136e-06
      2.94597385e-07 2.46623813e-07 -2.01263865e-05 -2.03657146e-05
      -2.01649473e-05 -5.14588180e-07 -3.89131264e-06 -2.61511360e-07
      -3.50595535e-08 9.75768125e-06 9.30613351e-06 9.17465604e-06
      3.14285753e-05 4.07580810e-05 1.83906486e-05 9.30149054e-06
      1.95981411e-05 6.78179140e-06 1.97861082e-05 -1.74808283e-05
      -1.39303365e-05 8.65933271e-06 2.05695869e-05 2.50390931e-05
      1.56894312e-05 -5.04375821e-05 3.78642872e-05 2.63037800e-05
      -1.02268505e-05 -5.29648350e-05 -3.12984521e-05 -1.65371075e-05
      -2.06705627e-05 -3.40474653e-05 -2.42965325e-05 -2.39984820e-05
      -1.64842641e-05 -1.75634195e-05 -1.42692334e-05 -1.66469817e-05
      1.82172917e-05 1.85925965e-05 2.03089166e-05 2.01723560e-05
      2.58142354e-05 3.50593982e-05 -2.11309252e-05 5.96526161e-06
      8.73595945e-06 8.89660259e-06 9.12291398e-06 1.71395241e-05
      1.71553984e-05 3.21234875e-05 -5.94817811e-06 4.62034541e-06
      5.03724686e-06 -5.09824713e-05 -5.42263160e-06 -4.83270878e-06
      -4.41933616e-06 -1.02082477e-05 -1.23737818e-05 -6.53951138e-05
      -2.14309766e-05 -1.58191342e-05 -6.27198051e-06 -1.50905898e-05
      1.64309131e-05 3.30023198e-07 -3.81404266e-06 5.57860858e-06
      5.70060456e-06 1.47297224e-05 1.65772835e-05 -1.93539363e-05
      -2.12875761e-06 -1.16510228e-05 -1.18649714e-05 -1.59187241e-08
      -1.10943583e-05 3.51918134e-05 5.08018566e-05 5.06051038e-05
      3.98415650e-05 -2.04316711e-05 -8.65702532e-06 -2.79164469e-05
      -2.78546213e-05 -4.65511539e-06 -4.57652550e-06 -4.87251555e-06
      6.48775540e-06 4.33199602e-06 -1.06076805e-05 4.08001106e-05
      2.54747047e-05 1.53185174e-05 1.70089043e-05 1.59850151e-05
      1.65582860e-05 -4.69550656e-07 -1.09659402e-08 -4.00118279e-06
      2.56060703e-05 1.46506409e-05 7.37781966e-06 -3.24545763e-05
      1.42644440e-05 1.41811934e-05 3.45914523e-05 3.42977546e-05
      3.43050851e-05 5.02248331e-05 7.36650036e-05 2.02000119e-05
      4.62345014e-07 -2.41153175e-05 -4.35867514e-05 1.32889215e-06
      -5.60477417e-07 -8.98775113e-07 -2.95185572e-07 -6.90211778e-07
      4.65488665e-05 3.18260463e-05 3.57498611e-05 3.44980690e-05
      1.93702490e-05 1.62635552e-05 1.58786424e-05 1.65274814e-05
      -9.10243216e-07 -1.10359133e-05 -1.16428837e-05 -6.39400332e-06
      -4.63086189e-06 -5.03666924e-05 8.18119588e-06 1.14725153e-05
      2.39569158e-06 1.93903725e-06 5.99786335e-06 -3.19368360e-06
      1.83257380e-05 5.59459804e-05 4.52949134e-05 -2.02717747e-05
      -1.59278479e-05 -2.87288258e-05 -4.91562241e-06 4.60634692e-06
      3.57387544e-05 3.49387847e-05 3.30853763e-05 -8.78019910e-06
      -4.51573760e-06 -9.01136900e-06 -2.59331482e-05 -1.65551519e-05
      -7.64963261e-05 -2.97218739e-05 -1.02877630e-05 3.77319811e-05
      3.95984353e-05 2.30988189e-05 1.22010870e-05 -3.20289619e-05
      -2.22686267e-05 -2.75876228e-05 -2.78115385e-05 -1.83676402e-05
      -4.22101579e-07 2.71738713e-07 -5.14743670e-06 1.94360855e-05
      7.60641269e-05 6.64522013e-05 5.00534625e-05 -1.86305770e-05
      -3.06772490e-05 -2.04455373e-05 3.44911246e-06 9.14166307e-08
      -2.20401276e-07 -1.97792015e-05 -1.92312218e-05 -1.78151859e-05
      -3.13143346e-06 1.74151262e-06 -5.98838096e-06 -1.82032763e-05
      1.18075532e-05 9.98449195e-06 -4.46635113e-06 2.63922284e-05
      1.73917106e-05 2.22058970e-05 -1.62591987e-05 -2.40230438e-05
      -3.01216660e-05 -4.39666510e-05 -4.83402109e-05 -4.04856328e-05
      -1.89962102e-05 -9.62475315e-06 -2.05216675e-05 5.55477054e-05
      -3.73388539e-05 3.86189140e-06 -9.24511005e-06 -3.46568527e-06
      -3.45580811e-05 -4.02820478e-05 -4.06098625e-05 -2.04927201e-05
      6.07527539e-08 -2.54887709e-07 9.37360824e-07 -2.14294255e-06
      1.16769952e-05 9.63105890e-07 -3.36467838e-06 -4.03267404e-06
      -1.66149709e-06 -1.66444261e-06 2.20569564e-05 5.57268436e-07
      -4.81475718e-06 -2.35811021e-05 -2.39127749e-05 -2.07947942e-05
      -2.04517492e-05 -3.64411571e-05 -4.05188512e-05 -2.38209559e-05
      -1.37069437e-05 4.04740149e-06 -4.88718360e-05 -4.82363866e-05
      -5.67695388e-05 -6.00415478e-05 6.26411847e-08 1.30812950e-07
      -9.30381177e-08 1.76488371e-07 -1.69007908e-05 -2.08933416e-05
      -2.01428120e-05 1.80964878e-06 7.36912489e-06 1.26808081e-05
      2.11474944e-05 3.49755355e-05 -1.85151021e-05 -1.46351722e-05
      -2.00995601e-05 -2.02021001e-05 -1.55293336e-07 1.49763125e-07
      -5.21947321e-08 7.39511870e-06 -1.88013004e-07 -5.63125786e-06
      -2.08175788e-05 -2.01486037e-05 -4.03976373e-05 -4.35273614e-06
      -5.02621442e-05 -6.63261453e-05 -4.32911766e-05 -6.28895286e-05
      5.26174517e-06 3.53805461e-07 1.75870795e-07 -3.66220291e-07
      -4.74697828e-08 1.47281183e-08 -4.41853167e-08 -1.71666434e-05
      -2.07075227e-05 1.05908557e-05 8.40491630e-05 3.21251428e-05
      -4.34370413e-05 -5.42737180e-05 -2.40606823e-07 -1.43734866e-07
      6.07733028e-08 2.83014515e-07 -2.94373734e-07 -1.13106140e-07
      -4.99719192e-07 3.33630879e-07 -2.05413253e-05 -2.00018385e-05
      5.85812677e-06 3.07049340e-05 -9.20116508e-06 -9.95713781e-05
      -8.78809296e-05 -8.19495326e-05 -1.11090922e-05 3.80635157e-07
      -2.01546356e-07 -3.17506561e-07 5.71377079e-08 -1.86709215e-07
      4.45610482e-07 -2.49747160e-07 -1.05258378e-05 2.04475782e-05
      4.56582347e-05 8.93423930e-05 -3.82149774e-05 -5.54724393e-05
      -2.63719157e-05 -2.89906147e-05 1.82202740e-07 -5.76017012e-09
      -2.35208873e-07 -2.02593455e-05 -1.99494425e-05 -2.00483555e-05
      -1.93614895e-07 -1.04457229e-07 2.26734719e-05 5.10505233e-05
      5.40870315e-05 -8.28747488e-06 -1.13628936e-04 -1.54483670e-04
      -7.71165869e-05 -3.87634600e-06 1.51992424e-07 1.30912113e-07
      -1.43958658e-08 -1.96821165e-05 -2.39240126e-06 4.07202097e-05
      4.06790459e-05 4.06570362e-05 3.12506490e-05 8.36476102e-06
      3.24119028e-05 -2.10055696e-05 -3.62997821e-06 -4.31707012e-05
      -1.07708445e-04 -2.71067620e-05 -1.99624610e-05 6.10250406e-10
      3.35921328e-07 -2.24979459e-07 -2.99068631e-07 -2.50649066e-07
      2.86456016e-05 5.08788471e-05 5.49322576e-05 9.12531959e-06
      -4.24972386e-05 -1.09790832e-04 -9.39285237e-05 -7.79359398e-05
      -6.45006585e-05 -4.39635514e-05 -1.17198761e-06 3.98210432e-05
      4.09821005e-05 4.02473270e-05 4.04333805e-05 2.16039498e-05
      2.41556023e-07 1.43211710e-05 -2.35448169e-05 1.28225747e-05
      1.56800234e-05 2.26174780e-05 -6.43497515e-06 -9.32359908e-05
      -4.46214108e-05 -1.31297229e-05 -3.74811839e-06 -1.12042898e-07
      6.10240795e-06 1.63134937e-05 4.81712741e-05 5.11846629e-05
      5.40521833e-05 2.70706164e-06 -4.47827952e-05 -6.63948449e-05
      -8.37690532e-05 -6.37460907e-05 -3.62886858e-05 -5.13158760e-08
      -4.06238314e-06 1.47812989e-05 2.03232503e-05 3.13926903e-05
      2.49812331e-08 3.58987990e-07 -2.02874126e-05 -5.16762884e-05
      -3.18797502e-05 -2.31926060e-05 7.85677476e-05 3.56004275e-05
      1.48479558e-05 -4.77120266e-05 -6.62548264e-05 -2.41743346e-05
      -4.11943111e-05 -7.64781726e-06 2.46773061e-06 2.13159328e-05
      5.13146479e-05 5.41399531e-05 2.83965146e-05 -3.61416060e-05
      -4.28566855e-05 -4.59308212e-05 3.09411225e-05 -2.29803009e-05
      -2.31386584e-05 -1.24044627e-05 2.72933976e-05 1.61958778e-05
      -3.58113066e-05 -6.18283084e-05 -4.07353109e-05 -2.08186921e-05
      -2.29382849e-07 -6.32137869e-07 -2.30285968e-05 -1.56116621e-05
      7.87120371e-05 7.82082716e-05 3.59774604e-05 -3.92191178e-05
      -5.54736216e-05 -4.68635080e-05 -4.31132048e-06 -7.71805026e-06
      -7.95368214e-06 -2.65087056e-06 1.11561758e-05 4.55526206e-05
      3.55450575e-05 -1.57186842e-05 -2.39748279e-05 -1.49000016e-05
      4.04430648e-05 4.03544109e-05 -1.33917201e-05 -2.26753564e-05
      -4.14236929e-05 -2.02152587e-05 -1.31508632e-05 -2.33569863e-05
      -8.08113600e-06 -2.44118601e-05 -4.90859247e-06 -4.55613554e-06
      -3.07205810e-05 -9.63876482e-06 3.58995385e-05 7.88548568e-05
      7.88496109e-05 2.13009862e-05 8.62954766e-06 -1.19535462e-05
      -3.17527483e-05 3.11322947e-05 4.31104163e-05 3.09007992e-05
      3.99921119e-05 4.42526762e-05 6.38264828e-05 3.77538345e-06
      -2.54508250e-05 -9.11016832e-06 3.69484951e-05 2.03687669e-05
      2.06257773e-05 -6.45015025e-05 -6.40635553e-05 -5.29367790e-05
      4.42892940e-07 -7.47188039e-07 9.29269117e-06 -2.93766493e-06
      -2.87203511e-06 1.61971329e-05 -3.09597453e-05 -2.99032781e-05
      5.76912898e-05 5.85989801e-05 7.88274629e-05 5.78117688e-05
      4.86227473e-05 8.51120092e-07 -8.61824810e-06 -8.30720273e-06
      5.45033872e-05 6.45474793e-05 7.46529040e-05 7.16348077e-05
      5.61943052e-05 5.11787403e-05 -2.50945086e-05 -4.18974414e-05
      1.97906920e-05 2.00211998e-05 5.82183111e-06 -4.25652985e-07
      -5.34343126e-05 -6.35036267e-05 -6.34090102e-05 -4.23814868e-07
      1.87137431e-07 6.88224475e-07 3.17641498e-05 5.81339882e-05
      8.84843575e-06 1.33853982e-05 5.88696857e-05 3.80876590e-05
      5.82838147e-05 6.80430749e-05 8.08184341e-05 4.24743957e-05
      -1.15808189e-05 -8.76114973e-06 1.08331562e-06 6.44404572e-05
      6.40618164e-05 4.36512928e-05 1.74448487e-05 8.36636900e-06
      -3.82136168e-05 -2.72128618e-05 4.06711697e-05 1.83496759e-05
      -8.12319195e-06 -2.10666658e-05 -2.05456745e-05 -3.70541275e-05
      -6.39445061e-05 -6.39344653e-05 -1.79451067e-08 -6.36225508e-08
      -1.68666588e-07 7.24720894e-06 -1.55595103e-07 -1.66633399e-05
      5.46418487e-05 5.96543068e-05 7.83838550e-05 7.89032201e-05
      6.17313053e-05 5.78650652e-05 2.76109313e-05 -5.15569482e-05
      -6.14903984e-05 -2.89559557e-05 5.41512090e-05 5.49854085e-05
      3.95137395e-05 3.30997391e-05 -4.79705486e-05 -6.08102928e-05
      -1.47551345e-05 5.78698700e-06 8.83521079e-06 1.97518744e-07
      -4.30239737e-08 -1.71248703e-05 -5.41163790e-05 -8.45722461e-05
      -8.76083286e-05 -2.06442164e-05 -2.01764124e-05 -2.37170411e-07
      -2.39067194e-05 -3.29361756e-05 9.72957082e-07 -1.49329508e-05
      -1.91135750e-05 5.75256236e-05 7.86187375e-05 5.83926085e-05
      5.84326845e-05 6.20961655e-05 -1.25224296e-05 -4.19393473e-05
      -5.82268913e-05 4.91378960e-05 5.48067983e-05 5.54873877e-05
      -3.66699969e-05 -1.38253281e-05 2.93378143e-05 1.65906968e-05
      -2.41220350e-05 -1.26075611e-05 -3.62266746e-06 -2.02979263e-05
      -2.00859231e-05 -5.32148006e-05 -8.09963749e-05 -8.45281247e-05
      -2.12047999e-05 -3.46295042e-06 -4.63040415e-05 -4.64159639e-05
      -2.45769399e-07 -2.50539892e-06 -2.45941537e-05 -4.00203826e-05
      -1.88751510e-05 -8.03689454e-06 1.31439319e-05 7.88702455e-05
      7.80669798e-05 3.00929569e-05 -1.24261242e-05 -4.96480243e-05
      3.40088154e-05 -1.15017510e-05 3.82503931e-05 -4.41296424e-06
      4.06926265e-05 3.20820254e-05 -3.15585676e-05 -4.42159653e-05
      -4.43919998e-05 -1.97202025e-05 -3.68700762e-06 -5.42907628e-07
      -2.34745294e-05 -6.44337488e-05 -6.38019264e-05 -1.71714528e-05
      -6.68502616e-05 -8.66119735e-05 -2.36187934e-05 -1.97908321e-05
      -1.19649087e-07 -2.94955930e-06 -2.49385221e-06 -2.41601574e-05
      -1.86024772e-05 -1.55775306e-05 5.60058288e-05 7.87661993e-05
      2.54024071e-05 1.32857704e-05 -3.72643481e-05 3.10942887e-05
      2.91937267e-05 -1.84752553e-05 -9.68107179e-06 -1.94979475e-05
      -1.13408483e-08 -5.73776369e-08 -1.15778976e-05 -2.41065300e-05
      -2.43588765e-05 -1.97216450e-05 -9.02547512e-08 -2.35344778e-05
      -8.41183064e-05 -8.42689187e-05 -6.61951126e-05 -4.57204551e-05
      -1.69432678e-05 -2.04394491e-05 -2.11527677e-05 -3.45148419e-06
      4.42129391e-08 -2.55809687e-06 -2.13474596e-06 -2.40723639e-05
      -2.41676535e-05 2.67666983e-05 6.32234078e-05 2.45048759e-05
      4.14908354e-05 2.59965018e-05 2.96748512e-05 1.54682839e-05
      -9.35594562e-06 -2.05967717e-05 -2.04475218e-05 -1.96579331e-05
      -1.41705115e-07 -1.72657707e-07 -5.01886279e-06 -4.43085337e-05
      -4.46287704e-05 -3.30239673e-05 -2.36332689e-05 -6.42181985e-05
      -6.37307821e-05 -4.62145290e-05 4.40016557e-08 1.50109400e-07
      7.10803008e-08 -1.68323331e-05 -2.07610447e-05 -2.04486878e-05
      -9.46523232e-06 -6.31469766e-06 -2.38620100e-06 -4.04423445e-05
      -4.41924421e-05 3.65407686e-05 7.23786434e-05 1.09860797e-04
      6.81364099e-06 6.61667059e-07 -5.07609776e-08 1.60945191e-07
      -7.21388860e-09 -5.92579408e-06 -2.04919761e-05 -4.07238076e-05
      -4.07692060e-05 -3.73201219e-05 -4.54658675e-06 -2.42792976e-05
      -2.41620510e-05 -3.64697880e-05 -6.42934101e-05 -1.08647037e-04
      -9.77078798e-06 1.64502794e-07 -5.49312801e-07 4.28112912e-07
      2.77320584e-08 -2.35304000e-07 -3.68213805e-05 -4.07686348e-05
      -2.01612893e-05 -2.30688129e-05 2.92860441e-05 2.63346410e-05
      4.06343497e-05 9.60224570e-05 2.33140527e-05 5.25146788e-07
      5.97174088e-09 4.42921788e-08 -2.00893119e-05 -1.92673178e-05
      -1.97196550e-05 2.75498593e-07 -5.89125011e-06 -2.12015075e-05
      -2.09971131e-05 -2.03544441e-05 -1.30219669e-05 -2.41819253e-05
      -4.16392104e-05 -1.22590936e-04 -6.38972197e-05 -1.02145068e-05
      -1.97376576e-05 -2.00133600e-05 -1.99464630e-05 7.68282007e-08
      2.48144403e-07 -1.67872557e-07 5.73495015e-07 2.07494086e-05
      2.01382445e-05 2.33886149e-05 2.13814674e-05 4.01317993e-05
      9.65115760e-06 -3.66473216e-07 -5.21145603e-06 -2.02512292e-05
      7.34186528e-07 7.74460815e-08 2.24511567e-07 3.23991344e-07
      -9.36041857e-08 5.81644997e-07 -5.60305047e-08 3.11333570e-05
      -1.19610086e-05 -2.03102682e-05 -8.59950342e-06 -1.07768807e-04
      -9.79351753e-05 -1.07390493e-04 -4.47484454e-05 -1.65800191e-08
      1.68849709e-07 -1.93008461e-07 1.76717961e-07 1.42240113e-08
      3.14356876e-05 4.11472902e-05 4.07326988e-05 4.67485843e-05
      -5.19312334e-06 -3.40906299e-05 -2.99661406e-05 -7.46514070e-06
      1.75243313e-05 -6.65793641e-06 -9.79036577e-06 2.25646161e-07
      4.23015649e-07 -9.74999708e-08 1.71768505e-07 9.24980577e-06
      3.11331569e-05 -1.07515270e-05 -1.06150710e-05 -2.01968960e-05
      -3.80148572e-06 -4.09861459e-05 -2.93651447e-05 -1.08582717e-04
      -9.08926595e-05 -6.49676367e-05 -4.99174075e-06 3.68442755e-07
      -1.06419030e-07 4.01737489e-05 4.07068474e-05 4.08036431e-05
      1.06674852e-05 -1.36332728e-05 -3.10093201e-05 8.63176865e-06
      8.54782593e-06 9.09441042e-06 -4.69857980e-07 -2.59272820e-05
      -2.88429201e-05 -2.15989658e-05 -1.33001450e-07 5.50612356e-07
      9.27210021e-06 1.16080828e-05 4.09553722e-05 3.11670119e-05
      8.30610770e-06 6.26813005e-07 3.97039548e-05 5.45056755e-05
      8.56720089e-06 -1.63089935e-05 1.95956709e-05 -7.38250383e-05
      -7.81336130e-05 -6.27639092e-05 2.69392567e-05 4.13772323e-05
      3.99466589e-05 3.09756033e-05 -4.57396197e-07 3.26682712e-05
      5.15167358e-06 -1.09406346e-05 -3.60234208e-06 3.01269210e-05
      2.38267403e-05 1.26702662e-05 -1.00866982e-05 -2.52326972e-05
      -3.63264044e-05 -3.09481948e-05 3.19877545e-05 4.09279310e-05
      3.13508099e-05 3.85814565e-05 3.11340118e-05 8.88159684e-06
      1.88772901e-05 6.03463996e-05 1.81727119e-05 1.77664115e-05
      6.11403884e-05 8.22352158e-05 5.37415763e-05 -7.17243211e-06
      -1.35221499e-05 1.13078977e-05 3.13740293e-06 1.11025302e-05
      4.07544621e-06 -2.48278520e-05 8.67242215e-06 8.66400660e-06
      8.39250333e-06 2.59424069e-05 -9.08177390e-06 2.15160999e-05
      1.50463411e-05 1.21918692e-05 4.28467001e-06 -3.14699100e-05
      -1.26284513e-05 3.15321859e-06 2.10151302e-06 3.13885321e-05
      3.17475206e-05 3.15517609e-05 4.14950773e-05 4.69996849e-05
      5.04926320e-05 4.93113766e-05 4.12725203e-05 6.40912986e-05
      5.00606475e-05 4.33009009e-05 -9.10157996e-06 -1.01072228e-05
      -8.87055376e-06 -2.12242030e-05 -1.58574931e-05 2.76635983e-05
      -6.07666107e-06 1.71532301e-05 7.11443499e-05 3.19032479e-05
      3.30612966e-05 2.09835616e-05 1.47701166e-05 1.51819131e-05
      1.58218591e-05 2.05997276e-05 -3.40559313e-06 -1.45683071e-05
      -9.79913875e-06 3.95070765e-06 1.09239900e-05 1.10039209e-05
      3.05181129e-05 5.05790522e-05 6.26770634e-05 8.70839649e-05
      4.61942436e-05 1.41292376e-05 6.47077377e-06 -1.09543362e-05
      1.97787867e-05 5.46002157e-05 3.33973221e-05 6.22580701e-05
      6.41132283e-05 5.60324115e-05 -7.84791882e-06 -3.18710249e-06
      4.61185409e-05 1.67077033e-05 1.65468682e-05 -4.92942434e-07
      4.31406352e-06 1.46039838e-05 1.51419426e-05 2.46446525e-05
      3.30584990e-05 -4.01474063e-06 -3.14901336e-05 -1.21138164e-05
      -9.75784133e-07 1.05372728e-05 2.02337105e-05 2.05212109e-05
      4.08608612e-05 4.45344995e-05 4.52110726e-05 -1.01765586e-07
      5.30947716e-07 5.12313727e-06 2.13935637e-05 3.67466964e-05
      3.41465020e-05 6.77794451e-05 9.51639013e-05 5.63865797e-05
      -2.13517196e-05 -3.80332640e-05 -1.71110223e-05 -2.24989581e-05
      -2.30699461e-05 -1.45542635e-05 -1.40574948e-05 4.75389606e-06
      3.55161610e-05 2.72665038e-05 9.43624400e-06 -3.60169201e-06
      -7.96257518e-06 -1.50892974e-05 -5.85358248e-06 8.59387546e-06
      1.16350539e-05 1.45926142e-05 -2.09699192e-05 -2.09157442e-05
      -6.02260388e-06 -1.94945114e-05 -1.04681467e-05 3.13017210e-07
      5.76472621e-06 8.71903558e-06 3.60103513e-05 7.63001153e-05
      8.03543953e-05 6.84660554e-05 5.52528763e-05 5.56155137e-05
      2.48030829e-05 4.39612995e-06 2.03207014e-06 -6.91231264e-07
      -9.32594230e-06 -5.75163256e-07 -7.00566886e-07 2.93182438e-05
      4.86708723e-06 -1.16140855e-05 -2.23785969e-06 -1.96977162e-05
      -1.97971494e-05 -1.93815304e-05 -2.95569826e-05 -1.91448307e-05
      -3.72651739e-05 -3.48611611e-05 -2.85827555e-05 -2.12850500e-05
      -6.94438995e-06 1.90245100e-05 7.62870923e-06 2.90805256e-05
      4.26336846e-05 3.89860397e-05 3.98928059e-05 -1.31268587e-06
      2.58746040e-05 3.59148362e-05 3.62609280e-05 -4.36001937e-06
      1.06887037e-05 -7.79967948e-08 3.53694236e-06 -1.80391737e-06
      -6.39906057e-06 -1.86959987e-05 -2.30045516e-05 -2.52459977e-05
      -1.33197746e-05 -2.18731584e-05 -1.83323500e-05 -2.67439173e-05
      -2.48317319e-05 -2.23805746e-05 -1.83814755e-05 -1.54138324e-05
      -1.55102498e-05 -1.95772209e-05 -2.00000432e-05 -1.98768739e-05
      -1.21879175e-05 -6.25445227e-06 2.69551256e-05 7.38115114e-06
      -2.78930793e-06 3.07113828e-06 2.87016519e-06 2.67780092e-06
      -2.00083432e-05 2.32250313e-05 3.71237875e-05 -2.85487999e-06
      6.81472102e-06 6.70554846e-06 2.31044760e-05 2.27498276e-05
      2.41395264e-06 -4.39533278e-06 -4.30890486e-06 -1.07120622e-05
      -1.24350126e-05 -2.48179713e-05 -3.04284204e-05 -1.25844299e-05
      -9.72209546e-06 -9.58502915e-06 -9.54920415e-06 -2.50741255e-06
      -8.43555154e-06 -1.22179226e-05 -2.32299499e-05 -2.30967598e-05
      -1.21848243e-05 -6.27158170e-06 -6.49525464e-06 -2.73436285e-06
      -3.22678079e-06 -2.21646906e-06 -2.17930801e-06 3.25159158e-06
      4.56458183e-05 3.38451282e-05 1.71624706e-05 1.73700155e-05
      1.75340156e-05 1.71850697e-05 1.69942286e-05 -2.61121500e-06
      -2.17260754e-06 -3.21158814e-06 -4.91861465e-06 -1.24583157e-05
      -1.23964164e-05 -1.25418301e-05 -1.20815657e-05 -1.60403706e-05
      -2.79176857e-06 -2.38079065e-06 -2.68263466e-06 -2.54351175e-06
      -2.47853814e-06 -8.78134688e-06 -1.20696668e-05 -2.31186004e-05
      -1.17428417e-05 -6.30783006e-06 -6.27863210e-06 -2.73474188e-06
      -2.61047785e-06 -2.68204417e-06 -2.98600548e-06 -2.69637871e-06
      4.02222613e-05 -2.24927089e-06 -2.80809377e-06 -1.50396017e-05
      -2.56465264e-05 -2.55635459e-05 -2.78446578e-06 -2.68263466e-06
      -2.54784550e-06 -2.36631581e-06 -5.09823531e-06 -5.24023790e-06
      -4.98850568e-06 -1.22596703e-05 -5.40699921e-06 -5.45441844e-06
      -2.21855271e-06 -2.70298642e-06 -2.77880895e-06 -1.95552893e-05
      -1.96379096e-05 -1.95606117e-05 -1.95412049e-05 -2.31778195e-05
      -2.30056612e-05 -5.80939559e-06 -2.54670204e-06 -2.40844474e-06
      -2.69246243e-06 -2.63250922e-06 -2.30311321e-06 -2.88757474e-06
      -2.53109238e-06 -2.42306078e-06 -1.15524999e-05 -1.13598326e-05
      -1.17256941e-05 -1.15721714e-05 -1.16397305e-05 -1.17731033e-05
      -1.18700864e-05 -1.16463689e-05 -2.89486388e-06 -2.72937950e-06
      -2.85403507e-06 -5.61710840e-06 -1.16017391e-05 -5.21895709e-06
      -2.69484985e-06 -2.75941784e-06 -2.59345506e-06 -2.72259308e-06
      -3.97654221e-05 -2.91442975e-05 -2.52977025e-05 -3.66018867e-05
      -5.37546985e-05 -1.17710488e-05 -4.44751386e-05 -4.31430781e-05
      -4.05615210e-05 -3.99734636e-05 -2.36720934e-05 -1.93713222e-05
      -1.84913438e-06 -4.19719909e-05 -4.22527155e-05 -4.15933646e-05
      -5.80299002e-06 7.94210337e-06 -6.67594122e-06 -1.85892022e-05
      4.35024140e-06 -4.19932621e-05 -3.61810853e-05 -3.56778473e-05
      7.39968073e-07 2.75079515e-06 6.91768946e-07 2.37939344e-06
      -7.64641754e-07 6.79765708e-06 6.52867357e-06 6.70321924e-06
      8.10569782e-06 1.00511115e-05 2.59983153e-06 -1.94838390e-06
      -2.88259503e-06 -7.25610391e-07 7.49707306e-06 1.08805198e-05
      -1.39485542e-06 3.87657707e-07 6.23885126e-06 7.74786440e-06
      5.33395178e-06 1.08806153e-05 1.07997857e-05 1.07246578e-05
      2.15768232e-05 2.32203765e-05 1.21238136e-05 7.40218002e-06
      2.41884809e-05 1.21139255e-05 2.87349103e-05 3.00505817e-05
      8.01288752e-06 1.45852164e-05 9.79712240e-06 1.44884680e-05
      6.38474921e-06 2.58087330e-05 2.58502205e-05 2.60237339e-05
      2.00439590e-05 2.43894574e-05 9.64517494e-06 1.22842330e-05
      8.02986051e-06 3.38220743e-05 2.77906602e-05 2.77648815e-05
      -1.34576950e-07 6.39532459e-07 -6.50566960e-08 2.60396433e-07
      -6.13993564e-07 2.16133981e-06 2.19583853e-06 2.29405236e-06
      1.48903910e-05 1.50735132e-05 4.02707519e-06 3.01064392e-06
      8.59064676e-06 5.14654448e-06 3.03639172e-05 3.14495082e-05
      1.23947366e-05 2.29736688e-05 6.66452797e-06 1.21114635e-05
      2.30522437e-06 2.55657669e-05 2.56681487e-05 2.56707117e-05
      3.25521942e-05 2.97739643e-05 1.52281827e-05 5.85392172e-06
      2.83921745e-05 2.56515104e-05 7.02252728e-05 6.73325339e-05
      9.81315588e-06 2.77594427e-05 1.38423431e-07 1.44425458e-05
      -1.06119433e-05 4.93720327e-05 4.97690780e-05 4.96733119e-05
      3.83056649e-05 5.30803954e-05 1.85571480e-05 1.64112971e-05
      7.43253759e-06 3.42063104e-05 5.99766609e-05 6.13606026e-05
      1.39549493e-05 2.11473489e-05 2.00061163e-06 8.89860712e-06
      -3.64862308e-06 2.62157100e-05 2.63797683e-05 2.63737784e-05
      1.35237315e-05 1.78531973e-05 1.31722263e-05 1.74595298e-05
      -1.61988999e-06 1.90415267e-05 2.64682531e-05 2.71101198e-05</_>
    <_>
      1.22819777e-20 -4.38796590e-08 -9.83788553e-08 1.22819777e-20
      -9.86124391e-08 1.22819777e-20 -6.58194921e-08 1.22819777e-20
      -5.58568161e-08 -1.30379149e-07 2.81951230e-07 3.93566317e-08
      1.22819777e-20 -3.25710054e-08 -4.70102407e-07 1.14938175e-07
      2.59557638e-08 -5.44766976e-07 4.45229347e-08 -8.43590584e-08
      5.02528543e-08 2.70723490e-07 7.03318577e-08 -9.80618164e-09
      1.22819777e-20 1.22819777e-20 1.22819777e-20 1.22819777e-20
      1.22819777e-20 1.22819777e-20 1.22819777e-20 1.22819777e-20
      -6.55859083e-08 1.22819777e-20 -4.38796590e-08 1.22819777e-20
      -1.53824772e-07 7.20304385e-08 -1.60916969e-08 -1.26602359e-07
      -1.54146193e-07 -2.24125927e-07 -1.74637776e-07 -7.72243567e-08
      -2.91109956e-07 -1.00341467e-07 -1.36829257e-07 -1.66714329e-07
      -1.28502975e-07 -3.15856823e-07 -1.04916843e-07 -2.03661315e-07
      2.22171494e-07 -1.40397233e-07 -6.13770013e-08 -1.96873771e-07
      -4.37694432e-08 1.22819777e-20 1.22819777e-20 1.22819777e-20
      1.22819777e-20 1.22819777e-20 -1.75291248e-07 1.22819777e-20
      -1.09465567e-07 1.22819777e-20 -5.47327836e-08 -3.27929541e-08
      -9.03395190e-08 -7.66726131e-08 5.05135063e-08 -2.78334653e-07
      1.53300562e-07 -2.15920210e-07 -7.23679392e-08 -8.34258529e-08
      8.26433890e-08 -1.16258221e-07 -1.53424224e-07 2.41901319e-07
      -1.14213172e-07 -1.28321162e-07 8.10699952e-09 -4.98772081e-08
      -4.79634110e-08 -1.39232043e-07 1.22819777e-20 -1.08552250e-07
      1.22819777e-20 -8.33407086e-08 -1.53824772e-07 -1.53824772e-07
      1.22819777e-20 -7.69123858e-08 -1.53824772e-07 1.22819777e-20
      3.11834953e-07 -2.19398295e-08 1.22819777e-20 3.77667163e-07
      -4.10170564e-08 -1.16795469e-07 1.10290735e-07 -1.09599945e-07
      -2.71219534e-07 -1.20752803e-08 2.20799564e-07 -4.82553801e-08
      -8.01111071e-08 5.57011845e-07 -1.63477722e-07 -1.23747938e-07
      5.42096757e-07 -3.09704319e-07 -8.80073401e-08 2.10807244e-07
      -4.28139884e-07 -5.34754783e-08 -1.49784839e-07 -1.88502852e-07
      -9.46944425e-08 -1.44264860e-07 -3.12334301e-08 1.22819777e-20
      -1.09705340e-07 -7.69123858e-08 -2.04981816e-07 1.22819777e-20
      -1.42731878e-07 -1.37468945e-07 2.89866676e-07 -2.03288437e-07
      -5.64154061e-06 -5.58337615e-06 4.03952015e-07 -3.24514247e-08
      1.07687079e-07 -2.04319164e-07 3.35359090e-07 -2.06388250e-07
      -1.19428293e-07 8.26901925e-08 -2.18081155e-07 -2.70259584e-08
      -1.25099803e-07 -2.16440810e-07 -1.16512325e-07 -3.29710019e-07
      -1.03159600e-07 -2.24459498e-07 -4.62591316e-08 -1.14638176e-07
      -2.78545151e-08 3.37222588e-07 -4.53059386e-07 1.22819777e-20
      4.51230875e-07 -1.53824772e-07 -1.02963877e-08 -9.83788553e-08
      1.22819777e-20 1.65714624e-07 -3.15668984e-07 6.61993553e-08
      -6.87695376e-08 -9.10088929e-08 4.84270174e-07 4.74397808e-07
      -1.70880583e-07 1.00731668e-05 -1.51072001e-07 -2.74935672e-07
      -4.42774102e-08 1.79233890e-08 -2.19311478e-05 -1.95049051e-05
      -1.96240126e-05 -2.08180296e-07 -1.79847336e-06 -2.82848902e-07
      -1.67768412e-08 -7.64982317e-08 -1.57670982e-07 2.44903390e-07
      -2.62193424e-07 -1.13373552e-07 -1.31673247e-07 3.80842636e-07
      -1.88949613e-07 2.05254073e-05 2.86203685e-05 -1.73016761e-05
      -1.75272908e-05 -1.73661720e-05 -1.72815871e-05 -9.52426035e-06
      -1.16107167e-05 -3.58611123e-06 1.46281700e-05 1.29527089e-05
      -2.15051314e-05 -1.77941765e-05 -6.13804218e-07 -1.63732038e-05
      -1.56313799e-05 -1.59984847e-05 -1.69285959e-05 -1.70632247e-05
      -1.66231766e-05 -1.22163283e-05 -1.11750624e-05 -1.84022974e-05
      -1.26335617e-05 -1.24729613e-05 -1.24548069e-05 -1.71937336e-05
      -2.76381616e-06 -2.57410920e-06 1.11444724e-05 1.12526332e-05
      1.07099686e-05 1.12902962e-05 -1.74331763e-05 -1.76042031e-05
      -1.76261437e-05 -9.40127302e-06 -2.38971243e-05 -2.24295381e-05
      -2.22000162e-05 -3.20093823e-05 -2.95627797e-05 -3.96806681e-05
      -2.56952371e-05 -1.44741343e-05 -2.86013837e-05 -3.81929276e-05
      -3.05398789e-05 -1.42801655e-05 -1.68111947e-05 -1.71736774e-05
      -1.74296965e-05 -2.55685027e-05 -3.38857571e-05 -2.37480435e-05
      -2.36520482e-05 -2.14660140e-05 -2.17296983e-05 -8.25500047e-06
      -6.26431301e-06 -5.98499128e-06 -6.19449293e-06 -2.68788845e-05
      -3.93039190e-05 -2.00886498e-05 -2.02138999e-05 5.38401446e-06
      3.74990668e-06 -1.35901937e-05 -2.22533054e-05 -3.22038250e-05
      -3.33269672e-05 -3.96100040e-05 -3.97111617e-05 -2.81849880e-05
      2.90081903e-06 -1.12022544e-05 -1.66005411e-05 -1.77824404e-05
      -1.81616761e-05 -2.25885633e-05 -1.45091763e-05 -1.47849632e-05
      -1.65143301e-05 -2.50666417e-05 -2.48825818e-05 -5.52688925e-06
      -8.74741318e-07 -1.23726923e-05 -1.22981210e-05 -2.74594568e-05
      -7.70380211e-06 -3.60629674e-05 -1.64187077e-05 -1.73347453e-05
      -9.49743298e-06 1.77132370e-05 2.45716874e-05 2.95468794e-06
      -2.26873126e-05 -3.28044734e-05 -3.33729331e-05 -3.99234668e-05
      -2.03015443e-05 -2.03511881e-05 -6.24910490e-06 4.98249165e-06
      2.61189780e-06 -4.83443182e-06 -7.37470555e-06 -1.67997550e-05
      -2.69790344e-05 -1.23090085e-05 -1.25217248e-05 -1.23742220e-05
      6.44630245e-06 -1.34139018e-05 -3.11873446e-05 -3.82013022e-05
      -2.07735739e-05 -1.52191660e-05 -1.30052995e-05 -9.32864714e-06
      -7.08108564e-06 1.07407341e-05 1.05086483e-05 1.98997932e-05
      1.64950707e-05 1.44395108e-05 -1.79186213e-06 -4.94500346e-05
      -2.21051050e-05 -3.07222253e-05 -4.50438574e-06 -3.95215829e-06
      -4.00882527e-06 1.00932539e-05 1.79666586e-05 -6.17241938e-07
      -7.26687358e-06 -9.57825796e-06 -2.71643821e-05 -5.03163137e-05
      2.22046985e-08 3.20933668e-06 2.27102373e-05 2.29206998e-05
      5.45570310e-06 -9.05059551e-06 -9.50180129e-06 -4.69850784e-05
      -3.17056874e-05 -2.35282077e-05 -1.34705006e-05 -1.22597328e-06
      3.23858221e-05 3.47054411e-05 1.53172023e-05 -3.58153443e-06
      1.60906584e-05 7.80979462e-06 -1.68094757e-05 -5.05113057e-05
      -2.57869197e-05 -1.71941665e-05 -1.13557007e-06 -5.87654199e-07
      2.74242466e-05 8.20157038e-06 2.60356956e-06 -4.99439420e-06
      6.75789170e-06 1.91253330e-05 -4.03425730e-07 6.39637074e-06
      2.47250337e-05 2.85497954e-05 1.09048733e-05 1.10588699e-05
      -1.74846264e-05 3.67030594e-07 -1.03326120e-05 -2.30363876e-05
      -5.43968417e-06 -1.43380394e-05 -8.32696878e-06 -3.45498916e-06
      1.55918933e-05 2.66263414e-05 1.45439017e-05 1.47582841e-05
      -2.04790904e-05 -3.23842069e-05 -2.45865012e-05 -6.95110793e-06
      -3.59085825e-05 -2.26917855e-05 -1.19876413e-05 1.23993486e-05
      2.71659628e-05 2.73762944e-05 4.78802285e-05 3.93761184e-05
      2.76210376e-05 1.05126524e-07 4.26757924e-06 6.46662238e-06
      1.09613638e-05 -1.74286561e-05 5.82838133e-08 4.57799096e-08
      -6.80806261e-06 -2.63230977e-05 -8.64234607e-06 6.49080857e-06
      1.72307482e-05 8.34221828e-06 9.69911071e-06 1.79521921e-05
      2.85654078e-05 1.42834333e-05 -1.35416130e-05 -2.96484377e-05
      -3.73094153e-05 -3.70099187e-05 6.08730844e-08 -1.58716617e-07
      1.43460202e-05 2.54065126e-05 4.58363575e-05 3.90437599e-05
      3.87660039e-05 4.87729958e-05 4.60529227e-05 2.17182551e-05
      -1.70681204e-07 -8.39808763e-06 -3.97592958e-05 -1.75490986e-05
      -1.91982199e-05 -1.97734698e-05 1.94059027e-08 7.79355105e-06
      1.75202313e-05 3.48488065e-05 3.47437272e-05 3.11200856e-05
      1.66753271e-05 9.66745665e-06 1.95083476e-06 -9.87250678e-06
      -2.24433461e-05 -4.14538190e-05 -2.59860026e-05 -1.73362278e-05
      -2.37737183e-07 -7.32980823e-08 8.51970299e-08 5.29621357e-05
      5.61613415e-05 2.74991926e-05 2.56689600e-05 1.68743463e-05
      3.88633707e-05 3.92080728e-05 2.45360679e-05 -4.84451557e-05
      -7.41253534e-05 -5.48249300e-05 7.86225343e-08 -1.97157604e-07
      -2.08284412e-08 7.84989516e-06 1.86320340e-05 2.50446483e-05
      2.38598332e-05 1.36293093e-05 -6.02208456e-06 4.25465396e-06
      2.34153486e-05 1.27743178e-05 -1.17508616e-05 -7.18571318e-05
      -5.49709548e-05 -2.74839585e-05 -3.45213493e-07 -1.33585409e-08
      2.86229733e-05 2.87347557e-05 2.76643514e-05 2.73136575e-05
      2.75197744e-05 2.71573572e-05 3.67639514e-05 3.63739528e-05
      1.78595801e-05 -3.02941407e-06 -4.81821698e-05 -5.59711007e-05
      -4.44019606e-05 -1.47435458e-05 7.75082208e-06 2.79532705e-05
      3.47279201e-05 5.43473152e-06 -5.74919068e-06 -5.78223535e-06
      1.36507824e-05 1.38006762e-05 3.37055899e-05 3.49183720e-05
      2.48691285e-05 -3.29850918e-05 -6.97789656e-05 -7.17958610e-05
      -1.35893024e-05 2.65924446e-05 2.87377461e-05 -1.58385092e-07
      1.40662487e-05 8.00183261e-06 7.65527966e-06 5.63879767e-05
      5.61483430e-05 5.60165790e-05 2.73625901e-05 2.77187792e-05
      1.02115509e-05 -3.08393173e-05 -3.86369029e-05 -5.42579619e-05
      -3.97206459e-05 -2.16031549e-06 5.40755354e-06 7.02285251e-06
      5.92858669e-06 6.10237794e-06 5.66720519e-06 1.36769222e-05
      2.37846689e-05 3.47226269e-05 2.51821020e-05 -1.74375618e-05
      1.11382597e-05 -1.38865471e-05 -1.68519346e-05 -5.05086937e-05
      -5.36639309e-05 -3.85738676e-05 -1.93541400e-05 2.42170481e-05
      5.65575792e-05 5.60355729e-05 2.79160304e-05 2.75029124e-05
      2.71736499e-05 2.74092235e-05 1.00255620e-05 -9.38095309e-06
      -2.36180076e-05 -1.86486704e-06 -2.88976003e-06 -3.80884876e-06
      -8.92828575e-06 -1.77149013e-05 -6.90001389e-06 -3.56349290e-07
      -1.01477767e-07 1.37900024e-05 2.34580402e-05 3.48519716e-05
      2.51665097e-05 1.12369535e-05 5.22087248e-06 -3.69245718e-05
      -3.98895936e-05 -2.04545304e-05 -3.48502217e-05 -2.68579442e-05
      -3.41649902e-05 8.37489188e-06 3.91105023e-05 2.71611279e-05
      2.75401526e-05 2.77229374e-05 8.07212291e-06 -9.57036264e-06
      9.76432057e-06 9.76385854e-06 2.74235063e-05 1.22592328e-05
      1.37767147e-05 1.48667068e-05 -2.41456200e-05 -1.75186051e-05
      -2.67744799e-05 -2.12880113e-05 -1.15302837e-05 3.02796337e-07
      1.76611284e-05 6.37100311e-05 3.41219966e-05 -3.69153895e-05
      -1.74919915e-05 -1.74192191e-05 9.48117673e-09 -2.03120799e-05
      -2.03399886e-05 -1.99020233e-05 -1.49750867e-05 2.26503853e-05
      -6.30146133e-06 -1.26952955e-05 -3.39977887e-05 -1.71607953e-05
      5.83726063e-08 -1.88220852e-07 -1.44692985e-05 1.00834768e-05
      4.49804793e-05 5.23016315e-05 3.11178592e-05 2.31312551e-05
      -9.82616348e-06 -2.01359762e-05 -1.47331466e-05 -1.66865084e-05
      -1.88047889e-05 -2.76991195e-05 7.27219640e-06 5.39045068e-05
      1.74963716e-05 -1.74882007e-05 -1.74507513e-05 -1.74322868e-05
      -1.25753999e-07 9.81817934e-08 -1.19975139e-05 -2.02436513e-05
      -1.12092212e-05 -8.79169966e-06 9.71838199e-06 1.09193888e-05
      1.04153942e-05 -2.11573952e-05 -1.71363481e-05 -1.72736636e-05
      -3.48745707e-05 -1.74557335e-05 3.44119544e-05 6.26988403e-05
      6.24064996e-05 1.24234084e-05 -1.40709119e-06 -2.02897045e-05
      -3.18194834e-05 -1.96928686e-05 -1.28623851e-05 1.96676683e-05
      2.94866059e-05 2.65888866e-05 1.53659967e-05 -3.45639346e-05
      -3.39892795e-05 -2.46826930e-05 -6.71239923e-06 -1.97748632e-05
      -1.96836172e-05 -2.67245309e-06 8.11563314e-06 -2.03384916e-05
      2.50044668e-05 2.75656730e-05 1.46862903e-05 7.73670399e-06
      -1.67964754e-05 -4.10116718e-06 -3.40285987e-05 -3.43759712e-05
      1.04843693e-05 3.44582550e-05 5.45927214e-05 2.42596725e-05
      -2.31365266e-05 -1.17338341e-05 -2.02293213e-05 1.65648962e-05
      2.85979422e-05 3.65999658e-05 7.02408533e-06 1.82204640e-05
      8.22873335e-06 -6.42062969e-06 -3.89463785e-05 -4.67233767e-05
      -1.72638884e-05 1.14502700e-05 2.12042542e-05 2.85975184e-05
      -1.19813221e-05 -2.03280324e-05 -2.03061663e-05 2.46624404e-05
      2.76156279e-05 2.75832317e-05 -1.97038844e-06 -1.47651508e-05
      -3.42374333e-05 -1.10656001e-05 8.27988970e-06 -9.82970960e-07
      1.67930666e-05 1.03187758e-05 1.06204907e-05 2.50637841e-05
      1.68628412e-05 8.44718488e-06 -1.20867790e-05 7.75463832e-06
      1.76484555e-05 1.52912235e-05 4.81517009e-06 -1.65955571e-05
      -3.43063366e-05 -2.41652415e-05 2.87656349e-05 2.66970983e-05
      1.88655831e-05 -1.75462883e-05 -1.72223499e-05 -2.38643224e-05
      -2.03582094e-05 -2.02390547e-05 2.44626608e-05 2.75235834e-05
      1.36866429e-05 -1.96530746e-05 -3.95593815e-05 -2.38410157e-05
      1.82914519e-05 1.39662252e-05 7.75344233e-06 1.67563976e-05
      4.65604899e-05 3.91075519e-05 1.15264875e-05 -2.90034004e-05
      -3.98716147e-05 -3.19798273e-05 1.76821650e-05 3.50042756e-05
      3.47607311e-05 -6.46415828e-08 -2.78547177e-05 -5.68633050e-06
      1.20675604e-05 -6.53155257e-06 -2.02407708e-08 6.27968441e-11
      -8.12279239e-08 -9.81525318e-06 -3.36978301e-05 -3.74195079e-05
      -3.29317554e-05 -2.97733664e-07 8.04296451e-06 1.96390076e-07
      3.19819605e-07 1.63852674e-05 2.50085523e-05 1.01325395e-05
      -9.71914778e-06 2.24738033e-05 4.55984300e-05 3.67415414e-05
      8.18503941e-06 -4.95001450e-06 -2.90984117e-05 -3.00880802e-05
      -1.35882365e-05 3.48271969e-05 3.54291624e-05 5.27311749e-05
      1.14328404e-05 1.10376641e-05 -5.59405771e-06 -1.63670829e-05
      -1.69093819e-05 -1.11903719e-05 -1.86246552e-06 -1.96351739e-05
      -1.94795666e-05 -3.56710916e-05 -1.61315184e-05 -9.79039669e-06
      1.03893462e-05 9.50497997e-06 2.47710432e-07 1.73907047e-05
      3.52201132e-05 4.83281401e-05 1.35114051e-05 -5.51126595e-06
      2.59128283e-05 1.03146131e-05 2.76477986e-05 2.76574592e-05
      1.38629002e-05 -4.07826519e-06 1.45562253e-05 -2.58157706e-06
      4.62475327e-05 1.79641174e-05 1.17161944e-05 -1.74692450e-05
      -9.21830647e-08 7.53144889e-08 -2.50106059e-05 -3.63817344e-05
      -3.63166400e-05 -1.12328917e-05 -2.03460854e-06 -2.69990522e-07
      -7.92251649e-06 7.29948124e-06 7.33409843e-06 1.82953900e-05
      1.10434876e-05 -1.92550451e-05 3.73483963e-05 3.42700696e-05
      5.38916211e-05 3.06804031e-05 -2.55811233e-06 7.59507611e-06
      1.85792778e-05 2.89113286e-05 3.64952029e-05 2.23000698e-05
      2.30438054e-05 4.36546179e-05 4.29606007e-05 2.91486831e-05
      1.30855433e-05 -2.52339833e-05 -8.15420935e-06 -1.93463457e-05
      -1.51320467e-08 2.26721866e-07 -5.58583451e-06 -1.69118630e-05
      -1.69439845e-05 -1.10375331e-05 2.78898824e-07 5.77746505e-06
      -1.23045020e-05 -1.22214742e-05 2.51489473e-05 6.32924348e-05
      5.39295324e-05 4.62641146e-05 4.65976555e-05 4.07458174e-05
      4.77866088e-05 4.18987474e-05 6.48938440e-05 5.84322152e-05
      6.83773105e-05 7.84693038e-05 9.12579999e-05 5.17382359e-05
      2.36872438e-05 1.37655607e-05 1.06788348e-05 3.02783355e-05
      -7.03359274e-06 -1.69803134e-05 -1.72782820e-05 -1.70219719e-05
      -5.70844577e-07 -7.27323624e-08 -5.53225073e-06 -3.64566949e-05
      -3.62617502e-05 -3.08776944e-05 5.90284571e-06 3.60947815e-05
      7.10767490e-05 7.35560097e-05 8.08453551e-05 6.61858503e-05
      6.19054335e-05 5.40480942e-05 5.73250545e-05 5.71121564e-05
      6.70317095e-05 7.87348908e-05 7.84186414e-05 5.66555755e-05
      5.48003081e-05 5.50640216e-05 6.53423849e-05 4.32976849e-05
      2.56036965e-05 4.02885271e-05 9.95217943e-06 2.54332537e-08
      3.58254724e-08 -2.52596351e-07 -1.71123320e-05 -3.66778768e-05
      -3.67700086e-05 -2.81689336e-05 -5.45545709e-06 -1.66976970e-05
      -1.64918201e-05 7.84238728e-06 2.44789135e-05 7.39679581e-06
      4.63552751e-05 5.51445664e-05 6.22454827e-05 4.89204831e-05
      4.11402871e-05 4.09072163e-05 1.15565481e-05 4.29201009e-06
      3.75538257e-05 6.24540262e-05 7.84089279e-05 7.63430726e-05
      4.21776313e-05 3.38663631e-05 1.02242248e-05 -2.04114822e-05
      5.96710805e-08 -1.14014114e-08 -1.96437541e-05 -1.87955193e-05
      -1.92723855e-05 -3.11590465e-09 -2.15234380e-07 -1.70795247e-05
      -1.72623022e-05 -1.69881878e-05 -1.62780889e-05 -1.66979480e-05
      2.42650913e-06 -1.53726887e-05 1.32066880e-05 2.53551279e-05
      1.39623080e-05 1.39978611e-05 1.42399540e-05 3.37041056e-05
      3.37594756e-05 3.37692545e-05 4.37281051e-05 7.28065133e-05
      7.40648611e-05 3.97146978e-05 3.42797321e-05 4.37855088e-05
      -4.91279070e-06 -2.11541847e-05 -1.22871024e-05 -1.97692498e-05
      1.90587215e-07 -1.14891165e-07 -4.02533367e-08 -1.89139683e-07
      -2.58299568e-08 -5.06174445e-08 1.97398279e-07 -6.77806469e-08
      -1.69826799e-05 -1.72443415e-05 -8.78906394e-06 -3.64489206e-05
      -2.91210781e-05 -2.91874894e-05 5.38047152e-06 2.74636986e-05
      2.72862908e-05 2.77646704e-05 2.76396731e-05 2.73740789e-05
      5.61230263e-05 5.64095681e-05 5.30438483e-05 6.28572379e-05
      5.31407823e-05 -8.23187111e-06 -3.29543909e-05 -3.20059225e-05
      -9.63584080e-06 -4.14000078e-06 5.55923043e-06 8.32867215e-08
      5.85558446e-08 -2.19410680e-07 1.02670313e-07 -4.50544604e-07
      -6.60887594e-08 -1.96275796e-05 -1.96201199e-05 -1.98782654e-05
      -1.93994711e-05 -3.24363900e-05 -3.12070770e-05 -4.05702704e-05
      -3.32427662e-05 -2.32183156e-05 1.18996177e-05 1.40672309e-05
      1.41275596e-05 4.20915530e-05 4.27997838e-05 1.40587426e-05
      1.29692071e-05 4.27210689e-05 4.51247288e-05 3.39396793e-05
      1.02641488e-05 -8.80641437e-06 -1.50219930e-05 -3.83309925e-05
      -4.42826386e-05 -1.12915568e-05 -4.32623835e-07 -7.20764319e-08
      -2.22355936e-07 -1.96967394e-05 -6.55859083e-08 -2.74937889e-07
      -2.24650378e-07 -1.57828328e-08 -2.19398295e-08 -6.58606211e-07
      -1.76240865e-05 -1.75582973e-05 -2.42424503e-05 -4.98363297e-05
      -4.96331995e-05 -4.09388231e-05 2.44582552e-05 2.83450736e-05
      6.28888372e-08 -1.25645030e-07 1.86453526e-05 3.49866095e-05
      1.72861073e-05 8.55346855e-07 -9.35084881e-06 2.73140613e-05
      1.55717880e-05 -1.17140064e-06 -4.25738617e-05 -4.43736644e-05
      -3.40130937e-05 -2.68329768e-05 -1.96482702e-07 -9.31645694e-09
      -2.67003173e-07 -4.34101366e-07 -7.40057260e-08 -8.61249774e-08
      -3.97314835e-07 -2.54249585e-07 -1.73753342e-05 -1.78019072e-05
      9.74340821e-08 -3.03881421e-07 -2.56321036e-05 -1.69680425e-05
      -1.23478358e-05 -2.93279845e-05 -2.33120372e-05 -6.64556319e-06
      -3.20119443e-06 -2.19662161e-06 1.73749886e-05 1.64552366e-05
      6.56600469e-06 2.74843787e-05 2.34814343e-05 1.55907055e-05
      4.29468992e-06 -2.58452073e-05 -2.72070010e-05 -2.67516225e-05
      -3.40613951e-05 -2.47374919e-05 -1.72975560e-05 -6.03062418e-08
      -2.32358957e-07 -1.68075758e-07 -1.00823101e-07 -2.65499892e-07
      -1.74458819e-05 -1.76094145e-05 -1.71010215e-05 -1.76035082e-05
      2.81952689e-05 1.19419037e-05 8.22683251e-06 -1.74693469e-05
      -3.22038504e-05 -3.27633679e-05 -1.85968984e-05 1.11427526e-05
      5.25326550e-06 1.73392218e-05 9.99562417e-06 1.02343975e-05
      2.36236792e-05 1.55935104e-05 7.08306061e-06 2.07654057e-06
      -2.48293636e-05 -1.39182921e-05 -1.49273328e-05 -1.87860569e-05
      -2.48420802e-05 -1.72929049e-05 -1.70726653e-05 -1.72862401e-05
      -3.17408308e-07 -1.64609460e-07 -2.38469653e-07 -1.93355390e-07
      -1.74118268e-05 -1.74587458e-05 1.08237264e-05 -1.74313827e-05
      -1.66121263e-05 -1.64196754e-05 -1.19290789e-05 -1.76557369e-05
      -9.78444132e-06 1.56497135e-05 -1.53012770e-05 -1.51566392e-05
      -1.11981262e-05 -1.36474564e-05 2.20714219e-06 7.69114013e-06
      -4.39527810e-07 7.25109066e-06 2.16660828e-06 -2.27445416e-05
      -1.40691109e-05 -1.49628968e-05 -2.25211152e-05 -2.65180297e-05
      -2.28766967e-05 -1.73832450e-05 -1.74182915e-05 -1.73528751e-05
      -6.41471658e-08 -6.52781722e-08 -4.35821960e-07 1.12387906e-05
      -1.72479249e-05 -1.75873502e-05 -1.74817706e-05 -1.76952544e-05
      -1.77363872e-05 -8.12498365e-06 -8.26507221e-06 1.74754205e-05
      7.75255376e-06 5.94522953e-06 7.86549390e-06 -2.56603889e-05
      -1.23822711e-05 -1.82642398e-05 -8.24990730e-06 -1.43061766e-06
      2.62016397e-06 -3.25620846e-07 -1.58570638e-05 -2.07719331e-05
      -2.29415327e-05 -2.28947029e-05 -2.30112510e-05 -2.22632425e-05
      -1.18383314e-05 -1.05772606e-05 -1.72529799e-05 -1.72212713e-05
      -7.16772547e-06 -1.76219783e-05 -1.75803743e-05 -1.75128898e-05
      -1.75903915e-05 -1.75419082e-05 -1.75899204e-05 -1.08300107e-07
      -3.90363266e-06 6.81643314e-06 3.10181858e-05 3.11151780e-05
      6.06274034e-06 -2.08789224e-05 -1.59816136e-05 -2.04175740e-05
      -1.15262465e-05 4.19989919e-06 3.50761138e-06 9.89175533e-06
      6.28591852e-06 -1.15235371e-05 -1.81587584e-05 -2.02561296e-05
      -2.02010560e-05 -2.01986022e-05 -1.99375972e-05 -6.81578467e-06
      -2.23469324e-05 -3.04982423e-05 -2.53195121e-05 -1.83192751e-05
      -3.54313488e-05 -1.11194377e-05 -1.85018980e-05 -1.95810098e-05
      -6.16438456e-06 -5.80443384e-07 -5.95623624e-06 2.82261624e-07
      7.44807312e-06 -1.35952941e-05 -1.37127054e-05 -3.18458588e-05
      -1.70516087e-05 -2.73682417e-05 -1.71384054e-05 -2.41703274e-05
      1.77909033e-06 -2.31718545e-07 -3.56584906e-06 -2.25832300e-05
      -2.47722655e-05 -2.67926716e-05 -2.02099654e-05 -2.19423564e-05
      -2.19043723e-05 -1.64069170e-05 -9.69728080e-06 -5.45828289e-06
      -4.90538605e-06 -1.25237984e-05 -1.92222033e-05 -1.97400932e-05
      -1.22266274e-05 -9.94634684e-06 -9.41981762e-06 -2.75048751e-06
      -2.75002094e-06 -2.65630297e-06 -2.77866025e-06 -2.68517124e-06
      3.17302556e-06 -2.71902195e-06 -2.82551559e-06 -1.49551852e-05
      -6.25231542e-06 -6.59621901e-06 -2.73468072e-06 -2.08117262e-06
      2.24337182e-05 1.76497069e-05 -6.92602180e-06 -2.21641803e-05
      -2.22855761e-05 -2.68296426e-05 -2.67710166e-05 -1.60307845e-05
      -1.23570162e-05 -7.48341972e-06 -7.51187827e-06 -7.45873240e-06
      -5.54924782e-06 -1.21272242e-05 -1.98756061e-05 -1.98646485e-05
      -6.54058795e-06 -6.11911082e-06 -4.43187810e-06 2.98556984e-06
      2.88005913e-06 2.91992251e-06 9.20461571e-06 3.01624164e-06
      2.80784934e-06 2.95063137e-06 2.89263494e-06 2.95122527e-06
      2.94338929e-06 3.14737667e-06 2.78913012e-06 3.08200856e-06
      2.77787767e-05 2.90075695e-06 -7.44485396e-06 -7.42273915e-06
      -7.48707635e-06 -7.34395780e-06 -7.97800840e-06 -1.48429199e-05
      -4.35057518e-06 5.08301241e-07 5.27470604e-07 5.45757359e-07
      5.78228480e-07 1.21915662e-07 -6.53479128e-06 -1.41263426e-05
      -6.43268049e-06 -6.18349941e-06 -6.24353879e-06 2.45152182e-06
      2.99192016e-06 3.02469562e-06 2.79603569e-06 3.01823957e-06
      -2.52853943e-06 -2.39313567e-06 -2.42083524e-06 -2.28365411e-06
      1.36130484e-05 1.75456480e-05 9.21498759e-06 9.16833756e-07
