<?xml version="1.0"?>
<opencv_storage>
<opencv_ml_svm>
  <format>3</format>
  <svmType>C_SVC</svmType>
  <kernel>
    <type>LINEAR</type></kernel>
  <C>1.0000000000000001e-01</C>
  <term_criteria><epsilon>1.1920928955078125e-07</epsilon>
    <iterations>1000</iterations></term_criteria>
  <var_count>2500</var_count>
  <class_count>10</class_count>
  <class_labels type_id="opencv-matrix">
    <rows>10</rows>
    <cols>1</cols>
    <dt>i</dt>
    <data>
      0 1 2 3 4 5 6 7 8 9</data></class_labels>
  <sv_total>45</sv_total>
  <support_vectors>
    <_>
      7.62329653e-21 7.62329653e-21 7.62329653e-21 7.62329653e-21
      7.62329653e-21 7.62329653e-21 7.62329653e-21 7.62329653e-21
      2.09322071e-08 7.62329653e-21 -5.02062072e-08 -1.18517562e-09
      7.62329653e-21 4.13971080e-09 1.76408477e-07 -3.78057301e-08
      5.45555991e-08 4.32844942e-08 8.29942977e-08 -2.13688836e-08
      6.28551717e-08 -2.68504561e-08 1.57033639e-07 1.13389058e-08
      7.62329653e-21 -5.95046545e-09 7.62329653e-21 7.62329653e-21
      7.62329653e-21 -1.98348848e-09 7.62329653e-21 -1.98348848e-09
      7.62329653e-21 7.62329653e-21 7.62329653e-21 7.62329653e-21
      7.62329653e-21 7.62329653e-21 7.62329653e-21 7.62329653e-21
      7.62329653e-21 7.62329653e-21 -2.96302405e-09 3.42689106e-07
      -2.40549571e-08 1.41483241e-07 -4.88737690e-08 -4.70795847e-08
      9.37195352e-08 1.20614796e-09 2.63795261e-08 7.51947624e-08
      8.15348500e-09 -5.09459177e-08 6.00244121e-08 1.54995405e-07
      -7.62116983e-08 9.23601018e-09 7.62329653e-21 -3.96697697e-09
      7.62329653e-21 7.62329653e-21 -5.95046545e-09 7.62329653e-21
      -9.91744287e-09 7.62329653e-21 7.62329653e-21 7.62329653e-21
      7.62329653e-21 7.62329653e-21 7.62329653e-21 7.62329653e-21
      7.62329653e-21 7.62329653e-21 7.62329653e-21 7.62329653e-21
      1.45524339e-07 -2.54137600e-08 4.66167833e-08 -1.98348848e-09
      -1.60100289e-08 3.74733453e-08 6.68596130e-08 2.60484061e-08
      -7.95837494e-08 -1.78436217e-08 2.48757304e-09 1.20681818e-07
      6.06764328e-09 -4.07167189e-09 1.25674040e-08 -2.47418317e-08
      -3.96697697e-09 -1.98348848e-09 -1.98348848e-09 7.62329653e-21
      7.62329653e-21 -1.98348848e-09 7.62329653e-21 -3.96697697e-09
      7.62329653e-21 7.62329653e-21 7.62329653e-21 7.62329653e-21
      7.62329653e-21 7.62329653e-21 7.62329653e-21 7.62329653e-21
      7.62329653e-21 7.62329653e-21 1.12252252e-07 1.29415714e-08
      -2.29346213e-08 -1.64511064e-07 1.64900001e-07 1.62389791e-09
      -1.06844418e-08 1.85301534e-08 1.68424990e-08 2.61201532e-08
      -1.27167937e-07 5.55243922e-08 -1.00199600e-07 -2.87502178e-09
      2.92289091e-08 -1.59160614e-08 7.62329653e-21 7.62329653e-21
      7.62329653e-21 -3.96697697e-09 7.62329653e-21 7.62329653e-21
      7.62329653e-21 -3.96697697e-09 7.62329653e-21 7.62329653e-21
      7.62329653e-21 7.62329653e-21 7.62329653e-21 7.62329653e-21
      7.62329653e-21 7.62329653e-21 7.62329653e-21 7.62329653e-21
      -5.57708155e-08 -5.46078738e-08 1.59589633e-11 -1.26868569e-08
      -1.22149952e-08 -1.86087679e-08 1.19259624e-07 6.68193767e-09
      1.73735923e-08 7.18339734e-08 2.08142481e-08 1.02930976e-07
      2.88991746e-08 -2.41916808e-07 -3.15928546e-08 -1.42322364e-07
      -1.98348848e-09 -1.98348848e-09 -3.96697697e-09 7.62329653e-21
      -1.98348848e-09 7.62329653e-21 7.62329653e-21 7.62329653e-21
      7.62329653e-21 7.62329653e-21 7.62329653e-21 7.62329653e-21
      7.62329653e-21 7.62329653e-21 7.62329653e-21 7.62329653e-21
      7.62329653e-21 7.62329653e-21 6.18212184e-08 -2.40662388e-08
      -9.43815550e-08 1.03251786e-07 2.62506944e-07 6.63956445e-09
      1.99186925e-08 -6.84202206e-08 -4.46315198e-08 -1.43778479e-07
      8.93932040e-08 5.64821825e-08 -1.55446500e-07 1.67316770e-07
      -1.21031832e-07 5.03944442e-08 7.62329653e-21 7.62329653e-21
      7.62329653e-21 -7.93395394e-09 7.62329653e-21 7.62329653e-21
      -3.96697697e-09 7.62329653e-21 7.62329653e-21 7.62329653e-21
      7.62329653e-21 7.62329653e-21 7.62329653e-21 7.62329653e-21
      7.62329653e-21 7.62329653e-21 7.62329653e-21 7.62329653e-21
      -9.73974821e-08 2.98369059e-07 2.67100280e-08 -5.48439004e-07
      -3.17851095e-06 -3.05156618e-06 -7.08537755e-06 -7.07213121e-06
      1.01455419e-06 4.31814044e-07 2.10146459e-06 2.47913977e-06
      -9.88426564e-06 -4.44498392e-06 -5.45433977e-07 -5.94414296e-08
      -1.98348848e-09 -1.98348848e-09 7.62329653e-21 7.62329653e-21
      7.62329653e-21 -1.98348848e-09 -5.95046545e-09 7.62329653e-21
      7.62329653e-21 7.62329653e-21 7.62329653e-21 7.62329653e-21
      7.62329653e-21 7.62329653e-21 7.62329653e-21 7.62329653e-21
      7.62329653e-21 7.62329653e-21 1.23035178e-07 -1.33220055e-07
      -3.10558971e-06 -6.92652657e-06 -9.79051856e-06 -2.07843441e-05
      -1.88819777e-05 6.00503108e-06 3.16003899e-08 3.98198488e-08
      -1.54660412e-07 -1.64878986e-06 -1.00603274e-05 -1.49910247e-05
      -1.77915645e-05 -4.40763370e-06 -5.05789558e-07 -1.98348848e-09
      7.62329653e-21 7.62329653e-21 -3.96697697e-09 7.62329653e-21
      7.62329653e-21 -1.98348848e-09 7.62329653e-21 7.62329653e-21
      -3.19450173e-08 1.32791289e-08 2.46242280e-08 -6.82200163e-09
      7.62329653e-21 -9.48671364e-09 6.04830186e-09 7.44793505e-10
      -5.92032912e-08 -7.02498983e-06 -7.06036326e-06 -2.07394751e-05
      -2.07093781e-05 -2.07630910e-05 -1.67940379e-05 3.33609442e-08
      1.13572874e-07 -6.18864578e-06 4.72932342e-08 -1.69565544e-06
      -3.99999362e-06 -2.13522308e-05 -2.07367721e-05 -1.77922630e-05
      -4.49219488e-06 -1.55910627e-08 -1.05243096e-07 -4.18665671e-08
      -4.24882103e-08 -1.87796232e-08 -1.40468430e-07 -1.40565710e-08
      7.62329653e-21 7.62329653e-21 2.51049173e-08 -1.39386582e-08
      -3.59194274e-09 1.67836545e-09 -6.82200163e-09 1.43484300e-08
      -3.25304015e-08 -1.34615661e-08 -2.55694272e-06 -7.13556210e-06
      -2.06251079e-05 -2.72334128e-05 -2.72559409e-05 -2.55640243e-05
      -1.05203144e-05 -6.46993357e-08 -8.38176462e-08 -6.23045298e-06
      1.14686280e-07 -1.65679205e-06 -1.11692170e-05 -2.71697136e-05
      -2.71045610e-05 -2.72387679e-05 -1.78453720e-05 -1.25637089e-05
      -9.93241969e-08 -7.23589579e-08 -3.02469338e-08 -8.98812118e-08
      -3.43706859e-08 -4.14096952e-08 7.62329653e-21 7.62329653e-21
      -2.56086352e-08 -4.67731880e-08 4.51725946e-08 -3.37212946e-09
      3.77662666e-08 -6.12244699e-09 -1.09570228e-08 -2.61801188e-06
      -7.05590583e-06 -2.06732948e-05 -2.71906101e-05 -2.71499939e-05
      -2.71381377e-05 -9.90232184e-06 2.30594355e-06 3.95379720e-06
      8.10789788e-06 8.98011876e-06 3.34349397e-06 1.07238147e-05
      -1.33982564e-06 -2.67809810e-05 -2.66280949e-05 -2.67205869e-05
      -2.64547216e-05 -1.52578741e-05 -6.54249504e-07 -6.01664638e-08
      -1.65824247e-07 -4.67731880e-08 -9.63990701e-08 -1.52057396e-07
      7.62329653e-21 7.62329653e-21 -5.66477460e-08 1.30879130e-07
      -6.01993193e-08 3.04762149e-09 8.27027336e-09 -3.77437992e-09
      -1.02315072e-08 -2.57530519e-06 -1.06062816e-05 -2.71908466e-05
      -2.70848050e-05 -2.46946220e-05 -8.74285797e-06 6.38536676e-06
      2.05215983e-05 2.07485282e-05 1.98619837e-05 1.42629960e-05
      8.72645433e-06 4.52467839e-06 -7.98332167e-06 -1.46751972e-05
      -2.66208881e-05 -2.65672388e-05 -2.72975303e-05 -2.44903458e-05
      -8.56813767e-06 -1.94552200e-07 -7.78804008e-08 -4.17142445e-08
      -1.69824119e-07 -2.42855442e-08 7.62329653e-21 7.62329653e-21
      7.62329653e-21 -4.46082531e-08 -2.74245471e-09 -6.12244699e-09
      2.88278859e-08 -8.97745966e-09 6.08725301e-08 -7.40734140e-06
      -2.50034973e-05 -1.42228682e-05 -1.40955062e-05 -9.94662605e-06
      1.20834720e-05 2.72384532e-05 2.70567525e-05 2.55540781e-05
      1.98102553e-05 1.35651289e-05 1.51779132e-05 1.12907610e-05
      1.32480318e-06 -9.08473612e-06 -1.52745761e-05 -2.72124416e-05
      -2.73031474e-05 -2.71745321e-05 -2.26826905e-05 -7.99911322e-06
      -4.67731880e-08 -1.68511420e-07 -5.17743892e-08 -2.23312611e-07
      7.62329653e-21 7.62329653e-21 7.64124337e-08 -1.56170241e-08
      9.90699878e-09 6.85279957e-08 -4.83249316e-08 -6.23642507e-08
      -2.58857131e-06 -3.46181241e-06 -7.92929586e-06 -6.98113172e-06
      -6.47699335e-06 6.51793562e-06 2.71449208e-05 2.70953515e-05
      2.47869957e-05 1.97110330e-05 1.96844849e-05 1.39499216e-05
      1.51459926e-05 1.10898354e-05 -5.19029015e-08 -2.58053683e-06
      -2.73433125e-06 -2.70491601e-05 -2.71325353e-05 -2.73268342e-05
      -2.45597148e-05 -1.85685221e-05 -4.01312064e-07 -1.22149952e-08
      -5.94416321e-08 -3.62736365e-08 7.62329653e-21 7.62329653e-21
      -6.23642507e-08 6.57940262e-08 -2.43581386e-08 -1.55910627e-08
      5.53706281e-09 4.64522785e-08 -2.58632895e-06 1.02399565e-06
      -4.39696748e-07 -5.10002337e-07 1.12096132e-09 1.23272212e-05
      2.71793706e-05 2.71375484e-05 1.57591749e-05 1.10569727e-05
      1.36554427e-05 1.40775428e-05 1.50694432e-05 1.11528443e-05
      7.13497741e-07 -1.19653123e-07 -2.59911144e-06 -1.52478024e-05
      -2.72532034e-05 -2.72382931e-05 -2.47104908e-05 -1.85222125e-05
      -1.06392726e-07 -1.89631919e-08 -1.53739606e-07 -8.32621865e-08
      7.62329653e-21 7.62329653e-21 1.57150346e-08 -3.91863111e-08
      6.63956445e-09 -4.67991477e-08 6.94473101e-09 -3.11821253e-08
      -4.88872229e-06 -5.15452427e-07 3.63725619e-08 2.49157139e-08
      2.72785587e-06 2.65270082e-05 1.41077862e-05 1.35066657e-05
      6.80948824e-06 1.70460305e-06 1.39446111e-05 1.39849226e-05
      1.52910397e-05 1.12560874e-05 -1.49259520e-08 2.79174071e-08
      -2.55847453e-06 -1.25315792e-05 -2.73228670e-05 -2.72210509e-05
      -2.46866166e-05 -2.18018831e-05 -3.94652216e-06 -1.87047917e-07
      -3.06945225e-08 -8.39307432e-08 7.62329653e-21 7.62329653e-21
      6.43169287e-08 7.95978838e-09 6.83074575e-09 1.29989344e-08
      -2.99764942e-08 6.83074575e-09 -9.41897156e-07 -9.14278007e-06
      -3.09178887e-08 3.09283577e-09 1.21070264e-06 6.11847054e-06
      1.33962094e-05 5.75683953e-06 5.80572487e-06 7.92141509e-06
      1.93434189e-05 1.47163937e-05 1.46321663e-05 1.08199865e-05
      -5.40468932e-08 1.82419555e-08 -2.57550823e-06 -1.52214643e-05
      -2.72910129e-05 -2.73025144e-05 -2.46808395e-05 -2.17780434e-05
      -3.98640532e-06 -1.34507996e-08 -3.11821253e-08 -3.11474544e-08
      7.62329653e-21 7.62329653e-21 -1.75745516e-08 1.56152865e-07
      -2.01590051e-08 -1.39967078e-08 6.48702070e-09 1.07044720e-07
      -2.77623053e-06 -1.45722033e-05 -1.14436434e-05 -1.31150200e-05
      -1.05942900e-05 7.19382933e-06 6.30252134e-06 5.77686524e-06
      5.74942715e-06 1.60547916e-05 2.50958583e-05 2.09449972e-05
      1.52057710e-05 1.13249635e-05 1.52446361e-07 7.28986933e-08
      -2.59662238e-06 -1.24869193e-05 -2.72709112e-05 -2.71730660e-05
      -2.47168937e-05 -2.26379379e-05 -2.04630144e-08 -6.48664980e-08
      -2.13688836e-08 -3.57055825e-08 7.62329653e-21 7.62329653e-21
      1.41317074e-07 1.82996676e-08 -4.02078442e-08 1.06686478e-07
      4.41421406e-08 -2.52583305e-08 -2.81756456e-06 -2.02566152e-05
      -1.39160211e-05 -1.99217393e-05 -1.74566649e-05 5.79844163e-06
      1.63782502e-07 1.34892389e-07 4.77022475e-08 9.71325062e-06
      2.56977164e-05 2.09993923e-05 1.51729510e-05 1.13839360e-05
      6.52218404e-08 -4.97803292e-08 -2.55593795e-06 -1.92062344e-05
      -2.72992620e-05 -2.73248497e-05 -2.46040199e-05 -2.17828056e-05
      -6.77159306e-08 -1.63216384e-07 7.62329653e-21 -5.16412015e-08
      7.62329653e-21 7.62329653e-21 -1.21400587e-08 3.23253495e-08
      4.21855972e-09 1.46173269e-08 -4.38108607e-08 3.17785585e-08
      -3.28804617e-06 -2.72966299e-05 -2.14687079e-05 -2.14710726e-05
      -1.51639333e-05 1.28713864e-07 2.29203749e-08 4.14613837e-08
      -3.86969141e-08 1.02647427e-05 2.57640513e-05 2.10098569e-05
      1.52645061e-05 1.10929141e-05 1.87188647e-08 1.16540262e-08
      -2.52318091e-06 -1.91976051e-05 -2.73161495e-05 -2.73146197e-05
      -2.72778925e-05 -1.53088840e-05 -5.20980734e-08 -3.92426358e-08
      -8.78343869e-08 -3.20533253e-08 7.62329653e-21 7.62329653e-21
      9.02603681e-09 1.88306785e-07 -4.87437610e-08 -8.30459612e-09
      9.84479129e-08 4.05447587e-09 -7.93715844e-06 -2.72179823e-05
      -2.71406807e-05 -2.70845103e-05 -1.88992835e-05 -1.58448579e-08
      -6.65284539e-09 1.06281185e-07 1.80778500e-06 1.59160227e-05
      2.72420803e-05 2.71860863e-05 2.09027585e-05 1.13587066e-05
      4.37776535e-08 -1.76739618e-08 -2.51984056e-06 -1.91358085e-05
      -2.73058904e-05 -2.73181067e-05 -2.46479121e-05 -1.14089817e-05
      7.62329653e-21 -2.36862441e-08 -5.82672044e-08 -1.61819731e-08
      7.62329653e-21 7.62329653e-21 6.51932126e-08 -1.87796232e-08
      1.05527747e-07 -2.90056121e-08 8.58437232e-08 -6.21012664e-09
      -1.26432833e-05 -2.72371653e-05 -2.71981789e-05 -2.72181314e-05
      -2.10492126e-05 -1.24591025e-07 1.40941587e-08 1.10630907e-07
      1.60829984e-06 1.60296931e-05 2.72618599e-05 2.71844910e-05
      1.52306602e-05 1.11778972e-05 9.59209672e-08 -4.73205386e-09
      -2.50946255e-06 -1.92034549e-05 -2.72286488e-05 -2.73132300e-05
      -2.72956513e-05 -1.51254690e-05 7.62329653e-21 -9.20132024e-08
      -2.82550552e-08 -3.37212946e-09 7.62329653e-21 7.62329653e-21
      1.39679379e-08 1.59888074e-07 -6.62399202e-08 1.56870513e-07
      -3.22531513e-08 3.68594364e-08 -8.15271051e-06 -2.72955313e-05
      -2.71512581e-05 -2.72385951e-05 -1.72027139e-05 1.72007439e-08
      8.20281301e-08 -2.79104651e-08 1.63112281e-06 1.59526426e-05
      2.72783109e-05 2.72056659e-05 1.35195523e-05 2.12671489e-06
      5.11965197e-07 4.52473348e-09 -2.87692660e-06 -1.92440239e-05
      -2.73064852e-05 -2.71288300e-05 -2.72766956e-05 -1.46168950e-05
      7.62329653e-21 -4.39158825e-08 -2.42880791e-08 -7.92178199e-08
      7.62329653e-21 7.62329653e-21 -4.10342871e-08 -1.88988505e-08
      6.52064713e-08 -1.17956542e-08 -1.37083314e-08 -1.30007267e-08
      -1.26102104e-05 -2.72196739e-05 -2.72718135e-05 -2.72101952e-05
      -1.84205383e-05 -8.66142091e-09 2.34164936e-08 -4.03185112e-08
      1.82001884e-06 2.50638313e-05 2.72160960e-05 2.72728921e-05
      1.34684424e-05 1.13278729e-05 5.29242818e-08 6.83023060e-08
      5.18687315e-08 -1.92342195e-05 -2.72885773e-05 -2.73234618e-05
      -2.72685047e-05 -1.46134144e-05 -5.35561817e-09 -1.87796232e-08
      -3.37212946e-09 -1.06844418e-08 7.62329653e-21 7.62329653e-21
      -7.33966061e-08 7.62329653e-21 -5.11783860e-08 7.62329653e-21
      -8.96700456e-08 -6.32340971e-08 -1.06830657e-05 -2.73268342e-05
      -2.72926518e-05 -2.72207744e-05 -1.45164840e-05 -3.44090552e-08
      1.64083378e-08 -6.32340971e-08 -3.90686523e-08 1.67518683e-05
      2.73240985e-05 2.71832141e-05 1.52554858e-05 1.50145229e-06
      5.22091966e-07 5.68383101e-08 -2.57255715e-06 -1.65379060e-05
      -2.73112419e-05 -2.73059177e-05 -2.72756552e-05 -1.73637691e-05
      7.62329653e-21 -5.04107440e-08 -3.06945225e-08 -2.55891930e-08
      7.62329653e-21 7.62329653e-21 7.62329653e-21 -9.89858009e-08
      -1.61903628e-08 -1.26468194e-07 -7.55470069e-08 -1.61903628e-08
      -1.27977519e-05 -2.72594643e-05 -2.72288453e-05 -2.72591260e-05
      -1.43646257e-05 9.34583539e-08 -5.77122670e-08 -1.66800014e-08
      5.58995161e-08 1.66829595e-05 2.71778426e-05 2.73106798e-05
      1.35505161e-05 1.12811340e-05 4.20604458e-08 -1.10215970e-08
      -2.51158849e-06 -1.91789386e-05 -2.73161495e-05 -2.73010119e-05
      -2.73166024e-05 -1.07761962e-05 -5.74229588e-08 -6.46291838e-08
      -9.88227740e-08 7.62329653e-21 7.62329653e-21 7.62329653e-21
      -8.09518141e-09 -2.55891930e-08 -7.33966061e-08 -8.09518141e-09
      -1.36713780e-07 -6.32340971e-08 -1.27392414e-05 -2.73268342e-05
      -2.71936824e-05 -2.72198522e-05 -1.45497797e-05 -8.08834457e-08
      8.86124951e-08 -1.46321710e-08 3.93605114e-06 2.58138862e-05
      2.72693760e-05 2.13545609e-05 1.51741706e-05 1.13573278e-05
      1.23866684e-07 -5.77677950e-09 -4.57393389e-06 -1.91520721e-05
      -2.72791895e-05 -2.71732988e-05 -2.72747711e-05 -1.08073436e-05
      -3.20533253e-08 -7.58150520e-08 -3.62736365e-08 -5.20980734e-08
      7.62329653e-21 7.62329653e-21 -5.11783860e-08 7.62329653e-21
      7.62329653e-21 7.62329653e-21 -9.30410167e-08 -2.55891930e-08
      -1.29424780e-05 -2.72709312e-05 -2.71646568e-05 -2.72557372e-05
      -1.44629148e-05 -4.72227271e-08 4.67681325e-08 2.27595169e-08
      1.86526037e-07 1.71833453e-05 2.73153673e-05 2.72523903e-05
      1.52448592e-05 1.05287299e-05 -6.12739228e-08 3.40869777e-09
      -3.90257401e-06 -1.64997691e-05 -2.73063706e-05 -2.72840953e-05
      -2.72756552e-05 -1.08024715e-05 7.62329653e-21 -7.48606936e-08
      -8.25938855e-08 7.62329653e-21 7.62329653e-21 7.62329653e-21
      -8.75196449e-08 -7.33966061e-08 7.62329653e-21 -1.30602857e-07
      -1.44808965e-07 7.62329653e-21 -1.27392414e-05 -2.73268342e-05
      -2.72473317e-05 -2.71606586e-05 -8.05756463e-06 9.87560185e-08
      1.32791289e-08 -3.06249177e-08 3.82064627e-06 2.58646196e-05
      2.70779638e-05 2.72486286e-05 1.52152452e-05 1.12070629e-05
      1.11867017e-07 1.20483449e-07 -3.97572103e-06 -1.92123280e-05
      -2.72280104e-05 -2.72705493e-05 -2.72600646e-05 -1.08336535e-05
      -6.74557583e-08 -4.55041231e-08 -1.06844418e-08 -9.23586470e-08
      7.62329653e-21 7.62329653e-21 7.62329653e-21 7.62329653e-21
      -1.95904278e-07 7.62329653e-21 -6.61481749e-08 -1.46029535e-07
      -1.27567355e-05 -2.72756552e-05 -2.73201949e-05 -2.71329209e-05
      -7.88672423e-06 -6.80290029e-08 -9.48511456e-08 1.43954693e-07
      3.00777151e-06 2.57809770e-05 2.73206897e-05 2.71038916e-05
      1.35369592e-05 2.16110311e-06 -6.01993051e-08 3.38946826e-08
      -8.33153592e-07 -1.65786259e-05 -2.72603193e-05 -2.73161495e-05
      -2.33511128e-05 -1.07635069e-05 -4.67731880e-08 -1.34507996e-08
      -1.07949710e-07 7.62329653e-21 7.62329653e-21 7.62329653e-21
      -1.02356772e-07 -7.13292820e-08 -3.16170485e-08 -5.72062433e-08
      -6.74518219e-08 -3.16170485e-08 -2.72952166e-05 -2.73106434e-05
      -2.70988057e-05 -2.73090154e-05 8.20525603e-09 1.89205931e-08
      1.85820099e-07 -4.29191083e-08 7.47117656e-06 2.58250639e-05
      2.72225552e-05 2.72531161e-05 1.52183975e-05 2.20971447e-06
      -1.47997294e-08 1.27735433e-07 -8.83095595e-07 -1.66187219e-05
      -2.72956513e-05 -2.73268342e-05 -2.33093160e-05 -8.11441078e-06
      7.62329653e-21 -1.68358582e-07 -2.04630144e-08 -6.16432700e-08
      7.62329653e-21 7.62329653e-21 -6.32340971e-08 -5.92735674e-08
      -4.17795576e-08 -6.32340971e-08 -9.17373697e-08 7.62329653e-21
      -1.92961033e-05 -2.72756552e-05 -2.73012447e-05 -2.72680354e-05
      2.93990823e-08 -1.33998185e-07 -2.49258250e-08 -1.66800014e-08
      7.56183408e-06 2.57912416e-05 2.72570123e-05 2.13881576e-05
      1.35353212e-05 2.18869263e-06 -1.28559776e-08 -8.51950865e-09
      -4.68780354e-06 -1.92252137e-05 -2.72910129e-05 -2.72952329e-05
      -2.73012447e-05 -1.08180620e-05 7.62329653e-21 -1.34507996e-08
      -5.20980734e-08 7.62329653e-21 7.62329653e-21 7.62329653e-21
      3.66030450e-09 -1.15299670e-07 -7.45152207e-08 -3.85076682e-08
      7.39063566e-08 -9.75042411e-08 -1.91860490e-05 -2.72729849e-05
      -2.70873916e-05 -2.73020923e-05 -3.78597247e-06 1.05570841e-07
      -2.07028474e-08 1.07190399e-08 7.35887534e-06 2.58082437e-05
      2.72474663e-05 2.13668736e-05 1.35496402e-05 2.14944862e-06
      -6.16126314e-08 8.19959070e-08 -5.22752225e-06 -1.92365696e-05
      -2.71645094e-05 -2.72973703e-05 -2.71802583e-05 -8.14476516e-06
      -4.11677625e-08 -1.27195818e-08 -8.54723652e-08 -4.11802574e-08
      7.62329653e-21 7.62329653e-21 -1.19190361e-07 2.80247257e-08
      -1.30034152e-07 -5.91099756e-08 -1.10442208e-07 3.32427526e-08
      -2.72595225e-05 -2.71992430e-05 -2.71941444e-05 -2.70439268e-05
      -4.06952313e-06 -1.16302395e-07 -1.37144951e-07 1.98340246e-07
      7.37646360e-06 1.66223435e-05 2.64991904e-05 2.14174397e-05
      1.34834372e-05 2.04013622e-06 5.80795501e-08 -3.97004078e-06
      -5.33322782e-06 -1.92285916e-05 -2.72434991e-05 -2.72093730e-05
      -2.33050614e-05 -8.09677476e-06 1.57789337e-09 -5.61596103e-08
      -1.86134415e-08 3.42272486e-08 7.62329653e-21 7.62329653e-21
      3.17405444e-08 -7.07943713e-08 -1.11671383e-07 -3.76269682e-08
      -2.15796181e-08 -4.64714489e-08 -1.51647337e-05 -2.72391408e-05
      -2.70748569e-05 -2.71742556e-05 -1.45860613e-05 -3.95864663e-06
      -1.10290529e-07 -2.74390359e-08 1.36266553e-05 1.66064456e-05
      2.44133807e-05 1.86475372e-05 1.34939410e-05 2.26588213e-06
      -3.93414985e-06 -3.98482598e-06 -1.37768111e-05 -1.91591953e-05
      -2.72534708e-05 -2.71688277e-05 -1.57934301e-05 -8.13002225e-06
      -7.39804591e-08 -1.76737842e-07 -5.09822184e-09 -1.28197257e-07
      7.62329653e-21 7.62329653e-21 -1.02539426e-08 6.88747477e-08
      -5.89495777e-08 7.37661798e-09 -2.16341949e-08 -5.57301627e-09
      -8.40733992e-06 -2.72697980e-05 -2.72561556e-05 -2.44912280e-05
      -1.30679837e-05 -4.06262097e-06 -3.88238459e-06 3.31059056e-08
      1.36222279e-05 1.39827771e-05 2.44364419e-05 1.88050981e-05
      1.07181768e-05 -1.88794809e-06 -3.98699103e-06 -4.10383200e-06
      -1.38861215e-05 -1.92263906e-05 -2.72448888e-05 -2.33216124e-05
      -1.42924737e-05 -8.15778094e-06 -3.48080853e-08 -2.22729337e-08
      3.24634151e-08 3.63137680e-08 7.62329653e-21 7.62329653e-21
      -3.67477710e-08 -9.05235211e-08 6.96199010e-08 -2.21622649e-08
      -8.69990870e-08 -2.37377158e-08 -1.35818109e-05 -2.32540460e-05
      -2.70188702e-05 -2.49932655e-05 -2.13666972e-05 -1.29591017e-05
      -4.54671772e-06 -4.58269642e-06 1.38770447e-05 1.66238478e-05
      2.38175890e-05 1.74861161e-05 8.30946283e-06 -3.01260661e-06
      -4.40657141e-06 -1.09153816e-05 -1.90497358e-05 -2.71929621e-05
      -2.33137689e-05 -2.31515278e-05 -1.07989154e-05 -7.88307807e-06
      -3.81510183e-08 -5.65171447e-08 -1.16870325e-07 2.95872682e-09
      7.62329653e-21 7.62329653e-21 -3.32443371e-08 8.73158046e-10
      9.14627520e-08 1.50622039e-08 -7.47589866e-08 -1.42974116e-07
      1.45327749e-06 -1.14821441e-05 -1.19386168e-05 -5.62388732e-06
      -3.20459844e-06 -1.69245766e-06 -2.26457928e-06 1.04079054e-05
      9.79877223e-06 2.05696269e-05 2.60891684e-05 9.80531240e-06
      1.01256346e-05 4.93134621e-06 -4.71487692e-06 -1.50212081e-05
      -7.68383870e-06 -1.58196326e-05 -1.20213426e-05 -1.14061304e-05
      3.27619819e-06 -8.18574009e-08 5.14020186e-08 -7.33504848e-08
      -5.08329485e-08 6.92685020e-08 7.62329653e-21 7.62329653e-21
      1.58771254e-08 -9.91368765e-09 -3.17651505e-08 -1.01733058e-07
      -4.13789643e-08 -8.40387671e-08 1.11536292e-05 -4.35712946e-06
      -9.67151755e-06 -9.67861160e-06 -2.80976474e-06 -2.06635877e-06
      -2.15703244e-06 1.76896197e-06 1.09529938e-05 1.28547072e-05
      1.53316269e-05 9.72827252e-07 8.35286357e-07 6.21857410e-08
      -5.62620187e-07 -4.02569140e-06 -6.02395903e-06 -1.02173944e-05
      -9.60961279e-06 -1.57277145e-06 3.45062381e-06 9.14276188e-06
      -1.08576018e-07 8.11212502e-08 2.90428055e-08 -9.00396415e-08
      7.62329653e-21 7.62329653e-21 -3.08395443e-09 -1.85860838e-08
      -2.07016608e-08 -2.36242030e-08 -9.51107495e-08 -2.07875228e-08
      1.30374538e-05 1.11080171e-05 1.85484112e-06 1.86452485e-06
      -7.82238999e-07 -1.09593293e-05 -2.66824031e-06 4.03765489e-06
      1.13324159e-05 1.37902871e-05 2.37959875e-06 2.27449755e-06
      -2.35164862e-06 5.10065092e-07 5.37462074e-06 6.55772692e-06
      -9.67905180e-06 -9.73345232e-06 -7.11817120e-06 5.06474089e-06
      1.21624798e-05 8.99648421e-06 4.05259577e-08 -1.88331253e-08
      -1.11532501e-07 3.58540397e-08 7.62329653e-21 7.62329653e-21
      6.04125603e-08 1.05777147e-07 1.30048523e-08 1.28284071e-07
      1.89872633e-08 2.54946020e-08 1.93455780e-05 2.02723149e-05
      1.46310867e-05 8.08719960e-06 -1.13323472e-06 5.21962511e-06
      -2.74049262e-06 8.11756581e-06 1.47266173e-05 1.52683533e-05
      1.10794999e-05 1.01503038e-05 1.02364547e-05 3.81894097e-06
      1.46646134e-05 1.85056638e-06 -2.50933613e-06 -6.70552981e-06
      3.25421070e-06 1.40125358e-05 1.23079571e-05 1.00313991e-05
      2.26920918e-07 6.63956445e-09 1.10079938e-07 3.75946669e-08
      7.62329653e-21 7.62329653e-21 4.33129870e-08 9.88949083e-08
      8.20525603e-09 1.01337939e-07 2.56686405e-07 4.96975119e-08
      1.11486615e-05 1.69726154e-05 1.74837896e-05 1.40402281e-05
      9.58581131e-06 3.11084955e-06 -7.88548641e-06 6.30766337e-08
      -2.92714321e-06 6.46612216e-06 -2.83048894e-06 -3.42938483e-06
      -3.41916507e-06 5.36616426e-06 -3.75305990e-06 -5.71476357e-06
      -3.83184033e-06 6.18821423e-06 1.79625149e-05 1.97904228e-05
      2.19946705e-05 6.72230135e-06 6.25158378e-08 4.10609005e-08
      2.02287804e-08 4.33129870e-08 7.62329653e-21 7.62329653e-21
      8.17426482e-08 1.64116813e-07 4.81980251e-08 5.41378817e-08
      7.23742133e-08 1.14224799e-08 1.46295733e-05 1.54061981e-05
      1.53541714e-05 1.58165039e-05 1.45977147e-05 3.59000092e-06
      -1.15557859e-05 -1.16692163e-05 -1.15459234e-05 -1.16495348e-05
      2.68657959e-06 -3.46736874e-06 -9.89358614e-06 -4.66209440e-06
      -1.60799539e-06 -2.96108027e-08 3.87002274e-06 4.02501473e-06
      1.47076189e-05 1.46124148e-05 1.48086310e-05 6.72034048e-06
      -9.91745921e-08 4.72765187e-08 6.39722515e-08 -7.17903745e-08
      7.62329653e-21 7.62329653e-21 6.23598169e-08 1.06342654e-07
      7.53683835e-08 1.12834726e-07 2.53363854e-08 1.84075702e-07
      1.26109280e-05 1.41454448e-05 1.35295259e-05 1.40996854e-05
      1.29839527e-05 4.85295186e-06 4.02635715e-06 -2.31513718e-06
      -9.84665894e-06 -9.68322547e-06 -1.55683811e-05 -2.17910419e-05
      -1.55529306e-05 -2.09549967e-06 4.96963094e-06 4.43198496e-06
      7.21719380e-06 1.45442746e-05 1.53423862e-05 1.45809363e-05
      1.29495138e-05 1.36266453e-05 1.04567867e-07 4.58574778e-09
      7.99760755e-08 4.31746479e-08 7.62329653e-21 7.62329653e-21
      1.55048639e-07 6.25773922e-08 6.83074575e-09 1.04357348e-07
      2.51446899e-08 1.32120647e-07 7.11289294e-06 1.33574513e-05
      1.32463920e-05 1.32522991e-05 1.31961033e-05 1.25792130e-05
      4.39461655e-06 3.96665382e-06 3.91825643e-06 -5.23945755e-06
      -4.30197133e-06 -4.95804443e-06 2.13505018e-06 4.91563605e-06
      5.56908071e-06 1.41829105e-05 1.41766523e-05 1.41733562e-05
      1.41820337e-05 1.42076233e-05 1.41785185e-05 7.89571732e-06
      5.63048843e-07 6.04125603e-08 -5.96495937e-08 7.42368513e-08
      7.62329653e-21 7.62329653e-21 6.75775738e-08 8.09961662e-08
      5.57727340e-08 1.37234267e-07 7.04651839e-08 1.21795352e-07
      7.04573040e-06 6.99309521e-06 6.92538879e-06 6.95734025e-06
      6.99287330e-06 7.00437067e-06 6.92654203e-06 6.97568839e-06
      6.27792906e-06 6.27892905e-06 6.99746442e-06 6.82872451e-06
      6.98569920e-06 6.98023678e-06 6.98611757e-06 6.93002539e-06
      7.03134992e-06 6.91790456e-06 7.00927194e-06 7.02996749e-06
      7.00237206e-06 6.99047405e-06 6.88123521e-07 1.29355762e-08
      8.05348108e-08 -2.13688836e-08 7.62329653e-21 7.62329653e-21
      5.64376492e-08 8.47699368e-08 4.73180357e-08 1.33571831e-07
      5.47017054e-09 8.15576797e-08 9.18406613e-07 1.25934241e-06
      1.20192840e-06 1.22052882e-06 1.04936908e-06 1.19575850e-06
      1.12666214e-06 6.88635555e-06 6.90387151e-06 6.98971962e-06
      6.95466633e-06 6.95458175e-06 6.94042001e-06 7.03323212e-06
      6.88906175e-06 6.98152780e-06 6.98598706e-06 7.04480271e-06
      7.19445597e-06 7.02530906e-06 7.13288046e-06 7.04065178e-06
      5.47761260e-07 4.09566026e-09 7.25668770e-08 -4.83781282e-09
      7.62329653e-21 7.62329653e-21 3.20765210e-08 1.39601735e-08
      1.60923079e-07 2.16999716e-08 1.14370160e-07 5.80262309e-08
      2.32818298e-08 6.04125603e-08 6.45749878e-07 7.12046756e-07
      3.04643883e-08 2.92468449e-08 7.04385750e-09 4.88583453e-07
      6.06754099e-07 1.16900480e-06 6.45040529e-07 7.16527040e-07
      1.23040309e-06 7.61463298e-07 6.82929851e-07 -4.62491689e-09
      5.15888132e-07 -2.39999025e-08 -1.37986653e-08 7.98439316e-07
      6.67877543e-07 7.62329653e-21 1.26802107e-08 1.75915336e-08
      1.16442775e-08 7.33713392e-08 7.62329653e-21 7.62329653e-21
      7.62329653e-21 7.62329653e-21 7.62329653e-21 7.62329653e-21
      7.62329653e-21 7.62329653e-21 7.62329653e-21 7.62329653e-21
      7.62329653e-21 7.62329653e-21 7.62329653e-21 7.62329653e-21
      7.62329653e-21 7.62329653e-21 7.62329653e-21 7.62329653e-21
      7.62329653e-21 7.62329653e-21 7.62329653e-21 7.62329653e-21
      7.62329653e-21 7.62329653e-21 7.62329653e-21 7.62329653e-21
      7.62329653e-21 7.62329653e-21 7.62329653e-21 7.62329653e-21
      7.62329653e-21 7.62329653e-21 7.62329653e-21 7.62329653e-21
      7.62329653e-21 7.62329653e-21 7.62329653e-21 7.62329653e-21
      7.62329653e-21 7.62329653e-21 7.62329653e-21 7.62329653e-21
      7.62329653e-21 7.62329653e-21 7.62329653e-21 7.62329653e-21
      7.62329653e-21 7.62329653e-21 7.62329653e-21 7.62329653e-21
      7.62329653e-21 7.62329653e-21 7.62329653e-21 7.62329653e-21
      7.62329653e-21 7.62329653e-21 7.62329653e-21 7.62329653e-21
      7.62329653e-21 7.62329653e-21 7.62329653e-21 7.62329653e-21
      7.62329653e-21 7.62329653e-21 7.62329653e-21 7.62329653e-21
      7.62329653e-21 7.62329653e-21 7.62329653e-21 7.62329653e-21
      7.62329653e-21 7.62329653e-21 7.62329653e-21 7.62329653e-21
      7.62329653e-21 7.62329653e-21 7.62329653e-21 7.62329653e-21
      7.62329653e-21 7.62329653e-21 7.62329653e-21 7.62329653e-21
      7.62329653e-21 7.62329653e-21 7.62329653e-21 7.62329653e-21
      7.62329653e-21 7.62329653e-21 7.62329653e-21 7.62329653e-21
      7.62329653e-21 7.62329653e-21 7.62329653e-21 7.62329653e-21
      7.62329653e-21 7.62329653e-21 7.62329653e-21 7.62329653e-21
      7.62329653e-21 7.62329653e-21 7.62329653e-21 7.62329653e-21
      7.62329653e-21 7.62329653e-21 7.62329653e-21 7.62329653e-21
      7.62329653e-21 7.62329653e-21 7.62329653e-21 7.62329653e-21
      7.62329653e-21 7.62329653e-21 7.62329653e-21 7.62329653e-21
      7.62329653e-21 7.62329653e-21 7.62329653e-21 7.62329653e-21
      7.62329653e-21 7.62329653e-21 7.62329653e-21 7.62329653e-21
      7.62329653e-21 7.62329653e-21 7.62329653e-21 7.62329653e-21
      7.62329653e-21 7.62329653e-21 7.62329653e-21 7.62329653e-21
      7.62329653e-21 7.62329653e-21 7.62329653e-21 7.62329653e-21
      7.62329653e-21 7.62329653e-21 7.62329653e-21 7.62329653e-21
      7.62329653e-21 7.62329653e-21 7.62329653e-21 7.62329653e-21
      7.62329653e-21 7.62329653e-21 7.62329653e-21 7.62329653e-21
      7.62329653e-21 7.62329653e-21 7.62329653e-21 7.62329653e-21
      7.62329653e-21 7.62329653e-21 7.62329653e-21 7.62329653e-21
      7.62329653e-21 7.62329653e-21 7.62329653e-21 7.62329653e-21
      7.62329653e-21 7.62329653e-21 7.62329653e-21 7.62329653e-21
      7.62329653e-21 7.62329653e-21 7.62329653e-21 7.62329653e-21
      7.62329653e-21 7.62329653e-21 7.62329653e-21 7.62329653e-21
      7.62329653e-21 7.62329653e-21 7.62329653e-21 7.62329653e-21
      7.62329653e-21 7.62329653e-21 7.62329653e-21 7.62329653e-21
      7.62329653e-21 7.62329653e-21 7.62329653e-21 7.62329653e-21
      7.62329653e-21 7.62329653e-21 7.62329653e-21 7.62329653e-21
      7.62329653e-21 7.62329653e-21 7.62329653e-21 7.62329653e-21
      7.62329653e-21 7.62329653e-21 7.62329653e-21 7.62329653e-21
      7.62329653e-21 7.62329653e-21 7.62329653e-21 7.62329653e-21
      7.62329653e-21 7.62329653e-21 7.62329653e-21 7.62329653e-21
      7.62329653e-21 7.62329653e-21 7.62329653e-21 7.62329653e-21
      7.62329653e-21 7.62329653e-21 7.62329653e-21 7.62329653e-21
      7.62329653e-21 7.62329653e-21 7.62329653e-21 7.62329653e-21
      7.62329653e-21 7.62329653e-21 7.62329653e-21 7.62329653e-21
      7.62329653e-21 7.62329653e-21 7.62329653e-21 7.62329653e-21
      7.62329653e-21 7.62329653e-21 7.62329653e-21 7.62329653e-21
      7.62329653e-21 7.62329653e-21 7.62329653e-21 7.62329653e-21
      7.62329653e-21 7.62329653e-21 7.62329653e-21 7.62329653e-21
      7.62329653e-21 7.62329653e-21 7.62329653e-21 7.62329653e-21
      7.62329653e-21 7.62329653e-21 7.62329653e-21 7.62329653e-21
      7.62329653e-21 7.62329653e-21 7.62329653e-21 7.62329653e-21
      7.62329653e-21 7.62329653e-21 7.62329653e-21 7.62329653e-21
      7.62329653e-21 7.62329653e-21 7.62329653e-21 7.62329653e-21
      7.62329653e-21 7.62329653e-21 7.62329653e-21 7.62329653e-21
      7.62329653e-21 7.62329653e-21 7.62329653e-21 7.62329653e-21
      7.62329653e-21 7.62329653e-21 7.62329653e-21 7.62329653e-21
      7.62329653e-21 7.62329653e-21 7.62329653e-21 7.62329653e-21
      7.62329653e-21 7.62329653e-21 7.62329653e-21 7.62329653e-21
      7.62329653e-21 7.62329653e-21 7.62329653e-21 7.62329653e-21
      7.62329653e-21 7.62329653e-21 7.62329653e-21 7.62329653e-21
      7.62329653e-21 7.62329653e-21 7.62329653e-21 7.62329653e-21
      7.62329653e-21 7.62329653e-21 7.62329653e-21 7.62329653e-21
      7.62329653e-21 7.62329653e-21 7.62329653e-21 7.62329653e-21
      7.62329653e-21 7.62329653e-21 7.62329653e-21 7.62329653e-21
      7.62329653e-21 7.62329653e-21 7.62329653e-21 7.62329653e-21
      7.62329653e-21 7.62329653e-21 7.62329653e-21 7.62329653e-21
      7.62329653e-21 7.62329653e-21 7.62329653e-21 7.62329653e-21
      7.62329653e-21 7.62329653e-21 7.62329653e-21 7.62329653e-21
      7.62329653e-21 7.62329653e-21 7.62329653e-21 7.62329653e-21
      7.62329653e-21 7.62329653e-21 7.62329653e-21 7.62329653e-21
      7.62329653e-21 7.62329653e-21 7.62329653e-21 7.62329653e-21
      7.62329653e-21 7.62329653e-21 7.62329653e-21 7.62329653e-21
      7.62329653e-21 7.62329653e-21 7.62329653e-21 7.62329653e-21
      7.62329653e-21 7.62329653e-21 7.62329653e-21 7.62329653e-21
      7.62329653e-21 7.62329653e-21 7.62329653e-21 7.62329653e-21
      7.62329653e-21 7.62329653e-21 7.62329653e-21 7.62329653e-21
      7.62329653e-21 7.62329653e-21 7.62329653e-21 7.62329653e-21
      7.62329653e-21 7.62329653e-21 7.62329653e-21 7.62329653e-21
      7.62329653e-21 7.62329653e-21 7.62329653e-21 7.62329653e-21
      7.62329653e-21 7.62329653e-21 7.62329653e-21 7.62329653e-21
      7.62329653e-21 7.62329653e-21 7.62329653e-21 7.62329653e-21
      7.62329653e-21 7.62329653e-21 7.62329653e-21 7.62329653e-21
      7.62329653e-21 7.62329653e-21 7.62329653e-21 7.62329653e-21
      7.62329653e-21 7.62329653e-21 7.62329653e-21 7.62329653e-21
      7.62329653e-21 7.62329653e-21 7.62329653e-21 7.62329653e-21
      7.62329653e-21 7.62329653e-21 7.62329653e-21 7.62329653e-21
      7.62329653e-21 7.62329653e-21 7.62329653e-21 7.62329653e-21
      7.62329653e-21 7.62329653e-21 7.62329653e-21 7.62329653e-21
      7.62329653e-21 7.62329653e-21 7.62329653e-21 7.62329653e-21
      7.62329653e-21 7.62329653e-21 7.62329653e-21 7.62329653e-21
      7.62329653e-21 7.62329653e-21 7.62329653e-21 7.62329653e-21
      7.62329653e-21 7.62329653e-21 7.62329653e-21 7.62329653e-21
      7.62329653e-21 7.62329653e-21 7.62329653e-21 7.62329653e-21
      7.62329653e-21 7.62329653e-21 7.62329653e-21 7.62329653e-21
      7.62329653e-21 7.62329653e-21 7.62329653e-21 7.62329653e-21
      7.62329653e-21 7.62329653e-21 7.62329653e-21 7.62329653e-21
      7.62329653e-21 7.62329653e-21 7.62329653e-21 7.62329653e-21
      7.62329653e-21 7.62329653e-21 7.62329653e-21 7.62329653e-21
      7.62329653e-21 7.62329653e-21 7.62329653e-21 7.62329653e-21
      7.62329653e-21 7.62329653e-21 7.62329653e-21 7.62329653e-21
      7.62329653e-21 7.62329653e-21 7.62329653e-21 7.62329653e-21
      7.62329653e-21 7.62329653e-21 7.62329653e-21 7.62329653e-21
      7.62329653e-21 7.62329653e-21 7.62329653e-21 7.62329653e-21
      7.62329653e-21 7.62329653e-21 7.62329653e-21 7.62329653e-21
      7.62329653e-21 7.62329653e-21 7.62329653e-21 7.62329653e-21
      7.62329653e-21 7.62329653e-21 7.62329653e-21 7.62329653e-21
      7.62329653e-21 7.62329653e-21 7.62329653e-21 7.62329653e-21
      7.62329653e-21 7.62329653e-21 7.62329653e-21 7.62329653e-21
      7.62329653e-21 7.62329653e-21 7.62329653e-21 7.62329653e-21
      7.62329653e-21 7.62329653e-21 7.62329653e-21 7.62329653e-21
      7.62329653e-21 7.62329653e-21 7.62329653e-21 7.62329653e-21
      7.62329653e-21 7.62329653e-21 7.62329653e-21 7.62329653e-21
      7.62329653e-21 7.62329653e-21 7.62329653e-21 7.62329653e-21
      7.62329653e-21 7.62329653e-21 7.62329653e-21 7.62329653e-21
      7.62329653e-21 7.62329653e-21 7.62329653e-21 7.62329653e-21
      7.62329653e-21 7.62329653e-21 7.62329653e-21 7.62329653e-21
      7.62329653e-21 7.62329653e-21 7.62329653e-21 7.62329653e-21
      7.62329653e-21 7.62329653e-21 7.62329653e-21 7.62329653e-21
      7.62329653e-21 7.62329653e-21 7.62329653e-21 7.62329653e-21
      7.62329653e-21 7.62329653e-21 7.62329653e-21 7.62329653e-21
      7.62329653e-21 7.62329653e-21 7.62329653e-21 7.62329653e-21
      7.62329653e-21 7.62329653e-21 7.62329653e-21 7.62329653e-21
      7.62329653e-21 7.62329653e-21 7.62329653e-21 7.62329653e-21
      7.62329653e-21 7.62329653e-21 7.62329653e-21 7.62329653e-21
      7.62329653e-21 7.62329653e-21 7.62329653e-21 7.62329653e-21
      7.62329653e-21 7.62329653e-21 7.62329653e-21 7.62329653e-21
      7.62329653e-21 7.62329653e-21 7.62329653e-21 7.62329653e-21
      7.62329653e-21 7.62329653e-21 7.62329653e-21 7.62329653e-21
      7.62329653e-21 7.62329653e-21 7.62329653e-21 7.62329653e-21
      7.62329653e-21 7.62329653e-21 7.62329653e-21 7.62329653e-21
      7.62329653e-21 7.62329653e-21 7.62329653e-21 7.62329653e-21
      7.62329653e-21 7.62329653e-21 7.62329653e-21 7.62329653e-21
      7.62329653e-21 7.62329653e-21 7.62329653e-21 7.62329653e-21
      7.62329653e-21 7.62329653e-21 7.62329653e-21 7.62329653e-21
      7.62329653e-21 7.62329653e-21 7.62329653e-21 7.62329653e-21
      7.62329653e-21 7.62329653e-21 7.62329653e-21 7.62329653e-21
      7.62329653e-21 7.62329653e-21 7.62329653e-21 7.62329653e-21
      7.62329653e-21 7.62329653e-21 7.62329653e-21 7.62329653e-21
      7.62329653e-21 7.62329653e-21 7.62329653e-21 7.62329653e-21
      7.62329653e-21 7.62329653e-21 7.62329653e-21 7.62329653e-21
      7.62329653e-21 7.62329653e-21 7.62329653e-21 7.62329653e-21
      7.62329653e-21 7.62329653e-21 7.62329653e-21 7.62329653e-21
      7.62329653e-21 7.62329653e-21 7.62329653e-21 7.62329653e-21
      7.62329653e-21 7.62329653e-21 7.62329653e-21 7.62329653e-21
      7.62329653e-21 7.62329653e-21 7.62329653e-21 7.62329653e-21
      7.62329653e-21 7.62329653e-21 7.62329653e-21 7.62329653e-21
      7.62329653e-21 7.62329653e-21 7.62329653e-21 7.62329653e-21
      7.62329653e-21 7.62329653e-21 7.62329653e-21 7.62329653e-21
      7.62329653e-21 7.62329653e-21 7.62329653e-21 7.62329653e-21
      7.62329653e-21 7.62329653e-21 7.62329653e-21 7.62329653e-21
      7.62329653e-21 7.62329653e-21 7.62329653e-21 7.62329653e-21
      7.62329653e-21 7.62329653e-21 7.62329653e-21 7.62329653e-21
      7.62329653e-21 7.62329653e-21 7.62329653e-21 7.62329653e-21
      7.62329653e-21 7.62329653e-21 7.62329653e-21 7.62329653e-21
      7.62329653e-21 7.62329653e-21 7.62329653e-21 7.62329653e-21
      7.62329653e-21 7.62329653e-21 7.62329653e-21 7.62329653e-21
      7.62329653e-21 7.62329653e-21 7.62329653e-21 7.62329653e-21
      7.62329653e-21 7.62329653e-21 7.62329653e-21 7.62329653e-21
      7.62329653e-21 7.62329653e-21 7.62329653e-21 7.62329653e-21
      7.62329653e-21 7.62329653e-21 7.62329653e-21 7.62329653e-21
      7.62329653e-21 7.62329653e-21 7.62329653e-21 7.62329653e-21
      7.62329653e-21 7.62329653e-21 7.62329653e-21 7.62329653e-21
      7.62329653e-21 7.62329653e-21 7.62329653e-21 7.62329653e-21
      7.62329653e-21 7.62329653e-21 7.62329653e-21 7.62329653e-21
      7.62329653e-21 7.62329653e-21 7.62329653e-21 7.62329653e-21
      7.62329653e-21 7.62329653e-21 7.62329653e-21 7.62329653e-21
      7.62329653e-21 7.62329653e-21 7.62329653e-21 7.62329653e-21
      7.62329653e-21 7.62329653e-21 7.62329653e-21 7.62329653e-21
      7.62329653e-21 7.62329653e-21 7.62329653e-21 7.62329653e-21
      7.62329653e-21 7.62329653e-21 7.62329653e-21 7.62329653e-21
      7.62329653e-21 7.62329653e-21 7.62329653e-21 7.62329653e-21
      7.62329653e-21 7.62329653e-21 7.62329653e-21 7.62329653e-21
      7.62329653e-21 7.62329653e-21 7.62329653e-21 7.62329653e-21
      7.62329653e-21 7.62329653e-21 7.62329653e-21 7.62329653e-21
      7.62329653e-21 7.62329653e-21 7.62329653e-21 7.62329653e-21
      7.62329653e-21 7.62329653e-21 7.62329653e-21 7.62329653e-21
      7.62329653e-21 7.62329653e-21 7.62329653e-21 7.62329653e-21
      7.62329653e-21 7.62329653e-21 7.62329653e-21 7.62329653e-21
      7.62329653e-21 7.62329653e-21 7.62329653e-21 7.62329653e-21
      7.62329653e-21 7.62329653e-21 7.62329653e-21 7.62329653e-21
      7.62329653e-21 7.62329653e-21 7.62329653e-21 7.62329653e-21
      7.62329653e-21 7.62329653e-21 7.62329653e-21 7.62329653e-21
      7.62329653e-21 7.62329653e-21 7.62329653e-21 7.62329653e-21
      7.62329653e-21 7.62329653e-21 7.62329653e-21 7.62329653e-21
      7.62329653e-21 7.62329653e-21 7.62329653e-21 7.62329653e-21
      7.62329653e-21 7.62329653e-21 7.62329653e-21 7.62329653e-21
      7.62329653e-21 7.62329653e-21 7.62329653e-21 7.62329653e-21
      7.62329653e-21 7.62329653e-21 7.62329653e-21 7.62329653e-21
      7.62329653e-21 7.62329653e-21 7.62329653e-21 7.62329653e-21
      7.62329653e-21 7.62329653e-21 7.62329653e-21 7.62329653e-21
      7.62329653e-21 7.62329653e-21 7.62329653e-21 7.62329653e-21
      7.62329653e-21 7.62329653e-21 7.62329653e-21 7.62329653e-21
      7.62329653e-21 7.62329653e-21 7.62329653e-21 7.62329653e-21
      7.62329653e-21 7.62329653e-21 7.62329653e-21 7.62329653e-21
      7.62329653e-21 7.62329653e-21 7.62329653e-21 7.62329653e-21
      7.62329653e-21 7.62329653e-21 7.62329653e-21 7.62329653e-21
      7.62329653e-21 7.62329653e-21 7.62329653e-21 7.62329653e-21
      7.62329653e-21 7.62329653e-21 7.62329653e-21 7.62329653e-21
      7.62329653e-21 7.62329653e-21 7.62329653e-21 7.62329653e-21
      7.62329653e-21 7.62329653e-21 7.62329653e-21 7.62329653e-21
      7.62329653e-21 7.62329653e-21 7.62329653e-21 7.62329653e-21
      7.62329653e-21 7.62329653e-21 7.62329653e-21 7.62329653e-21
      7.62329653e-21 7.62329653e-21 7.62329653e-21 7.62329653e-21
      7.62329653e-21 7.62329653e-21 7.62329653e-21 7.62329653e-21
      7.62329653e-21 7.62329653e-21 7.62329653e-21 7.62329653e-21
      7.62329653e-21 7.62329653e-21 7.62329653e-21 7.62329653e-21
      7.62329653e-21 7.62329653e-21 7.62329653e-21 7.62329653e-21</_>
    <_>
      -4.02340650e-21 -4.02340650e-21 -4.02340650e-21 -4.02340650e-21
      -4.02340650e-21 -4.02340650e-21 -4.02340650e-21 -4.02340650e-21
      8.96583572e-08 -4.02340650e-21 -2.48312659e-07 9.00375241e-08
      -4.02340650e-21 -4.20401420e-08 -1.71038668e-08 -1.19039157e-07
      -1.55504782e-08 3.21976259e-08 -2.55097081e-08 -2.22917879e-10
      -4.66100651e-08 5.22961869e-08 9.14161635e-09 -1.28142503e-07
      -4.02340650e-21 -4.02340650e-21 -4.02340650e-21 -4.02340650e-21
      -4.02340650e-21 -4.02340650e-21 -4.02340650e-21 -4.02340650e-21
      -4.02340650e-21 -4.02340650e-21 -4.02340650e-21 -4.02340650e-21
      -4.02340650e-21 -4.02340650e-21 -4.02340650e-21 -4.02340650e-21
      -4.02340650e-21 -4.02340650e-21 -9.89515314e-08 -2.31560033e-08
      -1.00020223e-07 -9.34535933e-08 1.36956984e-07 -5.01825355e-08
      -1.02571512e-07 4.45243671e-07 -4.18028563e-08 1.84912281e-08
      -6.95657008e-08 -2.02594904e-07 1.26705686e-08 -5.79429020e-08
      6.59740635e-08 1.95820515e-08 -4.02340650e-21 -4.02340650e-21
      -4.02340650e-21 -4.02340650e-21 -4.02340650e-21 -4.02340650e-21
      -4.02340650e-21 -4.02340650e-21 -4.02340650e-21 -4.02340650e-21
      -4.02340650e-21 -4.02340650e-21 -4.02340650e-21 -4.02340650e-21
      -4.02340650e-21 -4.02340650e-21 -4.02340650e-21 -4.02340650e-21
      -2.97597893e-08 2.11968484e-07 -6.53262333e-08 2.47255816e-08
      1.12392101e-07 -6.03041741e-08 1.98546530e-08 -2.31282826e-07
      -6.96173288e-08 9.36650224e-08 -5.53183135e-08 8.10134679e-08
      8.55146425e-08 -4.02437372e-09 -6.85305395e-08 -1.52622093e-08
      -4.02340650e-21 -4.02340650e-21 -4.02340650e-21 -4.02340650e-21
      -4.02340650e-21 -4.02340650e-21 -4.02340650e-21 -4.02340650e-21
      -4.02340650e-21 -4.02340650e-21 -4.02340650e-21 -4.02340650e-21
      -4.02340650e-21 -4.02340650e-21 -4.02340650e-21 -4.02340650e-21
      -4.02340650e-21 -4.02340650e-21 1.45294958e-08 -1.48385467e-07
      6.74839313e-08 -2.76051367e-07 1.90547809e-07 1.41762300e-08
      2.47870986e-07 1.48480936e-07 -5.01848838e-08 -9.11814979e-08
      -1.20412153e-07 -1.13772273e-07 6.73677860e-08 -7.72428450e-08
      9.30937247e-08 5.50144712e-08 -4.02340650e-21 -4.02340650e-21
      -4.02340650e-21 -4.02340650e-21 -4.02340650e-21 -4.02340650e-21
      -4.02340650e-21 -4.02340650e-21 -4.02340650e-21 -4.02340650e-21
      -4.02340650e-21 -4.02340650e-21 -4.02340650e-21 -4.02340650e-21
      -4.02340650e-21 -4.02340650e-21 -4.02340650e-21 -4.02340650e-21
      9.31202706e-08 -1.56729158e-07 1.61998095e-08 1.58104910e-07
      -2.62671360e-08 -9.97858720e-08 -5.33314513e-08 -1.40702582e-07
      -2.26801866e-09 1.45694528e-07 1.32088800e-07 1.26893312e-07
      -3.94890840e-08 -1.99430531e-07 -1.28911761e-08 -7.22454629e-08
      -4.02340650e-21 -4.02340650e-21 -4.02340650e-21 -4.02340650e-21
      -4.02340650e-21 -4.02340650e-21 -4.02340650e-21 -4.02340650e-21
      -4.02340650e-21 -4.02340650e-21 -4.02340650e-21 -4.02340650e-21
      -4.02340650e-21 -4.02340650e-21 -4.02340650e-21 -4.02340650e-21
      -4.02340650e-21 -4.02340650e-21 -5.69361234e-08 -1.16247394e-08
      -7.81342635e-08 1.36667694e-07 1.69393061e-07 -6.43621600e-09
      5.06822744e-08 1.33201468e-07 1.04504885e-07 -2.42008781e-07
      -3.66448631e-08 1.22369741e-07 -2.30911795e-07 1.94744928e-07
      -2.26335743e-07 8.13421011e-08 -4.02340650e-21 -4.02340650e-21
      -4.02340650e-21 -4.02340650e-21 -4.02340650e-21 -4.02340650e-21
      -4.02340650e-21 -4.02340650e-21 -4.02340650e-21 -4.02340650e-21
      -4.02340650e-21 -4.02340650e-21 -4.02340650e-21 -4.02340650e-21
      -4.02340650e-21 -4.02340650e-21 -4.02340650e-21 -4.02340650e-21
      -1.11445075e-07 6.78473953e-08 -5.92923826e-08 -2.38173836e-08
      -9.22823256e-06 7.63413482e-06 -1.45145108e-07 -7.61645879e-06
      4.76462310e-06 1.63549589e-06 -7.53621589e-06 -1.00857369e-06
      4.67294876e-06 -7.59175464e-06 2.20574492e-07 -9.40534477e-08
      -4.02340650e-21 -4.02340650e-21 -4.02340650e-21 -4.02340650e-21
      -4.02340650e-21 -4.02340650e-21 -4.02340650e-21 -4.02340650e-21
      -4.02340650e-21 -4.02340650e-21 -4.02340650e-21 -4.02340650e-21
      -4.02340650e-21 -4.02340650e-21 -4.02340650e-21 -4.02340650e-21
      -4.02340650e-21 -4.02340650e-21 2.53411372e-08 -5.58058844e-08
      -5.99308532e-06 8.47267131e-07 1.84930650e-05 3.11067220e-06
      3.21727862e-06 3.10625614e-06 -1.00203836e-08 5.92118132e-09
      -1.06622871e-07 -1.54264484e-07 2.30717312e-08 -2.42737292e-06
      -2.66678853e-05 -7.63181106e-06 -4.02340650e-21 -4.02340650e-21
      -4.02340650e-21 -4.02340650e-21 -4.02340650e-21 -4.02340650e-21
      -4.02340650e-21 -4.02340650e-21 -4.02340650e-21 -4.02340650e-21
      -1.02356786e-07 -4.02340650e-21 -4.46573019e-08 -6.74628993e-08
      7.57193916e-08 -1.08163903e-07 2.61939050e-07 -7.43451167e-08
      -3.65728070e-08 1.11120278e-06 3.24114785e-06 3.01161572e-06
      3.33902994e-06 3.12569796e-06 -2.55025885e-08 -5.84882187e-09
      -2.12768896e-08 5.37676392e-08 -1.40483309e-07 9.03202562e-08
      -7.82130058e-08 2.78229173e-08 7.54779705e-07 -1.48756362e-05
      -7.58221540e-06 -2.97597893e-08 3.37680390e-08 -5.96310414e-08
      5.05507991e-08 1.25537269e-07 -1.97447008e-07 6.50524754e-08
      -4.02340650e-21 -4.02340650e-21 2.21004761e-08 6.64809932e-08
      1.37865698e-07 9.27333303e-08 -2.95477616e-08 2.40477362e-08
      -8.80630466e-08 -4.81498752e-08 3.67136158e-06 3.13658143e-06
      3.24216967e-06 -1.11132557e-07 -2.19161826e-08 -7.60433565e-08
      1.61536970e-08 4.96410273e-08 1.82903737e-08 -1.87489050e-07
      2.00444191e-07 -2.55180424e-07 2.67282250e-08 -6.35696793e-08
      -1.70756880e-06 -4.15602972e-06 -1.48932349e-05 -1.73621720e-05
      -1.17860068e-07 1.71968537e-08 1.48331103e-09 5.79709898e-08
      -2.62709925e-08 1.57327122e-07 -4.02340650e-21 -4.02340650e-21
      1.65090108e-09 -4.31436709e-09 -1.90033504e-07 2.11018474e-08
      2.39750676e-07 3.32327602e-07 -1.45493729e-07 3.53681276e-06
      3.25606788e-06 -1.29904347e-05 -1.08337794e-07 1.44097640e-07
      2.59083293e-07 9.16971885e-08 -7.00412875e-06 -6.82377276e-06
      -5.14973499e-06 2.85234273e-06 2.90409366e-06 1.75408986e-05
      1.74882607e-05 -1.05869333e-07 9.11607785e-08 -1.66619839e-06
      -1.85844547e-05 -3.79336529e-06 -4.16796695e-08 -5.42372425e-10
      9.76322490e-09 -8.92793679e-08 1.43645309e-07 3.70030762e-08
      -4.02340650e-21 -4.02340650e-21 -7.02976806e-08 1.02546032e-07
      -5.32891882e-08 -4.30644000e-08 -1.65125954e-07 -1.20594706e-07
      1.48746704e-08 1.10726851e-05 1.65247116e-06 -3.24851861e-08
      1.46409249e-07 1.09226512e-05 1.83459269e-05 -1.53992175e-06
      1.28254042e-05 1.30403587e-05 1.28928923e-05 1.31633933e-05
      1.29849377e-05 9.45604916e-06 8.24855942e-06 1.73898097e-05
      -1.69734699e-06 -1.46483353e-06 -4.12988356e-06 -7.52988080e-06
      -9.73605438e-06 -2.55606505e-08 1.99055521e-07 2.05944808e-08
      -1.17498153e-07 2.73464053e-07 -4.02340650e-21 -4.02340650e-21
      1.93130241e-08 -4.28424229e-08 -1.75309367e-08 5.54324089e-08
      5.97069345e-08 1.45432139e-07 1.67726430e-05 1.53286260e-06
      -3.83804405e-07 -7.14265411e-08 1.24206622e-07 -3.64915763e-06
      2.21469668e-06 1.60809359e-05 1.53488315e-07 -8.00427336e-10
      8.42019929e-08 5.49367414e-08 2.40642599e-08 1.60472810e-05
      2.03710915e-05 9.44521889e-06 1.73013032e-05 -1.06252571e-07
      -8.65694183e-09 -1.83528446e-05 -1.74785637e-05 -9.62215199e-06
      -7.59944569e-08 -1.39144518e-07 -6.85601478e-08 -8.46953014e-08
      -4.02340650e-21 -4.02340650e-21 7.74467992e-08 1.72347185e-07
      -6.63499389e-09 -8.95249883e-08 -2.09250572e-07 -1.19039157e-07
      1.09417142e-05 1.68890838e-05 6.99863776e-08 -3.49343026e-07
      9.77543309e-08 -3.38235304e-06 1.63531149e-05 1.45480001e-07
      2.35402325e-07 -2.18075613e-07 -9.31960216e-08 -1.52239359e-08
      -2.61076387e-08 1.25826830e-07 -2.31280708e-07 -6.88224827e-06
      2.68309595e-05 1.56865184e-07 5.82060871e-08 -1.26705686e-08
      8.63677997e-06 -2.05219239e-05 -3.65210610e-07 -4.30644000e-08
      3.51752817e-07 -1.23653709e-08 -4.02340650e-21 -4.02340650e-21
      -6.18110008e-08 -2.25359983e-07 -1.59399054e-08 1.61237722e-07
      5.30719433e-08 -1.35980954e-07 1.08966487e-05 9.73272927e-06
      3.36812711e-08 -3.87478855e-10 1.95164880e-08 3.26454960e-06
      -1.05088212e-07 -6.66422011e-08 1.28393651e-07 -1.03049715e-07
      4.25919495e-07 -1.68882452e-09 -2.89010444e-07 1.66847755e-07
      1.02053967e-07 -1.53049456e-07 7.72259591e-06 1.72178734e-05
      1.02758293e-07 -1.13461006e-07 1.07762653e-05 -4.25407688e-06
      -1.03998758e-07 2.87765573e-07 -1.05124748e-07 -1.52442993e-07
      -4.02340650e-21 -4.02340650e-21 -1.33744678e-07 1.40152466e-07
      -4.02340650e-21 -8.65937153e-08 -1.56449545e-07 -5.95195786e-08
      3.25313204e-06 -7.25168121e-08 6.61460078e-08 -2.37023855e-07
      9.44270960e-06 1.60619493e-05 2.25768879e-08 1.05611065e-07
      3.45690836e-08 6.85685251e-08 -5.83959832e-08 2.51804664e-07
      -3.35645112e-08 -3.61299080e-08 2.80917583e-08 -3.50660478e-08
      5.99756368e-06 1.75205023e-05 -1.89808105e-07 1.37983264e-07
      1.08363201e-05 -4.53446364e-06 -7.15778197e-06 -1.75150120e-07
      -4.41093633e-08 6.82906816e-08 -4.02340650e-21 -4.02340650e-21
      1.86605533e-07 -3.00048590e-08 2.77368422e-08 1.17568455e-07
      -2.27118573e-08 1.84912281e-08 -6.39479640e-06 3.92045729e-09
      1.50024295e-08 -1.61761764e-05 -5.99857958e-06 6.28673160e-06
      3.78330355e-07 -8.87095624e-08 1.57425575e-07 2.49809489e-08
      7.27818517e-08 -4.30644000e-08 -1.09469056e-07 1.57838016e-07
      -1.29416122e-07 1.88462863e-07 5.88240209e-06 1.74771885e-05
      4.26477449e-08 -1.90840410e-07 1.09099738e-05 -2.07786161e-06
      -7.57557291e-06 9.22051271e-08 -1.01323341e-08 -6.43240767e-08
      -4.02340650e-21 -4.02340650e-21 -2.02294803e-09 4.67438184e-07
      -6.93630042e-08 -1.50024295e-08 -3.94478796e-08 1.48039760e-07
      -1.36342942e-05 -1.94408622e-05 -1.94972472e-05 -2.17842007e-05
      -9.17219404e-06 -6.48132854e-08 1.24476509e-08 -2.99716270e-08
      9.75376082e-08 2.32960371e-08 -1.23457809e-07 1.73905022e-07
      3.67595376e-08 -4.62346712e-08 2.98109228e-07 -1.11458939e-10
      5.87424711e-06 1.75479072e-05 -7.54480638e-08 7.28519867e-09
      1.09033572e-05 -4.10983830e-06 -8.52196038e-08 -2.30370691e-08
      6.22060128e-08 1.52810500e-07 -4.02340650e-21 -4.02340650e-21
      2.11984030e-07 1.02811093e-07 -4.32748486e-08 2.86259052e-07
      2.12418058e-07 -2.07592468e-08 -1.37180141e-05 -3.80187557e-05
      -3.79946359e-05 -3.78104523e-05 -2.51635174e-05 1.76001123e-07
      6.42237978e-08 1.76932335e-08 1.73490747e-07 -5.94340532e-09
      1.32849101e-08 3.19674029e-07 -5.08788958e-08 6.36273967e-08
      -4.44966730e-08 -8.93908307e-08 1.12841190e-05 9.56353142e-06
      -8.36002982e-08 -1.27254793e-07 1.10148221e-05 -1.82966396e-05
      -1.38971302e-07 -8.38356655e-08 1.39797464e-07 -5.00945738e-08
      -4.02340650e-21 -4.02340650e-21 -1.80136919e-08 2.77368422e-08
      4.95314687e-08 6.38706155e-08 -9.98330663e-08 1.49657410e-07
      -1.23030995e-05 -3.80168422e-05 -3.79728990e-05 -3.78465302e-05
      -2.50784378e-05 8.15517467e-08 1.97543656e-07 -9.55671453e-08
      -1.37921447e-07 1.01527640e-07 -1.16174157e-07 -1.20894057e-07
      3.19835927e-08 1.79274906e-07 -6.01536243e-08 1.62586493e-05
      1.07922178e-05 9.88844295e-06 -7.56079288e-08 2.37513778e-08
      -1.61912358e-05 -1.85071931e-05 4.35012524e-08 -6.58112995e-08
      -1.29271712e-07 1.14121946e-07 -4.02340650e-21 -4.02340650e-21
      1.05504391e-07 2.89864545e-07 -1.04281803e-07 1.00482023e-08
      2.01376167e-07 8.43927239e-09 -2.12286268e-05 -3.80024067e-05
      -3.79425364e-05 -3.80617275e-05 -2.05288216e-05 7.00894631e-08
      -1.32617677e-08 6.88737032e-08 1.65155029e-07 6.01430301e-08
      2.74683707e-08 9.60024096e-08 1.18564138e-07 6.34044781e-08
      2.22790078e-07 2.18660534e-05 2.68922395e-05 9.82501297e-06
      -9.22524634e-08 -1.55898732e-07 -7.60188141e-06 -1.10053670e-05
      8.21186248e-08 1.33432948e-07 -1.03435411e-07 4.17508943e-07
      -4.02340650e-21 -4.02340650e-21 1.25222783e-07 -9.67727409e-09
      2.43597924e-07 -5.95195786e-08 7.57176277e-09 5.02728845e-08
      -2.48640172e-05 -3.79200283e-05 -3.78935329e-05 -3.77865326e-05
      -2.42538281e-05 -2.59028809e-07 2.24749783e-07 4.76769335e-09
      -4.74935327e-08 1.01581698e-07 -4.09520560e-08 -1.00547929e-07
      5.57522428e-09 4.62516354e-08 1.94918230e-05 2.15550099e-05
      2.71125537e-05 9.86070609e-06 1.36345761e-07 -1.64412666e-06
      -2.16181852e-05 -1.40155153e-05 1.26423927e-07 -3.06932897e-08
      7.41730677e-09 7.46115756e-12 -4.02340650e-21 -4.02340650e-21
      6.77352077e-08 3.25388640e-07 -5.07641076e-08 2.21782642e-07
      -6.87163748e-08 6.36273967e-08 -1.73220997e-05 -3.80237216e-05
      -3.78353252e-05 -3.79472040e-05 -1.65859510e-05 -3.05575618e-08
      2.80305841e-07 -1.58121125e-07 3.93239304e-07 -1.31978041e-07
      3.20165412e-07 -6.10105815e-08 1.80086488e-08 1.95745415e-05
      2.18233236e-05 3.79758640e-05 2.68219737e-05 9.97457209e-06
      -1.44061914e-05 -1.64217054e-05 -2.16979079e-05 -1.39865597e-05
      1.33897245e-07 3.08512433e-08 9.58072661e-08 -1.53072634e-07
      -4.02340650e-21 -4.02340650e-21 1.10224097e-08 -4.03152427e-08
      1.56347539e-07 2.81107866e-08 -5.42192709e-08 3.89476895e-08
      -2.48660563e-05 -3.79417143e-05 -3.80578094e-05 -3.76734533e-05
      -2.05710239e-05 -5.36198534e-08 -3.36291954e-08 1.11100725e-07
      -8.92793679e-08 1.71868137e-07 -1.15888596e-07 1.27248185e-07
      1.62930355e-05 2.18091591e-05 2.16533335e-05 3.81005084e-05
      2.34517029e-05 -4.77500816e-06 -1.95017165e-05 -2.17352299e-05
      -2.19090562e-05 -1.28831680e-05 5.93432787e-08 8.85638562e-10
      1.49297264e-07 1.23590482e-07 -4.02340650e-21 -4.02340650e-21
      -8.08140612e-08 -4.02340650e-21 -2.45078233e-08 -4.02340650e-21
      -1.52051257e-07 -7.75564146e-08 -2.13051226e-05 -3.81006175e-05
      -3.80367492e-05 -3.80525962e-05 -1.29370655e-05 2.24734809e-08
      1.02202414e-07 1.12046612e-08 -2.45078233e-08 4.37910899e-08
      8.55435758e-08 1.61379012e-05 2.18754103e-05 2.19613230e-05
      2.17040742e-05 3.80912606e-05 1.26468422e-05 -4.67631617e-06
      -2.18458736e-05 -2.18285368e-05 -3.79488556e-05 -1.41869778e-05
      -4.02340650e-21 1.39373512e-07 -1.37034121e-07 -1.22539117e-08
      -4.02340650e-21 -4.02340650e-21 -4.02340650e-21 -9.30679747e-08
      -2.97819422e-08 -1.55112829e-07 -1.10635987e-07 -2.97819422e-08
      -2.51060410e-05 -3.80463280e-05 -3.80188831e-05 -3.81006175e-05
      -1.27187723e-05 -9.83820740e-08 -5.66141871e-08 2.23301186e-07
      -3.87782073e-08 2.25305232e-08 1.61578137e-05 2.19264784e-05
      2.15873388e-05 2.18100995e-05 3.80441852e-05 3.77567085e-05
      1.25061106e-05 -1.18316857e-05 -2.18755231e-05 -3.80277961e-05
      -3.80536330e-05 -1.09047087e-05 -1.27872880e-07 -5.77951624e-08
      9.02540354e-09 1.79120804e-07 -4.02340650e-21 -4.02340650e-21
      -1.48909711e-08 -1.22539117e-08 -8.08140612e-08 -1.48909711e-08
      -1.99825720e-07 -7.75564146e-08 -2.50874291e-05 -3.81006175e-05
      -3.78912118e-05 -3.79117701e-05 -1.29878490e-05 -1.37561173e-07
      5.13734832e-08 8.59602309e-08 -1.36445246e-08 1.40214112e-07
      2.19644553e-05 2.17950092e-05 2.20573529e-05 3.76519201e-05
      3.79733647e-05 2.35654479e-05 1.36786900e-06 -1.18447206e-05
      -3.80587626e-05 -3.78362129e-05 -3.78997356e-05 -1.00069137e-05
      3.81429970e-07 -1.40565120e-07 -1.23653709e-08 8.42662828e-08
      -4.02340650e-21 -4.02340650e-21 -2.45078233e-08 -4.02340650e-21
      -4.02340650e-21 -4.02340650e-21 -1.07998922e-07 -1.22539117e-08
      -2.52793034e-05 -3.80171696e-05 -3.79366611e-05 -3.80761121e-05
      -1.28569063e-05 2.19626997e-07 -3.83615486e-08 5.72281600e-08
      1.27960206e-07 1.61013941e-05 2.16919871e-05 3.76999124e-05
      3.79809135e-05 3.80450729e-05 3.61023922e-05 1.62099823e-05
      8.69631367e-06 -2.80634249e-05 -3.80144884e-05 -3.81001737e-05
      -3.80124839e-05 -9.94662514e-06 -7.84091458e-09 -2.54707970e-08
      3.84435808e-08 -4.02340650e-21 -4.02340650e-21 -4.02340650e-21
      -1.22229324e-07 -8.08140612e-08 -4.02340650e-21 -1.31846178e-07
      -2.14716692e-07 -4.02340650e-21 -2.50874291e-05 -3.81006175e-05
      -3.80200254e-05 -3.78912446e-05 -9.76646970e-06 -8.70744614e-08
      -4.02340650e-21 9.63477333e-08 1.90859937e-05 2.18597452e-05
      2.18257464e-05 3.79852791e-05 3.78370496e-05 2.17094421e-05
      1.86821817e-05 1.60460768e-05 -7.44217868e-06 -2.82055335e-05
      -3.79784688e-05 -3.79474113e-05 -3.80463498e-05 -1.00100651e-05
      1.18997228e-07 -2.18603429e-08 -1.11458939e-10 -7.04419847e-08
      -4.02340650e-21 -4.02340650e-21 -4.02340650e-21 -4.02340650e-21
      -1.97769268e-07 -4.02340650e-21 -1.28164018e-07 -1.40842445e-07
      -2.50847916e-05 -3.80761121e-05 -3.79097364e-05 -3.76841635e-05
      -9.83121481e-06 3.28356549e-07 7.12379276e-08 1.85680474e-05
      2.19937192e-05 2.16340504e-05 3.79664780e-05 3.80308193e-05
      3.62393621e-05 2.15979835e-05 1.61878179e-05 1.61752851e-05
      -1.52244286e-06 -1.71867123e-05 -3.79161065e-05 -3.81005084e-05
      -3.04443256e-05 -2.18119058e-05 -1.01040740e-07 -2.15259650e-08
      -3.26539222e-08 1.27254793e-07 -4.02340650e-21 -4.02340650e-21
      -4.90156467e-08 -9.24473866e-08 -3.87782073e-08 -5.10321208e-08
      -9.57450155e-08 -3.87782073e-08 -3.80618403e-05 -3.80708370e-05
      -3.78136901e-05 -3.79738449e-05 -4.02340650e-21 -8.14630070e-08
      1.86195048e-05 2.17854067e-05 2.17396773e-05 3.80698730e-05
      3.79773592e-05 3.79513513e-05 1.95861230e-05 1.59870287e-05
      1.62134711e-05 2.87542804e-07 -1.70305293e-06 -1.69960986e-05
      -3.80332567e-05 -3.81006175e-05 -3.03791985e-05 -1.00217794e-05
      -4.02340650e-21 -8.62589999e-08 -9.00492623e-08 -1.28142503e-07
      -4.02340650e-21 -4.02340650e-21 -7.75564146e-08 -3.93987953e-08
      -4.20358539e-08 -7.75564146e-08 -1.40417924e-07 -4.02340650e-21
      -2.82509536e-05 -3.80761121e-05 -3.80437123e-05 -3.81006175e-05
      3.75237221e-07 1.44182732e-05 2.17275647e-05 2.19317353e-05
      3.81006175e-05 3.80791207e-05 3.78801706e-05 1.93628712e-05
      1.60879663e-05 1.62181277e-05 -1.64748801e-08 -6.73899159e-09
      -9.23415428e-06 -2.80344593e-05 -3.80413803e-05 -3.80573329e-05
      -3.80247366e-05 -9.97638472e-06 6.36273967e-08 -2.15259650e-08
      -1.02695438e-07 -4.02340650e-21 -4.02340650e-21 -4.02340650e-21
      -4.02340650e-21 -6.74924792e-08 -1.54732078e-07 -3.27680887e-08
      3.32940218e-08 -1.59670321e-07 -2.80125496e-05 -3.80584934e-05
      -3.79171724e-05 -3.80744495e-05 7.06432866e-06 2.02222964e-05
      2.17395809e-05 2.17817906e-05 3.79018893e-05 3.79472258e-05
      2.09849186e-05 1.94268614e-05 1.61797379e-05 1.32764253e-08
      1.09424242e-07 8.44514645e-08 -9.09610389e-06 -2.80688200e-05
      -3.79053708e-05 -3.80855054e-05 -3.79531957e-05 -9.93209687e-06
      -1.29733152e-07 3.87014580e-08 -1.06568514e-07 -3.92917023e-08
      -4.02340650e-21 -4.02340650e-21 -1.61300306e-07 -1.88114289e-08
      -6.52939320e-08 1.15182619e-08 -1.46094408e-07 -5.22353609e-08
      -3.80120255e-05 -3.80102792e-05 -3.79580379e-05 -2.18980513e-05
      6.73039858e-06 2.12238865e-05 2.16584649e-05 3.78653240e-05
      3.78857294e-05 3.80068959e-05 1.63263230e-05 1.60969048e-05
      -8.26592128e-08 -4.48809345e-08 -8.44851726e-08 -7.41150325e-06
      -9.30597434e-06 -2.80258701e-05 -3.79513658e-05 -3.79577978e-05
      -3.04068471e-05 -1.01633068e-05 3.73514979e-08 -9.82977895e-08
      -1.27737124e-07 2.03284742e-07 -4.02340650e-21 -4.02340650e-21
      -8.00742512e-08 -9.36727460e-08 -1.21002003e-07 -1.21605339e-07
      1.01775427e-07 6.52133565e-08 -2.05001234e-05 -3.79327830e-05
      -3.77495016e-05 -2.06131808e-05 -6.50806260e-06 1.42433264e-05
      3.79442208e-05 3.79223893e-05 3.78450168e-05 1.68426741e-05
      1.49136267e-05 -1.02206207e-06 -5.98539600e-08 -7.28332452e-08
      -7.53534869e-06 -7.58863644e-06 -1.60002273e-05 -2.79868163e-05
      -3.80149577e-05 -3.79795456e-05 -2.56405347e-05 -9.76678257e-06
      -1.88678158e-07 -9.70540057e-08 -1.22539117e-08 -3.10919972e-07
      -4.02340650e-21 -4.02340650e-21 -2.97597893e-08 -1.04968692e-08
      -1.79004061e-07 4.70250372e-09 -8.92793679e-08 -5.33242464e-08
      -1.75466812e-05 -3.80336714e-05 -1.85376084e-05 -1.61505177e-05
      2.53626553e-07 1.41461387e-05 2.98884734e-05 2.24107607e-05
      1.68236329e-05 1.69475061e-05 -8.15106318e-07 -9.69293637e-07
      -8.79062895e-07 -7.60901821e-06 -7.77763398e-06 -7.54406574e-06
      -1.68716779e-05 -2.82141027e-05 -3.79917583e-05 -3.04546447e-05
      -2.33302890e-05 -1.01407295e-05 -1.30672461e-07 -4.10283505e-08
      1.99436244e-07 7.78239269e-08 -4.02340650e-21 -4.02340650e-21
      1.38368437e-08 -5.44869536e-08 2.13167635e-08 -8.95357566e-09
      1.11785710e-07 -3.18388373e-08 -2.73496844e-05 -1.41310138e-05
      -1.60450909e-05 -1.62822671e-05 6.58866884e-06 1.63507666e-05
      1.31918159e-05 1.06386842e-05 1.67529543e-05 1.68945862e-05
      -1.04202297e-06 -1.08496033e-06 -8.63469722e-06 -8.54767131e-06
      -8.03836792e-06 -1.16576384e-05 -2.81742250e-05 -3.78638470e-05
      -3.03663510e-05 -3.03937322e-05 -9.87469230e-06 -9.86293435e-06
      -1.29350104e-08 6.19604190e-09 -3.86830010e-07 1.59754698e-08
      -4.02340650e-21 -4.02340650e-21 -5.52992176e-08 1.01522133e-07
      1.02467022e-08 2.16020197e-07 -1.39478175e-07 -7.57902796e-10
      -1.64488097e-06 -1.11001718e-05 -8.72179498e-06 -6.29589204e-06
      9.79226024e-06 1.47153205e-05 -1.15092030e-06 8.26734595e-06
      1.01702126e-05 2.48280994e-05 1.46103621e-05 7.14250200e-06
      7.04494551e-06 -4.96775465e-06 -1.94776349e-05 -2.42833394e-05
      -2.80630629e-05 -3.77020515e-05 -3.04982750e-05 -3.03055458e-05
      -9.92520472e-06 -1.10122969e-07 -7.30833278e-08 -9.20174017e-08
      2.13257493e-07 5.81344040e-08 -4.02340650e-21 -4.02340650e-21
      2.83187007e-09 -3.61057886e-08 -6.96937041e-09 -1.85441820e-07
      -6.54340511e-08 -9.92023601e-08 1.92276493e-05 2.48093261e-06
      -8.57736541e-06 7.57452472e-06 8.17422369e-06 -7.00893861e-06
      -2.14166994e-06 -5.39110624e-06 -3.75807053e-06 5.45502508e-06
      3.98929842e-06 -7.03032993e-06 -7.12761994e-06 -5.44210707e-06
      -6.39588916e-06 -8.07050401e-06 -1.35604660e-05 -1.59017472e-05
      -1.40593665e-05 -4.99859198e-07 -9.67841515e-06 6.64991617e-09
      -5.83672799e-09 -5.92226606e-08 -2.93668805e-08 -1.07305942e-08
      -4.02340650e-21 -4.02340650e-21 -1.32699878e-08 -1.61194976e-07
      3.17264117e-08 4.49817108e-08 -1.38076345e-07 1.38145495e-07
      2.16879271e-05 1.53229248e-05 -2.36213327e-06 1.20895002e-05
      -4.38373809e-06 -2.06630575e-05 -5.61896013e-06 -2.17188262e-05
      -5.43393617e-06 -1.07692495e-05 -8.29041255e-06 9.20684215e-06
      -5.19048899e-06 1.59522031e-07 -1.47478409e-06 2.67031237e-06
      -1.09051562e-05 -1.10507881e-05 -8.72541591e-07 8.72938381e-06
      1.84744258e-05 -9.67071685e-08 -5.95195786e-08 -4.43353265e-08
      1.65690778e-07 -3.92045729e-09 -4.02340650e-21 -4.02340650e-21
      -4.02340650e-21 2.86140818e-07 2.85586381e-08 -4.02340650e-21
      3.21098668e-07 -4.02340650e-21 2.18756340e-05 2.34503204e-05
      1.80167044e-05 1.31821071e-05 1.14102920e-06 2.17628622e-06
      -7.73391821e-06 -1.64557641e-05 -1.22955162e-05 -1.07642963e-05
      1.81256178e-06 1.77859465e-06 1.80038160e-06 -8.28695102e-06
      5.32536069e-06 -8.65793118e-06 -8.53939400e-06 -4.74868375e-06
      1.19521264e-05 2.18662772e-05 1.87209371e-05 1.63870482e-05
      2.23076064e-08 9.82141444e-08 8.21186248e-08 -1.12668908e-09
      -4.02340650e-21 -4.02340650e-21 3.11737722e-07 5.71172762e-08
      3.56167419e-07 5.72281600e-08 -4.02340650e-21 3.78326831e-07
      2.20665152e-05 3.79733647e-05 2.33076025e-05 5.57211933e-06
      7.31665295e-07 -1.23804311e-05 -1.90303708e-05 -8.96485290e-06
      -1.87892038e-05 -7.51677226e-06 7.10974064e-06 7.17991725e-06
      6.92025833e-06 6.10647930e-06 -7.22519189e-06 7.56220243e-06
      -4.81326970e-06 1.20171453e-05 2.80845670e-05 2.19871636e-05
      2.14941701e-05 4.06412801e-06 3.18136955e-07 1.20987323e-07
      -5.38081046e-08 9.24561405e-09 -4.02340650e-21 -4.02340650e-21
      5.71172762e-08 -4.02340650e-21 -4.02340650e-21 6.36273967e-08
      2.35311873e-07 -4.02340650e-21 2.19392605e-05 3.79798730e-05
      2.18661644e-05 2.16369681e-05 2.17603356e-05 1.01718724e-05
      -2.29357884e-05 -2.30738333e-05 -2.20422553e-05 -5.84248573e-06
      2.13370167e-05 2.15891778e-05 1.85593635e-05 1.08195536e-05
      1.06211492e-05 1.25129782e-05 1.20223958e-05 1.21006115e-05
      3.79927078e-05 3.78461082e-05 3.79435078e-05 3.79662742e-05
      3.88589534e-08 1.00609853e-07 4.36094467e-08 -2.78580430e-08
      -4.02340650e-21 -4.02340650e-21 2.35311873e-07 -4.02340650e-21
      2.54509587e-07 2.06642355e-07 5.71172762e-08 5.72281600e-08
      2.35074385e-05 3.80720594e-05 3.78603945e-05 3.78468139e-05
      2.16696499e-05 1.18768894e-05 9.27141446e-06 4.05194805e-06
      -1.10545652e-05 5.40278324e-06 8.68627740e-06 7.52563710e-06
      7.58053375e-06 2.17951983e-05 2.72551588e-05 1.17602403e-05
      1.20046980e-05 2.17205215e-05 2.18688801e-05 3.76939461e-05
      3.80431666e-05 2.34947674e-05 5.71167007e-08 8.20773494e-08
      2.16223313e-07 1.14456320e-07 -4.02340650e-21 -4.02340650e-21
      2.85586381e-08 1.14456320e-07 5.72281600e-08 6.36273967e-08
      5.72281600e-08 2.54509587e-07 1.62758151e-05 1.62249853e-05
      1.60620548e-05 1.64537869e-05 3.07844712e-05 3.90666912e-08
      -9.95443952e-06 -9.86572923e-06 6.30239856e-06 3.36339826e-06
      3.29141722e-06 4.50492416e-06 6.31003013e-06 6.32428873e-06
      6.09034714e-06 1.61956177e-05 1.62634024e-05 1.60632226e-05
      1.94238455e-05 1.95704361e-05 1.94607856e-05 1.59563242e-05
      1.62442975e-05 3.45867512e-08 -1.50266132e-07 -2.22917879e-10
      -4.02340650e-21 -4.02340650e-21 1.78083710e-07 5.71172762e-08
      -4.02340650e-21 5.72281600e-08 3.33786261e-07 8.57868017e-08
      1.60977306e-05 1.62184751e-05 1.61998432e-05 1.60725031e-05
      1.62321885e-05 6.09396182e-07 -1.18901653e-08 1.05741663e-07
      1.24460655e-07 1.60915388e-05 1.59561714e-05 1.59672163e-05
      1.61425469e-05 1.61348653e-05 1.60977306e-05 1.60877134e-05
      1.62058859e-05 1.60328873e-05 1.62119632e-05 1.61409589e-05
      1.61739172e-05 1.62872257e-05 8.25693007e-08 7.09245214e-08
      1.27498012e-07 1.35795474e-07 -4.02340650e-21 -4.02340650e-21
      2.85586381e-08 5.72281600e-08 2.85586381e-08 -4.02340650e-21
      -4.02340650e-21 -4.02340650e-21 -4.02340650e-21 3.56167419e-07
      1.60774016e-05 2.55929194e-07 -1.99446561e-07 4.17115587e-08
      -1.05345457e-07 8.45594705e-09 -7.42213402e-08 1.11007104e-07
      -8.81118680e-08 1.32127397e-07 8.36351433e-08 -1.32508671e-08
      2.66059512e-08 1.64869998e-05 -1.78892606e-07 1.62893321e-05
      1.62696397e-05 1.62912365e-05 1.63009063e-05 1.60589516e-05
      2.71976972e-07 2.48110354e-07 5.59456410e-08 1.51356232e-07
      -4.02340650e-21 -4.02340650e-21 5.72281600e-08 9.21860348e-08
      1.27254793e-07 2.28912640e-07 6.36273967e-08 1.43014958e-07
      6.36273967e-08 2.85586381e-08 -5.24133412e-08 5.44558496e-08
      6.87250576e-08 -2.00948271e-08 1.48066007e-07 -5.33880495e-08
      1.75284740e-07 -5.52440405e-08 1.18263566e-09 3.81034937e-08
      5.72281600e-08 5.89553508e-08 -9.39697173e-08 -4.70498627e-08
      6.62923512e-08 -5.64458489e-08 3.14916413e-08 5.68937857e-08
      1.74020158e-07 2.03217397e-07 -3.87782073e-08 4.98301347e-08
      2.25305232e-08 8.88570710e-08 -4.02340650e-21 -4.02340650e-21
      -4.02340650e-21 -4.02340650e-21 -4.02340650e-21 -4.02340650e-21
      -4.02340650e-21 -4.02340650e-21 -4.02340650e-21 -4.02340650e-21
      -4.02340650e-21 -4.02340650e-21 -4.02340650e-21 -4.02340650e-21
      -4.02340650e-21 -4.02340650e-21 -4.02340650e-21 -4.02340650e-21
      -4.02340650e-21 -4.02340650e-21 -4.02340650e-21 -4.02340650e-21
      -4.02340650e-21 -4.02340650e-21 -4.02340650e-21 -4.02340650e-21
      -4.02340650e-21 -4.02340650e-21 -4.02340650e-21 -4.02340650e-21
      -4.02340650e-21 -4.02340650e-21 -4.02340650e-21 -4.02340650e-21
      -4.02340650e-21 -4.02340650e-21 -4.02340650e-21 -4.02340650e-21
      -4.02340650e-21 -4.02340650e-21 -4.02340650e-21 -4.02340650e-21
      -4.02340650e-21 -4.02340650e-21 -4.02340650e-21 -4.02340650e-21
      -4.02340650e-21 -4.02340650e-21 -4.02340650e-21 -4.02340650e-21
      -4.02340650e-21 -4.02340650e-21 -4.02340650e-21 -4.02340650e-21
      -4.02340650e-21 -4.02340650e-21 -4.02340650e-21 -4.02340650e-21
      -4.02340650e-21 -4.02340650e-21 -4.02340650e-21 -4.02340650e-21
      -4.02340650e-21 -4.02340650e-21 -4.02340650e-21 -4.02340650e-21
      -4.02340650e-21 -4.02340650e-21 -4.02340650e-21 -4.02340650e-21
      -4.02340650e-21 -4.02340650e-21 -4.02340650e-21 -4.02340650e-21
      -4.02340650e-21 -4.02340650e-21 -4.02340650e-21 -4.02340650e-21
      -4.02340650e-21 -4.02340650e-21 -4.02340650e-21 -4.02340650e-21
      -4.02340650e-21 -4.02340650e-21 -4.02340650e-21 -4.02340650e-21
      -4.02340650e-21 -4.02340650e-21 -4.02340650e-21 -4.02340650e-21
      -4.02340650e-21 -4.02340650e-21 -4.02340650e-21 -4.02340650e-21
      -4.02340650e-21 -4.02340650e-21 -4.02340650e-21 -4.02340650e-21
      -4.02340650e-21 -4.02340650e-21 -4.02340650e-21 -4.02340650e-21
      -4.02340650e-21 -4.02340650e-21 -4.02340650e-21 -4.02340650e-21
      -4.02340650e-21 -4.02340650e-21 -4.02340650e-21 -4.02340650e-21
      -4.02340650e-21 -4.02340650e-21 -4.02340650e-21 -4.02340650e-21
      -4.02340650e-21 -4.02340650e-21 -4.02340650e-21 -4.02340650e-21
      -4.02340650e-21 -4.02340650e-21 -4.02340650e-21 -4.02340650e-21
      -4.02340650e-21 -4.02340650e-21 -4.02340650e-21 -4.02340650e-21
      -4.02340650e-21 -4.02340650e-21 -4.02340650e-21 -4.02340650e-21
      -4.02340650e-21 -4.02340650e-21 -4.02340650e-21 -4.02340650e-21
      -4.02340650e-21 -4.02340650e-21 -4.02340650e-21 -4.02340650e-21
      -4.02340650e-21 -4.02340650e-21 -4.02340650e-21 -4.02340650e-21
      -4.02340650e-21 -4.02340650e-21 -4.02340650e-21 -4.02340650e-21
      -4.02340650e-21 -4.02340650e-21 -4.02340650e-21 -4.02340650e-21
      -4.02340650e-21 -4.02340650e-21 -4.02340650e-21 -4.02340650e-21
      -4.02340650e-21 -4.02340650e-21 -4.02340650e-21 -4.02340650e-21
      -4.02340650e-21 -4.02340650e-21 -4.02340650e-21 -4.02340650e-21
      -4.02340650e-21 -4.02340650e-21 -4.02340650e-21 -4.02340650e-21
      -4.02340650e-21 -4.02340650e-21 -4.02340650e-21 -4.02340650e-21
      -4.02340650e-21 -4.02340650e-21 -4.02340650e-21 -4.02340650e-21
      -4.02340650e-21 -4.02340650e-21 -4.02340650e-21 -4.02340650e-21
      -4.02340650e-21 -4.02340650e-21 -4.02340650e-21 -4.02340650e-21
      -4.02340650e-21 -4.02340650e-21 -4.02340650e-21 -4.02340650e-21
      -4.02340650e-21 -4.02340650e-21 -4.02340650e-21 -4.02340650e-21
      -4.02340650e-21 -4.02340650e-21 -4.02340650e-21 -4.02340650e-21
      -4.02340650e-21 -4.02340650e-21 -4.02340650e-21 -4.02340650e-21
      -4.02340650e-21 -4.02340650e-21 -4.02340650e-21 -4.02340650e-21
      -4.02340650e-21 -4.02340650e-21 -4.02340650e-21 -4.02340650e-21
      -4.02340650e-21 -4.02340650e-21 -4.02340650e-21 -4.02340650e-21
      -4.02340650e-21 -4.02340650e-21 -4.02340650e-21 -4.02340650e-21
      -4.02340650e-21 -4.02340650e-21 -4.02340650e-21 -4.02340650e-21
      -4.02340650e-21 -4.02340650e-21 -4.02340650e-21 -4.02340650e-21
      -4.02340650e-21 -4.02340650e-21 -4.02340650e-21 -4.02340650e-21
      -4.02340650e-21 -4.02340650e-21 -4.02340650e-21 -4.02340650e-21
      -4.02340650e-21 -4.02340650e-21 -4.02340650e-21 -4.02340650e-21
      -4.02340650e-21 -4.02340650e-21 -4.02340650e-21 -4.02340650e-21
      -4.02340650e-21 -4.02340650e-21 -4.02340650e-21 -4.02340650e-21
      -4.02340650e-21 -4.02340650e-21 -4.02340650e-21 -4.02340650e-21
      -4.02340650e-21 -4.02340650e-21 -4.02340650e-21 -4.02340650e-21
      -4.02340650e-21 -4.02340650e-21 -4.02340650e-21 -4.02340650e-21
      -4.02340650e-21 -4.02340650e-21 -4.02340650e-21 -4.02340650e-21
      -4.02340650e-21 -4.02340650e-21 -4.02340650e-21 -4.02340650e-21
      -4.02340650e-21 -4.02340650e-21 -4.02340650e-21 -4.02340650e-21
      -4.02340650e-21 -4.02340650e-21 -4.02340650e-21 -4.02340650e-21
      -4.02340650e-21 -4.02340650e-21 -4.02340650e-21 -4.02340650e-21
      -4.02340650e-21 -4.02340650e-21 -4.02340650e-21 -4.02340650e-21
      -4.02340650e-21 -4.02340650e-21 -4.02340650e-21 -4.02340650e-21
      -4.02340650e-21 -4.02340650e-21 -4.02340650e-21 -4.02340650e-21
      -4.02340650e-21 -4.02340650e-21 -4.02340650e-21 -4.02340650e-21
      -4.02340650e-21 -4.02340650e-21 -4.02340650e-21 -4.02340650e-21
      -4.02340650e-21 -4.02340650e-21 -4.02340650e-21 -4.02340650e-21
      -4.02340650e-21 -4.02340650e-21 -4.02340650e-21 -4.02340650e-21
      -4.02340650e-21 -4.02340650e-21 -4.02340650e-21 -4.02340650e-21
      -4.02340650e-21 -4.02340650e-21 -4.02340650e-21 -4.02340650e-21
      -4.02340650e-21 -4.02340650e-21 -4.02340650e-21 -4.02340650e-21
      -4.02340650e-21 -4.02340650e-21 -4.02340650e-21 -4.02340650e-21
      -4.02340650e-21 -4.02340650e-21 -4.02340650e-21 -4.02340650e-21
      -4.02340650e-21 -4.02340650e-21 -4.02340650e-21 -4.02340650e-21
      -4.02340650e-21 -4.02340650e-21 -4.02340650e-21 -4.02340650e-21
      -4.02340650e-21 -4.02340650e-21 -4.02340650e-21 -4.02340650e-21
      -4.02340650e-21 -4.02340650e-21 -4.02340650e-21 -4.02340650e-21
      -4.02340650e-21 -4.02340650e-21 -4.02340650e-21 -4.02340650e-21
      -4.02340650e-21 -4.02340650e-21 -4.02340650e-21 -4.02340650e-21
      -4.02340650e-21 -4.02340650e-21 -4.02340650e-21 -4.02340650e-21
      -4.02340650e-21 -4.02340650e-21 -4.02340650e-21 -4.02340650e-21
      -4.02340650e-21 -4.02340650e-21 -4.02340650e-21 -4.02340650e-21
      -4.02340650e-21 -4.02340650e-21 -4.02340650e-21 -4.02340650e-21
      -4.02340650e-21 -4.02340650e-21 -4.02340650e-21 -4.02340650e-21
      -4.02340650e-21 -4.02340650e-21 -4.02340650e-21 -4.02340650e-21
      -4.02340650e-21 -4.02340650e-21 -4.02340650e-21 -4.02340650e-21
      -4.02340650e-21 -4.02340650e-21 -4.02340650e-21 -4.02340650e-21
      -4.02340650e-21 -4.02340650e-21 -4.02340650e-21 -4.02340650e-21
      -4.02340650e-21 -4.02340650e-21 -4.02340650e-21 -4.02340650e-21
      -4.02340650e-21 -4.02340650e-21 -4.02340650e-21 -4.02340650e-21
      -4.02340650e-21 -4.02340650e-21 -4.02340650e-21 -4.02340650e-21
      -4.02340650e-21 -4.02340650e-21 -4.02340650e-21 -4.02340650e-21
      -4.02340650e-21 -4.02340650e-21 -4.02340650e-21 -4.02340650e-21
      -4.02340650e-21 -4.02340650e-21 -4.02340650e-21 -4.02340650e-21
      -4.02340650e-21 -4.02340650e-21 -4.02340650e-21 -4.02340650e-21
      -4.02340650e-21 -4.02340650e-21 -4.02340650e-21 -4.02340650e-21
      -4.02340650e-21 -4.02340650e-21 -4.02340650e-21 -4.02340650e-21
      -4.02340650e-21 -4.02340650e-21 -4.02340650e-21 -4.02340650e-21
      -4.02340650e-21 -4.02340650e-21 -4.02340650e-21 -4.02340650e-21
      -4.02340650e-21 -4.02340650e-21 -4.02340650e-21 -4.02340650e-21
      -4.02340650e-21 -4.02340650e-21 -4.02340650e-21 -4.02340650e-21
      -4.02340650e-21 -4.02340650e-21 -4.02340650e-21 -4.02340650e-21
      -4.02340650e-21 -4.02340650e-21 -4.02340650e-21 -4.02340650e-21
      -4.02340650e-21 -4.02340650e-21 -4.02340650e-21 -4.02340650e-21
      -4.02340650e-21 -4.02340650e-21 -4.02340650e-21 -4.02340650e-21
      -4.02340650e-21 -4.02340650e-21 -4.02340650e-21 -4.02340650e-21
      -4.02340650e-21 -4.02340650e-21 -4.02340650e-21 -4.02340650e-21
      -4.02340650e-21 -4.02340650e-21 -4.02340650e-21 -4.02340650e-21
      -4.02340650e-21 -4.02340650e-21 -4.02340650e-21 -4.02340650e-21
      -4.02340650e-21 -4.02340650e-21 -4.02340650e-21 -4.02340650e-21
      -4.02340650e-21 -4.02340650e-21 -4.02340650e-21 -4.02340650e-21
      -4.02340650e-21 -4.02340650e-21 -4.02340650e-21 -4.02340650e-21
      -4.02340650e-21 -4.02340650e-21 -4.02340650e-21 -4.02340650e-21
      -4.02340650e-21 -4.02340650e-21 -4.02340650e-21 -4.02340650e-21
      -4.02340650e-21 -4.02340650e-21 -4.02340650e-21 -4.02340650e-21
      -4.02340650e-21 -4.02340650e-21 -4.02340650e-21 -4.02340650e-21
      -4.02340650e-21 -4.02340650e-21 -4.02340650e-21 -4.02340650e-21
      -4.02340650e-21 -4.02340650e-21 -4.02340650e-21 -4.02340650e-21
      -4.02340650e-21 -4.02340650e-21 -4.02340650e-21 -4.02340650e-21
      -4.02340650e-21 -4.02340650e-21 -4.02340650e-21 -4.02340650e-21
      -4.02340650e-21 -4.02340650e-21 -4.02340650e-21 -4.02340650e-21
      -4.02340650e-21 -4.02340650e-21 -4.02340650e-21 -4.02340650e-21
      -4.02340650e-21 -4.02340650e-21 -4.02340650e-21 -4.02340650e-21
      -4.02340650e-21 -4.02340650e-21 -4.02340650e-21 -4.02340650e-21
      -4.02340650e-21 -4.02340650e-21 -4.02340650e-21 -4.02340650e-21
      -4.02340650e-21 -4.02340650e-21 -4.02340650e-21 -4.02340650e-21
      -4.02340650e-21 -4.02340650e-21 -4.02340650e-21 -4.02340650e-21
      -4.02340650e-21 -4.02340650e-21 -4.02340650e-21 -4.02340650e-21
      -4.02340650e-21 -4.02340650e-21 -4.02340650e-21 -4.02340650e-21
      -4.02340650e-21 -4.02340650e-21 -4.02340650e-21 -4.02340650e-21
      -4.02340650e-21 -4.02340650e-21 -4.02340650e-21 -4.02340650e-21
      -4.02340650e-21 -4.02340650e-21 -4.02340650e-21 -4.02340650e-21
      -4.02340650e-21 -4.02340650e-21 -4.02340650e-21 -4.02340650e-21
      -4.02340650e-21 -4.02340650e-21 -4.02340650e-21 -4.02340650e-21
      -4.02340650e-21 -4.02340650e-21 -4.02340650e-21 -4.02340650e-21
      -4.02340650e-21 -4.02340650e-21 -4.02340650e-21 -4.02340650e-21
      -4.02340650e-21 -4.02340650e-21 -4.02340650e-21 -4.02340650e-21
      -4.02340650e-21 -4.02340650e-21 -4.02340650e-21 -4.02340650e-21
      -4.02340650e-21 -4.02340650e-21 -4.02340650e-21 -4.02340650e-21
      -4.02340650e-21 -4.02340650e-21 -4.02340650e-21 -4.02340650e-21
      -4.02340650e-21 -4.02340650e-21 -4.02340650e-21 -4.02340650e-21
      -4.02340650e-21 -4.02340650e-21 -4.02340650e-21 -4.02340650e-21
      -4.02340650e-21 -4.02340650e-21 -4.02340650e-21 -4.02340650e-21
      -4.02340650e-21 -4.02340650e-21 -4.02340650e-21 -4.02340650e-21
      -4.02340650e-21 -4.02340650e-21 -4.02340650e-21 -4.02340650e-21
      -4.02340650e-21 -4.02340650e-21 -4.02340650e-21 -4.02340650e-21
      -4.02340650e-21 -4.02340650e-21 -4.02340650e-21 -4.02340650e-21
      -4.02340650e-21 -4.02340650e-21 -4.02340650e-21 -4.02340650e-21
      -4.02340650e-21 -4.02340650e-21 -4.02340650e-21 -4.02340650e-21
      -4.02340650e-21 -4.02340650e-21 -4.02340650e-21 -4.02340650e-21
      -4.02340650e-21 -4.02340650e-21 -4.02340650e-21 -4.02340650e-21
      -4.02340650e-21 -4.02340650e-21 -4.02340650e-21 -4.02340650e-21
      -4.02340650e-21 -4.02340650e-21 -4.02340650e-21 -4.02340650e-21
      -4.02340650e-21 -4.02340650e-21 -4.02340650e-21 -4.02340650e-21
      -4.02340650e-21 -4.02340650e-21 -4.02340650e-21 -4.02340650e-21
      -4.02340650e-21 -4.02340650e-21 -4.02340650e-21 -4.02340650e-21
      -4.02340650e-21 -4.02340650e-21 -4.02340650e-21 -4.02340650e-21
      -4.02340650e-21 -4.02340650e-21 -4.02340650e-21 -4.02340650e-21
      -4.02340650e-21 -4.02340650e-21 -4.02340650e-21 -4.02340650e-21
      -4.02340650e-21 -4.02340650e-21 -4.02340650e-21 -4.02340650e-21
      -4.02340650e-21 -4.02340650e-21 -4.02340650e-21 -4.02340650e-21
      -4.02340650e-21 -4.02340650e-21 -4.02340650e-21 -4.02340650e-21
      -4.02340650e-21 -4.02340650e-21 -4.02340650e-21 -4.02340650e-21
      -4.02340650e-21 -4.02340650e-21 -4.02340650e-21 -4.02340650e-21
      -4.02340650e-21 -4.02340650e-21 -4.02340650e-21 -4.02340650e-21
      -4.02340650e-21 -4.02340650e-21 -4.02340650e-21 -4.02340650e-21
      -4.02340650e-21 -4.02340650e-21 -4.02340650e-21 -4.02340650e-21
      -4.02340650e-21 -4.02340650e-21 -4.02340650e-21 -4.02340650e-21
      -4.02340650e-21 -4.02340650e-21 -4.02340650e-21 -4.02340650e-21
      -4.02340650e-21 -4.02340650e-21 -4.02340650e-21 -4.02340650e-21
      -4.02340650e-21 -4.02340650e-21 -4.02340650e-21 -4.02340650e-21
      -4.02340650e-21 -4.02340650e-21 -4.02340650e-21 -4.02340650e-21
      -4.02340650e-21 -4.02340650e-21 -4.02340650e-21 -4.02340650e-21
      -4.02340650e-21 -4.02340650e-21 -4.02340650e-21 -4.02340650e-21
      -4.02340650e-21 -4.02340650e-21 -4.02340650e-21 -4.02340650e-21
      -4.02340650e-21 -4.02340650e-21 -4.02340650e-21 -4.02340650e-21
      -4.02340650e-21 -4.02340650e-21 -4.02340650e-21 -4.02340650e-21
      -4.02340650e-21 -4.02340650e-21 -4.02340650e-21 -4.02340650e-21
      -4.02340650e-21 -4.02340650e-21 -4.02340650e-21 -4.02340650e-21
      -4.02340650e-21 -4.02340650e-21 -4.02340650e-21 -4.02340650e-21
      -4.02340650e-21 -4.02340650e-21 -4.02340650e-21 -4.02340650e-21
      -4.02340650e-21 -4.02340650e-21 -4.02340650e-21 -4.02340650e-21
      -4.02340650e-21 -4.02340650e-21 -4.02340650e-21 -4.02340650e-21
      -4.02340650e-21 -4.02340650e-21 -4.02340650e-21 -4.02340650e-21
      -4.02340650e-21 -4.02340650e-21 -4.02340650e-21 -4.02340650e-21
      -4.02340650e-21 -4.02340650e-21 -4.02340650e-21 -4.02340650e-21
      -4.02340650e-21 -4.02340650e-21 -4.02340650e-21 -4.02340650e-21
      -4.02340650e-21 -4.02340650e-21 -4.02340650e-21 -4.02340650e-21
      -4.02340650e-21 -4.02340650e-21 -4.02340650e-21 -4.02340650e-21
      -4.02340650e-21 -4.02340650e-21 -4.02340650e-21 -4.02340650e-21
      -4.02340650e-21 -4.02340650e-21 -4.02340650e-21 -4.02340650e-21
      -4.02340650e-21 -4.02340650e-21 -4.02340650e-21 -4.02340650e-21
      -4.02340650e-21 -4.02340650e-21 -4.02340650e-21 -4.02340650e-21
      -4.02340650e-21 -4.02340650e-21 -4.02340650e-21 -4.02340650e-21
      -4.02340650e-21 -4.02340650e-21 -4.02340650e-21 -4.02340650e-21
      -4.02340650e-21 -4.02340650e-21 -4.02340650e-21 -4.02340650e-21
      -4.02340650e-21 -4.02340650e-21 -4.02340650e-21 -4.02340650e-21
      -4.02340650e-21 -4.02340650e-21 -4.02340650e-21 -4.02340650e-21
      -4.02340650e-21 -4.02340650e-21 -4.02340650e-21 -4.02340650e-21
      -4.02340650e-21 -4.02340650e-21 -4.02340650e-21 -4.02340650e-21
      -4.02340650e-21 -4.02340650e-21 -4.02340650e-21 -4.02340650e-21
      -4.02340650e-21 -4.02340650e-21 -4.02340650e-21 -4.02340650e-21
      -4.02340650e-21 -4.02340650e-21 -4.02340650e-21 -4.02340650e-21
      -4.02340650e-21 -4.02340650e-21 -4.02340650e-21 -4.02340650e-21
      -4.02340650e-21 -4.02340650e-21 -4.02340650e-21 -4.02340650e-21
      -4.02340650e-21 -4.02340650e-21 -4.02340650e-21 -4.02340650e-21
      -4.02340650e-21 -4.02340650e-21 -4.02340650e-21 -4.02340650e-21
      -4.02340650e-21 -4.02340650e-21 -4.02340650e-21 -4.02340650e-21
      -4.02340650e-21 -4.02340650e-21 -4.02340650e-21 -4.02340650e-21
      -4.02340650e-21 -4.02340650e-21 -4.02340650e-21 -4.02340650e-21</_>
    <_>
      -1.69406589e-20 -1.69406589e-20 -1.69406589e-20 -1.69406589e-20
      -1.69406589e-20 -1.69406589e-20 -1.69406589e-20 -1.69406589e-20
      6.13832327e-08 -1.69406589e-20 -1.10431579e-07 5.32210613e-08
      -1.69406589e-20 -1.24309558e-08 1.74678064e-07 -3.34630856e-09
      2.41871334e-07 1.82729636e-08 -1.19441808e-07 1.67579500e-07
      -1.93868086e-08 1.88985538e-07 1.23635189e-07 -2.10485098e-07
      -1.69406589e-20 -1.16590817e-08 -1.69406589e-20 -1.69406589e-20
      -1.69406589e-20 -3.88636057e-09 -1.69406589e-20 -3.88636057e-09
      -1.69406589e-20 -1.69406589e-20 -1.69406589e-20 -1.69406589e-20
      -1.69406589e-20 -1.69406589e-20 -1.69406589e-20 -1.69406589e-20
      -1.69406589e-20 -1.69406589e-20 -5.82112527e-08 1.09657329e-07
      -1.52690127e-08 -1.06651143e-07 4.95101666e-08 1.83211569e-07
      -5.35828768e-08 3.18841472e-07 1.76944809e-07 9.41713552e-08
      -3.14834629e-08 -2.30841266e-07 -1.38541703e-08 -1.53264264e-08
      -1.74583860e-07 2.79519782e-07 -1.69406589e-20 -7.77272113e-09
      -1.69406589e-20 -1.69406589e-20 -1.16590817e-08 -1.69406589e-20
      -1.94318037e-08 -1.69406589e-20 -1.69406589e-20 -1.69406589e-20
      -1.69406589e-20 -1.69406589e-20 -1.69406589e-20 -1.69406589e-20
      -1.69406589e-20 -1.69406589e-20 -1.69406589e-20 -1.69406589e-20
      1.35239047e-08 3.63991575e-08 -1.06878623e-07 1.96976330e-07
      5.65594718e-08 -2.13316724e-08 9.96760150e-08 -9.82702275e-08
      6.89059263e-08 3.20376756e-07 -1.21266368e-07 2.26075784e-07
      3.41366828e-08 1.40437661e-08 -7.88250532e-08 -4.83627183e-08
      -7.77272113e-09 -3.88636057e-09 -3.88636057e-09 -1.69406589e-20
      -1.69406589e-20 -3.88636057e-09 -1.69406589e-20 -7.77272113e-09
      -1.69406589e-20 -1.69406589e-20 -1.69406589e-20 -1.69406589e-20
      -1.69406589e-20 -1.69406589e-20 -1.69406589e-20 -1.69406589e-20
      -1.69406589e-20 -1.69406589e-20 8.04280802e-08 -5.95036163e-08
      1.00985773e-07 -6.34119885e-08 4.84846119e-09 -1.99582875e-08
      1.21404597e-07 4.21123829e-08 -9.34716340e-08 -1.51958631e-07
      -2.77212315e-08 -2.27954288e-07 3.53004559e-08 -8.26185271e-08
      5.57257138e-08 5.33514211e-08 -1.69406589e-20 -1.69406589e-20
      -1.69406589e-20 -7.77272113e-09 -1.69406589e-20 -1.69406589e-20
      -1.69406589e-20 -7.77272113e-09 -1.69406589e-20 -1.69406589e-20
      -1.69406589e-20 -1.69406589e-20 -1.69406589e-20 -1.69406589e-20
      -1.69406589e-20 -1.69406589e-20 -1.69406589e-20 -1.69406589e-20
      -3.82947505e-08 -3.59116648e-08 3.02782794e-08 2.38937918e-08
      1.84270107e-07 -9.08949289e-08 1.60993103e-08 2.36484503e-08
      3.12656965e-07 1.19565257e-07 1.85506778e-07 -4.22550066e-08
      -1.43807908e-08 -1.13265124e-07 -1.52958464e-08 -2.31777108e-07
      -3.88636057e-09 -3.88636057e-09 -7.77272113e-09 -1.69406589e-20
      -3.88636057e-09 -1.69406589e-20 -1.69406589e-20 -1.69406589e-20
      -1.69406589e-20 -1.69406589e-20 -1.69406589e-20 -1.69406589e-20
      -1.69406589e-20 -1.69406589e-20 -1.69406589e-20 -1.69406589e-20
      -1.69406589e-20 -1.69406589e-20 2.92817912e-08 -4.71504507e-08
      -1.08475602e-08 9.75637793e-09 1.39464206e-07 1.98005196e-07
      -1.69406589e-20 -1.21397861e-08 -3.88397829e-08 -3.10703882e-07
      7.68995889e-08 3.11079589e-07 -3.55872430e-07 1.00111890e-07
      -3.98406108e-08 1.33007205e-08 -1.69406589e-20 -1.69406589e-20
      -1.69406589e-20 -1.55454423e-08 -1.69406589e-20 -1.69406589e-20
      -7.77272113e-09 -1.69406589e-20 -1.69406589e-20 -1.69406589e-20
      -1.69406589e-20 -1.69406589e-20 -1.69406589e-20 -1.69406589e-20
      -1.69406589e-20 -1.69406589e-20 -1.69406589e-20 -1.69406589e-20
      -1.51749902e-07 8.39565146e-08 -2.49343532e-08 3.40388715e-06
      8.39566894e-07 2.07155135e-05 2.40417521e-05 1.42821254e-05
      1.17554882e-05 -4.49424442e-06 -6.87217835e-06 -2.96537860e-06
      -1.57540526e-05 -1.06429161e-05 -9.78242383e-07 -4.23432951e-08
      -3.88636057e-09 -3.88636057e-09 -1.69406589e-20 -1.69406589e-20
      -1.69406589e-20 -3.88636057e-09 -1.16590817e-08 -1.69406589e-20
      -1.69406589e-20 -1.69406589e-20 -1.69406589e-20 -1.69406589e-20
      -1.69406589e-20 -1.69406589e-20 -1.69406589e-20 -1.69406589e-20
      -1.69406589e-20 -1.69406589e-20 -1.69406589e-20 -1.08508829e-08
      8.77885952e-07 8.91932905e-06 2.33760966e-05 6.83226608e-06
      7.02669331e-06 6.90869911e-06 -5.96816037e-08 -1.51742896e-07
      2.23872809e-09 -2.98273584e-08 2.17598156e-07 -2.34707550e-05
      -2.03661293e-05 -1.37680545e-05 -9.91021921e-07 -3.88636057e-09
      -1.69406589e-20 -1.69406589e-20 -7.77272113e-09 -1.69406589e-20
      -1.69406589e-20 -3.88636057e-09 -1.69406589e-20 -1.69406589e-20
      -4.43727615e-08 3.72914926e-08 -2.21848495e-07 3.88266130e-08
      1.38956949e-07 -2.01843406e-07 -3.24735012e-08 -7.45380930e-08
      -3.73083182e-08 -2.22361609e-06 8.68597363e-06 7.00611054e-06
      6.88309956e-06 7.02861644e-06 -1.12220228e-07 5.67650282e-08
      2.37925697e-08 4.97148989e-08 2.84170358e-08 1.26713886e-07
      -1.19166103e-07 5.51008661e-08 -6.17082333e-06 -2.05357119e-05
      -1.36665140e-05 2.84194442e-07 -2.65319748e-08 -7.94268118e-08
      -3.11369845e-08 1.19845765e-07 -2.21291927e-07 2.99936986e-09
      -1.69406589e-20 -1.69406589e-20 1.25667148e-08 -2.01882131e-07
      2.47133812e-07 -1.31099341e-07 7.61181056e-08 1.90593838e-07
      -7.61697834e-08 -2.06101944e-08 1.12996195e-05 8.54897007e-06
      6.74742159e-06 -4.52752236e-09 -1.39676732e-08 -2.25321495e-09
      -1.15477205e-05 -1.15725725e-05 -1.16471156e-05 -1.15426383e-05
      -1.17160571e-05 -1.16533165e-05 -1.17228255e-05 -1.59826072e-07
      1.45495051e-07 -1.31770112e-05 -9.40157679e-06 -2.33920200e-05
      -1.02041653e-07 2.98238874e-08 2.72554615e-07 1.44002099e-08
      1.33371643e-07 -1.17151295e-07 -1.69406589e-20 -1.69406589e-20
      -1.53172650e-07 1.34237681e-07 -2.09717641e-07 3.41015863e-07
      1.06729052e-08 1.22275182e-07 -2.19163525e-07 1.78525329e-06
      1.24597263e-05 6.97062706e-06 -8.88328131e-08 1.36853799e-07
      -5.18872184e-06 -1.31135666e-05 8.75518765e-07 -3.42672001e-06
      7.81755989e-06 1.24377939e-05 3.61734010e-06 2.79684878e-06
      8.33138711e-06 -1.07382857e-05 8.90108595e-07 9.61740284e-07
      4.84145494e-06 -2.39331675e-05 -1.01501746e-06 5.96311889e-09
      -3.87616765e-08 -1.70387138e-09 2.16617266e-08 -3.72275579e-08
      -1.69406589e-20 -1.69406589e-20 -1.47594136e-07 -4.81693867e-08
      -5.89320166e-08 -4.18854427e-08 -1.12369833e-07 -1.52066107e-07
      8.52893791e-08 2.61844998e-05 1.83932007e-05 -1.88078928e-07
      2.01904570e-07 1.77764941e-05 2.70818055e-05 1.70309033e-06
      1.32780542e-05 8.55546386e-06 8.50634297e-06 1.37669040e-05
      1.20707900e-05 4.26626821e-06 4.19493244e-06 8.22089623e-06
      -1.48329218e-05 9.69564780e-07 -1.77346955e-08 1.81416272e-05
      -1.91561321e-06 -9.49289429e-08 2.17857149e-07 1.57124333e-07
      -4.25887663e-07 2.21943338e-07 -1.69406589e-20 -1.69406589e-20
      5.11244664e-08 1.28362018e-07 -1.00454862e-07 4.11294423e-07
      4.48070061e-08 1.70576399e-07 3.04939131e-05 8.45282648e-06
      4.13366337e-08 -1.49154772e-07 2.29862493e-08 1.65254478e-05
      2.20107097e-07 1.68461356e-05 1.18594671e-05 1.14992126e-05
      1.49624038e-05 1.54030986e-05 1.53046003e-05 1.53817127e-05
      4.03989288e-05 1.60780000e-05 1.85525805e-05 4.68403591e-08
      -3.89771913e-08 -1.21260527e-07 -2.43999530e-05 2.09881705e-06
      -4.26204352e-08 -3.16795166e-07 2.25252435e-07 -3.84374545e-07
      -1.69406589e-20 -1.69406589e-20 1.79312849e-08 1.60642074e-07
      1.36492417e-08 -1.04118456e-07 -3.26203605e-07 -3.53753542e-08
      6.34275739e-06 8.56183578e-06 -8.47044745e-08 3.09783346e-08
      -1.48684407e-07 5.01308796e-06 1.69221785e-05 1.18727748e-05
      1.17255968e-05 1.13856495e-05 1.18242024e-05 1.17755462e-05
      1.18250236e-05 1.51759950e-05 1.49966199e-05 2.66874267e-05
      3.35278964e-05 1.58845680e-07 3.73289666e-08 -1.60137034e-07
      -7.38097924e-06 -1.77800957e-05 -4.45747276e-07 -1.37628593e-08
      4.91975491e-08 9.58297974e-08 -1.69406589e-20 -1.69406589e-20
      -1.15748293e-07 -1.22731123e-07 -2.17799141e-07 2.56196302e-07
      9.79145938e-08 -4.95035181e-07 -8.84123710e-06 -2.75429193e-05
      -9.92029800e-06 -2.54883034e-05 -2.53132748e-05 3.12964403e-06
      1.16794135e-05 -1.38164864e-07 -1.05408553e-07 9.16655765e-08
      8.16781522e-08 8.52133084e-08 -5.29303293e-07 -2.31420643e-07
      3.86310512e-06 1.95736247e-05 3.77917568e-05 1.57660379e-05
      -6.48558540e-08 -1.29924345e-07 1.34234006e-05 -1.74548713e-05
      9.87983526e-08 6.03160117e-08 -7.06859282e-08 -1.96195899e-07
      -1.69406589e-20 -1.69406589e-20 -8.92525449e-08 -1.84990611e-07
      1.00351393e-07 -1.19428947e-07 -2.38271781e-07 9.40001286e-08
      -2.22935523e-05 -4.67652208e-05 -2.55444556e-05 -3.47948298e-05
      -1.69040231e-05 1.60495874e-05 -5.11243670e-08 2.49447766e-07
      -1.57399427e-07 2.20656293e-08 -2.35720443e-09 -1.14457180e-07
      1.50408823e-07 7.98802375e-08 -1.23378030e-07 1.30723092e-05
      3.78893164e-05 2.02068532e-05 -3.81384559e-08 1.08320371e-07
      1.22985784e-05 -1.95505163e-05 -9.65028812e-06 -5.04982225e-08
      -1.68974481e-07 6.47365113e-08 -1.69406589e-20 -1.69406589e-20
      -1.76644370e-08 -1.93376462e-08 -1.17010517e-08 2.11280931e-08
      -1.28857479e-07 -1.17010517e-08 -2.10706385e-05 -5.04448071e-05
      -5.02739240e-05 -5.02842813e-05 -3.24783323e-05 -9.90008903e-06
      1.34370666e-07 1.60879061e-08 -1.69406589e-20 1.23672237e-07
      6.98042868e-08 4.88605068e-08 -4.25034301e-08 1.20424900e-07
      -9.70908545e-08 9.49557943e-06 2.06174518e-05 1.07450605e-05
      -5.36361977e-09 -3.95940774e-08 1.79943981e-05 -1.95668399e-05
      -9.45374359e-06 2.91305440e-07 9.58899946e-08 4.23092139e-08
      -1.69406589e-20 -1.69406589e-20 -5.37154818e-08 2.48335308e-08
      -1.53376547e-07 -3.30709256e-08 -1.95461851e-07 -1.64956717e-07
      -2.29154830e-05 -5.58265383e-05 -5.56810701e-05 -5.56189480e-05
      -3.28281567e-05 2.46178644e-07 -4.53308644e-08 1.65418008e-08
      6.06749353e-08 1.63717985e-07 7.00687330e-09 -2.01006092e-08
      3.04226369e-08 7.50917550e-08 1.28326434e-07 4.43092677e-06
      2.07150479e-05 1.16054844e-05 -1.16909132e-05 1.23263803e-07
      1.20649420e-05 -1.88436570e-05 -1.12491854e-07 5.73588608e-08
      3.23532134e-07 -3.39760113e-08 -1.69406589e-20 -1.69406589e-20
      -5.45598660e-08 4.83539264e-10 -5.82510680e-08 -6.14711411e-08
      -9.01257380e-09 -3.10386987e-08 -2.30921378e-05 -5.58233151e-05
      -5.55940205e-05 -5.54924773e-05 -2.97240349e-05 -1.03059421e-07
      3.04075996e-07 5.77193724e-08 -1.44202739e-08 -3.81280678e-08
      2.11092740e-07 7.53432019e-08 1.86288247e-07 3.56320413e-07
      -6.43517808e-08 2.92490149e-05 2.08254878e-05 -4.30743512e-06
      -1.63912830e-07 -2.08846913e-07 8.04638057e-06 -1.40131242e-05
      5.56628699e-08 -3.00007287e-07 2.65623612e-07 -5.35489804e-08
      -1.69406589e-20 -1.69406589e-20 -9.66882308e-09 -1.69406589e-20
      -6.33843058e-08 9.54793311e-09 -9.96128762e-08 4.24979696e-08
      -2.29565467e-05 -5.58070824e-05 -5.56111154e-05 -5.57662133e-05
      -2.88474002e-05 -3.46725386e-08 7.09384977e-08 1.91274282e-07
      6.20301535e-08 1.02619360e-07 -1.87922438e-07 3.32337926e-08
      8.34298888e-08 -7.48695825e-08 1.98540620e-05 3.52947354e-05
      1.70148560e-05 -7.36673246e-06 -1.70438088e-05 -1.18298772e-07
      -2.55315936e-05 -7.28927080e-06 -4.98597963e-08 -5.40287317e-08
      -1.14336316e-07 7.25149363e-08 -1.69406589e-20 -1.69406589e-20
      -2.55409880e-08 -7.19843456e-08 -1.70815269e-07 -8.09278546e-08
      -7.09672534e-08 -1.37744337e-07 -3.66401400e-05 -5.58866996e-05
      -5.55941151e-05 -5.57992644e-05 -2.70019336e-05 -2.19005010e-08
      6.86009543e-08 1.12788371e-07 1.53525962e-05 1.54889331e-05
      1.55371217e-05 1.55890684e-05 1.55677681e-05 1.99391361e-05
      3.50437331e-05 3.47409659e-05 1.70616840e-05 -7.00209921e-06
      -1.71381507e-05 -2.54425613e-05 -7.58317628e-06 2.27308601e-06
      1.70513275e-07 1.68655959e-07 -3.60679242e-09 -6.50475087e-08
      -1.69406589e-20 -1.69406589e-20 4.83539264e-10 -3.30709256e-08
      -3.71211506e-08 -9.57299093e-08 -1.38645362e-07 -1.20890631e-10
      -3.89506422e-05 -5.57800922e-05 -5.56617815e-05 -5.54500875e-05
      -2.89871568e-05 -2.60768417e-07 1.50503681e-07 1.53062956e-05
      2.11296137e-05 2.13047570e-05 2.11083643e-05 2.91822544e-05
      2.91359211e-05 3.82673388e-05 5.57282656e-05 5.57588501e-05
      2.57449028e-05 -1.73866210e-05 -3.11932272e-05 -2.56745680e-05
      -3.86192587e-05 -6.14162809e-06 1.72604388e-07 -5.73135175e-08
      2.88236180e-07 2.18118402e-07 -1.69406589e-20 -1.69406589e-20
      -1.07430964e-07 6.33861106e-08 -3.86752923e-08 6.37469526e-08
      -2.20051803e-07 -1.69406589e-20 -2.84279377e-05 -5.58477877e-05
      -5.55834595e-05 -5.56905325e-05 -1.93253054e-05 2.02718553e-07
      1.56937986e-05 2.33771461e-05 3.85870517e-05 3.85515086e-05
      3.86852589e-05 5.01206123e-05 5.02667863e-05 5.56457308e-05
      5.55287224e-05 5.56318773e-05 2.54170936e-05 -2.70716828e-05
      -3.49843212e-05 -3.48296016e-05 -3.85153762e-05 -1.64272587e-05
      2.87209634e-08 2.81924116e-07 6.76695393e-08 -1.44638676e-07
      -1.69406589e-20 -1.69406589e-20 -7.75748621e-09 -7.31721954e-08
      -1.01693296e-07 -7.50853530e-08 -1.28976538e-07 -3.10386987e-08
      -3.89999295e-05 -5.58156789e-05 -5.56738160e-05 -5.56233063e-05
      -2.63899019e-05 9.07841411e-08 1.53616929e-05 3.86899665e-05
      5.56302475e-05 5.58067914e-05 5.56281921e-05 5.57507301e-05
      5.56284722e-05 5.58385073e-05 5.19034293e-05 5.21360744e-05
      2.85607166e-05 -3.28244241e-05 -4.04416314e-05 -3.86880674e-05
      -4.41350894e-05 -1.67137896e-05 4.83843863e-08 2.12473807e-07
      8.96807251e-08 2.00788307e-07 -1.69406589e-20 -1.69406589e-20
      -1.79824973e-08 -1.69406589e-20 6.21420826e-09 -1.69406589e-20
      -1.98403825e-07 -7.69165140e-08 -3.72963732e-05 -5.58866996e-05
      -5.57535277e-05 -5.57397470e-05 -1.66718091e-05 2.84598514e-07
      1.31038487e-05 4.40679978e-05 5.57437743e-05 5.57162421e-05
      5.58204883e-05 5.53170103e-05 5.21610709e-05 5.20784124e-05
